FANN_FLO_2.1
num_layers=5
learning_rate=0.700000
connection_rate=0.500000
network_type=0
learning_momentum=0.000000
training_algorithm=2
train_error_function=1
train_stop_function=0
cascade_output_change_fraction=0.010000
quickprop_decay=-0.000100
quickprop_mu=1.750000
rprop_increase_factor=1.225000
rprop_decrease_factor=0.325000
rprop_delta_min=-10.000000
rprop_delta_max=10.000000
rprop_delta_zero=0.100000
cascade_output_stagnation_epochs=12
cascade_candidate_change_fraction=0.010000
cascade_candidate_stagnation_epochs=12
cascade_max_out_epochs=150
cascade_max_cand_epochs=150
cascade_num_candidate_groups=2
bit_fail_limit=1.00000000000000005551e-01
cascade_candidate_limit=1.00000000000000000000e+03
cascade_weight_multiplier=4.00000000000000022204e-01
cascade_activation_functions_count=10
cascade_activation_functions=3 5 7 8 10 11 14 15 16 17 
cascade_activation_steepnesses_count=4
cascade_activation_steepnesses=2.50000000000000000000e-01 5.00000000000000000000e-01 7.50000000000000000000e-01 1.00000000000000000000e+00 
layer_sizes=143 16 17 18 4 
scale_included=0
neurons (num_inputs, activation_function, activation_steepness)=(0, 0, 0.00000000000000000000e+00) (0, 0, 0.00000000000000000000e+00) (0, 0, 0.00000000000000000000e+00) (0, 0, 0.00000000000000000000e+00) (0, 0, 0.00000000000000000000e+00) (0, 0, 0.00000000000000000000e+00) (0, 0, 0.00000000000000000000e+00) (0, 0, 0.00000000000000000000e+00) (0, 0, 0.00000000000000000000e+00) (0, 0, 0.00000000000000000000e+00) (0, 0, 0.00000000000000000000e+00) (0, 0, 0.00000000000000000000e+00) (0, 0, 0.00000000000000000000e+00) (0, 0, 0.00000000000000000000e+00) (0, 0, 0.00000000000000000000e+00) (0, 0, 0.00000000000000000000e+00) (0, 0, 0.00000000000000000000e+00) (0, 0, 0.00000000000000000000e+00) (0, 0, 0.00000000000000000000e+00) (0, 0, 0.00000000000000000000e+00) (0, 0, 0.00000000000000000000e+00) (0, 0, 0.00000000000000000000e+00) (0, 0, 0.00000000000000000000e+00) (0, 0, 0.00000000000000000000e+00) (0, 0, 0.00000000000000000000e+00) (0, 0, 0.00000000000000000000e+00) (0, 0, 0.00000000000000000000e+00) (0, 0, 0.00000000000000000000e+00) (0, 0, 0.00000000000000000000e+00) (0, 0, 0.00000000000000000000e+00) (0, 0, 0.00000000000000000000e+00) (0, 0, 0.00000000000000000000e+00) (0, 0, 0.00000000000000000000e+00) (0, 0, 0.00000000000000000000e+00) (0, 0, 0.00000000000000000000e+00) (0, 0, 0.00000000000000000000e+00) (0, 0, 0.00000000000000000000e+00) (0, 0, 0.00000000000000000000e+00) (0, 0, 0.00000000000000000000e+00) (0, 0, 0.00000000000000000000e+00) (0, 0, 0.00000000000000000000e+00) (0, 0, 0.00000000000000000000e+00) (0, 0, 0.00000000000000000000e+00) (0, 0, 0.00000000000000000000e+00) (0, 0, 0.00000000000000000000e+00) (0, 0, 0.00000000000000000000e+00) (0, 0, 0.00000000000000000000e+00) (0, 0, 0.00000000000000000000e+00) (0, 0, 0.00000000000000000000e+00) (0, 0, 0.00000000000000000000e+00) (0, 0, 0.00000000000000000000e+00) (0, 0, 0.00000000000000000000e+00) (0, 0, 0.00000000000000000000e+00) (0, 0, 0.00000000000000000000e+00) (0, 0, 0.00000000000000000000e+00) (0, 0, 0.00000000000000000000e+00) (0, 0, 0.00000000000000000000e+00) (0, 0, 0.00000000000000000000e+00) (0, 0, 0.00000000000000000000e+00) (0, 0, 0.00000000000000000000e+00) (0, 0, 0.00000000000000000000e+00) (0, 0, 0.00000000000000000000e+00) (0, 0, 0.00000000000000000000e+00) (0, 0, 0.00000000000000000000e+00) (0, 0, 0.00000000000000000000e+00) (0, 0, 0.00000000000000000000e+00) (0, 0, 0.00000000000000000000e+00) (0, 0, 0.00000000000000000000e+00) (0, 0, 0.00000000000000000000e+00) (0, 0, 0.00000000000000000000e+00) (0, 0, 0.00000000000000000000e+00) (0, 0, 0.00000000000000000000e+00) (0, 0, 0.00000000000000000000e+00) (0, 0, 0.00000000000000000000e+00) (0, 0, 0.00000000000000000000e+00) (0, 0, 0.00000000000000000000e+00) (0, 0, 0.00000000000000000000e+00) (0, 0, 0.00000000000000000000e+00) (0, 0, 0.00000000000000000000e+00) (0, 0, 0.00000000000000000000e+00) (0, 0, 0.00000000000000000000e+00) (0, 0, 0.00000000000000000000e+00) (0, 0, 0.00000000000000000000e+00) (0, 0, 0.00000000000000000000e+00) (0, 0, 0.00000000000000000000e+00) (0, 0, 0.00000000000000000000e+00) (0, 0, 0.00000000000000000000e+00) (0, 0, 0.00000000000000000000e+00) (0, 0, 0.00000000000000000000e+00) (0, 0, 0.00000000000000000000e+00) (0, 0, 0.00000000000000000000e+00) (0, 0, 0.00000000000000000000e+00) (0, 0, 0.00000000000000000000e+00) (0, 0, 0.00000000000000000000e+00) (0, 0, 0.00000000000000000000e+00) (0, 0, 0.00000000000000000000e+00) (0, 0, 0.00000000000000000000e+00) (0, 0, 0.00000000000000000000e+00) (0, 0, 0.00000000000000000000e+00) (0, 0, 0.00000000000000000000e+00) (0, 0, 0.00000000000000000000e+00) (0, 0, 0.00000000000000000000e+00) (0, 0, 0.00000000000000000000e+00) (0, 0, 0.00000000000000000000e+00) (0, 0, 0.00000000000000000000e+00) (0, 0, 0.00000000000000000000e+00) (0, 0, 0.00000000000000000000e+00) (0, 0, 0.00000000000000000000e+00) (0, 0, 0.00000000000000000000e+00) (0, 0, 0.00000000000000000000e+00) (0, 0, 0.00000000000000000000e+00) (0, 0, 0.00000000000000000000e+00) (0, 0, 0.00000000000000000000e+00) (0, 0, 0.00000000000000000000e+00) (0, 0, 0.00000000000000000000e+00) (0, 0, 0.00000000000000000000e+00) (0, 0, 0.00000000000000000000e+00) (0, 0, 0.00000000000000000000e+00) (0, 0, 0.00000000000000000000e+00) (0, 0, 0.00000000000000000000e+00) (0, 0, 0.00000000000000000000e+00) (0, 0, 0.00000000000000000000e+00) (0, 0, 0.00000000000000000000e+00) (0, 0, 0.00000000000000000000e+00) (0, 0, 0.00000000000000000000e+00) (0, 0, 0.00000000000000000000e+00) (0, 0, 0.00000000000000000000e+00) (0, 0, 0.00000000000000000000e+00) (0, 0, 0.00000000000000000000e+00) (0, 0, 0.00000000000000000000e+00) (0, 0, 0.00000000000000000000e+00) (0, 0, 0.00000000000000000000e+00) (0, 0, 0.00000000000000000000e+00) (0, 0, 0.00000000000000000000e+00) (0, 0, 0.00000000000000000000e+00) (0, 0, 0.00000000000000000000e+00) (0, 0, 0.00000000000000000000e+00) (0, 0, 0.00000000000000000000e+00) (0, 0, 0.00000000000000000000e+00) (0, 0, 0.00000000000000000000e+00) (0, 0, 0.00000000000000000000e+00) (0, 0, 0.00000000000000000000e+00) (0, 0, 0.00000000000000000000e+00) (72, 11, 5.00000000000000000000e-01) (72, 11, 5.00000000000000000000e-01) (72, 11, 5.00000000000000000000e-01) (72, 11, 5.00000000000000000000e-01) (72, 11, 5.00000000000000000000e-01) (72, 11, 5.00000000000000000000e-01) (72, 11, 5.00000000000000000000e-01) (72, 11, 5.00000000000000000000e-01) (72, 11, 5.00000000000000000000e-01) (72, 11, 5.00000000000000000000e-01) (72, 11, 5.00000000000000000000e-01) (72, 11, 5.00000000000000000000e-01) (72, 11, 5.00000000000000000000e-01) (72, 11, 5.00000000000000000000e-01) (72, 11, 5.00000000000000000000e-01) (0, 11, 0.00000000000000000000e+00) (8, 11, 5.00000000000000000000e-01) (9, 11, 5.00000000000000000000e-01) (8, 11, 5.00000000000000000000e-01) (9, 11, 5.00000000000000000000e-01) (8, 11, 5.00000000000000000000e-01) (9, 11, 5.00000000000000000000e-01) (8, 11, 5.00000000000000000000e-01) (9, 11, 5.00000000000000000000e-01) (8, 11, 5.00000000000000000000e-01) (9, 11, 5.00000000000000000000e-01) (8, 11, 5.00000000000000000000e-01) (9, 11, 5.00000000000000000000e-01) (8, 11, 5.00000000000000000000e-01) (9, 11, 5.00000000000000000000e-01) (8, 11, 5.00000000000000000000e-01) (9, 11, 5.00000000000000000000e-01) (0, 11, 0.00000000000000000000e+00) (9, 11, 5.00000000000000000000e-01) (9, 11, 5.00000000000000000000e-01) (9, 11, 5.00000000000000000000e-01) (9, 11, 5.00000000000000000000e-01) (9, 11, 5.00000000000000000000e-01) (9, 11, 5.00000000000000000000e-01) (9, 11, 5.00000000000000000000e-01) (9, 11, 5.00000000000000000000e-01) (9, 11, 5.00000000000000000000e-01) (9, 11, 5.00000000000000000000e-01) (9, 11, 5.00000000000000000000e-01) (9, 11, 5.00000000000000000000e-01) (9, 11, 5.00000000000000000000e-01) (9, 11, 5.00000000000000000000e-01) (9, 11, 5.00000000000000000000e-01) (9, 11, 5.00000000000000000000e-01) (9, 11, 5.00000000000000000000e-01) (0, 11, 0.00000000000000000000e+00) (9, 11, 5.00000000000000000000e-01) (10, 11, 5.00000000000000000000e-01) (10, 11, 5.00000000000000000000e-01) (0, 11, 0.00000000000000000000e+00) 
connections (connected_to_neuron, weight)=(142, 2.75614342933148348536e-01) (20, 2.05822633734370707970e+00) (28, 3.07527367001140472524e+00) (43, 1.26130863723722108638e+00) (79, -1.32029632855457823570e-01) (108, -2.30921740863294822077e+00) (130, -1.08279168519742086119e+00) (31, -8.67914362635095470999e-01) (18, 1.50000000000000000000e+03) (73, 4.07446538749890396769e-01) (127, 3.37321357088192774754e-02) (139, -3.26402013649446320898e-01) (89, 1.50000000000000000000e+03) (97, 1.69270087120701545613e-01) (41, 3.96654913117636453990e-01) (99, -9.98227595195417705121e-01) (46, -2.76108040032961632448e-01) (26, 3.88629429108349397359e-02) (10, 2.58257327513169654409e+00) (22, 1.84420536074683255601e-02) (23, -7.96642970132987876530e-02) (81, -3.34070316427463598341e-01) (96, 3.61857748840523296696e-01) (114, 3.42101052560772878053e+00) (71, 8.41342648141874960288e+00) (94, 5.44552621918795498601e+00) (11, 1.26575700354741993436e+00) (39, 1.12834130232243312619e-01) (84, -5.28015560193153765667e-01) (38, 3.38409828436350368364e-01) (115, -4.85385576845160870985e-01) (40, -2.39365837171013895457e-01) (63, 1.02959230733332773866e+00) (124, 3.85566759469969710938e-01) (82, 3.01254370350076627894e-01) (52, 1.70430744265999423170e+00) (93, 8.17293708295800391816e-01) (19, 1.50000000000000000000e+03) (30, -1.70617281225219108443e+00) (92, 9.20037772222507266306e-01) (32, 3.39012364575304245284e-02) (35, -2.11189791312645057386e-02) (119, -1.78275033836698981737e+00) (105, 2.81506138680268103158e+00) (112, 2.60905354825457680423e-01) (133, -3.44977340486595451807e-01) (68, 7.55260204300716164738e-01) (55, 6.31958808657443055212e-02) (134, -1.61292287966920161457e-01) (107, -3.81155448776311300829e-01) (59, -2.94037480773782888832e-01) (2, -8.28851736601698085849e+00) (80, -6.26841396684466700684e-01) (53, 2.00099708650410129662e-02) (85, 4.81903364958379487604e-01) (123, 8.85791674359545200268e-01) (12, 1.70859825238565266048e+00) (126, 2.20074372997596828805e-01) (56, -1.54640195852719902758e-01) (141, 3.20844479210637412159e-02) (58, 2.86403235811936579536e-02) (24, 1.41280335388593636381e-01) (90, 1.50000000000000000000e+03) (66, -7.05909604979666371882e-01) (48, 4.32737315166344416184e+00) (101, -4.63803078854836070555e-01) (45, 1.28960692744954003031e-01) (72, 6.82127980006445366890e-01) (113, 1.08731096231785312467e-01) (131, 1.16713288454222283153e-01) (33, -3.90519457418601001475e-01) (70, -6.89783870141944394083e-02) (142, -3.28378712273375006347e-01) (8, 3.60463903380027650414e-01) (11, 8.83046697296878235761e-01) (13, 1.31828409509649580045e-01) (21, 5.04039278347956032356e-01) (68, -1.13938699145062827256e+00) (69, -1.08083034031929647867e+00) (71, -1.22562000009795513122e+00) (91, -7.90622236819233603633e-01) (96, -4.54233704802729576500e+00) (103, -4.75138410524962084835e-01) (105, 1.51384906040121292037e+00) (116, -3.18603731808044465801e-01) (137, -3.45307195918727771744e-01) (139, 1.31658146792619712429e+00) (2, 4.39136019850009218235e-01) (59, -9.27817247331775063479e-01) (62, 6.75984733185125752364e-01) (85, -3.87634129514852154852e-01) (115, -1.04074179080894291261e+00) (26, 1.24061128800305398023e+00) (74, 1.70326735288056141382e-01) (47, -3.27424889617289549548e+00) (56, 1.79677151361903042481e-01) (129, 3.13361618732190816417e-01) (23, -5.20840728708243938527e-02) (48, -6.88046965951864403221e-02) (86, -1.53738798604331317055e-01) (130, -2.16431230445453737232e+00) (30, 9.97312434007141868086e-01) (84, 2.22110245800791350490e+00) (51, 1.85122323574206149033e+00) (136, 9.71006837382955789728e-01) (88, 1.50000000000000000000e+03) (131, 1.39163741700310672478e+00) (22, -7.90455180254595712874e-01) (90, 1.50000000000000000000e+03) (70, 6.33553990884051621002e-01) (72, 2.79069017420093334891e+00) (63, 1.05760848614013536206e+00) (61, 6.12147601877133795689e-01) (132, 5.76693701494336713465e-02) (39, 1.33713907297424916543e+00) (111, -4.43412032669364353232e-01) (37, -5.79681952623039078998e-02) (101, -1.51443204521924301709e+00) (66, 6.43214842261720431971e-01) (14, -1.34197486565631507460e+00) (31, 2.07734817973658884849e-02) (5, -1.96202194685661912565e-01) (108, -2.88600808203043179834e-01) (9, 2.01925672961550439766e+00) (125, 1.11722648169188110145e+00) (44, 7.79374711766564365334e-01) (135, 6.23727954291134034648e-01) (24, 6.19666394866665193319e-01) (53, 5.43661276126025772015e-01) (46, -4.93904204208740482684e-01) (6, 3.60172217662683702422e-01) (119, -5.02792260329557483267e-01) (27, -1.86075506021370706833e+00) (122, 3.75954941449279678167e+00) (0, -1.65827405897744628582e+00) (20, -1.37672887769903468103e-01) (134, -5.53758355729342399698e-01) (107, -1.81745637164958173670e-01) (50, 4.86761293648225012998e-01) (104, -3.32832078919532092787e-01) (54, 1.47814967035253963523e+00) (52, 2.08470428719254474714e-01) (113, 3.35673440803588907233e-01) (73, -2.57481741969959251892e-02) (142, 3.49663584075353750524e-01) (4, -1.48534316436439550735e-01) (80, -7.67876230890433553178e-01) (126, -6.75136148200297797617e-02) (55, -1.52030427462219886597e-02) (108, 2.49506677741662324932e-01) (128, 6.68493760489907370981e-03) (113, -1.59644812323968127155e-01) (27, 4.88912335331175840203e-01) (109, -1.81835756338168341717e-01) (69, -7.00323798446861600642e-02) (40, 5.66554991538496463543e-02) (94, 7.66323522256290523558e-01) (127, -1.99647391031702661768e-02) (21, -4.97665482118738108919e-02) (101, -2.26569950668701530772e-01) (96, 3.31035674235021615264e-01) (133, 4.81736241989943886344e-02) (6, 1.17232764663120353488e-01) (83, -2.27016037320609320727e-01) (68, -6.30206597654363182004e-02) (31, -7.90861981170124073159e-01) (121, 1.73613553364342226848e-02) (82, 9.08542101494980824938e-01) (18, 1.50000000000000000000e+03) (58, -2.57492982704699072127e-02) (23, -4.94444299852195345846e-01) (10, 4.65175874637565600622e-01) (26, -7.65059884571721651736e-03) (45, -8.11579603380163938642e-02) (48, 3.87154800322146053215e-01) (59, 1.96965324194514734835e-01) (28, -6.75888757129438633164e-01) (0, 7.43244071453439625330e-01) (119, 1.17847311129189136203e+00) (123, -3.94148561071361591690e-02) (11, 1.91644335769446186313e-02) (17, 1.50000000000000000000e+03) (100, 1.14191903605339012406e-01) (46, -1.83227283952569430792e-01) (9, 6.72732756222673144997e-01) (131, 5.23072446934480628222e-01) (87, -3.08594303542973000254e-02) (135, 1.61297277863413496268e-01) (35, -3.70696379568206807464e-02) (3, -5.13163692021129103082e-01) (32, 2.47525810106353416629e+00) (103, 2.58601698963072668125e-01) (111, -1.52622087649559395883e-01) (122, -1.69811398196277357764e-01) (90, 1.50000000000000000000e+03) (72, 4.61404422314702189478e-01) (34, -9.23920108990861597975e-03) (98, -4.84852697400425136642e-01) (44, -5.22733659078548767996e-02) (37, -1.36950692109276878083e-01) (12, -3.66378637274665741597e-01) (114, -6.25134061972366428250e-01) (66, -4.01304781673141874876e-02) (95, -4.64052487085305553904e-01) (67, 2.90616502503202138452e-02) (63, -2.45886885732493898349e-01) (36, 2.20889794274224463000e-02) (15, 2.85136942289807793216e-01) (105, 4.54729930771466339667e-01) (62, -1.41948292603997827666e-01) (52, 2.05039392527326569393e+00) (2, -1.52441389666697624250e+00) (1, -3.39901933930009514384e+00) (99, -5.03670813211653384256e-02) (70, 2.90823589867469315534e-03) (106, -1.72075059664177715257e-01) (142, -8.92767248067075858131e-01) (6, -2.25718123187035379917e-01) (10, 2.97639832431119355505e-01) (22, 9.70926179522067611671e-01) (35, 3.78258464233897573337e+00) (36, 1.14328424110573445560e+00) (38, -2.45708771672758219395e+00) (41, 4.80470562460398831206e+00) (76, 7.24743433904897371711e-01) (82, -6.37814098557691089297e+00) (106, -6.93264523816500971565e-02) (125, 1.28668015527174195434e+00) (136, 1.69757078374609293725e+00) (107, -2.69503154910816622447e+00) (96, 1.18237032999762736729e+00) (126, 9.72040360887693077885e-01) (110, 3.58366708317032101050e+00) (25, 1.46105890086448453324e+00) (39, 2.54545748892938128449e+00) (42, -1.51212182913955262009e+00) (4, 1.84159588169925392265e+01) (91, 9.14665447776936035851e-01) (112, -1.04860599739771709338e+00) (66, 6.90248361677179111950e+00) (85, -7.79187452291230719936e+00) (11, 1.57483964165518397493e+00) (80, -6.45898517571913810542e+00) (115, 9.31488114685858126229e-01) (81, 1.41849460857381721723e+01) (31, 2.40851204115316548382e+01) (89, 1.50000000000000000000e+03) (75, -6.76301304353396481872e+00) (8, 6.23252709207818167414e+00) (138, 1.19021755544478802236e+00) (120, 5.31524881753574085508e+00) (127, 1.15871258856224512712e+00) (28, 6.46702069871296414405e-01) (102, 2.17169598765372429128e+00) (137, 2.67444536280281131013e+00) (12, 2.01456791652676470150e+00) (108, -6.86435786784346024803e-01) (13, -2.32939826199538776996e-02) (94, 6.12243566247503978595e-02) (60, 1.40047913966668846619e+00) (65, 1.43619471916977792247e+00) (7, 4.91758036998255265715e-01) (44, -2.42387361503491965964e-01) (18, 1.50000000000000000000e+03) (79, 5.06947465787548345872e+00) (15, 6.47387630657363488673e-01) (33, -1.23224974030097982336e+01) (117, 2.33218772483879815960e-01) (43, -4.50603022623489479770e+00) (21, 2.61946088564446766256e+00) (129, 1.21446267134290297740e+00) (24, 8.97127864407993591556e+00) (118, 2.43493935766233260409e+00) (40, -1.52942964825347949009e+00) (50, -2.87817410617355884384e+00) (55, 1.32157350549258256756e+00) (14, 3.60583587496080504309e+00) (69, -9.16613304475310752828e-01) (29, -1.85256486520773622217e+00) (17, 1.50000000000000000000e+03) (103, 4.08606079686565415443e+00) (133, -3.54813319189808762388e+00) (122, 2.04926143737383137378e+00) (130, 2.51735852168031115639e+00) (111, 6.67244278101998045116e-01) (116, 2.78341066604430720233e+00) (71, 1.58845425245441185247e+00) (139, 1.23736830376652240382e+00) (142, 1.05247752372778768937e+00) (2, -6.18724283133390229317e-01) (5, -4.50660448290426440821e+00) (19, 1.50000000000000000000e+03) (23, -4.26876045177429475075e+00) (26, -4.16917546742122724357e-01) (27, 7.13671092409465934736e+00) (29, -9.96268369354192384613e-01) (30, 1.96442799271195878141e+00) (33, -3.29961470756214003686e+00) (49, -2.29596192544427468718e+00) (50, -4.13249929907022117703e+00) (59, 5.63965023355626460244e+00) (66, -3.22769467926559250337e-01) (67, 6.92755416391137579524e-01) (74, -4.57833503894467419570e-01) (75, -4.97538440354089339657e-01) (84, 3.80511461924741878349e+00) (86, 5.17027600046955693180e-01) (94, 4.92813671368981964793e-01) (138, -5.93809033722191603744e+00) (77, -5.22062132029384562415e-01) (64, 2.64901918971855554474e+00) (54, -5.69283957208484792112e-01) (118, -1.23996983980455643959e+00) (99, 1.56597457258365579946e+00) (108, -9.33004682451925304587e-02) (43, -4.06475927152627392047e+00) (32, -5.70423896447489586770e-01) (103, 3.06621930187250457678e+00) (122, -1.21119721899511012531e+00) (39, 4.60729499266246556033e+00) (58, -5.32946408334797561146e-01) (28, 3.46402277530076974088e+00) (12, -7.55503208333731746116e-01) (71, 5.31281317344153958260e+00) (109, 7.02320403752690114452e-01) (141, 1.32505224611034955196e+00) (69, -5.74569435409013617999e-01) (76, -2.83718918984652512805e+00) (133, -5.12622941854408331608e+00) (105, 1.44227643868730792676e+00) (140, 1.31384190288787472412e+00) (38, 3.13948567518575005764e+00) (57, -7.35019649035331790188e-01) (107, -2.27150093773493910732e+00) (25, -6.71276477491743128745e-01) (128, -3.73001661826303276825e+00) (127, -4.52821818891192884315e-01) (24, -2.91750716471573690036e-01) (96, -3.22770456748354028775e-01) (102, 1.54737267370663178490e+00) (9, -6.10085611411585126973e+00) (72, -3.95820770887381379044e-01) (129, -3.59449550662300665316e-01) (95, -1.14917176106412766146e+00) (52, 3.47810417604577626349e+00) (82, -1.63469201975440875385e-01) (137, -3.03563462743133349875e+00) (31, -2.14716849119904686916e+01) (120, -1.05320073010331483054e+00) (81, -2.28629316703064899841e+00) (130, -5.47137122015254551144e-01) (126, -6.11952886136213791701e-01) (60, 3.38982379601388750245e+00) (115, -1.39186901368461124484e+00) (16, -1.30206891211991138135e-01) (80, 1.00095498067223021010e+00) (88, 1.50000000000000000000e+03) (119, -5.75212833963766545509e-01) (63, -3.81656806600598974555e+00) (3, -1.60430477190933351572e+00) (142, -2.48397714315513384875e+00) (3, 1.45558194783914474080e+00) (15, 4.31013735922388452337e+00) (24, 7.28534544329616395864e-01) (47, -3.35446240159616493326e-01) (93, 3.72842236776987334679e+00) (121, 1.38090058578184704530e+00) (123, 9.46118967620464346169e+00) (124, 1.86703967092019440521e+00) (84, -1.54808849770853429462e+00) (131, 1.36734623820816114659e+00) (82, -1.18295326406527179230e+00) (134, 3.27653503329485662476e+00) (70, -5.82162793851898618946e-01) (129, -4.17286776507692280802e+00) (120, 2.09743764539792856283e+01) (50, 1.24690892938026554049e+00) (67, 1.70993992671889616375e+00) (102, 1.04034930797018487780e+00) (43, -5.04768910546868565525e-01) (132, 5.00169307934771900648e+00) (108, -1.95224238580406095345e+00) (65, 3.51389431960269726929e+00) (89, 1.50000000000000000000e+03) (62, -2.07405608443165645483e+00) (139, 4.66557675003011151915e+00) (54, -1.00945831456624501854e+00) (125, 3.56715510251930734142e+00) (68, 9.34144069521129383205e-01) (96, 8.62267314514470473163e-01) (10, -6.62842521444453236512e+00) (11, 1.94014072608725252067e+00) (9, -9.91553274289562636135e-01) (13, -1.85296116001607469315e+00) (18, 1.50000000000000000000e+03) (14, -6.49376264540763781241e+00) (25, -2.06204641895139637597e+01) (52, 8.04158181384461023811e+00) (12, 7.96089079745678240840e+00) (57, 1.96142222656040288165e+00) (58, 4.96216947177631428900e+00) (38, 1.26543473429366226668e+00) (61, -6.21389685799529134513e-01) (119, -1.03863841259105971204e+01) (74, -7.12070668033366960259e+00) (16, -1.93594415516907614183e+00) (114, -1.80541067045705250216e+00) (75, 2.41438220619897697672e-01) (48, 4.14886981889454187211e+00) (80, -6.58109809628820396910e+00) (126, 8.84177486524738931450e-01) (63, -4.02878231130070219024e+00) (122, 1.81433043037567065525e+00) (41, -3.84588280990665642989e+00) (101, 5.19459256483663089909e+00) (98, -6.84804207382686147554e+00) (31, 1.36579384393103033801e+01) (128, 3.30073154574142790807e+00) (113, -3.12560310085221004783e-01) (106, 1.32981901840663296888e+00) (28, -1.29050734179805970392e+00) (5, -2.02707521317844729936e+00) (8, 7.10786673201617524853e+00) (6, -2.64224225876771245947e-01) (97, -3.81194081802285955618e+00) (73, -2.42231420397317975812e+00) (85, 1.51208914901663415975e+00) (30, 1.55083415890149761696e-01) (109, -3.42479516870760281044e-01) (42, 2.57079622462494772339e-01) (45, -1.36963980021587189428e-01) (4, -1.88535487128697232251e+00) (142, -2.20280961144713266497e-01) (58, 8.05079528747232764374e-01) (61, 5.22474763437676514855e-01) (87, -6.38048081923097920587e-01) (128, 1.03196361953832949077e+00) (140, 1.34615125036944927039e+00) (32, -7.18572961404838039812e+00) (115, -1.32952528011048665135e+00) (93, -2.43260623064050024444e-01) (138, 8.74543954065457151970e-01) (5, 2.30414786033475094129e+00) (100, 1.04898351154731406254e+00) (71, -1.47985999662801437360e+00) (95, 1.50893701681143133086e+00) (16, 1.52487390553276958016e+00) (69, 5.80029594764710720867e-01) (1, 7.60216988410581961944e+00) (96, -1.28495382289951520782e+00) (125, 8.94623106516622690343e-01) (7, 3.72041145284104979307e-01) (64, -3.81684877075896211718e-01) (116, -1.72940028200042772433e+00) (99, 4.50058253535084062946e+00) (85, 1.86787878241749027985e-01) (90, 1.50000000000000000000e+03) (56, -1.50881354031394798731e+00) (126, 1.32727747440195398276e+00) (31, 3.34915033933836809865e+01) (111, -7.89788158935796243132e-03) (51, -6.15658198516266175204e+00) (34, -6.37200755361905235574e-01) (130, 1.33445386890340778052e+00) (83, -5.59349269641266388930e+00) (77, 3.76631044860522512518e-01) (88, 1.50000000000000000000e+03) (6, 2.56369262294658895041e-01) (36, -1.19458408678346761356e+00) (98, -4.06794704289295427913e+00) (33, 5.48967418917352789620e-01) (80, 5.30834344430792093306e+00) (65, 2.55803436155177488232e+00) (62, 5.69241171777568832901e-01) (44, -3.05838878911457534571e+00) (55, 7.46760670962689498964e-01) (3, 1.92359922052953202787e+00) (40, 4.08934898258454582187e-01) (123, 4.17766332275718266231e+00) (112, -5.52108836378610945417e+00) (29, 6.26458188671135562942e-01) (39, -1.79815386169472832267e-02) (106, 4.44597518940741753823e+00) (127, 7.80071591865858837700e-01) (60, 6.26571279755991805693e-01) (108, -7.48691647599549536807e-01) (42, 3.23196312385690509572e+00) (68, -3.94427249833238680043e-01) (27, 2.68345769016358737247e+00) (89, 1.50000000000000000000e+03) (63, 7.00716585249961387838e-01) (50, -3.88401354270444176819e+00) (2, 7.29939717616130412381e-01) (14, 4.28108787618530994834e-01) (107, 1.40396982581645612953e+00) (117, -5.02259838145040715673e-01) (41, 6.12251476681778372679e-01) (48, -9.95842901800349511454e-01) (79, -4.05850135053397509388e-01) (121, -3.31315913590107236075e+00) (113, -4.29576442804572433687e+00) (43, 4.50134698714800141062e+00) (19, 1.50000000000000000000e+03) (81, 1.80085858221469541363e+00) (142, 4.27415709233594787175e-01) (25, 1.30947661837163775722e-01) (34, -7.85770470925435948750e-02) (62, 8.02602679848787685379e-03) (63, 1.92632730083576120261e-01) (64, -2.79127504577367013816e-01) (83, 1.71425660469971496980e+00) (90, 1.50000000000000000000e+03) (95, -2.44092461655679923704e-02) (98, 1.13256085233667924683e+00) (102, 5.14030383571375537599e+00) (112, 1.54459175744131349539e+00) (141, 1.02107531447033481053e-01) (6, 5.23746347849359583648e-01) (72, 8.75992937202531130048e-01) (50, 3.97620219836908386779e-02) (43, -4.76870991974358227061e-01) (89, 1.50000000000000000000e+03) (70, -1.08239310053647369569e-01) (107, 2.13951474817680425966e-01) (20, -1.05582509664707746566e+00) (121, -9.84709689645017038906e-01) (106, -2.74633225900061395119e-01) (78, 9.77213503444857023439e-01) (42, -5.30045517907090646403e-02) (114, 1.49706907602276295677e+00) (86, -1.86567515274761408506e+00) (131, -1.35977890790578037628e-01) (91, -3.76090870530570720032e-01) (29, 2.44415925931337429944e+00) (28, -4.85087945327591307798e-01) (67, 2.96613068800697821104e-01) (108, -7.46637848237373891180e-01) (75, 3.61272776881995383302e-01) (136, 1.63669413277447911570e-01) (103, -2.63791229766944024249e+00) (115, 9.23330487857761617043e-01) (38, -2.40426530265295895772e-01) (18, 1.50000000000000000000e+03) (15, -7.20449367884800628836e-01) (5, 1.56749555333491087661e-02) (109, -4.37885931553432639074e-01) (85, -4.38266618446687614141e-03) (100, -8.71096499130005752498e-01) (137, 2.40487902143638500319e-02) (82, -1.21817506696211119710e+00) (49, 5.73126290265664861678e-01) (36, -1.98156025405446578613e-01) (23, -1.12807549242577920268e+00) (14, -2.86983327905990404094e-01) (118, -2.76386908474519688017e-01) (22, 6.36326970651882484198e-01) (21, -7.44922662193677198594e-01) (4, -1.49126216168466063650e+00) (41, -7.31815103277960593564e-02) (59, 9.17872761496976996565e-02) (26, -2.77603180954616585163e-02) (19, 1.50000000000000000000e+03) (9, 7.42836748458489570801e-01) (117, 1.66866275985129319803e-01) (94, 2.25465107661795061134e+00) (27, -8.34319398052392635634e-01) (11, -6.12011420388189675279e-01) (87, 1.64472693947377540669e-01) (123, 5.62034009776969045724e-01) (139, -1.10579332756208320587e-01) (1, -2.47667652604707555497e+00) (58, -1.42679151769491058266e-01) (31, -7.47545765545354234938e-01) (7, 2.71285003151408798949e-01) (54, -1.64159868828681027031e-01) (40, 1.18631238486611875760e-01) (142, -1.15274000566366857656e-01) (9, -1.62949212217720651452e+00) (12, -3.54402201846544917530e-01) (18, 1.50000000000000000000e+03) (54, 3.76689256007789519121e-01) (57, 2.66664694659096701557e-01) (78, -1.54538480086252372203e+00) (99, 4.31065606363661579792e+00) (104, -3.04522448952833701963e-01) (110, -5.30026332896045837551e-01) (127, 3.00351341583274755731e-01) (129, 2.67697099235458091382e-01) (34, -1.84062664047416807422e-01) (49, 1.33803223339479609999e-01) (107, -9.02313873403784438842e-01) (11, -1.45643706399303729526e+00) (16, 5.31752689717901017019e-01) (35, 1.06900194071034770893e+00) (59, 6.38508565794275395611e-01) (31, 5.87382032481186389106e+00) (93, -8.27008778285996948298e-02) (106, 1.60328520712903155321e+00) (70, 1.25295411433827358350e-01) (77, 5.65561982702370638632e-02) (6, 4.49312006300113031543e-01) (92, 1.70373195379597414112e-01) (125, 4.12968146918472056583e-01) (86, -4.13905736935558654643e-01) (95, 3.19873655599236805802e-01) (115, -1.35773939963200040992e+00) (105, -1.54808370010866069855e+00) (91, -1.70357909281493902220e+00) (85, -4.40921804390370930538e-01) (36, 4.65676925419382936600e-01) (71, 4.96290126059553671212e+00) (140, 5.09591911655718154961e-01) (76, -1.47941047386364821214e-01) (60, 4.12397196067587568091e-01) (69, 5.32085852555047811308e-01) (55, 3.88173088964001100631e-01) (39, 2.01034728870013035262e+00) (13, -2.62536099848816928404e-01) (67, 3.17165828913002045830e-01) (64, -2.39781755902493259880e-01) (89, 1.50000000000000000000e+03) (123, 1.93993823364149942101e-01) (88, 1.50000000000000000000e+03) (22, -1.10159045641377839608e+00) (74, -3.09135662825989143698e-01) (122, 1.38380911194468736447e+00) (96, -2.38104533622569697338e-01) (47, 2.32139244648103676427e-01) (27, 7.95414467300898708757e-01) (124, 1.47942406630392903066e-01) (65, 3.71421120323652764750e-01) (90, 1.50000000000000000000e+03) (38, 1.27297744812526736347e+00) (19, 1.50000000000000000000e+03) (51, 1.12690603929982202658e-01) (111, -7.73615329024965880933e-01) (83, -3.25508953607877737912e-01) (108, 3.89109034041387524816e-01) (46, 2.85802325247878186154e-01) (3, 2.41619809879066810288e-01) (119, -9.44931077102420746705e-01) (63, 1.24309535859438624605e+00) (128, 3.79870695011580272737e-01) (103, 1.94654707691980399797e-01) (26, 3.03867791882652282798e-01) (56, 1.05637732696823569145e-01) (42, 9.08265664444461218174e-01) (130, 2.51211185441510762018e-02) (142, 1.39098095573080060561e-01) (17, 1.50000000000000000000e+03) (39, 4.83942182942115661781e-01) (55, 8.44770231279037969729e-02) (72, 2.41430708443648311956e+00) (88, 1.50000000000000000000e+03) (109, 4.11840249395414095823e-02) (133, -3.84303149799482990367e-01) (67, -1.22684768381299089124e-01) (95, 1.24843834335876935349e+00) (46, 4.39203351798001018214e-01) (138, -5.97749040621832095077e-01) (115, -3.43021911285319724971e-01) (40, 7.57825766540930811921e-01) (117, -2.14400401170088267255e-01) (78, 1.85235057314951101493e-01) (75, 1.79883534540210288100e+00) (89, 1.50000000000000000000e+03) (79, -2.48821901756438340625e-01) (58, 4.30173660857755435494e-01) (129, 3.32899930175188485393e-01) (36, -2.43205946753950769113e-01) (35, 3.52908388336080514058e-01) (119, -2.32000788532273460874e+00) (2, -5.92726168471482939282e+00) (19, 1.50000000000000000000e+03) (13, 1.57587747215717199900e+00) (65, 4.44537074119328412536e-01) (113, -1.18310559986338645344e-01) (25, -1.80303236720438286866e+00) (10, 2.70517812573734950377e+00) (99, -1.38283863185302635657e+00) (118, -1.65499226182701941745e+00) (112, 4.83662722978614123548e-01) (47, -1.29201020022994661485e-01) (82, 5.26008665275384701410e-01) (90, 1.50000000000000000000e+03) (57, -1.39631231249588538823e-01) (73, 1.74389839576261507226e+00) (86, 1.13810013233491935658e+00) (9, -8.94002870541957705974e-01) (91, -2.21338172845626290908e-01) (23, -6.04728854374913371572e+00) (29, -6.06210698084979293654e-01) (5, 6.42374623969923730371e-01) (131, -6.20011680286373989546e-01) (45, 4.71012104895886296596e-01) (16, -1.05332911113400776171e-01) (94, 1.59889627505075520020e+01) (42, 6.82686528923949431658e-01) (136, -7.68465973460746160084e-02) (6, 2.03307142178314137482e-01) (3, -2.30705124714208764658e+00) (32, 5.67047011506130460567e-01) (21, 4.67388752676134944242e-01) (8, -1.97531284101269388742e+00) (100, -5.31237555195473790115e-02) (106, -6.75737842835268387454e-01) (84, -1.10014749013842938474e+00) (77, 2.06663667041890708465e-01) (15, -2.56083455902978274210e+00) (63, 5.87214066054614347578e-02) (14, -4.11907368142220675633e-01) (24, 2.52127157670053847482e+00) (101, 7.46270870319491019806e-01) (124, 5.08350496969380616363e-01) (121, -1.15127204239701907973e+00) (76, -7.61244927713665697766e-01) (1, -2.40422066978910464741e+00) (85, 5.81652984510692472320e-01) (22, 8.61390202198514698395e-01) (93, -5.63938901138620107822e-01) (142, 2.72895468488224641687e-03) (31, 4.10763311735304892380e+00) (37, 2.10143929960809838775e+00) (45, -8.46934378319748382147e-01) (56, -5.12722006879720582084e-01) (65, 3.10349801478312703473e-01) (70, -3.49594657634357042220e-01) (111, 2.65278646347934410343e-01) (115, -3.80746038634596106753e-01) (118, -3.79881123206999224418e-02) (119, 2.10359110871824217526e+00) (43, -2.74472728179978009422e+00) (133, -1.13308141252815430811e+00) (54, -6.10984893905975601225e-02) (60, 1.21616337420014741788e+00) (49, 3.22002605800182584161e+00) (140, -3.63952972285482345693e-01) (123, 1.49723871212703363298e+00) (120, 2.71759312860640311893e-01) (14, -1.01804406155712776072e-01) (0, -2.24312813244885456143e+00) (100, 2.40216349920915978045e-01) (136, 2.70233616700826073664e-01) (135, -4.30379608002760094543e-01) (88, 1.50000000000000000000e+03) (130, 2.65572066402573248034e-01) (128, -2.25912023699666619780e-01) (132, -6.35469405576295498506e-02) (95, -3.33309554781064332207e-01) (38, -2.36403497214808772098e-01) (58, 1.17300808836137027136e+00) (91, -6.54541057640983026111e-01) (16, -1.19497175858693394090e+00) (121, 8.13060985366168331723e-01) (108, 1.05069317845105300591e-01) (55, -4.96443866408334599782e-01) (50, 2.21018487775529987038e-01) (59, -4.37832766361678893396e-01) (5, 3.13332294647675813071e-01) (125, 1.40631915512593269613e-01) (51, -2.75370687115845336201e-01) (73, -1.30292977316995073345e-01) (114, -8.09512940261194469116e-02) (11, -1.95140260817075750222e-01) (17, 1.50000000000000000000e+03) (102, 4.31739238806174707719e+00) (64, 1.65515340857984416534e-01) (93, 3.64448555235089788340e-01) (99, 1.62400158867725830092e+00) (19, 1.50000000000000000000e+03) (57, 2.32517024234124083937e-02) (82, -3.35895987332685275195e-01) (63, -4.76223955682037181081e-02) (48, -2.25160939524763703545e+00) (28, 1.17952400823789083084e+00) (66, 4.32539335544608383177e-01) (8, 3.80972366171486198638e+00) (3, -6.55134325658499250267e+00) (124, 3.77663281372620729393e-01) (116, -1.34550314598852915893e-01) (21, 6.78959859427530620923e-02) (74, 4.86928118715771596214e+00) (36, -1.77043907847009102108e-01) (23, -4.26430915722396086665e+00) (110, -3.44753238204962120239e-01) (138, 3.25514357190158976074e-01) (35, 2.98133385610625689655e-01) (33, -2.35729916905582559394e+00) (101, -1.07381258483615549260e+00) (81, -4.26008863583131613950e-01) (106, 1.98934652481098206422e-01) (75, 1.36286669264417059644e+00) (142, -7.44709092445602016674e-01) (0, -5.86570633735828916855e+00) (42, -1.20496020055559682760e+00) (52, -7.56604228404336276448e-01) (101, 9.21779550211992493303e+00) (107, -1.00196289258082149587e+00) (114, -5.13670851102708825309e-01) (132, 5.09273677175070549339e+00) (134, -1.13388034929444714294e+00) (135, 3.43009463747338783079e+00) (124, 1.30474957657276213752e+00) (38, -3.94633397130299212741e-01) (90, 1.50000000000000000000e+03) (88, 1.50000000000000000000e+03) (57, 1.22216785274602690592e+00) (70, 1.11080239847462625136e+00) (63, -1.54585765979456191133e+00) (11, 1.36676863333055642613e+00) (112, -2.33522234141277973407e+00) (22, -4.08755438045707286676e+00) (80, -4.51698004582308632049e-01) (35, 2.02671240437069366536e+00) (64, 4.56827373770361688798e+00) (110, 2.77752077068214120459e+00) (51, 1.17312038167521182075e+00) (89, 1.50000000000000000000e+03) (1, 1.20498243290512068171e+01) (104, 1.14654163174434220451e+00) (87, 2.35680684501496262584e+00) (9, -1.02268977985338560543e+00) (73, -9.97174952122119151454e+00) (121, -1.22306815036292650944e+01) (28, -2.06938242531670535396e-01) (55, 1.41053230860959177839e+00) (40, -5.35726212851799110659e-01) (2, 3.91636833097070180543e+00) (109, 1.66588957447737608455e-03) (120, -6.96438721635486590600e+00) (30, 1.66283161842060267510e+00) (115, -2.78042717175539209895e-02) (46, -8.13535895566412037283e-01) (106, 7.96705169134731439051e-01) (86, -4.87454825350852216648e-01) (95, 2.26940691790346669166e+01) (26, 1.01792561695386107878e+00) (44, 1.05907697322952154551e+00) (66, 2.79086699576268815193e+00) (98, -7.50999175222806791830e-01) (32, 1.32307554633066493111e+00) (7, -2.10059106951614366077e-01) (37, -3.32165266421957294796e+00) (83, 4.55180125250718869978e+00) (84, -4.21004486331430560764e-01) (129, 4.61548164519534154238e+00) (81, 4.13164879637848159177e+00) (125, -1.66112128570628736490e+00) (82, -4.50322609405992668741e-01) (39, 2.32453866691631327868e+00) (97, 1.46489425183181665169e+00) (23, 6.74785169997930367458e+00) (76, 4.00355986807670871652e-01) (59, 2.79398237011355954351e+00) (138, -1.44494253132730610112e+00) (93, 2.06972878115009129019e+00) (127, 1.31871220966159907739e+00) (12, -1.32793815163498041265e+00) (65, -3.01382899484298105719e+00) (14, -7.12804272053562559819e-01) (111, 2.07675974793748796543e+00) (78, -4.74575428386996511776e-01) (3, -4.44893874867445138221e+00) (67, 6.32379394773063285839e+00) (142, -5.35780047877281243029e-02) (7, -5.40328073480899950809e-01) (16, 7.45142988803242367624e-01) (40, -4.61976496290877003403e-01) (44, 5.83108802448492613557e-01) (46, -7.40581190195144789534e-02) (48, -7.10093163319674203215e-01) (51, 1.56930463800233610527e+00) (53, 3.02918881210458734721e-01) (60, -5.31241006755412747964e-01) (77, -2.66363136397043120951e-01) (81, 1.71583323786416636070e-01) (97, 1.47263336233199604308e+00) (100, -4.41463798097966209077e-01) (117, 7.09824180135787297097e-01) (42, 2.23053150656903648175e-01) (55, 6.72010597884183935591e-01) (21, 3.04089312478837525688e-01) (115, 4.85115714387129026708e-01) (6, 2.66992093100000493777e-01) (104, 6.88145300644345092600e-01) (95, -4.71361452303736427893e+00) (116, 6.32726645527875719566e-01) (130, 1.00951301091831271983e-01) (35, 3.22949856966252613066e-01) (67, -2.96120412185680415007e-01) (63, -2.09117541345762159022e-02) (37, 8.71831066389392728144e-02) (8, 3.13188472295786515809e-02) (29, 4.41382022454191447203e-01) (62, 8.39097394628681714224e-02) (121, 6.15755913754836958773e-01) (123, 6.50035705740901303962e-01) (59, -5.42608510262907794974e-01) (22, 1.63822207287326160330e-01) (57, 6.71112466140403984838e-01) (32, 8.78802165430481285746e-01) (5, -1.06715495220846268154e+00) (120, 8.85493947729195873819e-01) (114, 3.56937598175185444305e-01) (3, -1.64410879588154346109e+00) (73, 9.37885969022290488795e-01) (135, -3.74991031414208142447e-01) (26, 1.13368598352892063774e-01) (138, 3.48734024075484372318e-01) (19, 1.50000000000000000000e+03) (89, 1.50000000000000000000e+03) (23, -1.92953817712864883482e+00) (141, 4.40347267726818369926e-01) (43, 4.73818558535649303476e-01) (33, -8.16237717548783048294e-01) (20, 5.50975180033717593098e-01) (112, 3.08602953863215956343e-01) (127, 7.26747846273250286409e-01) (38, -1.29577669812396018001e-01) (25, 3.23059907154231440440e-01) (113, 7.62760641674621875374e-01) (132, -1.46799264351707231535e-01) (64, 2.57931641363391660204e-02) (65, -1.30641792995084771167e-01) (107, -2.96799888826455138258e-01) (99, -9.10683796925333827188e-02) (49, 4.43223710039654594794e+00) (54, 8.40244916802125429989e-01) (110, -4.76593480404329972178e-01) (11, -1.43798330650705974421e+00) (31, -7.03363507212282890180e+00) (39, -3.15775290103807448894e-01) (2, -1.57502558388898372677e+00) (109, -1.15563533691717346130e-01) (66, 2.01370702911193605322e-01) (118, 8.73574101142840175882e-01) (142, 6.62806941424977091870e-02) (32, -2.73019150361754103784e+00) (73, -3.04211853808626468687e-02) (85, 3.25354604016670490019e-01) (89, 1.50000000000000000000e+03) (92, -8.43133364856170630652e-02) (113, -4.70526672549262947598e-01) (122, 2.57342497909111100896e+00) (131, -3.01446192078037092377e-02) (96, -6.57211257778094726234e+00) (109, -9.23786005818191036099e-01) (20, 1.01116107825972001422e+00) (52, 2.47893072678295661726e-01) (112, -1.84377299730643845477e-01) (62, -1.64531041476800379830e-02) (116, 1.16297935359407009215e-01) (28, -7.37355365338715484924e-01) (91, -1.67839120574999278723e+00) (19, 1.50000000000000000000e+03) (137, -1.83770537952206519661e-01) (41, 1.22142894553610603658e+00) (13, -2.85501473280591655524e+00) (99, -2.76828278664487226202e-01) (54, 3.87237932113498273257e-01) (80, -2.74064462030948519100e+00) (17, 1.50000000000000000000e+03) (43, -5.01850940340983764365e-01) (129, 2.15628971757463844261e-01) (110, 5.82019396870887915224e-03) (83, 1.88998067908516986790e+00) (42, 6.28135486779401119861e-01) (95, 6.92839552098119121348e-02) (82, 2.08211049063757736022e+00) (57, 3.05123328156004181011e-01) (69, -5.65742842071388696290e-01) (56, 6.54289079335781537106e-02) (124, 1.33735202277406761695e-01) (24, -6.50685705411301995582e-01) (68, -7.01795087272622936103e-02) (33, -3.89116951365090280035e-01) (37, 5.69240534744124837552e-01) (103, 6.77150258533137439088e+00) (38, 5.53444018444376406585e-01) (74, -7.63803948383180753012e+00) (140, 4.36554180782130984984e-01) (29, 6.05581892853121583897e-01) (5, 5.57669732904429116260e-01) (121, 1.49297466335272321913e+00) (14, -3.16835850132500887466e-02) (49, -1.48832183674595897038e+00) (107, -1.29184625793252294557e-01) (84, 2.01774565389326498988e+00) (126, 9.71020358118332427289e-02) (10, -6.91040268541039615080e-01) (71, 4.02893529115051141076e+00) (133, -5.24001024686800764840e-01) (47, 1.39700637796779242317e-01) (39, 7.98300403076318110251e-01) (111, 3.30085770946111300983e-01) (7, 4.56773999298216937248e-01) (125, 9.60160253503296312605e-02) (67, 1.33303019427879504422e-01) (78, -2.93591065603927647842e+00) (8, -1.34747476025144985456e+00) (40, 7.78050603468795731743e-01) (75, -1.14513680754229490999e-02) (114, -7.11136888685141022037e-01) (1, 6.39512140340165458063e-01) (66, 2.14410062612529567216e-01) (130, -2.49556273659023358791e-01) (118, 1.93803758951726390336e+00) (44, 6.32106219330708790638e-02) (142, -6.50060529471997439188e-01) (1, 1.45528661764652134103e+00) (14, 1.28236926012585850110e-01) (120, 1.16678685951916549790e+00) (136, 1.21538065643481418832e+00) (71, -4.43662454247611304226e+00) (130, 1.04888585699772107773e+00) (6, 1.11372978191466728837e-01) (124, 1.17959657755154978531e+00) (117, 9.28872770126186325657e-02) (53, 6.18126341100098342096e-01) (19, 1.50000000000000000000e+03) (82, -6.96870945196112367981e-01) (64, 3.43520673358944028664e+00) (139, 8.55064723025235728926e-01) (115, 7.83500206354368566863e-01) (24, 1.05576823074999381902e+00) (109, 7.52897379781268666354e-02) (18, 1.50000000000000000000e+03) (85, -1.12614811724748173360e-01) (135, 2.59299847457472321111e+00) (49, 1.39829149121462226191e+00) (116, 1.19007988228325381486e-01) (13, 2.01358440051099152335e-01) (131, 1.06289644495972579463e+00) (47, 9.67803579646427158956e-01) (27, 1.31901780025308634769e+00) (34, 1.24306317312478609161e+00) (83, 4.84510359463000028768e-01) (107, -2.10391500113151908025e+00) (92, 1.54324734894754356240e+00) (42, 2.08257368686709187777e-01) (30, 5.00709360843801021268e-01) (32, 1.10769716671911888639e+00) (22, 6.82492753699147969293e-01) (45, -3.11187410371086770056e-01) (35, 1.12249291455599831124e+00) (48, 8.11327785664562983747e-01) (15, 8.71251210932122571728e-02) (122, 1.17036544558840449604e+00) (51, 1.16396453569757540869e+00) (119, -6.57424330752114705056e-01) (70, 1.17829961478579070544e+00) (123, 1.31734545030202809812e+00) (50, -4.21195227627457136066e+00) (98, -5.55957154154044896899e+00) (58, 1.22968974467501745984e+00) (93, 5.95115734646837601929e+00) (31, 1.81399089304667100464e+01) (102, 8.41327432885150772179e-01) (112, 1.78225887693678930468e+00) (100, -1.18252607840296009023e+00) (104, 9.06713868588129190407e-01) (25, 2.20850400891784293123e+00) (7, 2.61237957276028776032e-01) (97, 1.55070136569584038355e+00) (99, 3.11201740725927900044e+00) (76, -9.13416065545797017933e-01) (10, -3.88287087282696175006e-01) (11, 2.61371748650732760311e-01) (81, 2.83818151538679508405e-01) (33, -9.74701545566768690065e-01) (94, 7.34569740778751922861e-01) (2, 1.83250861059407887943e+00) (79, 2.59054426805648829735e-01) (38, 3.26438599799589335149e-01) (121, 4.83308962403455943946e-01) (80, -6.92977900662373857976e-01) (20, -3.06730975112767312307e-01) (39, -2.99770863553799504775e-01) (138, 7.28381419410316643948e-01) (59, 3.33268729981234823612e+00) (158, 8.73597767532156010972e-02) (145, 2.26590893701817314154e-01) (148, 1.43405582624503806499e-02) (151, 6.25335774996954585347e-01) (150, -7.72514398502445853723e-01) (146, 8.39691344139780748712e-01) (147, 4.39223829703006607428e-01) (153, 1.21728969940570669328e-01) (158, 1.36805331038693722689e+00) (149, -7.92291706804688744548e-01) (150, 6.68424943247471620156e-02) (154, -1.01768265126059964665e+00) (145, 1.61970623544375968983e+00) (155, 1.55353420847224210632e+00) (156, -8.86762026803855296642e-01) (152, 1.47613446801321290813e+00) (144, 3.25738703801485784961e-01) (158, 6.01981502727102046890e-01) (156, -7.82119519491142112244e-01) (148, -3.14504987389991608193e-01) (147, 3.66540375348192837279e-01) (151, 1.08890554292313743168e-01) (144, 2.52129631711839607977e-01) (153, 3.54685201439626729414e-01) (157, 1.32021962173240664518e-01) (158, 5.15343355091396684853e-02) (157, 1.02150353214733891072e+00) (145, 8.58019819446881659708e-01) (154, 2.00579360019419811190e-01) (148, 2.97045120615713365009e-01) (152, 2.39094580764905056958e-01) (151, 1.59466671492482103822e+00) (156, 4.16567711825350439625e+00) (144, 1.03816269840403241353e+00) (158, 6.85651168024319579430e-01) (151, 5.50454093894451323976e-01) (156, -5.42280219143390640468e-01) (150, -3.28818225033428029880e-02) (148, -1.76131027758975045039e-01) (144, 2.16022841305392482303e-01) (152, 1.01508086992248069969e+00) (149, -7.61074196676197689548e-01) (158, 3.16066673495991334875e+00) (157, -2.26067818749058062622e+02) (150, 8.62004374305452958360e-01) (155, 6.66222302499407281751e-01) (153, 1.38099347915270315168e-01) (148, -2.47385614887449500898e+00) (151, -4.83366050219778825570e-02) (146, -1.01885758595838860074e+00) (152, 7.74641039194958191949e-01) (158, 1.83915103370781674030e+00) (146, 4.37565057075672614317e-01) (154, -6.94225059824098322814e-01) (151, 9.59892321310064522422e-01) (144, -3.04393153416152317803e+00) (147, -1.21319069640105059449e+00) (155, -3.71848474404858186926e-01) (148, -2.07914495484215056109e+00) (158, 1.66129361700629929466e+00) (143, 1.84221996560641887442e+00) (146, -2.23748413851473926250e-01) (156, -1.92875030482826614886e-01) (155, 6.63432531943761616411e-01) (151, -4.93174141578501812333e-01) (145, 2.05946072340603780759e+00) (152, 5.38776491135304014257e-01) (147, 7.27252157200803162063e-01) (158, 3.76992046824100923708e-01) (147, 2.81739238685715986943e-01) (153, 1.45805790867655971077e+00) (149, 3.84841185908802460927e-03) (154, -1.40938457893303337176e-01) (145, 5.93477969489935808234e-01) (150, 1.38501469546160937973e+00) (146, -8.65467774173959369932e-01) (158, 1.57830446041459515616e-01) (152, -9.53697434542522815004e-02) (145, -7.02722815340628081948e-01) (144, 3.41607123895854369877e+00) (146, 1.94235566273082516098e+00) (150, -2.33438412811902340493e+00) (147, 2.56171054727504676762e-01) (157, 8.67667535906599840523e-01) (148, 8.14729481524983784047e-02) (158, 3.17745909408838511645e-01) (155, -5.26982242245758736310e-01) (154, 1.80813173899066204076e-01) (152, -3.90228533141128020034e+00) (144, -1.62632760948316867911e+00) (156, 1.72067161641189736443e+00) (153, -1.69537465939651288416e+00) (147, 7.73857954419158944326e-01) (158, 9.84318583924245871231e-01) (152, 1.30773238690194859579e+00) (155, 1.21235568259551595993e+00) (144, 3.53318552163548793565e-01) (151, 3.36466459398831241323e-01) (149, -5.81135222388103889202e-01) (146, 2.00476490660101425156e-01) (153, 3.30188855235930223131e-01) (147, 6.46639729463347578964e-01) (158, 1.49689814223269768156e-01) (153, 4.62428574698476202443e-01) (151, -1.98619009574339111523e+00) (157, -3.00563164069836019632e-01) (147, -7.70133850123839724944e-01) (152, 5.47264368254771205180e-02) (145, 3.84792761807178340661e+00) (156, -1.90870265453975740400e+00) (158, 2.91843710788467547435e-01) (143, -8.27076098369878831562e-02) (156, -1.12668395199827520159e+00) (150, 3.65298137317319504547e+00) (146, 3.74533039270982193170e-01) (155, 1.41358664291434354965e+00) (144, 2.86592498736857992370e+00) (149, 5.67429007867553791833e-01) (152, 2.11009155574965756585e+00) (158, 1.49481104187306701458e-01) (144, 1.36705253764415202156e+00) (148, 1.12336056225227043370e+00) (146, 1.06265056162198168188e+00) (149, -6.64679773172091792333e+00) (145, -5.84963302397527695753e-01) (156, 5.70192739421846539472e+00) (155, -1.82874877689446824203e-01) (158, -8.83199109526105474721e-01) (153, -1.87458025354106001814e-02) (154, 1.80316107974891881582e+00) (145, 7.12496238854973706900e-01) (150, 2.95703916565648768089e-02) (149, -1.94110071663377674323e-02) (151, 7.16001447642610311384e-01) (147, -5.03494524450046124220e-02) (156, 6.01501253906903565749e-01) (175, -9.10467089946319751981e-01) (164, -1.96008476176625423548e+00) (159, -3.85214267441036639639e+00) (160, -2.26525756846863890459e+00) (170, -2.16222755501449759308e+00) (162, 4.33054300301516637006e+00) (167, -4.94460646039282814002e+00) (169, 4.72890810329645139287e-01) (165, -1.29447083290393472055e+00) (175, 1.27691291702881931647e-01) (169, 4.42881843778303474490e-01) (173, 5.87060088675368185740e-01) (165, 3.67768053931880195551e-02) (162, 1.10849583844361321283e+00) (167, -5.73135117109976333083e-01) (171, -1.22529456233595734904e-01) (168, 5.57323822943256219631e-01) (170, -5.72931535532407720801e-01) (175, 3.96233435023345670345e+00) (169, 4.19945745946648116842e+01) (173, -8.03551860228627901073e-02) (161, 3.02150469227431628383e+00) (165, 3.83794873071466398073e+01) (166, 4.68012434895809814606e+00) (159, -1.57113422332578012153e+00) (163, 2.41215701097753143500e+00) (172, -1.81843043016230332398e+01) (175, -5.76259683594357086101e-01) (170, -5.34288791567948506689e-01) (159, -9.01179750345315055959e-01) (167, -1.98916740515469014916e+00) (168, 3.75163946983448348682e-01) (172, -6.78319413487127764739e-01) (162, 4.42113505540322249132e-01) (160, -1.05053946272076959012e+00) (161, -1.56078740871981858085e+00) (175, -5.51778567197489799856e-02) (170, 2.47974051156558683573e-02) (165, -2.27026716337141304392e-02) (172, -1.48176042663900220386e-01) (168, 1.81552002861658685895e-02) (159, 1.50000000000000000000e+03) (163, 7.73745323100715154396e+00) (173, 1.26685137877531639461e+00) (166, -1.83474185524507804601e+00) (175, -3.83261893019186949960e-01) (174, 1.07946719060832641013e+00) (173, 1.25288641923279753243e+00) (172, -1.15025567367052472534e+00) (160, 2.61335188462630152451e-01) (171, -1.00584975102707696593e+00) (169, 1.39750785563998336514e+00) (161, -1.58390466728883128056e+00) (159, -4.40964487461126442014e+00) (175, -5.59636403126240411510e-01) (161, -1.02483415279531104858e+01) (168, 1.20348850989547373480e+00) (171, -1.02061514056608926282e+00) (170, -5.13092096540937880889e+00) (173, 1.49689123491501985264e+00) (165, -8.00096223903286052348e-01) (164, -1.01551124562050598676e+00) (160, -2.31993378588718446309e+00) (175, 8.21395393624531955368e-01) (162, -2.25627435756605959627e-01) (161, 4.86836090933113585510e-01) (168, -5.64426223618816474970e-02) (174, -4.47090489818761538388e-01) (169, -8.29341160561368861970e-01) (170, 1.05301041931272831853e+00) (163, 9.82127218333483598123e-01) (172, 1.44667922917523950055e+00) (175, -7.27080451882174072509e-01) (164, -1.13881510848675082670e+00) (172, -5.95046854115637180449e-01) (165, -8.22367866931576818601e-01) (174, 1.68480189425601745157e+00) (160, -5.57291929558091370112e-01) (163, -3.72711040895424128294e+00) (171, -8.85920297018903735164e-01) (159, 2.77262350646129407394e+00) (175, -4.58998576460734923899e+01) (159, -1.91613315567653756943e+02) (160, 2.50630786425643030668e+01) (164, -3.14212405921284698707e+01) (170, 5.27818633098330636244e+00) (165, -4.63488731308397134967e+01) (172, 4.62218316272720528559e+01) (166, -6.83291729427700289534e+01) (168, 4.97485522631912502334e+00) (175, -4.85926842522305779681e+00) (165, -4.84331216738944725364e+00) (174, 2.20709806018927823246e+00) (167, 3.72721705386362200940e+00) (172, 1.08132672223226542485e+01) (169, -1.00146339739742074038e+00) (168, 1.37262070936700464330e+00) (166, -3.64880680089934184007e-01) (162, -1.70554056496576778024e+00) (175, -6.90554024152496004341e-01) (160, -8.14114124297285246534e-01) (167, -1.93916289634786104257e-01) (163, -3.67109244211360774557e+00) (173, 1.13644225782659535895e+00) (165, -7.25134110568091849736e-01) (166, -4.28730777787350714192e+00) (170, -1.26210301309567674011e+00) (168, 3.44578599951860287121e+00) (175, 7.93025378012898296554e-01) (159, 1.80279549526494276002e-01) (166, -2.33347607601209050543e+00) (165, 7.42193137864357144196e-01) (167, -1.32037005609376105753e+01) (173, -2.80153681973339049871e-02) (174, -9.86629980608228152050e+00) (169, 1.04201156576977638224e+00) (168, -2.12660642677086508812e-01) (175, -2.02614587369169374398e+00) (164, 1.61357730777355601326e+00) (171, 4.91164267865220072196e+00) (172, -2.86081042007477837075e+00) (174, 3.80553795782284920435e+00) (165, 1.32721049472425489668e+00) (161, 2.63786547784842646536e+01) (160, 6.82718333362011176035e+00) (162, -3.22454779790389123306e+00) (175, 1.30088273273308674405e+00) (163, 3.18592470910461278422e-01) (164, 1.57046779860875118651e+00) (162, -2.56234463856407712612e+00) (167, -1.82656591627206243977e+00) (159, 5.71475645887320649052e+00) (171, 1.48293649746188438421e+00) (169, -8.24150749511230573674e-01) (165, 1.28261837778135756594e+00) (175, 1.22114573122998071320e+00) (160, 2.89162935649933539040e+00) (172, 2.70779874651075136427e+00) (165, 1.38630846352496428509e+00) (168, -4.02393077259372766719e+00) (171, 2.10989192095672839500e+00) (166, 6.26596582095320808747e+00) (161, 1.82911453580959504350e+00) (163, 9.08748842549581825612e-02) (175, -2.53390638587620786737e-01) (173, 8.55835483592223722482e-01) (160, 1.08200539661628281074e+00) (163, 4.55814945181174935307e-02) (164, -5.99053008750866533560e-01) (172, -1.48428265476003784507e+00) (162, -4.54431794516274190077e-01) (167, -7.60741373869488812787e-01) (169, 1.95236215514475719424e+00) (193, -8.78594956267398075056e+00) (183, 7.28244199587025420328e+00) (186, 5.74639872155151554267e+00) (187, 1.33646633663528602298e+00) (189, 8.51470045549571175059e+00) (190, -1.86906066577906915249e+00) (179, -6.28615367437937955231e+00) (185, 6.06386951335597945700e+00) (184, 2.40486296760499218550e+00) (193, -4.04224203076649968303e-01) (176, 1.33104925750195257628e+00) (178, -1.65336199298146624415e+00) (181, -1.06418950102765308419e-01) (182, 1.39134433567905158036e+00) (185, 8.34154708525007393405e-01) (188, -7.26810029679939240133e-01) (190, 1.04887865041921912734e+00) (191, -1.19721876297145546353e+00) (184, 8.87632473553355172413e-01) (193, -1.27339754191151066642e+00) (177, 5.95626992323102566473e-01) (179, 2.85780122526505042657e+00) (180, 4.60909066287474411538e-01) (184, 2.59232497264631511769e+00) (192, 2.09003189102529418619e+00) (181, 1.72065621361833254177e+00) (190, -1.62265133624448121274e+00) (183, -4.68356091951847286481e+00) (187, 3.55075552132463867494e+00) 
