FANN_FLO_2.1
num_layers=5
learning_rate=0.700000
connection_rate=0.500000
network_type=0
learning_momentum=0.000000
training_algorithm=2
train_error_function=1
train_stop_function=0
cascade_output_change_fraction=0.010000
quickprop_decay=-0.000100
quickprop_mu=1.750000
rprop_increase_factor=1.225000
rprop_decrease_factor=0.325000
rprop_delta_min=-10.000000
rprop_delta_max=10.000000
rprop_delta_zero=0.100000
cascade_output_stagnation_epochs=12
cascade_candidate_change_fraction=0.010000
cascade_candidate_stagnation_epochs=12
cascade_max_out_epochs=150
cascade_max_cand_epochs=150
cascade_num_candidate_groups=2
bit_fail_limit=1.00000000000000005551e-01
cascade_candidate_limit=1.00000000000000000000e+03
cascade_weight_multiplier=4.00000000000000022204e-01
cascade_activation_functions_count=10
cascade_activation_functions=3 5 7 8 10 11 14 15 16 17 
cascade_activation_steepnesses_count=4
cascade_activation_steepnesses=2.50000000000000000000e-01 5.00000000000000000000e-01 7.50000000000000000000e-01 1.00000000000000000000e+00 
layer_sizes=143 41 42 43 4 
scale_included=0
neurons (num_inputs, activation_function, activation_steepness)=(0, 0, 0.00000000000000000000e+00) (0, 0, 0.00000000000000000000e+00) (0, 0, 0.00000000000000000000e+00) (0, 0, 0.00000000000000000000e+00) (0, 0, 0.00000000000000000000e+00) (0, 0, 0.00000000000000000000e+00) (0, 0, 0.00000000000000000000e+00) (0, 0, 0.00000000000000000000e+00) (0, 0, 0.00000000000000000000e+00) (0, 0, 0.00000000000000000000e+00) (0, 0, 0.00000000000000000000e+00) (0, 0, 0.00000000000000000000e+00) (0, 0, 0.00000000000000000000e+00) (0, 0, 0.00000000000000000000e+00) (0, 0, 0.00000000000000000000e+00) (0, 0, 0.00000000000000000000e+00) (0, 0, 0.00000000000000000000e+00) (0, 0, 0.00000000000000000000e+00) (0, 0, 0.00000000000000000000e+00) (0, 0, 0.00000000000000000000e+00) (0, 0, 0.00000000000000000000e+00) (0, 0, 0.00000000000000000000e+00) (0, 0, 0.00000000000000000000e+00) (0, 0, 0.00000000000000000000e+00) (0, 0, 0.00000000000000000000e+00) (0, 0, 0.00000000000000000000e+00) (0, 0, 0.00000000000000000000e+00) (0, 0, 0.00000000000000000000e+00) (0, 0, 0.00000000000000000000e+00) (0, 0, 0.00000000000000000000e+00) (0, 0, 0.00000000000000000000e+00) (0, 0, 0.00000000000000000000e+00) (0, 0, 0.00000000000000000000e+00) (0, 0, 0.00000000000000000000e+00) (0, 0, 0.00000000000000000000e+00) (0, 0, 0.00000000000000000000e+00) (0, 0, 0.00000000000000000000e+00) (0, 0, 0.00000000000000000000e+00) (0, 0, 0.00000000000000000000e+00) (0, 0, 0.00000000000000000000e+00) (0, 0, 0.00000000000000000000e+00) (0, 0, 0.00000000000000000000e+00) (0, 0, 0.00000000000000000000e+00) (0, 0, 0.00000000000000000000e+00) (0, 0, 0.00000000000000000000e+00) (0, 0, 0.00000000000000000000e+00) (0, 0, 0.00000000000000000000e+00) (0, 0, 0.00000000000000000000e+00) (0, 0, 0.00000000000000000000e+00) (0, 0, 0.00000000000000000000e+00) (0, 0, 0.00000000000000000000e+00) (0, 0, 0.00000000000000000000e+00) (0, 0, 0.00000000000000000000e+00) (0, 0, 0.00000000000000000000e+00) (0, 0, 0.00000000000000000000e+00) (0, 0, 0.00000000000000000000e+00) (0, 0, 0.00000000000000000000e+00) (0, 0, 0.00000000000000000000e+00) (0, 0, 0.00000000000000000000e+00) (0, 0, 0.00000000000000000000e+00) (0, 0, 0.00000000000000000000e+00) (0, 0, 0.00000000000000000000e+00) (0, 0, 0.00000000000000000000e+00) (0, 0, 0.00000000000000000000e+00) (0, 0, 0.00000000000000000000e+00) (0, 0, 0.00000000000000000000e+00) (0, 0, 0.00000000000000000000e+00) (0, 0, 0.00000000000000000000e+00) (0, 0, 0.00000000000000000000e+00) (0, 0, 0.00000000000000000000e+00) (0, 0, 0.00000000000000000000e+00) (0, 0, 0.00000000000000000000e+00) (0, 0, 0.00000000000000000000e+00) (0, 0, 0.00000000000000000000e+00) (0, 0, 0.00000000000000000000e+00) (0, 0, 0.00000000000000000000e+00) (0, 0, 0.00000000000000000000e+00) (0, 0, 0.00000000000000000000e+00) (0, 0, 0.00000000000000000000e+00) (0, 0, 0.00000000000000000000e+00) (0, 0, 0.00000000000000000000e+00) (0, 0, 0.00000000000000000000e+00) (0, 0, 0.00000000000000000000e+00) (0, 0, 0.00000000000000000000e+00) (0, 0, 0.00000000000000000000e+00) (0, 0, 0.00000000000000000000e+00) (0, 0, 0.00000000000000000000e+00) (0, 0, 0.00000000000000000000e+00) (0, 0, 0.00000000000000000000e+00) (0, 0, 0.00000000000000000000e+00) (0, 0, 0.00000000000000000000e+00) (0, 0, 0.00000000000000000000e+00) (0, 0, 0.00000000000000000000e+00) (0, 0, 0.00000000000000000000e+00) (0, 0, 0.00000000000000000000e+00) (0, 0, 0.00000000000000000000e+00) (0, 0, 0.00000000000000000000e+00) (0, 0, 0.00000000000000000000e+00) (0, 0, 0.00000000000000000000e+00) (0, 0, 0.00000000000000000000e+00) (0, 0, 0.00000000000000000000e+00) (0, 0, 0.00000000000000000000e+00) (0, 0, 0.00000000000000000000e+00) (0, 0, 0.00000000000000000000e+00) (0, 0, 0.00000000000000000000e+00) (0, 0, 0.00000000000000000000e+00) (0, 0, 0.00000000000000000000e+00) (0, 0, 0.00000000000000000000e+00) (0, 0, 0.00000000000000000000e+00) (0, 0, 0.00000000000000000000e+00) (0, 0, 0.00000000000000000000e+00) (0, 0, 0.00000000000000000000e+00) (0, 0, 0.00000000000000000000e+00) (0, 0, 0.00000000000000000000e+00) (0, 0, 0.00000000000000000000e+00) (0, 0, 0.00000000000000000000e+00) (0, 0, 0.00000000000000000000e+00) (0, 0, 0.00000000000000000000e+00) (0, 0, 0.00000000000000000000e+00) (0, 0, 0.00000000000000000000e+00) (0, 0, 0.00000000000000000000e+00) (0, 0, 0.00000000000000000000e+00) (0, 0, 0.00000000000000000000e+00) (0, 0, 0.00000000000000000000e+00) (0, 0, 0.00000000000000000000e+00) (0, 0, 0.00000000000000000000e+00) (0, 0, 0.00000000000000000000e+00) (0, 0, 0.00000000000000000000e+00) (0, 0, 0.00000000000000000000e+00) (0, 0, 0.00000000000000000000e+00) (0, 0, 0.00000000000000000000e+00) (0, 0, 0.00000000000000000000e+00) (0, 0, 0.00000000000000000000e+00) (0, 0, 0.00000000000000000000e+00) (0, 0, 0.00000000000000000000e+00) (0, 0, 0.00000000000000000000e+00) (0, 0, 0.00000000000000000000e+00) (0, 0, 0.00000000000000000000e+00) (0, 0, 0.00000000000000000000e+00) (0, 0, 0.00000000000000000000e+00) (0, 0, 0.00000000000000000000e+00) (0, 0, 0.00000000000000000000e+00) (0, 0, 0.00000000000000000000e+00) (72, 5, 5.00000000000000000000e-01) (72, 5, 5.00000000000000000000e-01) (72, 5, 5.00000000000000000000e-01) (72, 5, 5.00000000000000000000e-01) (72, 5, 5.00000000000000000000e-01) (72, 5, 5.00000000000000000000e-01) (72, 5, 5.00000000000000000000e-01) (72, 5, 5.00000000000000000000e-01) (72, 5, 5.00000000000000000000e-01) (72, 5, 5.00000000000000000000e-01) (72, 5, 5.00000000000000000000e-01) (72, 5, 5.00000000000000000000e-01) (72, 5, 5.00000000000000000000e-01) (72, 5, 5.00000000000000000000e-01) (72, 5, 5.00000000000000000000e-01) (72, 5, 5.00000000000000000000e-01) (72, 5, 5.00000000000000000000e-01) (72, 5, 5.00000000000000000000e-01) (72, 5, 5.00000000000000000000e-01) (72, 5, 5.00000000000000000000e-01) (72, 5, 5.00000000000000000000e-01) (72, 5, 5.00000000000000000000e-01) (72, 5, 5.00000000000000000000e-01) (72, 5, 5.00000000000000000000e-01) (72, 5, 5.00000000000000000000e-01) (72, 5, 5.00000000000000000000e-01) (72, 5, 5.00000000000000000000e-01) (72, 5, 5.00000000000000000000e-01) (72, 5, 5.00000000000000000000e-01) (72, 5, 5.00000000000000000000e-01) (72, 5, 5.00000000000000000000e-01) (72, 5, 5.00000000000000000000e-01) (72, 5, 5.00000000000000000000e-01) (72, 5, 5.00000000000000000000e-01) (72, 5, 5.00000000000000000000e-01) (72, 5, 5.00000000000000000000e-01) (72, 5, 5.00000000000000000000e-01) (72, 5, 5.00000000000000000000e-01) (72, 5, 5.00000000000000000000e-01) (72, 5, 5.00000000000000000000e-01) (0, 5, 0.00000000000000000000e+00) (21, 5, 5.00000000000000000000e-01) (21, 5, 5.00000000000000000000e-01) (21, 5, 5.00000000000000000000e-01) (21, 5, 5.00000000000000000000e-01) (21, 5, 5.00000000000000000000e-01) (21, 5, 5.00000000000000000000e-01) (21, 5, 5.00000000000000000000e-01) (21, 5, 5.00000000000000000000e-01) (21, 5, 5.00000000000000000000e-01) (21, 5, 5.00000000000000000000e-01) (21, 5, 5.00000000000000000000e-01) (21, 5, 5.00000000000000000000e-01) (21, 5, 5.00000000000000000000e-01) (21, 5, 5.00000000000000000000e-01) (21, 5, 5.00000000000000000000e-01) (21, 5, 5.00000000000000000000e-01) (21, 5, 5.00000000000000000000e-01) (21, 5, 5.00000000000000000000e-01) (21, 5, 5.00000000000000000000e-01) (21, 5, 5.00000000000000000000e-01) (21, 5, 5.00000000000000000000e-01) (21, 5, 5.00000000000000000000e-01) (21, 5, 5.00000000000000000000e-01) (21, 5, 5.00000000000000000000e-01) (21, 5, 5.00000000000000000000e-01) (21, 5, 5.00000000000000000000e-01) (21, 5, 5.00000000000000000000e-01) (21, 5, 5.00000000000000000000e-01) (21, 5, 5.00000000000000000000e-01) (21, 5, 5.00000000000000000000e-01) (21, 5, 5.00000000000000000000e-01) (21, 5, 5.00000000000000000000e-01) (21, 5, 5.00000000000000000000e-01) (21, 5, 5.00000000000000000000e-01) (21, 5, 5.00000000000000000000e-01) (21, 5, 5.00000000000000000000e-01) (21, 5, 5.00000000000000000000e-01) (21, 5, 5.00000000000000000000e-01) (21, 5, 5.00000000000000000000e-01) (21, 5, 5.00000000000000000000e-01) (21, 5, 5.00000000000000000000e-01) (0, 5, 0.00000000000000000000e+00) (21, 5, 5.00000000000000000000e-01) (22, 5, 5.00000000000000000000e-01) (21, 5, 5.00000000000000000000e-01) (22, 5, 5.00000000000000000000e-01) (21, 5, 5.00000000000000000000e-01) (22, 5, 5.00000000000000000000e-01) (21, 5, 5.00000000000000000000e-01) (22, 5, 5.00000000000000000000e-01) (21, 5, 5.00000000000000000000e-01) (22, 5, 5.00000000000000000000e-01) (21, 5, 5.00000000000000000000e-01) (22, 5, 5.00000000000000000000e-01) (21, 5, 5.00000000000000000000e-01) (22, 5, 5.00000000000000000000e-01) (21, 5, 5.00000000000000000000e-01) (22, 5, 5.00000000000000000000e-01) (21, 5, 5.00000000000000000000e-01) (22, 5, 5.00000000000000000000e-01) (21, 5, 5.00000000000000000000e-01) (22, 5, 5.00000000000000000000e-01) (21, 5, 5.00000000000000000000e-01) (22, 5, 5.00000000000000000000e-01) (21, 5, 5.00000000000000000000e-01) (22, 5, 5.00000000000000000000e-01) (21, 5, 5.00000000000000000000e-01) (22, 5, 5.00000000000000000000e-01) (21, 5, 5.00000000000000000000e-01) (22, 5, 5.00000000000000000000e-01) (21, 5, 5.00000000000000000000e-01) (22, 5, 5.00000000000000000000e-01) (21, 5, 5.00000000000000000000e-01) (22, 5, 5.00000000000000000000e-01) (21, 5, 5.00000000000000000000e-01) (22, 5, 5.00000000000000000000e-01) (21, 5, 5.00000000000000000000e-01) (22, 5, 5.00000000000000000000e-01) (21, 5, 5.00000000000000000000e-01) (22, 5, 5.00000000000000000000e-01) (21, 5, 5.00000000000000000000e-01) (22, 5, 5.00000000000000000000e-01) (21, 5, 5.00000000000000000000e-01) (22, 5, 5.00000000000000000000e-01) (0, 5, 0.00000000000000000000e+00) (22, 5, 5.00000000000000000000e-01) (22, 5, 5.00000000000000000000e-01) (22, 5, 5.00000000000000000000e-01) (0, 5, 0.00000000000000000000e+00) 
connections (connected_to_neuron, weight)=(142, 8.58240425025549175109e-02) (21, -4.13590152364887231329e+00) (22, -9.91936181703866104442e+00) (79, 5.57741742235605547640e-02) (117, 3.14403139461661229603e+00) (49, 2.22131251311847272012e-01) (8, 6.03148498107819897029e-01) (6, -1.43904757216408080156e-01) (103, 5.52006128050125721707e-01) (90, 1.50000000000000000000e+03) (32, -7.31781827447733457248e-01) (97, 2.52320730607373477916e-01) (56, 6.01093656038675261399e-01) (83, 3.28482886378174965269e-01) (60, 1.08017402270542395293e+00) (4, 4.40987609725913332070e-01) (13, -3.60619074960121174800e-02) (62, 2.71760235872814170932e-01) (122, 2.10158152595351144232e-01) (76, -3.26995068106960273813e-01) (99, 4.87275280439447939784e+01) (30, 7.14297709933252633618e+00) (66, 2.41909993070423962047e-01) (36, 3.37902234993466388246e+00) (37, 6.56601328832320696449e-01) (92, 3.21861690074143780294e+00) (20, -7.21110428137182868369e+00) (12, -3.93701864743347185183e+00) (55, 2.10480923948517500977e-01) (38, -6.43027914595819427568e-01) (42, 7.76999467532696286298e+00) (89, 1.50000000000000000000e+03) (86, 1.95029729872048585015e+00) (95, 4.42406023364999345659e-01) (2, 1.72908125001015311462e+00) (28, -1.56183231892569041044e+00) (94, -2.73189224414336906399e-01) (128, 2.70613862667869464751e-01) (78, -1.06689663648735236223e-01) (7, 8.15563019500260222294e-01) (58, 2.17461346762383239684e-01) (70, 2.00753310810069182657e-02) (121, 8.93289963508079598586e-02) (88, 1.50000000000000000000e+03) (68, 4.60288611400597402756e-01) (135, -5.66692450329176922175e-01) (43, 6.02800549644385874615e+00) (126, 2.02668211032751510725e-01) (71, 1.63435057041240283660e+00) (25, 3.00033497800651693943e-01) (41, -3.26898705365565334091e+00) (40, -5.25062692000141773008e+00) (47, 1.76476523520410571999e-01) (118, 1.91083581825204018578e-01) (64, 5.35696312928813367371e-02) (110, -9.95420652535686456552e-01) (77, 2.47756431972596530278e-01) (34, 1.28648976687406990660e-01) (15, 9.67263553407821108365e-01) (54, 3.69787833132826926352e-02) (139, -9.21564096400959265054e-01) (69, 1.27411479737515920263e+00) (84, 1.27022274100807130992e+00) (98, 2.42444083068165383565e+00) (5, 7.87232982028518213369e-01) (120, 2.04762258345462522247e-01) (72, -6.54923716634433494832e-02) (45, 6.97369192997860487537e-01) (26, 8.85025870411113302350e-02) (11, 1.41805596314697055504e+02) (61, 4.47844951912786282122e-01) (48, -8.92183780028197592760e-02) (142, 4.85398657745770900629e-01) (0, -3.11436238106437190964e+00) (27, -6.22385590791470350025e-02) (40, -3.04125292383396084173e-01) (102, -2.31804123179912315023e-02) (32, 1.56642844873037789810e+00) (33, 9.96099665980232096274e+00) (117, -5.81632922670854424219e-02) (121, 5.91081292299309501992e-01) (113, -1.35866541426126086201e-01) (75, 4.21657462353851431036e-01) (99, 1.55089553260659362977e+00) (55, -2.87991374844902947583e-01) (106, -8.87670679338735668651e-01) (63, -7.34828462242885671607e-01) (21, 6.81534823629731945083e-01) (126, -1.36332611743555653927e-01) (31, -2.00854924919904256342e+01) (79, -1.94395646382622688808e-02) (95, 6.68717298607493737528e-01) (13, -2.51030862193914905411e-01) (74, 1.17055346669559789952e+00) (54, -2.01533462737122276431e-01) (26, -4.63365196883392532756e-03) (101, -8.59795077613225849911e-02) (139, -8.63131928354935878955e-02) (1, -5.30680362151117268610e+00) (35, 1.69887465325892628165e+00) (69, -2.48873207638035748301e-01) (46, 1.07793222138960342882e+00) (77, -8.22189205379150744868e-02) (111, 2.56827939500115509652e-01) (72, -1.48453848188983328349e-01) (25, 1.59086434762032968848e+00) (36, 1.55091616821131972337e+00) (18, 1.50000000000000000000e+03) (119, 1.08484788840492160644e-01) (19, 1.50000000000000000000e+03) (28, 5.75625636062122247871e-01) (57, -1.53448824286177926135e-01) (8, -2.35838269150952628550e-01) (50, -2.14993023146858669437e-01) (104, 3.39362174598669408265e-02) (81, 3.53176722724404534848e-01) (12, 8.50540061718495776777e-02) (89, 1.50000000000000000000e+03) (134, 1.24679473584665423402e+00) (41, -1.97885912349096515506e+00) (137, 1.96675456050562566523e-02) (127, -1.91915266958269881137e-01) (135, -1.43602958179744355505e+00) (108, 7.90113073781365971016e-01) (116, 1.21130692631372260948e+00) (85, 4.86559824630011572566e-01) (97, 3.73992583772349940219e+00) (60, 3.60845887680677990250e-01) (141, -4.29686967660380447764e-01) (45, -1.22277657988229937480e+00) (78, -1.88009692742821865608e+00) (7, -1.69838505713021725718e-01) (122, -2.78061441269067288751e-01) (5, -1.19658143338404987510e+00) (83, -2.17507332032843958558e+00) (52, 3.27733402373789362017e+00) (24, 2.98781627092371326881e-01) (96, 2.25204603709780633303e-02) (43, 3.21975346860626121526e-01) (9, 2.30128887694803863084e+00) (61, -1.21218063934837180784e-01) (68, 1.13561072957592856802e+00) (15, -2.78619020986076337820e+00) (3, -2.14231840737383188999e-01) (142, -1.34455930266794924238e-02) (52, -2.00255620643390352953e+00) (59, 4.39012196350631045405e-01) (102, 1.64289203457517203333e+01) (118, -2.50236687518812173092e-01) (98, 8.85057821838908012069e+01) (115, 7.17601161049641111944e-01) (72, 1.29901616422253396443e+00) (96, 4.44202991909696531803e-01) (73, 1.36036435754356954675e+00) (64, -5.33521247511098906102e+00) (116, -5.86718576421631943241e-01) (31, -1.72766528150839810962e+01) (127, 4.78713810857690102996e-01) (54, 2.63437854642350144374e-01) (113, -4.04765308706490148372e-02) (135, 6.44283473246114990474e+00) (109, 2.85897228113223755841e+00) (66, 2.19751566314862234464e+00) (8, 1.02045631971811290306e+00) (35, -1.21858911458378127435e+00) (12, 2.31657652539091749588e+01) (86, 2.64788418503413905403e-02) (110, -5.32179324820682531083e+00) (107, -4.42282303086931882774e+00) (105, 8.79639590999612508426e+00) (38, 9.69294261946699209354e-01) (90, 1.50000000000000000000e+03) (4, 1.69033524195210560492e+00) (62, -1.45549852609685697047e+01) (120, 1.23110931676067214546e+00) (99, -7.63136779906454520983e+00) (14, -3.71719744172017296791e+00) (19, 1.50000000000000000000e+03) (108, -3.00261867011440264363e+00) (133, -9.44394255123609482894e+00) (103, -2.05226240723981234737e+00) (30, 3.18076474924773844322e+00) (39, -1.65784974203805979265e+00) (84, -8.39515705936559442080e-01) (117, 8.60456684638096103157e-01) (134, 3.58048980988335707742e-01) (47, 1.46097402384632951700e-01) (104, 1.79187933602172666525e+00) (34, -1.90081805416031324185e+00) (45, 3.15844756496256373612e-01) (40, -6.12336165834400247832e+00) (7, -2.13061088749964220312e+01) (23, -5.48284327930491643954e-02) (81, 3.63076043769510459214e+00) (137, 2.16194648762877555948e-01) (126, 4.44004562523047541234e-01) (119, -7.03897623857214771448e-01) (92, 1.22642955384791019213e+01) (101, 1.12278327428278501543e+01) (83, 3.54943761990936001993e+00) (111, -6.36939685420592205389e-01) (128, 3.63776899519928309523e-01) (55, 1.64676918659456683613e+00) (69, -5.07058777185270037613e-01) (11, 2.99795783778087443494e+00) (67, 3.07746253248303114347e+00) (63, 5.21485729180489254730e+00) (32, 3.30507740592313747907e-01) (77, -8.70659179055440013428e+00) (71, -2.29984697691710282541e+00) (58, 3.17768374663445374306e-01) (129, 3.04018886273298261091e-01) (44, 5.29188969153299471060e+00) (95, 2.37432701034166748766e-01) (21, -8.35395993696702099385e+00) (136, 4.67992894593136532499e-01) (142, -5.89629748754830207425e-02) (4, -9.00196515302099986577e-01) (125, 3.44719225597248712933e-01) (111, 7.54651780818139217288e-01) (106, -6.24592247355122420771e-01) (19, 1.50000000000000000000e+03) (80, -1.65874664986514930298e+00) (116, 1.52894981269688590153e+00) (130, 4.63521500381546269764e-01) (48, 2.22795658042607591653e-01) (50, 1.43856100238747375286e+00) (73, 2.25762719130476768870e-01) (64, 3.10697845057626365062e+00) (55, 2.34933314240398566364e-01) (11, 7.89485230646742475180e-01) (140, 1.90286813253976366811e-01) (3, 3.95458396963497271770e-01) (41, -9.18827351457977559157e-02) (89, 1.50000000000000000000e+03) (54, 1.15248522127204169885e-01) (100, -4.49427173939359825283e+00) (87, -5.94902347508412199240e-01) (30, -7.71224665206963977404e-01) (45, 5.15891205861334412042e-01) (60, -1.51390145727722336133e+00) (127, 2.43048150491861930655e-01) (34, 1.33060809062324786334e-01) (101, 8.45029932339590783563e-01) (6, 6.32282598720378508084e-01) (43, -6.33276772856057740269e-02) (94, 1.31881144990364496117e+00) (137, 5.75400277570107476777e-01) (95, 3.41347676742487837753e-01) (96, 4.69703080857143739912e-01) (35, 6.34730098765017181073e-01) (85, -2.03771550311036359071e-01) (12, 1.95161188418128772604e+00) (107, 4.12339532709165290658e-01) (53, -3.96141013240781769689e-01) (129, 1.41279449837425907788e-01) (47, 1.45792415460568008934e-01) (7, 1.20525090288629843638e-01) (108, 2.56257165678368703521e-01) (91, -1.98235751834030793361e+00) (8, 4.14150414855657234003e-01) (58, 2.39910457222647227615e-01) (62, 2.43779373633727036719e-01) (72, 5.95086312580089926705e-01) (92, 1.92828584025670557445e+00) (74, 5.33602388340837618941e-01) (115, 2.00610291821222741504e+00) (20, 1.21438246804398253254e+00) (25, 1.98020203828181551309e+00) (126, 2.24575246993033189602e-01) (75, 2.94644002712973362978e-01) (49, 3.61089391650097180086e-01) (23, -8.85679835749067945194e-01) (102, 7.25131657978264954068e-01) (93, -1.14403638204252611210e+00) (86, 2.23590169913046388217e+00) (121, 3.18756733188009400148e-01) (40, -6.74172702762784625818e-01) (37, 5.25838982393185383479e-01) (141, 3.91969973491831311097e-02) (52, 4.09646793602897962838e-01) (18, 1.50000000000000000000e+03) (76, 8.07475311834724873705e-01) (139, 2.62581735431759721866e-01) (114, -2.88167082983558364706e-01) (57, 1.87421772065703151622e-01) (9, 1.25458227674503386417e+00) (128, 3.29986539176669813056e-01) (142, 2.99558864981266492755e-01) (9, 4.87375083219963645131e-01) (41, -3.84233580694370358000e-01) (124, -5.48926313226765105746e-01) (139, -1.33422034995748922670e-01) (91, 1.42248924875792281952e+00) (80, 1.69181081287065793184e+00) (64, -2.66776897066344109710e-01) (49, -2.09951460612589624333e-01) (72, 4.10136872262687676716e-02) (37, -6.16506520914382183385e-02) (31, -1.16639534949455891955e-01) (133, 2.05306649796123286134e-01) (33, -1.86837736826183237193e-01) (102, -6.66580523035688443656e+00) (53, -1.90068568516973679383e-01) (2, 1.37441120213784767623e-01) (8, 3.26483181432687341594e-01) (119, -1.52360876003782397259e-01) (94, 1.24350558585578108151e+00) (121, 7.13467038980595685826e-02) (61, -1.27808298427856570356e+00) (56, -1.80892037518141007846e-01) (46, 1.59832360627343272874e+00) (6, -6.51878979239006062230e-01) (128, -1.28950766736858041250e-01) (66, 3.00189098383195629438e-01) (111, 2.14281186345149671224e-01) (26, -2.36330920944121752880e-01) (101, 6.35212758662340615246e-01) (134, -1.97165807608081533608e+00) (103, -3.23546357566383446791e-01) (113, 1.12245437816027360256e+00) (77, -8.50209864694883854508e-02) (100, 2.24674009115757034039e+00) (14, 5.93189074696699666922e-02) (126, -4.64666372919817771692e-02) (3, 6.49978863699619963112e-02) (4, -3.62624196714003144137e-02) (120, 4.59788410798285442777e-03) (45, -8.28468230131227278967e-01) (97, -9.91108153523166252041e-02) (127, -2.49203361292450117914e-02) (138, -3.92555638608353685282e-01) (98, 7.73386479868950066363e-02) (84, -8.51934903123445552708e-01) (1, -4.20271221991803251017e-03) (38, -6.05704110735206691096e-01) (132, -4.38828027526361241772e-01) (5, 9.45302320906956095037e-01) (118, -3.57320325296392807268e-02) (122, -2.18250431519867404973e+00) (129, -2.53753516074609830611e-01) (29, 1.81671105623357331815e+00) (140, -8.02915117328856370316e-02) (137, -1.89528702636311607854e-01) (79, 1.11716799826844289528e-02) (131, 8.79719454441372339382e-01) (20, 4.86475789535063041225e-01) (58, -2.74994224351798377537e-01) (68, -2.34716499444198672952e-01) (65, -4.53899621175045744903e-02) (54, -2.09310523824876665300e-01) (34, -7.09094726376767736653e-02) (44, -6.02864637262249813965e-02) (32, -9.42660740568411203988e-02) (27, 2.42211682962303909150e+00) (67, -2.35406970074758109535e-01) (23, -1.60553898345777074086e-01) (104, 3.40678648518982496451e-01) (7, 9.63141995981945275851e-01) (117, 5.38286937831999434678e-01) (142, 2.83968238549678453353e-01) (7, -2.32131824938313879869e+00) (24, -6.79316561476170505118e-02) (62, -1.06961180835779712250e-01) (73, 2.13783964616788557667e-02) (80, -7.98211499954666892087e-01) (100, 1.56788558149802081942e+01) (141, -1.32576718314492442152e-01) (8, -3.64425811043856651139e+00) (46, 3.85384817398979073744e+00) (54, -1.29298520798636490392e-01) (21, 3.99268596343743364940e+00) (33, -3.58584907921453854840e+00) (71, -6.81648079052441602244e+00) (139, -8.36941603738872302864e-02) (97, 8.17083597486653184783e-02) (58, -7.77497093812000300561e-02) (22, 5.96509684333373968457e+00) (69, -1.46985648224122994465e-01) (103, -8.21093250927284246110e-01) (66, -6.01102328265929020112e-01) (85, -2.01522617085083094457e-01) (67, -9.32706457550555173563e-02) (44, -2.39819144877212542255e+00) (6, 3.69525640487137962964e+00) (132, -6.70247154664325162088e-01) (87, -1.53449572127224742601e+00) (135, 1.30826730823330850129e+00) (26, -8.35348544870946271845e-03) (122, -1.06585959114286255023e-01) (23, -8.32144366239674471153e-01) (98, 1.72084861397533046556e+01) (81, 2.96463664301750473573e-01) (64, 4.18052205803968135456e+00) (9, -1.51615406259666229971e+00) (134, -3.13640434078448882005e-01) (25, -1.33694479959860917928e-01) (138, -1.30912682336124019944e-01) (136, 5.80796104125526832518e-02) (123, -6.61618272586102645905e-02) (65, -3.71037017787010425796e-01) (76, 6.89750886940107332812e-01) (105, -7.17305230937270943414e-01) (82, 1.37345266612722816113e+00) (28, 7.87825833285867549449e+00) (125, -6.23339452528599759912e-03) (11, -1.08587336041764648265e+00) (109, -1.50144709214206306669e+00) (61, -1.64008541038946659141e-01) (114, -5.34974632666981864126e-01) (27, -1.02394813705459370112e+02) (18, 1.50000000000000000000e+03) (68, 1.99294078841655330006e-03) (5, 4.90597962753732741437e-01) (4, -1.08208624703808986567e-01) (31, -3.26385923321350333026e+01) (56, -1.09141743821547454463e-01) (49, -1.67820839526395454433e-01) (57, -7.05932993100774480721e-02) (129, -5.97575407949458362045e-02) (50, -7.82904035486647192910e-02) (55, -8.05425300881800060315e-02) (19, 1.50000000000000000000e+03) (88, 1.50000000000000000000e+03) (94, 1.49938230748453610319e-01) (13, 8.45728221235238208919e+00) (99, -1.46578549328445983946e+01) (86, 9.34778937151474198508e-01) (131, -3.22347745784648809231e-02) (124, -3.88251573830330654058e-01) (52, 2.30958331113002124368e-01) (101, 1.01270677292587745200e+01) (142, 1.41689736862066428813e-01) (13, 5.03807814004908260941e-01) (33, 2.37479582181775139560e+00) (35, 4.80984102727118723042e-01) (39, -2.11055082805239102584e-01) (30, -3.00574596412480965490e-01) (5, 4.48972020253251613564e-01) (106, 1.28179513420087626274e-01) (126, 2.52358620402137967531e-01) (15, 4.52290773724984107584e-01) (93, 1.74190910248510077984e+00) (26, 2.24438455039097317645e-01) (36, 1.03456775650828203261e+00) (117, -2.66828005333341389260e-01) (68, 1.38529488192310645811e-01) (0, 4.58753420966863689756e+00) (52, -5.05975777290801967401e-02) (69, 2.15142386264441376476e-01) (115, 1.58038549834673691663e-01) (79, -8.99379021211153123483e-03) (74, 3.03526505900161669427e-01) (73, 2.53790531181892653478e-01) (16, -2.01831166594936189940e-01) (119, 1.57553440010934825422e-01) (130, -1.55395894816638846514e-01) (54, 3.34635233589133801457e-02) (20, 8.10414081586510293143e-01) (105, 1.46706964597300770770e+00) (84, 1.32912025800519684182e+00) (59, -1.88243482403093853605e+00) (111, 7.90554976628704331176e-01) (45, -1.17960165777991940472e-01) (121, 1.98974053813855272788e-01) (6, -8.74996135140211767078e-02) (104, 2.15133394327574223315e-01) (86, 6.42100080530794259381e-01) (46, 1.12666490262888818741e+00) (58, 1.56767019876973195958e-01) (88, 1.50000000000000000000e+03) (131, -1.98409305818243140995e-02) (108, -5.22426303144024939407e-01) (92, 4.43770594319199185307e-01) (7, 2.87603619567147417158e-01) (103, 1.11802645344051751475e-01) (118, 1.39464383090762089612e-01) (124, 2.12870020199529441651e-01) (109, -5.24181085165973170703e-01) (82, -9.82674845068538638237e-01) (17, 1.50000000000000000000e+03) (75, 2.42341346379633892916e-01) (22, 5.25393150079255910612e-01) (95, 1.23383983961624602022e-01) (116, 5.81100277820146948748e-01) (112, -4.45806118399561746024e-01) (41, -2.12420851453196529723e-01) (128, 8.76884769275053932436e-02) (72, 3.12876307785391050142e-01) (34, 1.03464911376870985493e-01) (2, -9.19114970357997407291e+00) (110, 3.83542714578558929794e-01) (44, 8.76717410294018062444e-01) (67, -1.12125710683018946917e-02) (91, -4.78792510014926925299e-02) (127, 1.27683445344692170220e-01) (4, 2.49562820133479523754e-01) (135, 2.94555545665684703760e-01) (25, -2.33991211857541431263e-01) (32, 2.66531368258796197424e-01) (100, -8.44323789068185615037e-01) (102, 4.92224592171805763741e+00) (57, 9.09329444151106280891e-02) (71, 7.66349795948837786419e-01) (142, -5.26961819670381317882e-02) (11, 3.99334489372628609338e-01) (57, 3.16393033083591845855e-01) (71, 1.73359938916336475678e+00) (123, -4.85494121283185275928e+00) (9, -8.25406868195035281488e-01) (53, 1.60805431180067204266e+00) (88, 1.50000000000000000000e+03) (17, 1.50000000000000000000e+03) (124, 2.67499578981281960210e-01) (28, 1.57030387294217854688e+00) (34, 8.21945684756904687562e-02) (41, -3.81006034970701801257e+00) (6, 6.36257540240924068797e-01) (95, 2.44933037171716938563e-01) (62, 3.53245589667449511051e-01) (44, -1.62226474474471693554e+00) (114, 1.07634271211287213532e+00) (18, 1.50000000000000000000e+03) (135, -7.74027846585728207529e-01) (19, 1.50000000000000000000e+03) (102, -3.72631949753074565024e-01) (42, 1.37739759299542119386e+00) (121, 2.17854848793117872319e+00) (61, 1.42396833444508097433e-01) (126, -1.28914591752656761819e-02) (111, 4.00030694938816377970e+00) (12, -2.11014973966046115450e+00) (106, -3.77039649651395136765e-01) (43, 9.54253484512436411791e-01) (105, -3.38237811950692224272e+00) (115, -1.99698000146659349063e+00) (133, 1.64244813348041240886e+00) (65, -5.14481613148791927514e-01) (89, 1.50000000000000000000e+03) (59, -1.50003316511524964483e+00) (82, 2.98781176422072736187e+00) (2, 3.79531264950958657778e+00) (131, 2.22765911565973917519e-01) (107, 7.83722395472939314942e-01) (67, 2.01361261343149966496e-01) (32, -6.47109758773386278818e-01) (91, -8.16790389164293140212e-01) (33, 3.06720920845443743019e+01) (78, -3.22948243156586989322e-01) (70, -3.04639279464741563608e-01) (30, 6.83460011497711572570e-02) (139, 5.21156672889751315658e-01) (81, -1.54813767253497963639e-01) (87, -2.52336860766602599782e+00) (77, 1.74398321265027878013e+00) (101, 3.36345386976511306898e+00) (56, 1.71932004691227624527e+00) (108, 7.94218100545104666033e-01) (94, -2.06101330476163413508e+00) (118, 6.07872996481938376867e-01) (80, -1.10502861491392101456e+00) (0, 8.56031312623269591278e-01) (64, 4.12073148699664493222e+00) (130, 3.60221468881277928631e-01) (138, 2.42923078727487001816e-01) (84, -2.91015005119462344396e+00) (110, 8.12416116378651187446e-01) (86, -4.53182618095153477711e-01) (3, 5.04874076790733261610e-01) (5, 3.83314661467678285955e-01) (83, 2.81379171985355691632e+00) (117, -2.40661504684414412347e-01) (48, 4.86283672178673187503e-01) (112, -1.05369470874732762411e+00) (10, 1.78299440810269188562e-01) (140, 1.44822369176658805046e-01) (142, 3.92983147833200416321e-02) (1, 9.20262293570186101777e-02) (42, -1.46523105697137168146e-01) (82, 3.33208840848564988302e-02) (89, 1.50000000000000000000e+03) (103, 2.47082455126413635949e-01) (115, 9.94981306607315318935e-01) (27, 1.32207608156743094963e-01) (65, 4.67621832786829727535e-01) (81, 3.41821756435855661493e-01) (20, 1.66760317298131788277e-01) (63, 1.29138916412079918228e-01) (107, 1.94370979436219437630e+00) (69, 3.38818137900212867919e-01) (83, 8.33605948965704057763e-01) (72, 6.98707913722869000672e-01) (22, -2.13157862253179830603e+00) (131, -9.05800193905736183986e-01) (135, -2.56938489147163828807e-01) (4, 3.29309895272539177036e-01) (140, 3.00001090113154511574e-01) (121, -2.02769604433432037993e+00) (71, -1.56039729703828133900e+00) (31, 3.57386287483283116018e+00) (80, -1.18727663373667066682e-01) (37, 4.41812305911349678667e-01) (73, 5.09298570841570930057e-01) (53, 3.33759361645481145153e-01) (46, 1.09498792960176904998e+00) (68, 4.86117473421322388027e-01) (57, 2.65530799896802949256e-01) (101, 8.31046237887577921022e-01) (128, 2.65557601699972001263e-01) (91, 5.20851610341061532772e-01) (36, -1.16971396380780978674e+00) (59, 4.76602416458519473341e-01) (44, 3.13184731858061782273e-01) (21, -5.51980396336418793757e-02) (108, -6.35121990687920745522e-01) (111, 2.55077213491865850692e-01) (28, 2.32348359994721975763e-01) (74, 4.70456187651847490550e-01) (112, -1.38017268781892910035e+00) (78, 1.80050703529459031615e-02) (38, -3.00270212190801522034e-01) (137, -3.18487590303607681630e-01) (30, 3.72925807513645102276e+00) (14, -6.76655545813412362399e-01) (99, 4.18948544374513787147e+00) (6, 2.89177514352097775330e+00) (2, 4.41245258009233698449e-01) (96, 6.10990746268225692894e-01) (49, 6.30374500232732004612e-01) (3, 3.69421028283330898923e-01) (102, 7.98774250371273897287e+00) (84, -3.41383982863125101659e-01) (85, -7.86282423530674901002e-01) (17, 1.50000000000000000000e+03) (75, 5.19134021639205189835e-01) (117, 4.39319147745275861983e-01) (5, 2.97046561577079382133e+00) (94, 1.48867731706893291488e+00) (116, 4.00350312687373643961e-01) (77, 8.86261928376205321278e-01) (12, 1.41874408408236485357e+00) (76, 3.33912114328929338081e-02) (66, 2.67683748278699895629e-01) (125, 1.98820466496416048408e-01) (64, -1.32406508471422601492e-01) (0, -4.57892279041825478458e+00) (95, 2.13600854736561818203e-01) (29, -8.41458991420910784598e+00) (142, 5.00074231798580459696e-01) (43, -2.10978137670879112298e-01) (46, -1.62010845253663188226e-01) (50, -4.86130705808468926987e-02) (61, 2.17027391689424309362e-01) (138, -1.50654910082218818079e-01) (137, -8.49151671072015390429e-02) (83, 4.43981920108967420546e-01) (82, -1.02669398005867232304e-01) (78, 1.82608382597200941122e-01) (101, -1.76830764308066146206e+00) (72, 2.88346773997361971453e-01) (56, -2.28810015855421433617e-01) (55, 3.06019827475795924698e-01) (128, -1.51030712137140921136e-01) (130, 2.15905788910491502897e-01) (12, -3.63024465273697860557e-01) (132, -7.74620803667956936422e-02) (14, 2.74304251848794533597e-01) (94, 5.20373138224339504276e-01) (73, 2.60990823782023761979e-01) (123, -8.65565564119864183645e-01) (28, -2.58018428401106003633e-01) (140, -1.10825289194329740239e-01) (104, 2.59434227024821550955e-01) (13, 1.52155779121499556972e+00) (127, 2.17382326527577829367e-01) (68, -1.12127249041287263553e-01) (34, 9.28740334011522117308e-01) (26, 3.64861686810783014678e-01) (111, -1.31803227038019138417e-01) (75, 3.83887723793367385827e-01) (92, 4.01752680512475757180e-02) (25, -3.11271897851655376943e-01) (109, 4.65699680533096738166e-01) (7, -7.78816979029223754871e-01) (6, 1.18702643078986164876e-02) (93, 6.30480751588512466910e-01) (106, -1.12039609591998057248e+00) (44, -2.38777847110866137115e-01) (30, 4.39877948040996724632e-01) (54, -1.09440022831807121095e-01) (41, -2.27348336013619700680e-01) (70, 1.74916982823689975968e-01) (65, -2.05940135480478403451e-01) (3, -2.96351068296188069340e-01) (45, -7.51848439686522429515e-02) (18, 1.50000000000000000000e+03) (81, 2.38300262108896626634e-01) (134, -9.54181688234718161645e-02) (37, 3.77811279611493036623e-02) (112, 1.68674096019666275303e+00) (36, -2.21043935917787925938e-01) (20, 7.47258311481114184671e-02) (108, 4.03762740488590010646e-01) (32, 2.07178136436913984397e+00) (19, 1.50000000000000000000e+03) (103, -1.29718830748487362614e-01) (115, -1.46032707713385223602e-01) (129, -1.18953907870650466005e-01) (60, -8.08347469136447283056e-02) (49, -1.77692624969689266790e-01) (141, -1.92150062477263572358e-01) (107, 3.66037676617718757410e-03) (1, -9.52884181996695223127e-01) (63, 1.85018662387248056071e-03) (126, -2.18631119946087831840e-01) (17, 1.50000000000000000000e+03) (39, -1.19388464539623415095e-01) (53, -1.77500233438406318509e-01) (113, 3.80282076739739960392e-02) (76, -9.64606208034581080746e-01) (142, 3.90442951874976672613e-03) (91, -3.11844829642823384575e+00) (96, 3.49455762542697445650e-01) (119, 6.23533562223203552399e-01) (123, -2.60746998156936093949e+00) (93, 1.69513727699726479692e+00) (49, 5.60396356851515897723e-01) (129, 4.85723818192780321112e-02) (45, 1.93631195018353752246e+00) (120, 8.57453632833531931290e-01) (21, 6.98498614212122004297e-01) (58, 1.55513707339996004597e-01) (50, 1.24822553251892220949e+00) (100, 1.97148674183417704775e+00) (132, 2.35609935854867735827e+00) (80, 2.96378647844750142681e+00) (25, 6.72194384282012435960e+00) (16, 1.49646298774919661589e+00) (128, -3.73246795230796069021e-01) (40, -2.06491296056694828565e+00) (130, -7.40580062734757071929e-01) (112, 2.22433776208218603188e+00) (69, -2.88135581571930754485e-01) (92, 1.00437412256085401019e+00) (1, 1.28820984772542050933e+01) (47, 8.06387903541406325658e-01) (72, 1.57152901935844169223e+00) (61, 2.31452248300478502507e-01) (78, 1.38681317356453892575e-01) (60, -4.17543932316184740472e+00) (17, 1.50000000000000000000e+03) (113, 3.90916329437817844372e-01) (51, -4.58765349985875037220e+00) (38, -1.49481004607805861850e-01) (140, 1.19231170584855705741e+00) (15, 5.39789149646242627512e+00) (62, 1.15320901835921710288e-01) (94, -5.02426972920435033210e-01) (35, 2.39288277768531054690e+00) (103, 9.07159529497126415620e-01) (108, 2.90015689915254448739e-01) (125, 1.89201366118427166674e-01) (76, 5.91956861119556122797e-03) (4, 5.83254878138913190888e-01) (46, 2.81089306633846724992e+00) (13, 2.44070948173286383920e+00) (22, -3.31855063592361254621e+00) (53, -9.02488003764727597655e-02) (54, 2.53347616130966624137e-01) (8, 9.89094493480348391223e-01) (71, 5.42300929657572083897e+00) (126, 1.53917687816099491016e-01) (118, 6.81693228988872301777e-01) (101, 2.48979954458584007426e+00) (77, -2.59950446384265676514e+00) (110, -1.78613942990763052698e+00) (37, 2.71827767502427120050e+00) (136, 1.82470227384323807618e-01) (19, 1.50000000000000000000e+03) (88, 1.50000000000000000000e+03) (141, 1.04921742670691897636e+00) (115, 1.66093846196368666313e+00) (24, 4.42714386457929376384e-01) (34, 5.69938018954968261820e-02) (97, -5.76475000622330702171e-01) (39, 8.47393546957006749132e-01) (117, -1.07012336380371508859e+00) (70, -1.41407766490394593006e+00) (127, -9.66961474355157224458e-01) (122, 5.10911058934265804865e-02) (104, -3.21784312818569839809e-01) (139, -5.77334367541417689540e-02) (142, 6.13197029520304637273e-01) (37, -2.74308834698728132295e-01) (38, 1.33451848662716576754e+00) (44, -1.68473227981886197746e+00) (64, -2.99773875596493821760e+00) (85, 7.07618335143881838079e-01) (110, -6.67558069591280056621e-01) (78, 5.71353410816913598325e-01) (115, -2.74965240401999655440e-01) (79, -1.85479283144365636460e+00) (93, -1.31556689719200137212e+00) (33, -8.11161106082873573087e+00) (14, 2.65623389060232917291e-01) (28, 5.68856458046064217271e-01) (20, -1.26869109194117334061e-02) (141, -2.48802580742741286102e+00) (130, -2.12088364713637761438e-01) (65, 4.95848030502382408624e-01) (123, -2.51911742322701470709e-01) (109, 6.25932892873215629415e-01) (45, 2.99852889934779986980e-01) (50, -4.13315854983899910735e+00) (128, -4.32455537483831142787e-01) (134, 2.05437150214594277386e+00) (124, 2.32950414506836360820e-03) (120, -2.65845675951260407288e-01) (24, 5.64719606710008051320e-02) (55, -6.88710988522490547004e-02) (137, -2.85205625562769515824e-01) (89, 1.50000000000000000000e+03) (126, -4.54514261458305868224e-01) (91, -3.82989391982675286830e-01) (98, 8.36936799940683928689e-01) (21, -1.00087236411247881840e+00) (18, 1.50000000000000000000e+03) (67, 6.52239919030073167505e-01) (53, 6.20742792317107050515e-01) (46, -1.87870295295994194085e-01) (107, 6.56635496271718799299e-01) (60, 2.71425680407941927186e+00) (61, -1.20182591474257499664e-01) (62, 1.20479624459322648064e-03) (47, -1.43775375041132191800e-01) (23, -1.00141744022277445758e+00) (131, -9.77074669174896492940e-01) (108, 1.03480952804491321828e+00) (129, -9.31100342376394940480e-01) (73, -7.91987039004704712619e-02) (66, -1.12256322732830313323e-03) (118, -2.86129809632747367232e-01) (117, -9.06483466515184077572e-01) (135, -4.79621001353805198608e-01) (54, -6.84668777145237134052e-02) (122, -2.45326847337715703290e-01) (12, 3.32969375681457513405e-02) (106, -1.35183867124030676621e+00) (92, -3.99014834106969740191e+00) (139, -4.94249749230115997811e-01) (4, -5.10996989994393024936e-01) (133, 1.07896712649232928705e+00) (63, -1.73286268286827316309e+00) (39, -3.87404761878258729890e-01) (113, 1.95797005850040173325e-01) (19, 1.50000000000000000000e+03) (105, -1.17478925817298200940e+01) (75, -4.81308568180333212760e-02) (119, -1.02524275490509950148e-01) (69, -2.95745689050855498081e+00) (2, -1.62021716621141109727e+00) (17, 1.50000000000000000000e+03) (15, -1.35705965414505191902e+00) (81, -2.80156069488602454953e+00) (142, 4.33886008226449793046e-01) (8, 1.86139427661058010077e-01) (29, -1.75747690275527071457e-02) (32, -3.38702571061794177609e+00) (86, 1.45593891662292584943e-01) (104, -1.36019966877884401768e+00) (137, -2.74896834708688753146e-01) (41, -3.86173928938482957651e-01) (70, -3.48400081719603404995e-01) (66, -1.02660309512010120003e-01) (129, -2.72161586963917234705e-01) (36, 2.38037778856358045454e-01) (94, 2.03374324506147757807e-01) (44, 1.39574773385477440835e-01) (84, 1.54696906427115699056e-01) (61, -5.90336892476397534502e-01) (78, -1.94435642511671058497e-01) (97, -2.27493460421860693721e-01) (126, -2.75592632442623441946e-01) (95, -9.81396542546380257210e-02) (6, 9.95061461888865350645e-02) (47, -3.04085293882304930069e-02) (15, 5.82697036686989688903e-01) (7, 4.03585673616147777576e-01) (59, -1.64177601063506678480e-02) (28, -2.76105844059671090562e+00) (128, -2.43124179156656600176e-01) (24, -8.73128156252033632567e-02) (55, -3.26742058886157760167e-01) (133, 9.18563950904021236932e-02) (85, 8.44055900513726919954e-01) (1, 6.72061549785026191017e-01) (115, -1.86135373355298339160e-01) (121, -5.85872134019459811505e-01) (26, -1.25661911739115866871e-01) (76, -6.29144271805523347396e-01) (68, -6.76580904369401769927e-01) (96, -2.03103749508152554848e-02) (92, 2.19621672210747215237e-01) (20, 5.09246248752411090344e-01) (123, 2.73431762529475708146e-01) (53, -1.41042734346456644090e-01) (134, 6.28008397848748733949e-01) (120, 1.64460891591336588746e+00) (51, 8.74263739798199490671e-01) (50, -8.44304510537484537158e-02) (30, -1.38511042768491715593e-01) (14, 1.35574219903636244977e-01) (39, -7.84011356220115973592e-01) (12, 7.44437999514540260648e-01) (17, 1.50000000000000000000e+03) (72, -2.16167848464082945625e+00) (23, -4.47727371852202765679e-02) (110, 8.55536732069632141484e-03) (109, -5.01394933883235749406e-01) (4, 2.35738471599154814085e-01) (103, -2.04743892881004641016e-01) (122, -2.86350699232977456976e-01) (114, 7.90689797141395533941e-01) (90, 1.50000000000000000000e+03) (34, 7.09699973011504864351e-02) (19, 1.50000000000000000000e+03) (93, -7.03449859238003960549e-02) (73, 7.35785053254641718823e-01) (46, -2.32021483251228177735e-01) (139, -2.50870548791629954799e-01) (124, -1.91663407067328511735e-01) (136, -5.50691782115570044320e-02) (75, -6.99907951790368632050e-02) (54, -3.46577171414451823406e-01) (74, -1.97531456070327599006e-01) (100, -1.09853585514514495713e+00) (142, 2.53511485976519235219e-01) (23, -2.95239393483417567055e+00) (99, -8.56497704830967099277e-01) (106, -1.28828296762867933190e+00) (122, -4.84045771033020155727e+00) (66, -4.82054910992188931362e-02) (135, 7.13244664885540835542e-01) (29, 1.80288048856867999525e+00) (19, 1.50000000000000000000e+03) (37, 1.54370213137582819318e-02) (26, 1.28181558853591698321e-01) (33, 7.76092184008060348432e-01) (104, 7.84475020456465860219e-02) (97, 3.60516432421514987361e-01) (111, -4.69499318542304783231e-02) (10, 3.10948041381273965200e-01) (84, 9.77614455319410047274e-01) (48, 4.25158714959811678824e+00) (41, -2.92476940462655377040e-02) (25, 7.04817077263404818954e-03) (127, 2.35055954380722076369e-01) (124, 3.47623629980879367274e-01) (112, 2.69999093942124313017e+00) (90, 1.50000000000000000000e+03) (55, 8.84891225002590320337e-02) (15, -2.56112715490912457028e+00) (95, 1.73968018803433363551e-02) (52, 1.64280743895253511511e+00) (70, -6.58056168155323473190e-02) (130, 1.14878384563986510325e-01) (39, 1.50039135480359714370e-01) (123, 1.19367027746031628688e+00) (63, 8.59060936142235082036e-02) (73, 2.19279105302773891228e-01) (38, 4.92799574867095781239e-03) (129, 1.51347717369504052021e-02) (28, -6.64658040215072298817e-02) (67, 8.93859428911048525812e-02) (105, -6.99236926684831283652e-01) (58, -1.50374199854589996050e-01) (114, 1.52516741433992053523e+00) (82, 7.83642441665921452021e-01) (20, -4.32788169658269106232e-01) (137, 1.05331664875970964362e-02) (134, 2.69302262770551859017e-01) (16, 5.52089992720098843293e-01) (121, -1.09060679955299155708e+00) (138, -1.30143526831607653227e-01) (42, 9.69069621220675636586e-01) (56, -7.14679806733288014442e-01) (119, 1.27281611019537432838e+00) (91, 7.91815313194051961787e-01) (54, -5.81970903711773249189e-02) (9, 2.14971348327107936171e+00) (132, 1.01207372670492068423e+00) (93, 7.26885026293476621539e-01) (86, -2.28562811039226154719e+00) (12, -5.04502445719726466677e-01) (7, 2.01378590623703890294e-01) (107, -1.17306847314650602998e-01) (108, -8.35311967932076848697e-01) (3, -3.67482045376174459861e-01) (136, -2.77829046718783365805e-03) (113, -7.34650204722338013436e-03) (53, -1.42905277627520845007e-02) (81, -3.09716278559509450297e-01) (71, 5.78992230049060641051e+00) (117, 4.95412773419956653509e-01) (109, 1.91944789356425032922e-01) (125, -2.81261872256081957300e-02) (98, -1.12488111464477968937e+00) (126, 2.18770769113871776934e-01) (142, -3.59320426108564294765e-01) (26, 6.21954198906650490564e-01) (95, 1.81419423545785085672e+00) (116, 1.97922712504918929532e+00) (121, 5.47142163283652838146e-01) (129, 5.95888456141696942758e-01) (140, 6.47605898434586157997e-01) (16, -4.35989003425232191091e+00) (122, 7.21330286871370129909e-01) (81, -3.99744187006731144240e-01) (41, 7.15240632828978473157e+00) (125, 6.40291691792793771221e-01) (92, 6.68702046112612080719e-01) (53, 5.95058795848072419332e-01) (117, -9.48943830645480601582e-02) (83, 7.07594852344046038040e-02) (60, -9.78589227311146458987e+00) (25, 7.39639033010391866441e+00) (38, -2.05894840963267222733e+00) (54, 6.42184639845412519321e-01) (1, 1.32983191185902493991e+00) (80, -2.15188973800358507305e+00) (47, -2.34833157399429004464e-01) (126, 7.94669302678252309491e-01) (105, 1.39509826257640465741e+01) (15, 3.33378958188310914323e+00) (12, 2.85072301675715344960e-01) (30, 1.50073430562352716500e+00) (27, -4.55517196683073954944e+00) (55, 6.30934667766107293296e-01) (131, 6.75390870923690656014e-01) (4, 1.74935927222392906266e+00) (6, 5.35999839876282635487e-01) (112, 9.97937179640934068914e+00) (58, 7.16266026118321019744e-01) (86, 5.68444455142054483332e+00) (91, -2.72650243120521051932e-01) (137, 2.27181109121070878842e+00) (90, 1.50000000000000000000e+03) (10, 1.08833765569360108039e+00) (23, 2.52791031529108867204e+00) (135, -8.36026407555696904339e-01) (51, 4.11479163905130340684e-01) (24, 4.66047962098794954500e-01) (56, 1.24355290963340214816e+00) (99, 4.56107711199992849060e+00) (76, -5.15024802787794211412e+00) (22, -4.00715454083023914222e+00) (111, 1.33785850843022324774e+00) (141, 5.61120312134308796281e-01) (52, 1.31665012119986069017e+00) (21, 3.78551972705493011695e-01) (17, 1.50000000000000000000e+03) (66, 2.44043436459813145589e+00) (62, 1.35946673453077782057e+00) (109, -7.06979293906378924994e-01) (120, 3.24232120693322189986e-01) (5, -9.47102258177526046268e+00) (57, 5.84206228713020414567e-01) (18, 1.50000000000000000000e+03) (48, 2.41608235706526619513e-01) (59, -3.92628243147423242054e-02) (85, 1.70190314810481058139e+00) (13, 3.38583164538491132589e+00) (69, 2.20158083821576200378e-01) (33, 3.69702921675361384501e+00) (11, 1.38835981171467026662e+00) (102, 5.14492383430184330173e-01) (123, 2.34842049525378637753e+00) (128, 7.72870865743319090946e-01) (44, -1.35843998177696168028e+00) (104, 2.11308480427695055681e+00) (142, 1.40210641392914087122e-01) (66, 2.54176685877915364831e-01) (87, -4.79563943623182886711e-01) (101, 7.36393841172618301982e-01) (138, -6.76541287776030175749e-01) (60, -1.23321180797019858133e+00) (107, 2.66311700555286801073e-01) (92, 1.73120487026934766206e+00) (50, 1.69653601623406508070e-01) (11, 2.93611852200127698698e-01) (106, -7.84053526385873666982e-01) (55, 1.96709022858033849568e-01) (129, 1.67964989093544514454e-01) (79, 2.40988402635187587419e-01) (42, 3.82855991850939436638e-01) (20, 5.92796905942775537168e-02) (82, 1.29152221685399748452e-01) (124, 3.03105831041895812383e-01) (35, 2.72081518528180632543e-01) (19, 1.50000000000000000000e+03) (86, 1.57010893099977710818e+00) (22, -2.40452804472044950890e-01) (15, 1.65423579562805761478e-01) (95, -3.80956879864176256589e-01) (12, -6.40075523590923345374e-01) (1, 5.78710587711080304274e-01) (120, -1.96738437288291156957e-01) (44, -5.35013895241914672063e-01) (56, 1.53976371694947089530e+00) (81, 1.61137804847506860284e+00) (110, 1.76849201813945278161e+00) (47, -2.37517139476135313858e-01) (46, 4.70981557264003369845e-01) (77, 8.33775700594246549358e-01) (88, 1.50000000000000000000e+03) (17, 1.50000000000000000000e+03) (62, 8.15952928100288493729e-02) (16, 3.71060875655561561715e-01) (27, -9.21918975153375952480e-01) (83, 7.57390438281649314156e-01) (40, 5.16524574029755600968e-01) (100, -4.08288245881122069392e+00) (72, -2.31198929533326769103e-01) (30, 9.12228780776975001210e-01) (8, 8.47734840164150904585e-01) (84, 1.45764212509659762951e-01) (139, -7.46243699625766124597e-04) (126, 2.46010364551170090941e-01) (119, -2.27591997287166902808e+00) (111, 3.86560528164456074229e-01) (137, -4.77663362952000618289e-03) (24, 2.05507507105485126564e-01) (105, 4.84779469214444036496e-01) (25, 2.04968822138817241552e+00) (117, 1.53704479276477318228e-01) (23, 1.40162518325446328049e+00) (31, 5.20301801759406234993e+00) (96, -2.97658128460518978109e-01) (128, 2.04959686947589841965e-01) (112, 5.25186686833151950005e-01) (36, 4.14983010165903998256e-01) (3, 1.33577184769364004646e-01) (80, -6.84131495750913698473e-01) (132, -2.21324292904498204360e-01) (21, 4.13114982884803527696e-01) (57, 2.58159472979021642480e-01) (134, 2.35807666461128911939e-01) (29, 4.98522124717292403062e-01) (4, -4.93469611188347034858e-01) (34, 6.26887329535329718144e-02) (18, 1.50000000000000000000e+03) (43, -2.00002777981857782219e-01) (142, 4.96222577757223060058e-01) (15, 1.45336678106737504645e-01) (81, -2.48712652228650576980e-01) (105, -4.34787985942292110053e+00) (113, -1.21350046902527850673e-02) (114, -5.32252311882805417831e-02) (70, -3.77445658709745390791e-01) (25, 7.56977264415621631244e-01) (97, 2.34031128233174801068e+00) (73, -2.46877015721435610907e-01) (124, -2.95822876798050082847e-01) (34, -1.24405247835060883688e+00) (71, -1.65215035292797240984e-01) (96, -1.50737200377623475900e-01) (79, -2.58622576913180857172e-01) (14, 1.23051116158502888212e-03) (93, -1.31502949414694247920e+00) (127, -2.19483706953090107472e-01) (132, -1.75084791464975131348e+00) (35, 4.57810964241127521523e-02) (37, -1.10939236979692226748e-01) (36, -4.18225410325918922627e-01) (83, -1.91092562767610663066e-01) (10, 3.85888943459558264593e-01) (49, -3.93528535875942442335e-01) (59, 4.90723846934889018634e-01) (58, -3.87089043907988483717e-01) (62, -2.75628212307074127452e-01) (126, -1.03392112522430790200e+00) (140, -8.27418040823239442361e-01) (2, -3.19130864692569105046e+00) (51, -1.49211003427215227468e+00) (100, -4.38396232671551921989e-01) (101, -1.20843938226392111357e-01) (3, -1.51705823535764761090e+00) (50, -2.98639510994008705591e-01) (61, 2.72218381969286271627e-01) (20, 8.26002090794374255189e-01) (12, -1.19573762336332101164e+00) (74, 9.05410595462466050165e-01) (68, -6.77515725155145132064e-01) (24, -2.85750196021154923010e-01) (125, -4.14051068187013759925e-01) (117, -2.67404780166773103911e-02) (109, -6.89334205945877909194e-02) (120, -1.03388081237437945425e+00) (80, 1.37067718693372775363e+00) (118, 3.48853027103777746376e-01) (63, -4.21523724649671693854e-01) (33, 9.23080136673752327248e-01) (67, -1.33982093238833233073e+00) (22, -9.38555155022754550309e-01) (13, 9.32662411872386964973e-01) (44, -5.80528911198487929113e-01) (130, -7.04173571491749084039e-01) (0, -1.61845687945642580097e+00) (133, -3.64700259722968656018e-01) (106, 1.54830591380668763923e-01) (99, -1.72793866032474618954e+00) (72, 2.91593199374076128549e+00) (90, 1.50000000000000000000e+03) (88, 1.50000000000000000000e+03) (82, 1.49597743624941381668e+00) (86, 3.05054218709167081214e-02) (39, 5.02411554818200101202e-01) (57, -4.27264872539468987256e-01) (134, 2.12769484741375886072e-01) (129, 8.39057094516607704371e-01) (91, -2.63537655617358312909e-01) (19, 1.50000000000000000000e+03) (55, -2.29792020571782718008e-01) (107, -7.44338759331073962500e-01) (142, 1.20622123636673031499e-01) (14, 2.40048719095577400839e-01) (20, -5.98730143083684107630e-01) (25, 2.79922628708795784291e+00) (47, 1.98995346104620995931e-01) (72, -1.68497554068153587714e-01) (97, 2.07016121109284328972e-01) (114, 1.60306680984991012373e+00) (94, -2.16419660799317226108e+00) (55, 2.90392320833210045017e-02) (29, 2.34532186789373620073e+00) (27, -2.77556152540325395961e+00) (84, 1.09370761873773680861e+00) (133, -4.08562655241586969446e-01) (89, 1.50000000000000000000e+03) (24, 1.17286037405891441221e-01) (80, -5.23285981410551226389e+00) (23, 6.77125100814620140000e+00) (103, -1.18269787210762067353e+00) (37, 1.01844779908181873318e-01) (93, 1.86975639582477648482e+00) (108, -5.54359096274478657662e-01) (104, 7.74170188595846298085e-02) (15, -3.45905184044573099644e-01) (68, -4.08790546759091655282e-01) (118, 2.95331569190938447722e-01) (113, -3.94375250037481195342e-01) (53, -9.08018860721002241121e-01) (16, -1.07522146502165710791e-01) (60, -1.37750175473726432784e+00) (83, -1.94322359995702548252e-01) (120, 3.10262651357108343309e-01) (28, 1.49197795164083468755e+00) (17, 1.50000000000000000000e+03) (2, 2.80214515224183768893e+00) (56, -1.16897815263106608086e+00) (88, 1.50000000000000000000e+03) (111, -9.40932138711808363496e-01) (12, 2.47157574709968219651e+00) (107, 5.73992232025891321867e-02) (3, 2.46495415666815181899e-01) (39, 5.18849650719557131673e-01) (59, -1.30306024540050513494e+00) (18, 1.50000000000000000000e+03) (101, -6.61757281814350450944e-01) (121, 2.49883435019027710933e-01) (137, -5.81492905809034899001e-01) (139, 3.71554394275603272479e-01) (66, -8.59156230235677775831e-01) (95, 1.84787419661847751584e-01) (140, -4.69328296427785729428e-01) (11, -9.93310331035796245658e-01) (64, -1.02380385086342884371e+00) (117, 1.59668096425987504627e-01) (46, 1.38014738024777172676e+00) (40, 1.77798847056924474996e-01) (54, 6.42770605656480670254e-02) (70, 4.12018763209458516172e-02) (9, 1.19441801356131471756e+00) (110, -3.61732611447586949183e-01) (122, 2.09633993485881603425e-01) (112, -2.62521364734404835661e-02) (35, -5.91495905409035183098e-01) (57, 2.35230363208109555240e-01) (38, -5.48501869230243910280e-01) (34, -3.28076755073943779339e-02) (74, 6.32409589855739001640e-02) (116, -3.67087800895158355985e-01) (58, 1.67109522131468013484e-01) (141, -4.30962842746950403061e-01) (136, 3.55534148317039833120e-01) (63, 8.89580295552076183441e-01) (142, 3.25817419551179654480e-01) (12, -5.12980058250786852270e-01) (19, 1.50000000000000000000e+03) (128, -4.61687593075198118853e-02) (102, -1.28120663378820893286e+02) (35, 3.45149794585872712105e+02) (109, 1.50000000000000000000e+03) (17, 1.50000000000000000000e+03) (135, 7.62579521787205521832e+02) (5, 1.50000000000000000000e+03) (121, 1.50000000000000000000e+03) (90, 1.50000000000000000000e+03) (23, 1.50000000000000000000e+03) (41, 1.50000000000000000000e+03) (84, -1.50000000000000000000e+03) (30, 1.49959206153877516954e+03) (59, 1.49956058785698132851e+03) (75, -2.37621417454775885059e-01) (43, 1.50000000000000000000e+03) (0, 1.50000000000000000000e+03) (62, -4.50071173299510405741e+02) (18, 1.50000000000000000000e+03) (38, 1.29687992287485280940e+03) (44, 1.49998698948370474682e+03) (39, 2.94656945368272715768e+02) (21, 4.40378938962391771383e+02) (15, 1.38778720947560441346e+03) (85, -3.00971991737004373135e+02) (74, -2.67549309329382856149e+00) (16, 8.12584706203605899866e-01) (138, 1.50000000000000000000e+03) (113, -1.49808669247593115870e+03) (76, -1.50000000000000000000e+03) (40, -1.50000000000000000000e+03) (45, 1.50000000000000000000e+03) (118, 1.49996980416398037050e+03) (2, 9.78677845479647778859e+00) (33, 1.50000000000000000000e+03) (25, 1.50000000000000000000e+03) (49, 1.50000000000000000000e+03) (27, 2.86242081454619381020e+02) (31, 1.45893754140154851484e+03) (136, -1.59585371669468678579e-02) (83, -3.28052330448629732018e+02) (80, -1.50000000000000000000e+03) (48, 1.32388422604176492214e-01) (117, 1.50000000000000000000e+03) (129, 9.22849889615034446599e-02) (131, -2.99124062233286858170e-01) (97, 1.50000000000000000000e+03) (116, -1.49909292323063959884e+03) (32, -6.16543454031659337033e+01) (54, 2.70378616065267921714e-03) (103, 1.50000000000000000000e+03) (66, 1.05079011812379917501e+03) (36, -6.27680556751728317977e+02) (79, 5.52065003069744534514e+02) (8, 3.79900881533732047046e+02) (53, 1.72606867643703004722e-01) (101, 1.50000000000000000000e+03) (55, -1.84379998848766907260e-01) (130, -1.50000000000000000000e+03) (52, 1.78928170148129367378e-01) (37, 1.50000000000000000000e+03) (81, 1.95050601868111561643e+00) (26, 1.58450752335845462815e-01) (65, 1.12056356744566307237e-01) (99, 1.50000000000000000000e+03) (73, -1.66348678952551481958e-01) (140, 2.63648699348824600008e+00) (86, -1.50000000000000000000e+03) (139, 1.14850352650831966095e+00) (142, -1.38020667063661228724e+00) (131, 9.94705946898145343393e-02) (132, 6.10421550596042306047e-01) (23, 4.88714700919427791348e+00) (79, 2.13748474215104078411e+00) (73, 5.77102127024299971225e-01) (102, 4.15003335900812508896e-01) (44, 2.33473077632110292967e+00) (7, 1.98995070612711710822e-01) (52, -3.64318199697172218077e-01) (137, 1.16798067983417830362e+00) (4, 6.94327030801244249325e-01) (1, 1.33300210683863862293e+00) (13, -5.53511747146101851236e-01) (122, 6.08002093140488697465e-01) (20, -1.04793445631318246636e-01) (83, 4.10686612275896933966e+00) (74, 4.59995062039220581340e-01) (34, 9.31135376659598335003e-01) (69, 6.62983744621278625608e-01) (32, 4.84316040121588020639e-01) (88, 1.50000000000000000000e+03) (14, -1.26582803225133444514e+00) (121, 1.43483429910557003240e+01) (125, 1.05271854216662674730e+00) (75, 5.74350533097748527922e-01) (15, -9.44661696940390926969e-02) (111, 1.97731728162427589091e+00) (42, 1.50757088462474553303e+00) (26, 5.77248671510786626193e-01) (113, 5.34807153212198183034e-01) (63, 3.33385393240194538578e+00) (50, 2.05568088074873278615e+00) (2, 3.92554398180538832719e+00) (68, 5.47839790836935569551e-01) (135, 1.38076945476876637997e+01) (6, -6.47584753705002680313e-01) (84, -1.00894265699674390291e+00) (141, 5.09752104679988549130e-01) (112, -1.59945845597606028932e+00) (47, 8.47788535064035508881e-01) (62, 3.07172437936827158467e+00) (11, -2.12432392488024673893e-01) (57, 3.25122566069099772079e+00) (107, 1.99197534789359442797e+00) (70, 6.23092980312087596495e-01) (97, 6.19757350832308873123e+00) (66, 1.92284164149473113525e+00) (60, -3.64033017696594074497e-01) (61, 3.42228792579581997391e-01) (80, 2.37269859051457643329e-01) (114, -2.56685897488826908486e+00) (35, 2.31352068381109265971e+00) (124, 3.94593302138613377661e-01) (92, 2.02595287906914250931e-01) (19, 1.50000000000000000000e+03) (89, 1.50000000000000000000e+03) (16, -2.40154305084487734723e-01) (76, 1.36460964347628471716e-01) (37, -5.91227714110234447986e-01) (71, 5.91177424101333656714e-02) (18, 1.50000000000000000000e+03) (5, 4.23275221476195617765e-01) (127, 5.67927657113727502036e-01) (27, -1.67343774910164033720e+00) (96, 4.62798541559660769895e-01) (138, 4.00129325941152025337e+00) (49, 4.40342766795278084402e+00) (54, 4.79416702760895585556e+00) (67, 3.56506849021862226579e+00) (22, -3.10777822818099158653e+00) (40, -8.08625585030688753818e+00) (142, -1.44847426761499586956e-01) (84, -5.51383267670483956380e-01) (106, 7.94977277620875916186e-02) (76, -1.08517729412954663792e-01) (137, 4.20777442167202198053e-01) (55, 5.98808425867857319069e-01) (139, 1.32714902247628185883e+00) (14, -1.04251946645638926547e+00) (35, 1.18619392461793671245e+00) (121, 5.46035143906902331601e-01) (72, 2.74661888521449404355e-02) (8, 2.77837790021755959291e-01) (113, -6.96569835085424471366e-01) (132, 1.95619080284589919039e+00) (90, 1.50000000000000000000e+03) (115, -3.32367585930815723216e-01) (109, -3.68376427426220856565e-02) (63, -2.28112672706907915199e+00) (133, 3.20586349566848061166e-01) (123, 1.18416179098483298482e+00) (10, -1.68378904897718895128e+00) (117, 1.26919202035085110225e+00) (118, -4.47895876880676624410e+00) (12, -9.34241763056160690049e-01) (112, 4.04596322853123746555e-01) (86, -4.91877261630866258191e-01) (103, 1.59521590019816650319e+00) (5, 1.83311334027730615803e-01) (99, 1.49751454948303908132e+00) (74, 5.45990390556466489991e-02) (42, -5.95008961156213822541e-01) (116, -1.33705656258530564129e-01) (54, 5.42368638694610938344e-01) (67, -4.42986210896593401998e-01) (136, 5.50562735864245755835e-01) (34, 3.78618779909861646882e-01) (125, 4.29470288310890568884e-01) (79, 6.51711096911421344791e-02) (41, -8.28874473053519550403e-03) (71, -5.32177782991273384816e-01) (128, 4.35978385983689209482e-01) (101, 5.60470034202874600737e+00) (102, 4.04876300844029535231e-01) (48, 5.95946814693755655412e-01) (78, -4.46861741058089845247e-01) (62, 4.54906701436691207618e-01) (53, 5.76689324020062787923e-01) (30, 4.58812335505844270944e-01) (57, 5.01541358795025815631e-01) (130, 4.24779886543915852215e-01) (127, 4.64281145627250535490e-01) (13, 8.27447849823456649254e-01) (31, 7.62269915354660998474e+00) (97, 8.93740260718101975357e-01) (40, -8.56242667042100058516e-01) (4, 4.95048617988287364966e-01) (45, 7.13459907279458183105e-01) (52, -2.06675167513270041653e+00) (114, -1.87778075960058421501e+00) (87, 1.73425740586171639457e+00) (111, 8.04385258256531399113e-01) (15, 7.44689845136585537588e-01) (134, 5.74342059063208787428e-01) (69, 5.02863877966435168787e-01) (23, 5.13767549253643318607e-01) (129, 2.11913761522536470139e+00) (98, -4.98076269431854234959e-01) (3, 5.66252175258416312609e-01) (29, 8.25582287709770046291e-01) (2, 6.04821795581074184156e+00) (25, 1.18846273120236478604e+00) (65, 4.78084425843282978530e-01) (142, 6.01989677976751125232e-02) (115, 1.43014220774438283179e+00) (98, -2.02798759574087972268e+00) (136, -2.97869859878811676923e-02) (116, 3.46640173345665103533e-01) (125, 1.16077642801236266545e-01) (5, 5.74373619300958676570e-02) (18, 1.50000000000000000000e+03) (39, -6.27101219606793075512e-02) (57, 8.33724619460338295385e-02) (11, -7.12400320249131635553e-02) (56, 1.50906697689595942213e-01) (26, 4.64863475528620284649e-01) (64, 2.02824900712497036004e-01) (24, 4.03247856183304720368e-01) (85, 5.36111170974464118499e-02) (83, 8.13645759960292432045e-03) (107, 2.70364098550445464131e-01) (67, -9.67790601069114936328e-02) (95, 1.20630208117717366290e-01) (2, -1.12572041039623527148e+00) (92, -1.11473395464076238670e-01) (86, -1.96050163945470118376e-01) (35, 3.99676942937981394266e-01) (31, -3.88116472807984516646e-02) (36, 5.97434531188774514687e-02) (102, 5.18679498298497687614e+00) (68, 5.44524638946090183689e-02) (21, 2.74977024994361274324e-01) (114, 1.02490068512224041797e+00) (43, 2.91209156627369215864e-02) (99, 9.54184621632982343797e-01) (25, 4.96979162682584463262e-01) (69, 1.35667202988865254198e-01) (93, -4.87076662614010280627e-01) (27, 3.33206691223031981064e-01) (16, -2.69284586823827554181e-01) (47, 8.82100498736570065583e-02) (89, 1.50000000000000000000e+03) (109, -6.61914211823054654538e-01) (108, -6.06104991090089195716e-01) (65, -2.27462767427135843790e-02) (19, 1.50000000000000000000e+03) (77, -7.62229640861979279576e-02) (96, 9.12858268462805155785e-01) (30, 1.12964125083215891077e-01) (129, 2.05443617410565826376e-01) (101, 7.73193222948241998260e-01) (76, -4.29119856785070641347e-01) (87, -5.45865382487260020206e-01) (32, 7.45896760316990703465e-01) (141, -6.19060583672269917899e-02) (33, -1.87297177450136076438e-01) (80, 1.15829052078867800191e+00) (78, -2.85157654884657774108e-01) (103, -7.38893106288699730300e+00) (12, 1.40390386427548585768e-01) (126, 1.42427886790164409669e-01) (10, -7.19099473462062044327e-02) (41, -5.91696714136074941592e-01) (53, 1.82799696570591752032e-01) (112, 4.15269615129320646130e-01) (62, 1.38993253389778553819e-01) (104, 2.71701400105842538757e-01) (22, -1.27038660368242767307e-01) (44, -1.80072886875486282143e-01) (118, 2.64640016702478830801e-01) (117, 2.84874298301465600503e-01) (14, -7.52488897900679271080e-03) (82, -6.46778442671522624252e-01) (94, 9.80721763973974147710e-01) (7, 3.17626772274312074718e-01) (142, -4.11115271557437378380e-01) (10, 3.57928050392429630833e+00) (17, 1.50000000000000000000e+03) (93, -1.28811833096596988213e+01) (71, 1.08687357779200262087e+01) (133, 1.07484298145862862128e+01) (131, 4.55107670766427940823e-01) (107, 2.57492850978012510765e+00) (31, 1.04474995385134246106e+01) (58, 5.81158420726473057272e-01) (65, 5.53867618975862896491e-01) (13, -2.26907787092938626472e+01) (83, 4.48656382655918406499e+00) (127, 5.97298987991589647173e-01) (68, 7.63758454487369786712e-01) (123, 4.93646751414669626712e-01) (104, 6.43073501139500569579e-01) (80, -3.17261995718433942315e-01) (72, 4.76938460739270597699e-01) (109, 2.45075994771820626639e-01) (90, 1.50000000000000000000e+03) (121, 3.83150468750782846605e-01) (118, 5.06440020899978304847e-01) (34, 6.18218674291176162328e-01) (86, -2.07910511845173395784e+00) (94, 4.69912760452078248630e-01) (81, 1.26819058369024784128e+00) (88, 1.50000000000000000000e+03) (132, 9.06251978284221437754e-01) (135, 4.34850776570235364460e+00) (18, 1.50000000000000000000e+03) (49, 6.02310377235179772448e-01) (37, 2.61924620853155731837e+00) (14, 3.56100660122962542342e-01) (55, 4.66502701092243288183e-01) (66, 9.66698696008367885923e-01) (42, -1.76955470312647328290e-01) (119, 4.15659201943069989138e-01) (51, 5.15704836671862620889e-01) (57, 5.05825140773965675756e-01) (22, 1.88706867941031669611e-01) (40, -1.06025417585309478241e+00) (32, 5.89813734289924007648e-01) (59, 3.95765958199407430484e+00) (2, 2.25137692310179016175e+00) (53, 6.69229157171209343424e-01) (140, 5.66084492131753380662e-01) (47, 4.76107284525280838317e-01) (130, 5.37045080112879880119e-01) (89, 1.50000000000000000000e+03) (21, 5.80547879039021363923e+00) (39, 1.06273829290683785587e+00) (117, -6.76620740910313323013e-01) (63, -3.95362641180541596331e-01) (103, 2.51159298201587510846e+01) (134, 8.24877550867038067395e+00) (77, -7.76994279918495900361e-02) (5, 6.48005808532876037553e-01) (137, 4.41792108179443754334e-01) (100, 2.37989526145756435938e+00) (48, 4.57182753371840278067e-01) (54, 5.37370569878802162300e-01) (113, 3.67220427811567606824e-01) (98, 2.49975905063878434120e+00) (1, 3.82185475777846974665e+01) (108, 1.40068727959441368114e+01) (128, 5.25177197500743098146e-01) (38, 2.29384756851741933303e+00) (87, -5.95331231499836910359e-01) (50, 5.25211855596040555483e-01) (27, -4.48160979132295889116e+00) (97, 4.57349152914415191251e-01) (142, 2.01156294721233502854e-01) (67, -9.87316347619357909116e-02) (70, -3.91575348623116811786e-02) (107, -1.57137456831598021356e-01) (111, 2.19463799923435114170e-02) (136, -1.45396361450838784712e-01) (57, -1.14074465622151038913e-01) (110, 4.61144851779198006181e-02) (105, 2.77750163030279113852e-02) (25, 3.75942995301388593887e+00) (95, -1.82629248876484823194e-03) (37, 2.12149437052031542006e-01) (93, -4.34386916936515821153e-01) (120, -4.87568647944505648151e-02) (97, -9.84029624540996017412e-02) (42, 3.14966163865496896757e-03) (117, -1.00811212796501972755e-01) (23, 1.95723511739766209416e+00) (94, -2.80092861059360132003e+00) (64, 6.09358113589268390875e-02) (20, 3.32224019365403244741e-01) (21, -1.14697081307507844916e-01) (103, 8.59598832620518615855e-01) (38, 3.71258411995029694030e-02) (71, 5.17056398479810108704e-01) (45, 8.23089457452344658295e-02) (138, -5.22360119958419633068e-02) (84, 8.19441165785232517038e-01) (58, -2.06081318107608435497e-01) (39, 3.03105677216310050170e-02) (126, -7.39519430191833554433e-02) (50, 7.80022478475507485829e-03) (101, -6.19682885474515887658e-01) (65, -1.69048353069192108800e-01) (87, -7.88401126984954042642e-02) (112, -5.13773420449226692064e-01) (22, -2.51879682979839092383e-01) (116, -1.12513459916385019643e-01) (80, 1.59260330631248142597e-01) (30, -1.09430012886787803028e-01) (102, -2.04766094931919706568e+00) (7, -2.99168276881861872063e-01) (24, -2.48762298630482742157e-01) (54, -1.05102189663863934688e-01) (92, -3.23568584424492489138e-01) (5, -2.75987884888423094798e-02) (134, -1.23017482108186124168e-01) (10, -5.15861758962534500128e-01) (26, -2.51095735566783162529e-01) (82, 2.86143333710410063819e-01) (18, 1.50000000000000000000e+03) (27, -1.01202191104519029219e-01) (118, -7.91218825768515293673e-02) (12, -3.38925213303696903910e-01) (34, 7.22909675536084622705e-02) (109, 2.57315742984357727352e-02) (35, 1.58842992715889051725e-02) (125, -1.64825892557279446438e-01) (140, -8.14123133274217425370e-02) (104, 8.15307506150487304453e-01) (130, 7.28462906481298771988e-02) (129, -1.68943504318775916673e-01) (106, 2.28097359160526202970e-01) (113, -4.07905862701363974843e-01) (6, -4.94237123122584887103e-01) (53, -4.13113757712709264713e-02) (75, -3.21362979588315444968e-01) (132, 3.67969808770355136240e-03) (28, -2.14354717114729614869e-01) (114, -2.45192485957869715785e-01) (52, 6.03407618821049540614e-01) (47, -7.91046125339516653652e-02) (142, 5.44021583876890035825e-01) (45, 4.34740020876605071098e-01) (78, 1.96337368270899453870e-01) (120, -3.65110101614873094888e+00) (131, -1.83984881753321616316e-01) (89, 1.50000000000000000000e+03) (0, -2.98423935222296210501e-01) (68, -2.89421473540965612514e+00) (64, -3.78651750657270147471e+00) (118, -8.91656040821139472818e-01) (40, -6.79678437099004328914e-01) (139, -1.70378777601260722463e+00) (24, -1.25203020640303003264e-01) (109, -4.69734664876573448922e-01) (44, 6.03686624054595166733e-02) (79, 1.15023371856102718525e+00) (96, 2.56558754611570127846e-01) (102, -1.03902575514181444438e-01) (38, 1.84525526518696220135e-01) (123, -1.56089499404819798123e+00) (30, 3.15485329842503059439e+00) (52, -3.89302964865825759655e-02) (116, -1.79298039332706404814e+00) (22, -2.42656119143494741763e+00) (33, 1.11090556732932443929e+00) (84, 1.63501688851164073135e+00) (4, 1.27931454084626500256e-01) (25, 7.78792317857770832745e+00) (19, 1.50000000000000000000e+03) (134, -5.92628959685245870759e-01) (86, 1.31409778440233915298e+00) (47, -7.34167886314518458590e+00) (126, -1.98307896922229387471e-01) (62, -2.33702043828273170467e-01) (92, 1.01127386116063999744e+00) (115, -2.57944860878769421930e+00) (34, -2.29975689802937505180e-01) (18, 1.50000000000000000000e+03) (1, -1.56708727260920923641e+01) (82, 7.53910316331061536310e-01) (53, -1.61906627231088062757e-01) (93, -1.55564854722104817242e+00) (35, -1.68481614244942146108e+00) (29, -1.39809265772402402384e+00) (26, -1.21937449783933726799e-01) (104, -1.28190806655538974690e-01) (21, -7.03647690486218557737e-01) (127, -3.00635442308295142144e-01) (2, -1.93902963136394046462e-01) (54, -1.88519344904291230591e-01) (94, -6.38558692526970811398e-02) (77, 1.14621326803361411883e+00) (58, -2.18493720560748422299e-01) (11, 3.70830545689265100862e-01) (23, -5.35435580174086989125e-01) (97, 4.33245618150835820614e+00) (130, 5.83119528805133513494e-01) (51, 9.97734382573787326187e-01) (133, 1.87058453634054666637e+00) (138, -1.44044337536224209551e+00) (125, -3.23741723401318626241e-01) (46, -1.59831105638933790303e+00) (67, -1.04268810886951590611e+00) (73, -1.81177464147601580136e-01) (36, -2.66383068728384408974e-01) (81, 1.27859590147788293457e+00) (32, -2.13937733096328713822e-01) (129, -9.92153437912207891713e-01) (72, -9.18073836963921585674e-02) (48, 8.72440742843353045366e-01) (61, -1.91828378446130792812e-01) (39, -1.26723614714662913272e+00) (142, 3.75766324972965914952e-01) (6, -1.40198709240786034691e+00) (30, -1.49892652907966911213e-01) (138, -1.41173588417427975372e+00) (12, -4.27026828352226384133e-01) (128, -9.07782951679498018027e-02) (117, -4.17438712972932945977e-01) (8, -8.17693852956591915593e-02) (80, -4.24280426113978037517e-01) (20, -2.46427035457319254519e-01) (28, -7.73901604404741538801e-01) (98, -2.19596457876791051333e+00) (78, -1.16134863987979758404e-01) (85, -1.87941726528116831441e-01) (118, -2.00437053373247797694e-01) (110, 6.96649006396864667323e-01) (91, 1.98492136928410634056e+00) (88, 1.50000000000000000000e+03) (31, 1.30289375686154951239e-01) (32, 2.81406517171749748218e-01) (99, 2.70796753093199005225e-01) (67, -4.41969992955894952491e-01) (66, 5.09615738448534805194e-01) (86, 1.49056877774534236175e-02) (34, -6.56514168508065126817e-02) (39, -1.54786316603808746240e-02) (57, -1.22673384643763927482e-01) (123, -3.41461876633162353389e-01) (45, 9.06056627127661551313e-01) (50, -5.20567288945999129268e-01) (84, 8.93532009079842787225e-02) (23, 4.59148104454123323626e-02) (68, 5.87769357701922560977e-03) (59, -4.24173037098563299185e-02) (73, -2.36706769734690430917e-01) (108, -1.12461019434610828838e-01) (33, 1.70670970905958778452e-02) (129, -1.48212261041627713087e-01) (22, -8.16069744151003084731e-01) (125, -1.18346611900651488281e-01) (13, 1.10485487811661875490e+00) (42, -9.59236209895583807894e-02) (92, -3.87577952443733497745e+00) (136, -1.50049805753833531696e-01) (63, -4.84291006682910696313e-01) (21, -1.18233004076930603432e+00) (114, -2.32807136423276883619e-01) (17, 1.50000000000000000000e+03) (141, 1.21538553536361393359e-02) (105, -8.91734646968400879175e-01) (25, -5.71085217659829738612e-02) (3, -1.89331458028532906290e-01) (101, 3.65333557477700368588e-02) (56, -5.14259630972864270615e-02) (51, -2.38728862698311616874e-01) (130, 9.14275236632988881624e-03) (52, -3.43376934991242055428e-01) (14, -1.20377176880153591298e-01) (140, -9.67390734946737967936e-02) (120, -7.35877896717217261369e-01) (18, 1.50000000000000000000e+03) (87, -1.64862951403281443596e-01) (5, -3.26208698748955486235e-02) (119, -1.03198985091063821784e+00) (102, -6.74413779429630100282e+00) (61, 1.34251625698999377256e+00) (72, -1.68266689480145559266e+00) (9, 1.02682970416241969858e+00) (2, -1.33335061757689249395e-01) (53, -1.06502971863059875401e-01) (112, -2.73659915643464757284e-01) (89, 1.50000000000000000000e+03) (142, 3.67132196877993088879e-01) (56, 4.57944952500101476467e-01) (65, 3.48876664155027202407e-02) (68, 2.51007192461429884389e-02) (133, -2.30551214151099159722e+01) (131, -2.70452675326039282400e-01) (12, 9.22285326150705841997e+00) (134, 5.97014336683071977774e+00) (59, 1.03758661288507397558e+02) (91, 9.09408477358071398733e-01) (35, 3.30433143930711636926e+01) (71, 5.47149552393676898987e+01) (83, 3.08213115427634631871e+00) (92, -8.24273500646176238149e+00) (140, -2.02505295015043440543e-01) (84, -1.09943797232485995785e+00) (89, 1.50000000000000000000e+03) (54, 7.68237702390471149938e-02) (6, -3.17647242504637183913e+00) (77, -4.19506359033306075457e-01) (25, 5.19269685648060974614e+00) (129, -4.31374283489393897661e-02) (122, 6.34706171605559088533e-01) (94, -1.18233051654156495758e+00) (72, -2.98180545204051696828e+01) (39, -4.96632204372532459757e+00) (20, 2.71742335125525812600e+02) (50, 4.00891591239944944380e-01) (19, 1.50000000000000000000e+03) (28, -4.93038030130936476780e+02) (37, 6.71901653616931895385e+01) (57, 1.15621156714460576742e-01) (128, -7.83409179301943342510e-02) (41, 3.24661027928953016541e+00) (119, -1.57355103995465461786e+00) (97, 3.19409025669105395284e-01) (29, 1.71317343877439647315e+01) (32, -5.77733440577169155006e+00) (66, 1.61272044693473143306e-01) (85, -8.61219329137992595236e+00) (21, 1.47214871568381977518e+00) (95, 7.01819904585099685335e-01) (125, -1.45845129233772269339e-01) (64, -5.19487334562749758504e+00) (76, 2.90699938002812463544e-01) (112, -8.45251921896163480596e+01) (135, 2.75823732011027100697e+00) (53, 3.94153068598162847902e-01) (44, -9.49787874302306933672e-01) (99, 1.66553755586400001221e+02) (104, -3.25489132343169340622e-01) (100, 9.51100118765873525639e-01) (120, -2.53942318952431522749e-01) (67, -1.63078941915242581207e-01) (87, 1.64693495591378091802e+00) (22, -7.25514763919853464813e+01) (15, -5.69572817064770742235e+00) (90, 1.50000000000000000000e+03) (78, 1.67515110402748246266e+00) (2, 5.86882060649617542936e+01) (81, 1.12493688626683585596e+01) (105, -1.17727508872554196273e+02) (58, -1.49391693896499477834e-01) (9, 9.81082045184821822659e+01) (136, -6.08875939042745131791e-02) (30, -1.42826687626484680749e+01) (51, -4.66203665082842722001e-01) (18, 1.50000000000000000000e+03) (107, 3.05575100135549726499e-01) (96, -4.80662190674384870448e-01) (34, -5.95913591843834966610e-01) (80, -3.04993040707800622258e+00) (142, -2.71544188622221405183e-01) (109, -9.14837471741941632430e-01) (134, -6.07027734655684270137e-01) (117, 1.23341466016749912171e+00) (126, 6.40012697442261080383e-01) (56, 1.54046724410602964284e+00) (87, 8.34636247833355882086e-01) (57, 1.57724990537842435501e+00) (114, -1.53546410490499574131e+00) (110, 3.23560783190157508216e+00) (139, 5.70524737345671772992e-01) (11, 1.91464405008200677649e+00) (129, 1.02821630174355660436e+00) (131, 5.45031169892834954638e-01) (74, 3.54598456304482223533e-01) (4, 6.30599326790397207709e-01) (132, -3.83387740122702713741e-01) (69, 2.80365367763018957792e-01) (22, -1.52425974852263917958e-01) (45, -1.65858139537948079401e+00) (27, 1.50514694529437131898e+00) (6, -5.81146979036402444585e-01) (63, 1.32190960906677723585e+00) (108, 1.55986524065696774421e+00) (44, 5.00998240031262298544e+00) (122, 3.38078125647628513484e-01) (35, -2.65372103364525657732e-02) (68, 1.62093432368460388382e+00) (94, 3.31670742313026067905e-01) (98, 2.46361993517927579944e+00) (18, 1.50000000000000000000e+03) (99, 2.88935953072288320698e+00) (3, 9.14890841987545999636e-01) (25, 5.73195432746606892138e-01) (30, -2.81187139129610841337e+00) (93, -1.14748326440713266372e+00) (54, 5.82383279383372309823e-01) (123, 4.74237386422521001172e-01) (80, 1.21347683112706805630e+00) (102, 6.18918430637761862734e-01) (72, 4.17771438670435979468e-01) (0, -5.00165169987048319200e+00) (29, -1.12411400088276955955e+01) (124, -4.10886629535451075590e-01) (120, 2.80145217545882685428e+00) (133, -2.96908820508868975807e+00) (21, 4.94006127714061005207e+00) (50, 6.25764949800474812314e-01) (51, 5.70249462053079164692e-02) (24, 4.14120679923352219554e-01) (78, 2.70432303710992194556e-01) (113, -1.51176300129709528797e+00) (100, -4.09646227226544090705e-01) (41, -1.54568644104030283870e+00) (7, 1.09853567364596105271e+00) (75, 4.23312756407398016467e-01) (15, 7.69714896326713748920e-01) (34, 6.90920910300512725044e-01) (55, 6.56786497105821265308e-01) (105, 3.74523502838919375435e+00) (62, 5.33771144943197106691e-01) (85, 9.78200288482490853958e-01) (8, -7.91792980406582302955e-01) (1, 1.24750636066009796821e+01) (70, 4.65483210667227864654e-01) (95, 4.90037706449171883705e-01) (13, -8.02949163944839117146e-02) (19, 1.50000000000000000000e+03) (16, -1.56474181694477154636e+00) (104, 6.98643586437286301383e-01) (58, 5.65679352391346701445e-01) (115, -6.10611066485014397642e-01) (142, 1.33368719769004329123e-01) (75, 5.38274016745512312587e-02) (90, 1.50000000000000000000e+03) (110, 1.80374767799267976542e-01) (89, 1.50000000000000000000e+03) (23, 1.44828023097220259796e-01) (104, 1.82571383577394608100e-01) (78, -3.95145163937864474235e-01) (127, 1.24797474322780391209e-01) (82, -1.82447161804372592897e+00) (108, 9.55408421498574966790e-01) (84, 1.02543024058354159678e+00) (6, 2.05482601295014111198e-01) (140, 2.12211783196821518471e-01) (65, -2.75523989426018009463e-02) (61, -1.25512032390631633749e-01) (13, -3.49848247646114052234e-01) (71, -9.35180554629381904919e-02) (128, 1.27037361641206103524e-01) (137, 1.38313535763003342405e-01) (96, -7.06193207932175326391e-02) (73, 2.71049170301313133158e-02) (92, -7.31311114976712306479e-01) (33, 1.20552660054874727358e+00) (131, -7.56651467106587375527e-03) (64, -2.51192755830417335794e-01) (51, 2.05370863661139629874e-01) (43, -1.01210360505164617684e-01) (125, 2.03702917440631292578e-01) (32, -1.37062474622395291668e+00) (45, -3.85839348260359898957e-02) (34, 5.58268394448395571805e-02) (139, 1.66155203178419919041e-01) (1, 3.52585435992617934886e-01) (74, -1.52295365296523516063e-01) (28, -6.58619260012839602414e-02) (99, 8.91352511958260596003e-01) (57, 1.50484077379847563938e-01) (40, 4.98827773429515952675e-01) (3, 1.18060967059705174131e-01) (54, 2.16258441363135184288e-01) (29, -3.27096078843695126093e-01) (66, 3.48512210136281641581e-01) (100, 1.55333875876778521041e-01) (106, 1.77234706108243850187e-01) (87, 1.74690726129297146940e-01) (25, -9.93535788963003235752e-02) (119, 4.44104678025107196815e-02) (11, 5.18566368699089119687e-01) (116, -4.22677987173157132528e-01) (48, 3.92926989557093875316e-02) (26, 1.17806217589032466431e-01) (105, -7.75959462678682876380e-01) (21, 4.15019894730506933023e-01) (109, 2.23484718399053566840e-01) (53, 2.66712339629749627112e-02) (141, 8.19548226706192511903e-02) (95, 1.55378387749771779136e-01) (14, -2.45696263756652460986e-01) (98, -5.50040822135837714768e-01) (27, 2.86443929025335164429e-01) (2, -9.84661358912845147140e-02) (18, 1.50000000000000000000e+03) (36, 8.37395738060417588189e-02) (0, -4.56527809730354405815e+00) (133, 4.38794785760190986235e-01) (62, 7.07726267245690349172e-02) (19, 1.50000000000000000000e+03) (17, 1.50000000000000000000e+03) (115, -7.64601168485052551382e-01) (83, 2.63020188609824789872e-01) (114, -1.64522627580393976388e+00) (142, 8.69504338787343289408e-02) (5, 1.40430258633726112727e+00) (49, 5.09958436884726459826e-02) (54, 4.10120087694273438572e-02) (63, -1.44874432548463577541e-01) (127, 1.72157596606090396163e-01) (92, 3.43078206770075611054e-01) (43, -4.45380509228345156103e-01) (126, 8.19771233318931230594e-02) (42, 4.05942922015215756915e-01) (35, 9.82997740617573279032e-02) (45, -1.17856857662984881863e+00) (1, 4.41445882813903900388e-01) (0, 2.16552983209169380707e-01) (138, 5.84697549994955489971e-01) (55, 1.34237450187663309720e-01) (21, 2.37063297538442713241e-01) (125, 6.21583484036049294108e-02) (113, -4.93676066060762364085e-01) (114, 5.21575106835341362199e-02) (130, 9.87469917250839712697e-02) (140, -7.19692859430295039935e-01) (108, 4.43597601903121474543e-01) (75, -3.85317863077615785361e-02) (85, -2.19766860939371366790e-01) (64, 6.64755797811927728880e-01) (33, 2.93439518397929077764e+00) (58, 7.08018852194997466709e-02) (86, -1.35435922645625406169e+00) (73, -4.74263354979065215877e-02) (134, 5.36995456201778909033e-01) (22, -1.54747636959809753421e-01) (17, 1.50000000000000000000e+03) (62, -1.76681693377978565884e-02) (123, -3.35516450308784186518e-01) (122, 3.09666896078898801203e-01) (23, 2.47265590317593708658e-01) (44, -1.82364193608944935576e+00) (41, 2.89843834224112160969e-02) (77, 8.49232295597296071854e-01) (109, -4.74956460717301971741e-03) (105, -7.90075374457028689612e-01) (29, -9.56745669304720491866e-01) (70, 2.14033582187415222231e-01) (30, 1.23874374932010478112e+00) (107, 6.06902996952249917939e-01) (98, -1.95070814738868514304e+00) (20, 1.35299832438454181727e+00) (9, 3.46069516265993692983e+00) (118, 3.80952200783011840635e-02) (139, 1.28217432971391848140e-01) (76, -2.23130010490636798703e-01) (7, 3.93525669687772139405e-01) (52, -4.85106205519919078673e-02) (25, -2.13710343953698561625e-01) (82, -2.58232364847880868641e-01) (116, 1.18438026602992158010e-01) (3, 1.92828732178339012915e-01) (39, 2.88186793176560263063e-01) (137, -1.88680155594872167590e-01) (19, 1.50000000000000000000e+03) (136, 1.51112515482641873721e-01) (68, 6.82776929460500586755e-02) (48, -3.64476581040414415735e-01) (135, 7.13459185301652865085e-01) (91, -4.67261879209158903503e-01) (32, -3.48374821405933676743e+00) (38, 1.13113656851668231695e+00) (112, -1.17695553936055435917e-01) (10, -2.57207612124910278695e+00) (128, 2.39855088285065862555e-03) (8, -2.19150091293402543569e-01) (142, -1.20134744258541439899e-01) (3, -1.71925120997677338686e+00) (34, 3.18449643206798582717e-01) (55, 3.18372791535890820036e-01) (74, 5.39018778092870798346e-01) (98, -7.47780310922934510209e-01) (26, 4.71643015856060499047e-01) (133, -2.75459928329423342497e-01) (108, 6.39738027311138879316e-02) (49, 3.28704515146653997171e-01) (62, 3.01601668881094908681e-01) (85, -7.56540247630748258212e-02) (11, 9.55747889959561447437e-02) (113, -4.79682163589181254082e-01) (99, -2.15190676415508069796e-01) (134, -2.15284390692668248235e-01) (9, 2.42512476006678745488e-01) (17, 1.50000000000000000000e+03) (118, 1.07767305624710019174e+00) (127, 3.51177485949137058174e-01) (50, -5.58076490860027529806e-01) (115, -2.70482384094046623968e-01) (16, -8.10673439361007802662e-02) (5, 2.52961983510821053489e-01) (123, 1.90946283318314952160e-01) (15, -5.06748384387235017989e-01) (27, 8.42992749559941523252e-01) (96, 2.85837064158203923991e-01) (132, 2.34235998039172776952e-01) (122, 3.84319690069330477389e-01) (89, 1.50000000000000000000e+03) (87, 2.92110983587750248913e-02) (59, -3.74709998608522887320e-01) (109, -2.94685068106410097410e-01) (18, 1.50000000000000000000e+03) (36, -1.13690375737597673678e-01) (63, 7.72685555390484668514e-01) (39, 2.68115892843903247389e-01) (44, 2.62520308524781809112e-01) (33, 4.92588584708617904795e+00) (20, 3.69857773113177301649e-01) (0, 6.66156891984340138180e-01) (81, 5.53493824065482975527e-01) (10, 6.62225906206335812598e-01) (71, -4.02761588802382830554e-01) (116, 2.25102681923459169155e-02) (86, -7.08779282042098168759e-01) (45, 3.29032143215436001515e-01) (104, 6.06513843470919689072e-02) (72, 3.51926901238803546690e-01) (139, 3.47876235086223395410e-01) (56, 8.75201902111855667421e-01) (4, -1.46222949655497286292e-01) (106, 5.40660970541266383549e-01) (6, 5.49009335885976779146e-01) (135, -6.09594017364313706109e-02) (136, 5.50221050280044310377e-01) (129, 2.99602163917746300292e-01) (58, 1.36680584566400448177e-01) (80, -8.73232692681712996396e-01) (128, 4.43379423672645323062e-01) (32, 3.99561959409124811682e-01) (61, -2.13857246585544731599e-02) (60, 3.10357190935841076307e-01) (141, 5.97085778519218735028e-01) (73, 9.01318304690561372672e-02) (83, 1.64959296204450975298e-02) (38, 3.01648992360343592978e-01) (22, 8.73111164477758272540e-01) (77, -3.41080279967226729365e-01) (13, -8.30382461649602499065e-02) (117, -2.19699650176396449330e-01) (142, 2.59758482765820974958e-01) (2, -3.49596546862234758279e+00) (69, -2.05350277808692471826e-01) (88, 1.50000000000000000000e+03) (54, -1.89032601231430869015e-01) (36, -4.15226171663810705859e-01) (43, -1.28341500689581805572e-01) (63, -3.03278680614591476805e-03) (55, -1.46989024732068068735e-01) (79, -1.06522242594061483656e-01) (95, -1.07407754624170140301e-01) (93, -2.17861446890315946234e-01) (11, -2.42103473161425508664e+00) (92, -9.94414619100672803054e-02) (120, -4.23684892673523605389e-01) (71, -2.92509287707061860218e+00) (100, 5.57276897211198662951e-01) (70, -8.62009523482701600638e-02) (110, -1.88361778061916729232e-01) (6, -9.71391095947731070259e-02) (102, 1.20883093688193121035e-02) (4, -4.43512718442409858977e-01) (118, -1.47554357063456931254e-01) (77, -2.83032699036075141574e-02) (97, -1.45586835349870269418e-01) (18, 1.50000000000000000000e+03) (25, 2.25003547100334766462e-01) (76, -3.01786576838577680348e-01) (32, 3.82573807082392414181e-01) (90, 1.50000000000000000000e+03) (19, 1.50000000000000000000e+03) (62, -1.93556902252808304965e-01) (85, -3.27283045137435724126e-01) (130, 8.81146105466198148459e-02) (31, -2.30967105392608340608e+00) (117, 6.07232117322441200535e-01) (119, 1.13512147451518652375e+00) (41, 9.17843826939908069562e-01) (121, -3.79705366279412981356e-01) (59, 6.51227829606868535706e-01) (113, 5.93574447263427229515e-01) (83, 3.53592790098837053692e-02) (8, -2.86836305213516606916e-01) (96, 2.08095524305062298809e-02) (40, 2.62331563137869760993e-01) (39, -9.88113815937924494515e-02) (51, -1.07094748669455452905e-01) (125, -2.20303960743580024007e-01) (133, 1.77582045283676132064e-01) (68, -1.50246644606767065788e-01) (127, -8.56584967044035777706e-02) (75, 3.02035728741792575125e-01) (13, 1.12666636913289286426e+00) (56, -2.66698938618178393867e-01) (131, 5.97379934503404833035e-02) (28, 3.31856673385157163736e+00) (66, -3.32213257402732942136e-01) (89, 1.50000000000000000000e+03) (86, -4.90100303065581111017e-01) (38, -4.86590091492707599308e-01) (30, -4.44614796745778195763e-01) (98, -5.41601768767212110589e-01) (23, -9.20340901647387132911e-01) (141, -9.83253135282411011575e-02) (122, -2.80254926919998370582e-01) (67, -1.72824147894555829597e-01) (21, -9.44615946051346133672e-01) (0, 1.85394357544973753527e+00) (74, 9.14774230043790548272e-01) (112, 6.21363180910843415639e-01) (135, 7.64962312015728951309e-02) (34, -6.14101614665660752723e-02) (142, 4.81731903633180968960e-01) (94, -1.63887006262459222761e+00) (112, -2.33363436184505362858e-01) (125, -9.60349791975607380845e-02) (99, 6.68842794624392111835e-01) (25, -1.85037796934756831879e-01) (6, -4.33125262474203909235e-01) (103, -1.42371950687698867188e-01) (62, -1.54687909547903040819e-01) (34, 9.58199644897259616982e-01) (23, 1.08893857290912965397e+00) (121, 3.44909863843807285022e+00) (72, -5.95468804405849549966e+00) (133, 1.44066478818636566073e-02) (66, -1.92402167856938727253e-01) (80, -1.57658884341712990373e-01) (33, 8.29976559997971263805e-01) (38, -3.82343220895702828876e-02) (20, 2.23513090810815356901e-01) (50, -2.16736210886609909076e-01) (56, -9.50018073321625411420e-02) (140, -1.34959317478631296572e-01) (29, -5.34089912592380033907e-01) (132, -8.64476881046884887416e-02) (116, 3.04397673787287548208e-01) (67, -1.62635478760838975143e-01) (88, 1.50000000000000000000e+03) (97, 2.77827953654424086860e-01) (70, 2.29192254875680012649e-02) (5, 2.31033350802684472880e-01) (7, 2.44395683542190544912e-01) (120, -7.09550302046900588371e-02) (46, -2.25726592090889299769e-01) (76, 9.97553265460024873867e-01) (114, 2.17920910768051367956e-01) (113, -1.36316795676467650278e-01) (2, -1.75761696767667285890e-01) (40, 2.72769604113725916417e-01) (75, -1.59992724824706195053e-01) (52, -3.07539870023247792485e-02) (92, 5.25599531317568757771e-01) (1, 2.91995299801919329374e-02) (136, -5.12484707435609671000e-02) (27, 4.38019673306080659092e-01) (108, -4.79350008202703348203e-01) (51, -1.99368369609964929401e-01) (24, -3.15413966526368952370e-02) (49, 1.89373548440986444463e-01) (44, -1.72347029152950942388e-01) (61, 1.32079863313976086925e-01) (59, 1.48702799378264333141e-01) (106, -3.87393981028463896266e-01) (96, 7.19140018000638980844e-01) (65, 6.18874339378187240945e-02) (13, 2.36900463708305782443e-03) (37, -2.72852366381454991551e-01) (60, 5.22553147655177241404e-01) (53, -7.70436138220249450148e-02) (63, -6.44245628476128318063e-02) (87, -4.36321892127700117214e-01) (82, 6.15832918891981218046e-01) (101, 3.30141694949469544085e-01) (57, -1.41689063845313212298e-01) (139, -1.91607095042760439130e-01) (89, 1.50000000000000000000e+03) (90, 1.50000000000000000000e+03) (122, -5.26994494024332765791e-02) (17, 1.50000000000000000000e+03) (30, 1.89141168463752507023e-01) (104, -1.58907142238021076297e-01) (91, -3.42824095637768111455e-01) (111, -1.17567884790254081027e-03) (142, -2.84298469495959993392e-01) (31, 1.84950722666284264051e+01) (36, -2.11247351478126077495e+00) (51, 3.95184540092611003015e-01) (76, 5.56903419965455004359e-01) (108, 1.64195216103968988364e+00) (106, 6.20352870832770686427e-01) (119, 4.18852796164532609202e-02) (103, 1.55322266875165393429e+00) (107, 1.62592316468953046460e+00) (54, 6.35454314465518144139e-01) (125, 5.42232492385110065314e-01) (53, -8.13471977667579171367e-01) (114, 2.87038723246185567550e-01) (121, 3.94351912785881275614e-01) (35, -8.55298010693483767852e-01) (128, 6.97203135736576329329e-01) (20, 2.68269553432486151934e-01) (18, 1.50000000000000000000e+03) (99, 2.16943905765309219547e+00) (43, 4.26384235472680206414e+00) (90, 1.50000000000000000000e+03) (120, 4.13394833818042262141e-01) (33, 9.46042595950946108019e+00) (22, 5.21552030071508854192e-01) (69, 5.63387285160808048978e-01) (139, 6.26486034482016895808e-01) (21, 1.00180781412915003159e+01) (83, 2.27889300740346900653e+00) (91, 3.38629284973595234831e-01) (19, 1.50000000000000000000e+03) (7, -1.04184350337625367122e-01) (4, -4.19031314199925786212e-02) (112, -3.44918822241316536115e-01) (10, -1.27384927636285893993e-01) (100, 4.67421215744811924253e+00) (56, 5.48398259593280590352e-01) (70, 4.14459510414610932116e+00) (24, 5.03066420926796209478e-01) (93, 5.71248670501491773166e+00) (74, 4.86558201922484112600e-01) (17, 1.50000000000000000000e+03) (95, 4.13306476241633635738e-01) (130, 6.11336319950024908998e-01) (137, 3.99911123724163430904e-01) (23, 1.19809774306319671844e+00) (126, 5.04284995370130495473e-01) (131, 6.73868637324909647290e-01) (59, -1.36767008905343279146e+00) (113, -1.70119804615335878939e-01) (110, 1.53205075427417791722e+00) (88, 1.50000000000000000000e+03) (136, 9.64092305056223564108e-01) (44, -2.16053799634223997472e-01) (38, 2.11550004981436945428e-01) (89, 1.50000000000000000000e+03) (62, 6.13767808740074527485e-01) (46, -1.63178074720393273545e+00) (71, -3.81287794967666249235e+00) (111, -4.02606975131348965302e-01) (118, 3.82751976823692885432e-01) (129, 5.68361926816703499910e-01) (6, -9.59685129425187910535e-01) (27, -5.49750159888193867808e-01) (45, -6.10223985446106365060e+00) (2, 3.96539590622961790611e-01) (96, 4.95859087746193638591e-01) (1, 5.71356364684294515399e-01) (25, 3.45004898275399429775e-01) (138, 5.88945026557249229349e-01) (8, -1.53363024844420414716e+00) (49, 4.79247982309869757778e-01) (142, -2.59146673982504960332e-01) (16, 1.30231907976969663032e+00) (18, 1.50000000000000000000e+03) (92, 2.15245765131117439140e+00) (115, 1.72062506726877832708e-02) (117, 2.05621895049079528306e+00) (50, -1.07479613410453422873e+00) (85, -2.17562735488601921574e+00) (9, 2.87712584270942040021e-01) (78, 2.33179486244444622578e-01) (17, 1.50000000000000000000e+03) (54, 4.41994813717309198431e-01) (69, 6.43416979923375431660e-01) (134, 1.60713651543126245791e+00) (73, 2.37986337790639379541e-01) (51, 5.39433564023376943553e-01) (102, -6.68595083744637275203e-01) (23, 4.74792434484550884832e-01) (47, -9.60959061618512855318e-01) (27, 8.54992541714495124516e-01) (77, 1.11638578495556056724e-01) (128, 3.62806404856556796723e-01) (63, -1.47727553485482032691e+00) (104, 4.09143846891680762479e-01) (7, 1.58526326203595613329e+00) (113, 3.90952813462123183186e+00) (19, 1.50000000000000000000e+03) (79, 4.78892366085937881692e-01) (110, -3.47016370600217935460e-02) (31, 1.98769610044807407689e+01) (80, -2.10156414717518824631e+00) (14, 4.01342298754929216464e-01) (64, 2.03969262892391167696e+00) (87, -3.19124158156009474219e-01) (131, 3.71019293836842567469e-01) (10, -4.88729743614150091702e+00) (132, 2.03004072684808978266e+00) (94, -3.79857615723319552714e+00) (75, 6.39800419307290785254e-02) (2, 2.58127998188892027187e+00) (126, -1.68763671213330745946e-01) (15, -2.51558566989413312509e-01) (121, -3.83697821838087205215e-01) (43, -5.12712488460485982245e+00) (108, 2.57077625974974598166e-02) (130, 5.04892432163637883136e-01) (59, -2.00887472412762102536e+00) (98, -3.79920870612032368641e+00) (71, -8.40787879534382609492e-01) (21, -3.28276150773829256124e+00) (1, 6.42625239509419454720e+00) (138, -9.75020727518562113634e-02) (109, -1.06772981020324242429e+00) (116, 8.64269586089500663206e-01) (95, -2.27934084282858731574e-02) (123, -2.77671307878417117365e+00) (26, 3.32059466857971774534e-01) (119, -6.26816087845834424286e+00) (122, 4.44047538665689633941e-01) (124, 4.13291886031146749048e-01) (125, 3.76661268530424975243e-01) (96, 7.00192257973232257129e-02) (11, 6.42571006221638596489e-02) (107, 2.31025699041635418363e-01) (120, -4.39723692370617702530e-01) (99, 7.18994778441022330817e-01) (66, 7.00275865878609349302e-01) (62, 5.20365114500370151696e-01) (101, 4.77365686859468585368e+00) (127, 4.11236328038518783590e-01) (49, -1.49928210020189689455e-01) (103, 1.53212089595479183934e+00) (142, 3.06444272588382415901e-01) (48, -3.46097168903225338443e-01) (77, 6.00079298171093622472e-01) (135, 2.86130116719237215239e-01) (66, -2.25982435377484885963e-01) (141, 1.03572063449503953825e-01) (95, -1.19089899572108845471e-01) (88, 1.50000000000000000000e+03) (90, 1.50000000000000000000e+03) (51, 1.98121227849795711329e+00) (130, 1.63349772108447532926e-01) (23, -1.09524370867814177521e-01) (106, 8.95686513702812048265e-01) (76, -6.23878014728052932014e-01) (128, -8.19842911601518509190e-02) (52, 3.16245528098962946917e-01) (104, 1.21304975177429372191e-01) (3, 1.43132479432361403582e-01) (79, 1.44617052002913060171e+00) (81, -1.73841259397900488315e-01) (69, 1.46235493311396541616e-01) (33, -3.12295678232151596720e-01) (108, -5.57969815972748306443e-01) (19, 1.50000000000000000000e+03) (62, 1.10832277447123761505e+00) (27, 5.08895286541114710843e-01) (64, -1.36050938896943779399e-01) (28, 2.32587697145591798531e+00) (58, -1.84905449523322829020e-01) (29, -1.04724913136031383409e+00) (70, 3.59128238918609121733e-01) (1, 2.25943153191793477674e+00) (136, 1.33770765727044566723e-02) (63, 1.66199421086918253110e+00) (50, -5.29167590127980957959e+00) (93, 7.52570549481036299433e-01) (35, 1.25967909875035671829e-01) (49, -2.03733398378302954512e+00) (67, -5.74662342135966036638e-02) (85, 6.79309960298759563102e-01) (34, -1.94564791844673068422e-01) (6, 2.02018224133124341124e-01) (78, -5.70195177269366082484e-01) (112, -2.30623869852392693325e-01) (113, 1.07071657459571187299e-01) (21, 4.50767716914846461318e-01) (12, 4.27244010400107288028e-01) (42, -1.30502390032453313706e-01) (111, -8.02447264192412856865e-01) (140, 2.85279307543331472896e-01) (119, -6.21561428430755458230e-01) (73, -2.31742437886309882167e-01) (123, 4.33636716685892736889e-02) (16, -5.11221878381058147944e-01) (87, 1.28556161770472665573e+00) (122, 2.16699904043946178778e-01) (7, 5.78223454232033606814e+00) (30, 4.13789449717516788496e+00) (41, 4.26386141700304865942e-01) (103, -1.91650029632834284499e-01) (17, 1.50000000000000000000e+03) (4, 1.14024996755865332121e-01) (105, -8.51571262859059596728e-01) (82, -2.59409432188772826056e-01) (100, 1.47170061413991783150e-02) (83, -4.66293779489227455670e-01) (102, -3.41671142439740149754e+00) (132, 6.61793893455005638460e-02) (120, -1.98953751439130588352e+00) (137, -1.60431015216928263278e-01) (13, 1.75574335354170413259e-01) (117, -1.27016462204681573889e-01) (142, -4.54695595624392212564e-01) (53, 5.53812434207745840631e-01) (126, 6.01128535524173224225e-01) (130, 4.96642874799610889447e-01) (75, 5.12035576925743751708e-01) (133, 3.16047721630767730616e+00) (38, -1.18932521991627915270e+00) (27, -7.94689191588423438084e-01) (70, 7.34628105992546465153e-01) (79, 4.55929942127767884319e-01) (72, 3.25553097665602531041e-01) (4, 3.24521640901389352152e-01) (77, 4.97461489620612373752e-01) (140, 1.27235520786988770547e-01) (89, 1.50000000000000000000e+03) (21, 4.26779489056753114085e+00) (60, -6.46924579306428659820e-01) (98, -6.96652393190728957961e+00) (97, 6.01515958381119042464e-01) (65, -1.08885168516690367113e+00) (119, 3.54227533520466986161e-01) (106, 2.22562071058624599829e+00) (103, -4.74257792334745786889e+00) (128, 7.02358437866253182413e-01) (22, 1.23306536056310389604e+00) (49, 4.25981686304112594499e-01) (43, 3.20963325311011793417e-01) (42, -5.98164891795194053614e-01) (132, 4.07990369693799959094e+00) (76, -8.39661395259766352162e-01) (54, 6.66429362571992478514e-01) (10, 1.87636266568683235390e-01) (78, 7.79627770371012274175e-01) (127, 5.90004010294018166327e-01) (9, -1.63852681165663338625e+00) (32, 5.82830593108142003267e-01) (102, -1.55801134210318714679e-01) (44, 1.24200845685218785874e+00) (118, 4.99911795549441706488e-01) (108, 1.82351984457352012114e+00) (117, -8.03204481292481009547e-02) (31, 2.45306843337449507203e+01) (41, 5.88611434561015389733e-01) (90, 1.50000000000000000000e+03) (3, 4.34400528759186110861e-01) (8, 1.10906248276500951633e+00) (16, 5.27493267394815099069e-02) (134, 6.95091708670921959445e-01) (73, 4.72196688882633830442e-01) (62, 6.19692285793207675582e-01) (63, 1.05393681249752102502e+00) (12, 1.29869966460941344000e-01) (80, 1.51341882788131858878e-02) (111, -1.23694465454148846972e-01) (66, 4.93360722459615042013e-01) (83, 1.51112466565560432663e+00) (34, 