FANN_FLO_2.1
num_layers=5
learning_rate=0.700000
connection_rate=0.600000
network_type=0
learning_momentum=0.000000
training_algorithm=2
train_error_function=1
train_stop_function=0
cascade_output_change_fraction=0.010000
quickprop_decay=-0.000100
quickprop_mu=1.750000
rprop_increase_factor=1.225000
rprop_decrease_factor=0.325000
rprop_delta_min=-10.000000
rprop_delta_max=10.000000
rprop_delta_zero=0.100000
cascade_output_stagnation_epochs=12
cascade_candidate_change_fraction=0.010000
cascade_candidate_stagnation_epochs=12
cascade_max_out_epochs=150
cascade_max_cand_epochs=150
cascade_num_candidate_groups=2
bit_fail_limit=2.99999999999999988898e-02
cascade_candidate_limit=1.00000000000000000000e+03
cascade_weight_multiplier=4.00000000000000022204e-01
cascade_activation_functions_count=10
cascade_activation_functions=3 5 7 8 10 11 14 15 16 17 
cascade_activation_steepnesses_count=4
cascade_activation_steepnesses=2.50000000000000000000e-01 5.00000000000000000000e-01 7.50000000000000000000e-01 1.00000000000000000000e+00 
layer_sizes=143 15 16 17 4 
scale_included=0
neurons (num_inputs, activation_function, activation_steepness)=(0, 0, 0.00000000000000000000e+00) (0, 0, 0.00000000000000000000e+00) (0, 0, 0.00000000000000000000e+00) (0, 0, 0.00000000000000000000e+00) (0, 0, 0.00000000000000000000e+00) (0, 0, 0.00000000000000000000e+00) (0, 0, 0.00000000000000000000e+00) (0, 0, 0.00000000000000000000e+00) (0, 0, 0.00000000000000000000e+00) (0, 0, 0.00000000000000000000e+00) (0, 0, 0.00000000000000000000e+00) (0, 0, 0.00000000000000000000e+00) (0, 0, 0.00000000000000000000e+00) (0, 0, 0.00000000000000000000e+00) (0, 0, 0.00000000000000000000e+00) (0, 0, 0.00000000000000000000e+00) (0, 0, 0.00000000000000000000e+00) (0, 0, 0.00000000000000000000e+00) (0, 0, 0.00000000000000000000e+00) (0, 0, 0.00000000000000000000e+00) (0, 0, 0.00000000000000000000e+00) (0, 0, 0.00000000000000000000e+00) (0, 0, 0.00000000000000000000e+00) (0, 0, 0.00000000000000000000e+00) (0, 0, 0.00000000000000000000e+00) (0, 0, 0.00000000000000000000e+00) (0, 0, 0.00000000000000000000e+00) (0, 0, 0.00000000000000000000e+00) (0, 0, 0.00000000000000000000e+00) (0, 0, 0.00000000000000000000e+00) (0, 0, 0.00000000000000000000e+00) (0, 0, 0.00000000000000000000e+00) (0, 0, 0.00000000000000000000e+00) (0, 0, 0.00000000000000000000e+00) (0, 0, 0.00000000000000000000e+00) (0, 0, 0.00000000000000000000e+00) (0, 0, 0.00000000000000000000e+00) (0, 0, 0.00000000000000000000e+00) (0, 0, 0.00000000000000000000e+00) (0, 0, 0.00000000000000000000e+00) (0, 0, 0.00000000000000000000e+00) (0, 0, 0.00000000000000000000e+00) (0, 0, 0.00000000000000000000e+00) (0, 0, 0.00000000000000000000e+00) (0, 0, 0.00000000000000000000e+00) (0, 0, 0.00000000000000000000e+00) (0, 0, 0.00000000000000000000e+00) (0, 0, 0.00000000000000000000e+00) (0, 0, 0.00000000000000000000e+00) (0, 0, 0.00000000000000000000e+00) (0, 0, 0.00000000000000000000e+00) (0, 0, 0.00000000000000000000e+00) (0, 0, 0.00000000000000000000e+00) (0, 0, 0.00000000000000000000e+00) (0, 0, 0.00000000000000000000e+00) (0, 0, 0.00000000000000000000e+00) (0, 0, 0.00000000000000000000e+00) (0, 0, 0.00000000000000000000e+00) (0, 0, 0.00000000000000000000e+00) (0, 0, 0.00000000000000000000e+00) (0, 0, 0.00000000000000000000e+00) (0, 0, 0.00000000000000000000e+00) (0, 0, 0.00000000000000000000e+00) (0, 0, 0.00000000000000000000e+00) (0, 0, 0.00000000000000000000e+00) (0, 0, 0.00000000000000000000e+00) (0, 0, 0.00000000000000000000e+00) (0, 0, 0.00000000000000000000e+00) (0, 0, 0.00000000000000000000e+00) (0, 0, 0.00000000000000000000e+00) (0, 0, 0.00000000000000000000e+00) (0, 0, 0.00000000000000000000e+00) (0, 0, 0.00000000000000000000e+00) (0, 0, 0.00000000000000000000e+00) (0, 0, 0.00000000000000000000e+00) (0, 0, 0.00000000000000000000e+00) (0, 0, 0.00000000000000000000e+00) (0, 0, 0.00000000000000000000e+00) (0, 0, 0.00000000000000000000e+00) (0, 0, 0.00000000000000000000e+00) (0, 0, 0.00000000000000000000e+00) (0, 0, 0.00000000000000000000e+00) (0, 0, 0.00000000000000000000e+00) (0, 0, 0.00000000000000000000e+00) (0, 0, 0.00000000000000000000e+00) (0, 0, 0.00000000000000000000e+00) (0, 0, 0.00000000000000000000e+00) (0, 0, 0.00000000000000000000e+00) (0, 0, 0.00000000000000000000e+00) (0, 0, 0.00000000000000000000e+00) (0, 0, 0.00000000000000000000e+00) (0, 0, 0.00000000000000000000e+00) (0, 0, 0.00000000000000000000e+00) (0, 0, 0.00000000000000000000e+00) (0, 0, 0.00000000000000000000e+00) (0, 0, 0.00000000000000000000e+00) (0, 0, 0.00000000000000000000e+00) (0, 0, 0.00000000000000000000e+00) (0, 0, 0.00000000000000000000e+00) (0, 0, 0.00000000000000000000e+00) (0, 0, 0.00000000000000000000e+00) (0, 0, 0.00000000000000000000e+00) (0, 0, 0.00000000000000000000e+00) (0, 0, 0.00000000000000000000e+00) (0, 0, 0.00000000000000000000e+00) (0, 0, 0.00000000000000000000e+00) (0, 0, 0.00000000000000000000e+00) (0, 0, 0.00000000000000000000e+00) (0, 0, 0.00000000000000000000e+00) (0, 0, 0.00000000000000000000e+00) (0, 0, 0.00000000000000000000e+00) (0, 0, 0.00000000000000000000e+00) (0, 0, 0.00000000000000000000e+00) (0, 0, 0.00000000000000000000e+00) (0, 0, 0.00000000000000000000e+00) (0, 0, 0.00000000000000000000e+00) (0, 0, 0.00000000000000000000e+00) (0, 0, 0.00000000000000000000e+00) (0, 0, 0.00000000000000000000e+00) (0, 0, 0.00000000000000000000e+00) (0, 0, 0.00000000000000000000e+00) (0, 0, 0.00000000000000000000e+00) (0, 0, 0.00000000000000000000e+00) (0, 0, 0.00000000000000000000e+00) (0, 0, 0.00000000000000000000e+00) (0, 0, 0.00000000000000000000e+00) (0, 0, 0.00000000000000000000e+00) (0, 0, 0.00000000000000000000e+00) (0, 0, 0.00000000000000000000e+00) (0, 0, 0.00000000000000000000e+00) (0, 0, 0.00000000000000000000e+00) (0, 0, 0.00000000000000000000e+00) (0, 0, 0.00000000000000000000e+00) (0, 0, 0.00000000000000000000e+00) (0, 0, 0.00000000000000000000e+00) (0, 0, 0.00000000000000000000e+00) (0, 0, 0.00000000000000000000e+00) (0, 0, 0.00000000000000000000e+00) (0, 0, 0.00000000000000000000e+00) (0, 0, 0.00000000000000000000e+00) (0, 0, 0.00000000000000000000e+00) (0, 0, 0.00000000000000000000e+00) (0, 0, 0.00000000000000000000e+00) (86, 5, 5.00000000000000000000e-01) (86, 5, 5.00000000000000000000e-01) (86, 5, 5.00000000000000000000e-01) (86, 5, 5.00000000000000000000e-01) (87, 5, 5.00000000000000000000e-01) (86, 5, 5.00000000000000000000e-01) (86, 5, 5.00000000000000000000e-01) (86, 5, 5.00000000000000000000e-01) (86, 5, 5.00000000000000000000e-01) (87, 5, 5.00000000000000000000e-01) (86, 5, 5.00000000000000000000e-01) (86, 5, 5.00000000000000000000e-01) (86, 5, 5.00000000000000000000e-01) (87, 5, 5.00000000000000000000e-01) (0, 5, 0.00000000000000000000e+00) (9, 5, 5.00000000000000000000e-01) (9, 5, 5.00000000000000000000e-01) (10, 5, 5.00000000000000000000e-01) (9, 5, 5.00000000000000000000e-01) (10, 5, 5.00000000000000000000e-01) (9, 5, 5.00000000000000000000e-01) (9, 5, 5.00000000000000000000e-01) (10, 5, 5.00000000000000000000e-01) (9, 5, 5.00000000000000000000e-01) (10, 5, 5.00000000000000000000e-01) (9, 5, 5.00000000000000000000e-01) (9, 5, 5.00000000000000000000e-01) (10, 5, 5.00000000000000000000e-01) (9, 5, 5.00000000000000000000e-01) (10, 5, 5.00000000000000000000e-01) (0, 5, 0.00000000000000000000e+00) (10, 5, 5.00000000000000000000e-01) (10, 5, 5.00000000000000000000e-01) (10, 5, 5.00000000000000000000e-01) (10, 5, 5.00000000000000000000e-01) (10, 5, 5.00000000000000000000e-01) (10, 5, 5.00000000000000000000e-01) (10, 5, 5.00000000000000000000e-01) (10, 5, 5.00000000000000000000e-01) (10, 5, 5.00000000000000000000e-01) (10, 5, 5.00000000000000000000e-01) (10, 5, 5.00000000000000000000e-01) (10, 5, 5.00000000000000000000e-01) (10, 5, 5.00000000000000000000e-01) (10, 5, 5.00000000000000000000e-01) (10, 5, 5.00000000000000000000e-01) (10, 5, 5.00000000000000000000e-01) (0, 5, 0.00000000000000000000e+00) (10, 5, 5.00000000000000000000e-01) (11, 5, 5.00000000000000000000e-01) (11, 5, 5.00000000000000000000e-01) (0, 5, 0.00000000000000000000e+00) 
connections (connected_to_neuron, weight)=(142, 1.31459389201250376189e+00) (74, -4.93523401196702959925e-01) (115, 9.90615588567902216610e-01) (125, 9.71154742897534402346e-03) (38, -2.91221156273875902976e-01) (61, -6.85995727445503189479e-01) (10, 1.41146576675090895669e+00) (17, 1.50000000000000000000e+03) (105, -6.77702841168555636386e+00) (62, -6.92435486472260247615e-02) (20, -4.10140410903407026666e+00) (123, -1.55312858258218555729e-01) (132, -4.69001250075483488988e-01) (43, 1.89632718718205445230e-01) (12, 4.05583673616729178946e+00) (120, -8.70496341494374381575e-01) (48, 1.37453360748161856897e+00) (42, -4.83028392192066946542e-02) (46, -2.87121668794473672293e+00) (13, -4.02100889895920499129e+00) (37, 2.77952623909955121029e-01) (41, 5.30434271847611826800e-01) (24, -6.77471459939624098823e-01) (97, -2.31002823849609084661e+00) (117, -3.50456904317823836337e+00) (103, 9.84939441744730581618e-01) (114, 6.80822052933567678501e-01) (32, -7.73876879687644403383e-01) (93, -2.34654399872248298209e+00) (26, -8.23894389660145415322e-02) (50, 1.40570125270134171913e+00) (33, 8.91380049201180035823e+00) (8, -1.09089117775361166274e+00) (45, -1.71033172776228914458e+00) (104, -2.21800149302481708347e-01) (109, 1.86108557317030798295e+00) (9, -2.40278912678190303964e+00) (139, -1.78871156262612540644e+00) (130, -1.97028283615156785125e-01) (65, 4.77918077584089315279e-02) (129, -1.08839740592054812218e-01) (40, 7.85174927288061597075e-01) (21, -5.67454398020622141630e-01) (83, -4.08588105655631927959e+00) (25, 5.13618861238513524370e-01) (71, -4.00211376472699942308e-01) (0, 4.81115696578055640487e+00) (64, -1.81328903169159882935e+00) (92, -4.84425404849179508382e-01) (127, -7.28236703468655099947e-01) (31, -9.82680237024815461666e+00) (77, -2.33989407378742214627e-01) (87, 6.32736356142667988323e-01) (80, 6.27961288942017747949e-01) (112, 5.86879768780605104439e-01) (54, -7.81845537487797948017e-01) (122, -2.63991372997146478419e-01) (6, -9.59520359536362943409e-01) (52, -7.44718140385884908028e-01) (51, -5.49443385595138278354e-01) (106, 1.47154794747054307180e+00) (7, -1.85290851107372223083e+00) (131, 1.49316772280603304868e-01) (18, 1.50000000000000000000e+03) (59, -9.53048269738428488473e-01) (75, -5.54515638965839663399e-01) (89, 1.50000000000000000000e+03) (110, 2.62088341884135100912e-01) (102, -7.19094147879119405253e-01) (140, -3.53207691074882645932e-01) (30, 1.34558864622426632707e+00) (113, 1.12887234888447851588e+00) (4, -5.68589438200780838972e-02) (63, 1.85464410349559716273e+00) (91, -1.88458172114845301515e+00) (67, -2.84929163205114022173e-01) (85, 4.46798964285949506969e-01) (84, 2.86499030793592623922e+00) (135, 8.59894742767898900837e-01) (108, 1.79508229897074911285e+00) (34, -9.58285292980964320542e-01) (82, 8.49787180766881200533e-01) (118, -3.24004652082655553169e-01) (94, -8.07166904882094859985e-01) (16, 1.26422723395823410897e+00) (95, -3.52705924300128870197e-01) (142, 6.69126626796019086107e-01) (7, 1.19846895389933405518e+00) (18, 1.50000000000000000000e+03) (45, -2.22667995941008778349e-01) (96, 1.81987106878751497829e-01) (110, -1.40155014917190201551e+00) (116, 7.03672740115863559751e-01) (130, 1.23031767258390605235e+01) (3, -3.20739505608008623749e-01) (21, -3.13895379614567353599e+01) (38, 3.29364639844967888038e-01) (64, 7.43285380930906569574e+00) (58, -2.33424216145777041476e+00) (118, -5.82275041629023082379e+00) (35, 3.44467584377835978060e+00) (13, -1.48684179881793943068e+00) (23, -4.69421078116111090139e+00) (121, -2.24697930373285181815e+00) (24, 1.87359463409587312377e-01) (78, 1.11090678981475363685e+01) (51, 1.50496481003569382295e+00) (111, 7.72672015740545692353e+00) (90, 1.50000000000000000000e+03) (141, 7.62907048461739373257e-02) (135, 6.79926856543799917887e+00) (84, -1.26851742117994503722e+00) (92, 2.71601072906290070819e+01) (126, 7.75756998786289037051e-02) (20, 5.59559439127300883854e+00) (103, 4.06575396770016883607e+00) (129, 2.10910494692602590305e+00) (54, 3.91094574050757426420e-01) (75, 5.33165200017681972788e-01) (114, -1.35972878924943829659e+00) (120, 1.09762941946689829287e+00) (70, 1.03524443987676195711e+00) (109, 1.90104324017168724303e+00) (76, 6.72154896771038679049e+00) (117, 7.13948187044180837546e-01) (86, -6.65088415963492174399e+00) (71, 4.19013448711229496979e+00) (102, -2.31942754016256011407e-02) (138, 4.67833386794335126524e+00) (87, 3.16197236411617677021e+00) (0, 1.53594745825145828633e+01) (9, -4.03734928992582398077e-01) (122, -1.71504225492981637879e-01) (69, 4.10766152795563610489e-01) (91, 6.79776370220086700868e+00) (28, 5.31811973657030900853e+00) (104, 7.43687366355768997295e+00) (59, -4.41312521294037285458e+00) (41, -7.77693260378819750667e-02) (112, -1.75994678521815967054e-01) (108, -1.79729296155156692549e+00) (60, 7.48770769603617658561e+00) (140, 2.08855964240447306013e-01) (95, -2.49868915396255086847e+00) (22, -5.58107043353324971946e+00) (49, 6.93491328690179265060e-01) (12, 6.15134302633262208815e+00) (36, 8.97973388589280752115e+00) (15, -1.20846866326396451541e+00) (115, 1.56627015456753282407e+00) (93, 1.48540619202297321522e+01) (73, 5.64834544659977955128e-01) (82, 4.11551420866967526679e-02) (127, -2.96521026318368963182e-01) (88, 1.50000000000000000000e+03) (44, 3.35427042167658118199e-01) (16, -3.61534461068972889919e+00) (30, -3.68236409994657926115e-02) (55, -1.16113158298640661847e-01) (25, -8.91631524530485464197e+00) (6, 3.56105381161699319215e-01) (128, 9.23999310150910718731e-02) (139, -2.22590901074619829103e+00) (98, 3.06291518679205871933e+01) (39, 3.67221473932253683614e+00) (43, -9.16938727316385104871e+00) (47, 1.15408824680524402240e+00) (72, 1.01989587195622046778e+01) (132, 5.61968574158090916626e+00) (131, 8.22070358627908004401e-01) (5, 1.00540079153125416767e+00) (63, 9.21325411215005019017e+00) (142, 1.13041330696495734287e+00) (57, -4.59966241934413655468e-01) (59, -1.21265076622506118298e+00) (68, -6.35610724346949984565e-01) (69, -1.84332884010802972030e-01) (87, -1.05324718391841920528e+00) (92, 4.72147339336926119557e+00) (95, -5.39459723203461749552e-02) (98, 1.30208427880284949296e+00) (102, 4.92492694584727386253e-01) (112, -2.37239299210124743311e+00) (132, 3.64717835981300669834e-02) (49, -1.11349941718553849257e-01) (18, 1.50000000000000000000e+03) (104, -6.76225492620162293989e-01) (125, -3.62851055741264305610e-01) (139, -6.67229109087839278303e-01) (29, -1.12422368083973212016e+00) (82, 1.95987229001265839123e+00) (27, -1.74492300505024577895e+00) (38, 2.06884306082787450265e+00) (105, -2.21312766394752635790e+00) (76, 6.17090393621344546204e-02) (33, -6.33829880109485443995e+00) (81, 4.40604423180651350034e-01) (3, -5.34515114522017276144e-01) (106, 2.90838136719835604893e-01) (51, -4.92424658942942183870e-01) (127, -6.22648542323005926846e-01) (63, -1.22806423595199643017e+00) (94, -8.18363231762810117154e-01) (61, -1.10083129436256244027e+00) (83, 1.20873017856453635055e+00) (14, -3.05211559215501915254e-01) (129, -1.77492810620864638338e+00) (40, -3.17471423087868354074e-02) (43, 1.34964452659507805343e+00) (103, 1.15728475929118501675e+00) (79, -4.62663202152542696322e-01) (39, -7.15274714974672765067e-01) (90, 1.50000000000000000000e+03) (115, 5.52918393306268685095e-01) (45, 1.05637872570462909572e+00) (20, -2.44579851030838968384e+00) (116, 2.93386935925561087579e-01) (42, 9.29151448412008695854e-01) (54, -1.13878659529905612580e+00) (7, 3.97982440999000264270e-01) (13, -9.23414230464505325635e-01) (55, -4.63556603996825994374e-02) (52, 2.05080570632770964323e-01) (107, -8.63668093495417038552e-03) (46, 4.28704191400709089255e-01) (32, 4.91777523763860990869e+00) (17, 1.50000000000000000000e+03) (44, -9.86829742197355974653e-01) (70, -1.06348196024078234245e+00) (88, 1.50000000000000000000e+03) (53, 4.43327391345416932378e-02) (25, -2.19365794628503607555e+00) (73, -3.52787621627808078983e-01) (16, 1.40791663076608397631e+00) (123, -1.22233609510213100946e-01) (9, -7.06626329921399176648e-01) (136, -3.19345218118592621970e-01) (119, -1.26814333022066683121e+00) (1, -1.17379822576043180149e+00) (122, -3.10567619879522860415e-01) (128, -4.98008506735228895224e-01) (124, -6.00203875769401262730e-01) (35, 2.18274379988204758618e+00) (114, 1.95585030199725085076e+00) (47, 8.22764981324520361383e-01) (22, -1.79760621655640417949e+00) (135, 5.18541278727409626903e-01) (62, -4.87655603127589210022e-01) (71, 4.53913730608803511757e+00) (65, -9.23040249710224580681e-01) (110, 8.47979051019713936377e-01) (34, -7.38671899483754890170e-02) (85, -1.64538756594660129373e+00) (100, 5.66824446239257984104e+00) (93, 1.46670490045250767608e+00) (134, -8.83227788795567625435e-01) (113, -5.94449955694555831620e-01) (26, -5.26330479783412519268e-01) (142, 1.09702460303029991628e+00) (23, -3.23185052084603352540e+00) (26, -5.64353164797405715269e-01) (33, -6.41153127273590328628e+00) (47, -7.42021604990971139770e-01) (52, -4.62402588437852202219e-01) (64, -2.22814274401333722864e+00) (73, -3.95911978743836712180e-01) (85, -2.38824240079223065747e-01) (88, 1.50000000000000000000e+03) (104, -8.07148298001201802698e-02) (107, -4.41606539837758993450e-01) (109, 1.00593114390869819985e+00) (114, 9.02768559669805403800e-01) (127, -7.78379674380505703901e-01) (137, -1.48452271788340167680e-01) (140, -7.53068128536579006749e-01) (90, 1.50000000000000000000e+03) (30, -1.26806530772848757849e+00) (74, -1.31261202295679196839e-01) (91, -9.38723713528867631517e-01) (86, -1.97181193409398280991e+00) (138, -1.67673320763956662516e-01) (80, 1.79237676983046534396e+00) (10, 3.61694607234310661070e+00) (43, -1.81300773968717154894e+00) (36, 2.91057797842654286669e-01) (40, 5.99558499470011940780e-01) (55, -6.17934085837565927335e-01) (84, 4.27491680227667314451e-01) (110, 6.17977564055146449951e-02) (123, -4.94032556052012905567e-01) (113, 4.29324443198088101514e-01) (35, -1.72963623031149926756e-01) (130, 9.39274121271970602320e-02) (15, 2.54244000204848896729e+00) (11, 4.40476324271079411332e-01) (83, 1.48609743524119458646e-01) (119, -1.47735415640024059236e+00) (125, -1.00259723406964562642e+00) (21, 1.24387392187224987694e+00) (28, 8.39868069368948511055e+00) (136, 1.11146807303893990770e+00) (71, 3.45497948861480275173e-01) (81, 1.90692567144034791360e-01) (66, -8.32454662396737377072e-01) (133, -3.63064566273515965111e-01) (27, 1.92674002788778087059e+00) (75, -5.34775083692904606991e-01) (116, 6.41067616120911121236e-01) (19, 1.50000000000000000000e+03) (3, -4.06936721424075442677e-01) (48, -5.28543501712645302781e-01) (24, -5.12016792952529997685e-01) (38, 7.15610693631629879441e-01) (9, -1.13139731422602962674e+00) (108, -8.53634480151044539031e-02) (118, -1.32262160292936004069e+00) (53, 3.22253425204497512269e-01) (54, 3.41456411288440564444e-01) (14, -3.66161106060456431610e-01) (4, -1.98522008634853169839e-01) (134, 2.62313670152946321057e-01) (60, 6.31480989499253242414e-01) (62, -3.58488760466359135393e-01) (126, -1.46994873364423073170e+00) (135, -5.08530910886724529796e-01) (29, -1.60377331013124302395e+00) (105, 3.14410440999964957420e-01) (42, 9.86578474012587913755e-01) (77, -1.27157231048304151383e-02) (89, 1.50000000000000000000e+03) (7, -9.53194248023003898318e-01) (22, -2.92700073333013621735e+00) (72, 2.48690503652983674332e-01) (63, 2.15243602397160982420e+00) (45, 6.48993642190247577162e-01) (39, -2.56462668741157973074e+00) (31, -1.31791534746362093422e+00) (16, 1.31851669281646444176e+00) (106, 5.75951702492482064955e-01) (111, 1.23964450652422786270e+00) (61, -2.51431054154139133061e-01) (101, 4.54640883635962556042e+00) (8, -3.26122949875035261780e-01) (95, -6.24421655733351843587e-01) (142, -9.39405627650270025342e-01) (5, 1.42757924457087668202e+01) (6, 1.26598388641975412305e+00) (31, -3.81087020208814991618e-02) (43, 1.83010114787480269172e+01) (49, 6.64047888938863017927e-01) (50, 1.06752453489778753593e+00) (86, 5.59020042524540343720e+01) (89, 1.50000000000000000000e+03) (99, -1.62316162660520539873e+01) (113, -4.11918126208818513589e+00) (120, 1.21743732576500418574e+00) (65, -1.44645408584840456934e-01) (130, -4.96857390420058120384e+00) (94, 4.80538865088464051123e-01) (34, 2.39947495435432234245e+00) (82, 1.12438158258571085923e+01) (21, 2.59439297531480335124e+01) (112, -2.78548961813405648869e+00) (68, 4.06636933293585567384e+00) (92, -9.10017194571988041751e-01) (57, 1.18479487655024651183e+00) (76, 4.46828052472337422518e-01) (102, 1.19568932639824474506e+01) (100, 1.43629799250631577934e+01) (73, 4.79485455670424220997e-01) (67, 2.79102072542396095756e+00) (61, 1.29414446660563742242e+00) (101, -5.88394905221362396475e+00) (108, 1.48941486860934468872e+00) (19, 1.50000000000000000000e+03) (1, 6.27592687936751225664e+00) (97, 2.66561409690755413138e+00) (25, 1.16582766139291571506e+01) (53, 1.75165545800751809580e+00) (134, 2.73494139251136125779e+00) (22, 6.03619479809217374111e+00) (127, 1.47408655259284837591e+00) (62, 8.65265586875035852543e-01) (7, 3.36849305796593601059e+00) (109, 8.84350212266921964499e+00) (14, 2.50951055531965894208e-01) (81, -5.42212245084439548037e-01) (63, 1.25409996933607494896e+01) (30, 3.66858274839074183227e-01) (139, 1.98184766584639726617e+00) (35, -1.17346585226246844513e+01) (10, -3.21480296830830667432e+01) (0, -1.16222514711520137354e+01) (24, 1.27490669774259401947e+00) (20, -2.18296120452397346412e+00) (135, 3.48324014935064685261e+00) (111, -4.83131666688766703288e+00) (118, 1.34283882412458499545e+01) (45, 1.44723692609731209302e+01) (66, 6.56179625725089632482e+00) (129, 8.20711601571660120946e-01) (51, 1.44943180284708228456e+00) (107, -1.74530528420468633577e+00) (29, 1.61560487937613146414e+01) (47, 5.95532449418723408563e-01) (78, 1.41753823269029993748e-01) (136, 1.74851895686869340807e+01) (106, -3.68157898321674137421e+00) (55, 1.65953919516383185950e+00) (110, 3.12384251839460489464e+01) (69, 1.18926671134895958204e+01) (15, 2.48888751424280885161e+00) (58, 1.70717897516521310841e+00) (126, 2.83076197166212217837e+00) (93, -5.51217506095952600731e+01) (140, 3.56667144558308768509e+00) (83, -3.83142906901163300404e+01) (11, 1.89687857597436471124e+00) (46, -1.18341223171271892056e+00) (44, 4.84123996235633846652e+00) (8, 1.45683814082266227530e+00) (56, 1.19876508644067691911e+00) (85, 1.90549870742704321458e+01) (105, 7.63151456011878650543e+01) (32, 4.35034532788736960640e+00) (33, 6.07617671334640885306e+00) (98, -7.68951877272940009789e+00) (64, 4.51384186858262026476e+00) (18, 1.50000000000000000000e+03) (42, -8.18050136199887489852e+00) (133, 9.54433142818654434159e-01) (142, -1.99022033284210420057e-01) (12, -1.07005264636988184357e+00) (30, 3.16459178649686689866e+00) (55, -2.56668281536015063793e+00) (65, -6.90041209061848070938e-01) (123, 1.62344725644689891197e+00) (129, 5.47344259440669334005e-01) (125, 8.93680581241247273816e-01) (25, 3.20526560923420689164e-01) (37, -9.56317676767170166130e-01) (60, 5.67145569939713101171e-01) (39, 1.86283447914282224156e-01) (17, 1.50000000000000000000e+03) (5, -2.75737169778097306050e-02) (94, 7.20362036820037765494e+00) (56, 2.85900977156576086013e-01) (90, 1.50000000000000000000e+03) (111, 1.03421288089820845313e-01) (117, 2.23220182013013246358e-01) (45, 3.13445681712374168981e+00) (130, -1.78582157415394782163e+00) (127, 1.18940763750560263290e+00) (97, 2.55795813530733162633e-01) (124, 7.69332359667236231893e-01) (116, 7.19442518210518078270e-01) (101, -2.54535881721410062184e+00) (61, 1.52897751643063828375e+00) (66, 3.36698158801703995024e+00) (70, 9.82021127105247582101e-01) (134, -2.64363769721885555342e+00) (40, -1.78077607187831415958e-01) (21, -1.38538264813118594532e+00) (137, 3.52129881971393943196e-01) (82, 3.53288438950808014738e+00) (11, 9.40758817557892590422e-01) (110, -5.15623844848286050357e-01) (63, 5.26344687014765533206e+00) (33, 8.37301776411280340717e-01) (109, -3.10912449518368994017e-01) (19, 1.50000000000000000000e+03) (71, -4.52308274519916242440e+00) (38, 3.44794444447608650073e-01) (10, -1.51094111199553782221e+00) (58, 1.42234483962774427290e+00) (126, 6.95201230726048668984e-01) (43, 4.42294016782387222619e-01) (44, -1.32115228433480180747e+00) (122, 7.39627138798896077709e-01) (24, 1.68706160821362738389e+00) (76, -3.84374247146968758826e-02) (105, 8.59610390183064843050e-01) (88, 1.50000000000000000000e+03) (41, -3.89132662524793904169e+00) (112, 9.09153685570385561299e-01) (108, 2.69121542284605697049e+00) (29, -1.44323308223593405053e+00) (79, 7.11650325437659714289e-01) (136, 2.57917400123613527185e-01) (49, 6.92109817444404140652e-01) (128, 9.41147791530448807329e-01) (119, -2.33047452647099007095e+00) (13, -2.62124363870930965348e-01) (121, 2.42791629575695361298e-01) (73, 5.57520897570002293975e+00) (80, 3.76252801112907597769e+00) (86, 1.79906818021856884648e+00) (1, 5.55141528059082456359e-01) (8, 3.74573206193779817408e-01) (68, -1.88776736319374838224e+00) (31, 1.48217874779446256994e+00) (48, 2.90402866623053856898e+00) (135, -2.75672327439453246356e+00) (4, 2.26121035033583939189e-01) (106, -7.98786820215476589535e-02) (16, 1.27543625125565207590e+00) (0, -6.70587951260338144266e+00) (52, 4.99103233304546700655e-01) (84, -9.22018446168842320532e-01) (92, 2.04559772554812635548e+00) (32, 1.25316319881343467557e+01) (100, 2.63953247953936376291e-01) (75, 1.34114243787976894495e+00) (115, 4.83736620119684546104e-01) (104, -3.18401249459846491519e+00) (9, 7.19934679174828895398e-01) (72, 3.14483747010306657899e+00) (142, 8.62768865732175815886e-01) (2, 2.32449269576876105248e+00) (21, -9.12694708421956990563e-01) (25, 5.88710658008656184670e-01) (28, -9.47196302692301039805e-01) (37, 5.27846854737639925581e-01) (61, -6.70218167154635890981e-01) (63, -1.87197983429318398629e-01) (71, -1.30631772439706206335e+00) (94, -5.03109045192774484434e+00) (100, -9.96516971665974748973e-01) (136, -6.06076531766955528546e-01) (16, -8.13801478175608800081e-02) (78, -2.63267557826753817452e+00) (5, -9.75710062044099213363e-02) (53, -3.23159301161016654369e-01) (112, -4.16995333879685625700e-01) (125, -4.19336196999340105052e-01) (106, 5.85891391064963684698e-01) (82, -1.35702162284641958401e+00) (116, -8.22963632400677158607e-01) (77, -5.93735238377919305464e-01) (87, 1.98427339576308231495e-01) (131, -1.83111796262021842008e-01) (141, 4.74982165826312363599e-01) (18, 1.50000000000000000000e+03) (15, 9.96315732715484458915e-01) (14, 2.52182019349360464489e-01) (96, -4.69519466801808227352e-01) (107, -2.87289426609675546676e-01) (91, -1.93549963281026471407e-01) (97, 7.38289791758182101233e-01) (33, -2.05630138140368012856e-01) (7, -3.53568453037950369833e+00) (109, 2.80087161054314803810e-01) (69, -8.62555423069451682183e-02) (138, 2.34161632859520352223e-01) (73, -4.21045867893789782510e-01) (84, 3.58083563396017268143e-01) (11, 2.23676275228861554112e+00) (48, 1.22791968385645522410e+00) (34, -1.02211670810361909822e+00) (139, 7.68356525810202195537e-01) (133, 3.52643958178979755047e-02) (95, 1.27667689199511169562e+00) (47, -1.47590654077134386668e+00) (123, -7.08691478179717115893e-01) (22, 9.34331741311928282157e-02) (19, 1.50000000000000000000e+03) (108, 8.07752616388258903868e-01) (40, -5.13212212946974832839e-01) (132, -1.00185182266638372894e+00) (36, 3.38516973900297613032e-01) (103, 7.80369220468537516666e-01) (9, -1.31186026417078838158e+00) (24, 5.77539292322373110089e-01) (39, -8.84131786145325726523e-01) (121, 1.45703069515340044582e+00) (35, 1.35332152905370244750e-02) (110, 5.44885765245535336199e-01) (32, -1.90065686329024452483e+00) (0, -1.74900680514508266583e+00) (51, 6.36312951661070602682e-01) (122, 1.57510025370989348303e+00) (12, -5.34381177256606276771e-01) (93, -9.36162595837687239175e-01) (140, 3.62662765015645205402e-01) (38, 4.44543116739694155193e-01) (27, 2.76495031799326107524e-01) (62, 1.22667521898589898521e-01) (114, -1.09168300776710580635e+00) (113, 5.80951796132021414110e-01) (1, -3.08859581351149103945e-01) (10, 4.13093562816200687848e-01) (57, 5.54601748472941857848e-01) (8, 1.88714788617445283769e+00) (46, -6.88541556623245898372e-01) (111, 1.00908758570657869358e-01) (66, -3.21463279709141291907e-01) (81, 1.88425304731612119902e+00) (118, 1.86715809853774117322e+00) (126, -4.17313409341397600905e-01) (4, 1.25127091868402495756e+00) (120, 6.33992449026308108051e-02) (70, -7.06179649265224612664e-02) (64, 2.29100642361628713262e-02) (142, 7.91858352774395757301e-01) (9, -1.78256322840741354696e+00) (13, 1.46291984648795470036e+00) (22, -2.41299826708934843367e-02) (24, 1.00885459198530580416e+00) (40, 9.48924686994701116483e-01) (42, -1.33375330047435980418e+00) (46, -1.95004856939251380865e+00) (48, -2.53202155626577773972e-01) (53, 6.26031438428898967530e-01) (56, 8.22023566127095706157e-01) (60, -3.78360549295617479282e-02) (70, -2.74319642918858019875e-01) (79, -1.08171865193661242976e+00) (84, -8.65666082475531062368e-02) (117, 1.38733058240715800835e-01) (133, -1.88897202389499430097e+00) (96, -1.71223402497583665482e-01) (86, 1.14190772972673267732e-02) (67, -6.43091593018808582727e-01) (102, -1.85255115416922327976e-01) (88, 1.50000000000000000000e+03) (136, -5.33342066434853490087e-01) (76, -7.82280648009800905207e-01) (71, -2.05788517744450061286e+00) (114, -1.23474762068504273493e+00) (38, -1.21784464500056643921e+00) (59, 3.88843303430189468628e-01) (47, 1.00798364074820456793e+00) (26, 5.78797397150661654952e-02) (111, 1.33789124941255610501e+00) (82, 2.10690222239198687859e+00) (5, 8.21285966317394700020e-01) (58, -1.41168465955019112323e-01) (127, -1.16204769686708078713e-01) (61, 1.86673090663632218478e-01) (91, -2.22769601206075673616e+00) (119, -2.53337061435076149607e+00) (34, 4.76130049572550229087e-01) (139, -1.15866047411570383119e+00) (68, -1.45952938232643547600e-01) (101, 1.28113096410026039429e+00) (37, 3.10553243092535380399e+00) (141, -2.75222835440287139086e-01) (112, -3.62450035459405839333e+00) (137, 1.11782483762476259059e+00) (55, -6.10934865734702181594e-02) (2, -5.35662000591369924507e-01) (12, -1.70095535163542632695e+00) (66, 5.96042971193807447072e-01) (36, 7.94475641131517917870e-01) (49, 7.67891197920762685891e-02) (121, -8.89786569668284399448e-01) (132, 2.55786021788423689749e-01) (11, 1.20063401523462509601e-01) (85, -1.13026108675321901309e+00) (109, -2.08553071115423260817e-01) (124, -3.62289737050298377152e-02) (73, 7.44403748746918725310e-01) (118, -1.12398130677869012573e+00) (78, -1.70782791419242330200e+00) (81, -5.17387066673673734485e-01) (130, 4.04045860264173606335e-01) (123, 1.49799129663016650227e+00) (113, 3.49708446002589101731e-01) (140, -3.24110280269998052294e-01) (33, -2.32018483977107425886e+00) (106, 2.25052431744644287903e+00) (77, -2.65373010525247532421e-01) (29, 7.22034554795763172663e-01) (99, -2.91922678843628480294e+00) (64, 1.26740708638634091976e+00) (41, -3.82391875801097258503e+00) (115, -9.60824796321910312713e-01) (20, 2.22884963573778183132e+00) (0, 4.77739648845736475380e+00) (65, 1.22192568249320587803e+00) (69, -5.48288286459242768522e-01) (80, 2.46834182300339666227e+00) (43, -3.88104800628269774876e+00) (93, 1.02497663131020733118e+00) (94, -3.03073303865772247789e-01) (108, 2.36831473928519831151e-01) (105, -1.00979378192365221167e+00) (35, 1.76453308788112028793e+00) (3, -4.85300398607334426693e-01) (142, -1.46983028985074704043e-01) (0, 4.84102302569974995983e-01) (1, 6.22046928684579114588e-01) (14, 2.52177821332415907918e+00) (19, 1.50000000000000000000e+03) (51, 8.69306500377734159279e-01) (72, 1.30070491603086535459e-01) (76, -1.99185167345933500371e+00) (77, -6.92380976920044677314e+00) (81, -1.35589430904209518047e+00) (93, -1.33777091277928805724e+00) (105, 8.62692547371669338219e-01) (111, -5.04344395738018258513e-01) (118, 1.28301294488244677083e+00) (138, 9.47434858151403880289e-02) (119, 8.18826735565060914723e+00) (124, 6.35407406919065498307e-01) (85, 1.20414761046188356630e+00) (37, -6.70902345656333332080e-01) (9, 1.06097309401191397527e+00) (75, 6.99781894760625022833e-01) (4, 5.37162945760637278170e-01) (136, 6.68892827561369807121e-01) (17, 1.50000000000000000000e+03) (123, -6.21652008770138575500e+00) (54, 6.49526212756437598683e-02) (106, 9.53761924051414688996e-01) (101, -6.66031631384670941287e+00) (68, -6.07733529795670746054e-01) (38, -5.11620113895780659341e-01) (84, 3.61444950443328361089e-01) (7, -2.28380076914629304152e-01) (113, -1.63604349084805056336e+00) (125, 6.52245709301575216088e-01) (130, 5.86761238735354795359e-01) (140, -2.72248982848849740979e-01) (92, -2.49777790651031450508e+00) (69, -4.05019542661798348515e-01) (137, 1.43408032410987185123e+00) (3, 6.00495536180279843030e-01) (71, -4.71068354323931459682e-01) (139, 2.04735653129265493533e+00) (82, -3.12838038483216074326e+00) (74, 6.91199814419239250141e-02) (115, -1.18555544912496119148e-01) (30, 2.80359527530301155807e+00) (56, 7.92914449319819247819e-01) (50, -6.62902716166414829324e-01) (129, 2.30406059376830785190e-01) (79, 6.89474107040532491197e+00) (63, 2.34496939462269793353e+00) (10, -7.00416226484604331759e-01) (112, 1.04371326966267985448e+00) (122, 1.33133826988806402980e+00) (83, -4.17600424299874450895e+00) (45, -2.04987658437918174315e+00) (28, -3.87796594426143947931e-01) (42, 1.61002192964565804534e-01) (116, 1.10678470256704364338e+00) (5, -1.18331808989626496853e+00) (97, 4.98223559631869372666e-01) (53, 6.05591496148159769142e-01) (102, 9.62863472546373877492e+00) (52, 1.63043710911459083235e+00) (98, 6.22651683010568302024e+00) (2, 2.01477253445382897823e+00) (64, -4.04152293750431546027e-01) (44, 5.63500870477771531597e-01) (91, -5.03762275592951058734e-01) (99, -1.01833129306613479059e+01) (132, 3.70992377317683863502e-01) (47, 6.42093687354530429090e-01) (31, 9.39078430569836725139e-02) (95, 4.41184741631619081748e-01) (103, 5.84631762312595282260e-01) (60, -1.76978921956393575599e+00) (61, -2.65064881733039436895e-01) (59, 1.67610432304672496429e+00) (126, 6.41412521828966686321e-01) (87, -9.53817975021680530823e-01) (35, 3.32581227624578312785e-01) (90, 1.50000000000000000000e+03) (86, 1.20582954044352441692e+00) (117, 1.11014654358840214599e+00) (24, 6.76011331594628006592e-01) (127, 4.49098184867318173108e-01) (142, -6.87011540881474203069e-02) (4, 1.34508079266489527503e-01) (15, 3.93743635374174838493e-01) (16, 9.43115933848515441973e-01) (17, 1.50000000000000000000e+03) (27, 5.73418695941015577056e-01) (34, 4.76543517917240477821e-01) (44, -3.76523939746961466835e-01) (58, -3.39507156969241608024e-01) (62, 2.17191102042681855044e-01) (67, -5.73510374946715473232e-02) (75, -1.51466754125377467410e-01) (83, 1.69552622552729848060e-01) (90, 1.50000000000000000000e+03) (119, 2.01046388823953003921e+00) (122, 1.10111899041259198029e+00) (134, 2.42724566297948307625e-01) (135, -1.33113274241644843204e-02) (139, -1.78602645355495792678e+00) (141, -4.69742533403555928562e-01) (123, 1.22675482582469674853e+00) (136, 6.02533666265541237306e-03) (37, 4.69330688491669673068e-02) (71, 2.87197392331739298488e-01) (6, 2.28449103821209031917e-01) (114, 5.80771540458899671044e-01) (35, -3.00086221660070651129e-01) (50, -1.78670736060448948068e-01) (140, -4.23996966141449771470e-01) (53, 2.70101288787482907150e-01) (19, 1.50000000000000000000e+03) (82, 2.60408588539849228383e+00) (133, -2.29018235937069741803e-01) (68, 2.03959833775375826148e-01) (63, -9.90662007813447320625e-02) (87, 4.50867923202209308631e-01) (74, -9.02785500761651205082e-01) (77, -3.78166160492539094040e-01) (72, -2.63013040991873170427e+00) (31, 8.52989029408030008383e-01) (59, -3.33621841522876994013e-01) (104, 1.11939598961753472572e+00) (80, -2.31712163006970062185e+00) (24, 7.20040829112478658613e-02) (9, 1.52561114668667202610e-01) (118, -9.76434553700410545751e-01) (78, -2.18832285426874628698e+00) (32, -1.24303689347582801972e+00) (88, 1.50000000000000000000e+03) (117, 2.74899370126566566785e-01) (107, 1.15286588591769367795e+00) (45, -6.63344847239309864939e-01) (129, 5.96821983587012272476e-02) (93, 2.34562278455549139133e-01) (84, 3.92615644226599128097e-02) (100, -1.60688601311615511524e-02) (115, -9.89418090729031057817e-02) (64, 1.95342123955679070058e-01) (101, 2.37286645756307375266e-02) (8, -2.31970164226128788831e-01) (26, 3.60634492753666546783e-01) (91, -6.17578553873683322450e-01) (42, 2.57091958738291104236e-01) (124, 6.68698717584282231741e-01) (48, 4.11983282001778416959e-01) (99, 1.65715708708539311012e+00) (131, -2.68725169470050595510e-01) (105, 1.00749502300676452293e+00) (102, -2.34704086220233598681e+00) (20, -2.57682522388408830061e-02) (92, -2.09087528973809361199e-01) (116, 5.06946933315437053835e-01) (41, 7.42591683419140169420e-01) (81, -1.09548055257480680957e+00) (61, 3.99401393825397577064e-01) (40, 4.36877592715316440120e-02) (30, -5.94579195563206930331e-01) (22, -2.14764045481890542000e-01) (29, -1.69393963043279388581e-01) (108, -1.65177533911287671708e-01) (110, -2.21612463912750190520e-01) (33, -4.27575382081881394392e-01) (46, -3.84480672653399968564e-01) (127, -1.32318548980076500232e-01) (65, 8.07163015242737397203e-02) (125, 6.25488883921385019349e-01) (113, -1.40498512192748892247e+00) (142, -1.84448507377202274016e-02) (20, 6.94955544654499757229e+00) (29, 2.01953761864360359368e+00) (35, -2.01078233731417421737e+00) (38, -1.78357428720727617666e+00) (39, -2.36371134141844185805e+00) (41, -1.09025753342779974098e-01) (66, 1.46434500795415201146e+00) (91, 4.56060638602229673211e+00) (101, -1.90006959265334129938e+00) (103, 3.71345049193451792746e+00) (108, -1.03690767711097930892e+00) (125, 5.50107197717728757524e-01) (22, 4.16969195799574077199e+00) (61, 8.63889136389201645061e-02) (110, -2.48499678659272937864e+00) (141, -1.29690106402296528865e-01) (87, -2.70716286044341947203e+00) (132, 1.11559303644899965313e+00) (19, 1.50000000000000000000e+03) (113, -3.50353291787612930452e-01) (139, 3.17947440961783733826e-01) (26, -1.97845851105234865619e-01) (98, -5.33175578545383166418e-02) (21, 8.98745245979602458419e+00) (118, 1.22718246504452371815e-01) (134, 8.69220015229159370662e-01) (47, 3.16885220585298610363e-01) (94, -3.99932372537110003563e-01) (27, -2.15322448467040539200e+00) (9, -2.74570941411386915121e+00) (3, -3.90732965975498891531e-01) (77, 3.60007533341530328030e+00) (68, 1.75436023389400758132e-01) (4, -3.44973346831251526101e-01) (72, -2.93809411591483937709e-01) (90, 1.50000000000000000000e+03) (126, 9.63967356127015118084e-01) (75, -5.68246634873666001120e-01) (55, -1.42458430032196181614e+00) (81, -3.79594676607346537267e+00) (124, 6.93729807335482395736e-01) (15, 2.01156116450530747519e-01) (42, -1.37972999428627174368e+00) (96, -1.06844306086065682360e-01) (80, 6.44001696614482255221e-01) (34, -5.21336723452668682199e-01) (133, -1.36182827578710075045e+00) (53, 3.83975979230013420018e-01) (64, 1.95344799949907743652e+00) (13, -9.14484136308316819530e-01) (129, 4.39918201519640006403e-01) (115, -7.61254878482541919027e-01) (74, -5.07781190889194267157e-01) (60, 1.04056639734297284861e+00) (131, -2.74453843139135067464e-01) (78, -5.01489830736322472760e-01) (122, -4.61634318985839731120e-01) (14, 5.25213659579761049656e+00) (48, 1.43203491024025231226e+00) (40, -8.31177364189972789354e-01) (79, 4.11040276609070109881e-01) (82, 9.07678389368280907901e-02) (69, -8.28619426431499300767e-02) (62, -8.89729435280044889112e-01) (136, 2.97854565204848764637e-01) (67, 8.17598055243074717247e-01) (58, 1.09227936060719144074e+00) (6, -7.94524556070607013147e-01) (2, -2.97073606465860506898e-01) (106, -1.22331476879703648919e+00) (25, 8.37813531683454404408e-01) (76, -3.28345000176799628466e-01) (54, 4.32858842856038594782e-01) (10, -5.42575850966702954992e+00) (112, -1.64320039602577194771e+00) (52, -2.60949496950432013875e-01) (65, 2.23139326509351665351e+00) (50, -2.85360564139313377385e-01) (49, -4.95654796965941002451e-01) (37, -1.72493671172240414791e+00) (45, 3.31795492970599603666e+00) (99, 2.06518451205631814460e+00) (105, 2.32987921042205181621e+00) (86, 7.84271202337135875382e-01) (56, 2.42202712952937204705e+00) (142, 1.03837736748634079653e+00) (11, -4.76137086428486266954e+00) (32, 5.01119911138191653777e-01) (36, -7.18738382424797705994e-01) (54, -4.86527587645032788544e-01) (80, 1.70887832669451933398e+00) (121, -3.37455696185148812383e-01) (50, -3.60589932097512888554e-01) (53, -4.04240681806978419122e-01) (33, -4.20492701843597949107e+00) (94, -2.47168269428088893669e-01) (98, 1.88319455947406755314e+00) (74, -2.76675473558998130663e-01) (29, 2.76497094656021291659e-01) (40, -2.46282955847917428560e-01) (10, -6.50910714130914502817e-01) (13, -3.64569795963151477292e-01) (73, -4.48630008900026411300e-01) (138, 8.21365353491444460943e-01) (91, -1.10117687914311979114e+00) (127, -5.02041080381011584066e-01) (109, -2.35559587825357845403e-02) (123, -1.76802140132300139586e-01) (139, -1.58287621215298002220e+00) (133, -1.89014693347317574990e+00) (49, 4.13684518642226606300e-01) (104, 2.55366995300661336898e+00) (3, -3.96386878808538734020e-01) (46, -1.41799365313715536319e-01) (60, -1.07126120626188936491e+00) (2, -4.07690814207079554876e+00) (92, 9.68105691223004494184e-01) (107, -6.53752394492793514891e-02) (5, 6.75862463415787928511e-01) (112, 8.32843303419414815458e-01) (115, -8.97554601859948120168e-02) (95, -2.86659326461555119536e-01) (72, -4.35750525685430378786e-01) (85, 2.52190740364497567594e-01) (12, 1.16656240233440500198e+00) (15, -3.79764962334421862789e-01) (79, 7.47162386582083337672e-01) (129, 8.06316774319350226818e-01) (96, 6.84517240067342047638e-01) (56, -4.98765109908784254333e-01) (124, -5.49520953223858410475e-01) (61, 3.45375281165585967802e-01) (48, 5.91659942449517473051e-01) (131, 1.23279398586557328854e-01) (42, -3.39505850202022230189e-01) (78, 2.13269377210667743228e+00) (7, -2.38140954770289042797e-01) (19, 1.50000000000000000000e+03) (30, 1.53750905565179984968e+00) (113, -7.54957423203027166991e-01) (25, 9.18621371917235224336e-02) (52, -1.58899218598971575522e-01) (55, -4.72145321884105073629e-01) (132, -5.16676300605268035149e-01) (34, -3.26307395518918963440e-01) (82, 6.70017334769534289585e-01) (86, -2.97296501922777289817e-01) (41, -1.54232018953210525680e+00) (140, 4.96669667991635685467e-02) (20, 1.82979553824879004331e+00) (69, 6.40261347457169893715e-01) (70, -1.73921617344325180055e-01) (38, 1.22062687015725512829e+00) (136, -7.54357565626937009995e-01) (117, -3.00332709971685811456e-02) (75, -3.96651027475649675669e-01) (120, -1.15205795229054830386e-01) (88, 1.50000000000000000000e+03) (101, -2.73510661253592857189e-01) (27, -1.65202223619334165328e+00) (83, 6.74089368478409056706e-01) (122, 6.17381454248475680657e-01) (6, 4.55889642819891749426e-01) (22, 2.27602392002995479459e-01) (126, 1.88381146717148673098e-01) (37, 5.42852336788135159118e-01) (18, 1.50000000000000000000e+03) (44, -2.98362555472525159406e-01) (45, -7.92461634134763448500e-01) (26, -3.83910009861901935224e-01) (58, 1.88457492685465882731e-01) (142, 6.10539747114121622573e-01) (3, 4.02634818485436418722e-01) (8, -3.59160010699237517429e+01) (10, -6.13816404765236853791e+01) (78, -7.87654984745496822285e+00) (126, 7.98330656480985667578e-01) (131, -4.06715251402338662245e+00) (27, 5.10122544025451389871e+01) (56, 1.19693284603357485985e+00) (137, -1.23369034158998047701e+01) (30, 1.34606368117236008253e+00) (99, 3.44892287796562300173e+01) (140, -5.36591541320349141309e-01) (46, -1.14118770830336639932e+01) (111, -1.47523962143670206437e+00) (21, -1.20930661570764179658e+01) (55, 8.05969420302956263136e-01) (136, 2.39079401485398035376e+00) (139, 3.13756770739276813487e+00) (42, -2.80039751736227380263e+01) (65, -1.55922245452405938693e+01) (40, 7.12433399899979402647e+00) (121, 2.45205234976536651237e-01) (113, -1.81382376445077997396e+00) (106, -5.85523326549666336405e+01) (70, -6.29338283826826661027e-01) (28, -1.94427226344683646175e+02) (59, -3.96989647382443777701e+00) (109, 4.17533985882758340580e+00) (25, 1.41641487821534273195e+00) (107, -1.56052203294325897431e+00) (102, -2.01098988100091524700e+00) (0, 4.43840656218802251942e+01) (66, -3.31045055064186355409e+00) (95, 1.60039854328501434111e+01) (34, 7.42782314406563948239e-01) (20, 5.98135052983244506208e+01) (127, 5.74458436834942132165e-01) (141, -4.07628188055809803636e-01) (88, 1.50000000000000000000e+03) (87, 2.44496303060193902468e+01) (116, 1.08873107520292844441e+01) (82, -2.88583891718178975339e+01) (84, -7.66155759737077790561e+00) (101, -1.03010856136034800734e+00) (44, 2.81123786101739199239e+01) (110, 1.19173282076933144680e+01) (120, 1.91868594202521669523e-01) (36, 1.45005807099437546981e+01) (23, 9.30850774502798739007e-01) (108, -2.51757762385148708972e+01) (83, -2.90139112856134424590e+01) (93, 1.34515886291102049199e+01) (13, -2.41699486708763906506e+01) (4, 1.31834850156999228155e+00) (74, -8.92056764984928474149e-01) (60, 5.68877766885891062998e+01) (130, -1.21948711164638257110e+00) (128, -3.54656084027217888277e+00) (12, -3.31015362740553982235e+01) (11, 3.03473793076166032279e+02) (17, 1.50000000000000000000e+03) (53, 6.81104008227345902871e-02) (117, 9.16133108722409517100e+00) (72, -1.33632089001389253724e+01) (24, 1.07486921159312442953e+00) (29, 3.15652162114555565608e+01) (134, -6.27928013383426364413e+00) (50, 4.84124187217733048527e+00) (133, 2.48246127129647184972e+01) (123, -8.84623044285257953412e-01) (14, -3.54360828037566051307e+01) (67, 7.40912098192103929506e+00) (57, -1.67368420185668198563e+00) (33, 1.05747345228256097727e+01) (86, 3.45414062932937593331e+00) (54, -6.56850310422308791836e-01) (49, 1.99963491942029358839e+00) (138, 6.23587433097252619163e-01) (22, -7.36324613146047468604e+00) (63, -5.55084759840375596696e+00) (68, 1.44686081059957095951e-02) (85, -9.86256230869947181361e-01) (43, 4.65321215271002159852e+01) (90, 1.50000000000000000000e+03) (39, -2.10965635969817766338e+00) (142, 2.92240211754545460565e-02) (82, 1.15048049361021975656e+00) (97, 6.00620467778735100950e+00) (106, 5.27478797792015807744e+00) (124, 7.53944830772463214785e-01) (128, 9.07875356881432837852e-01) (60, 6.61067460514958149531e+00) (68, 5.77725339494869682966e+00) (102, 8.99900730599641374141e-01) (30, 1.75288008870260303418e+00) (133, 9.18700920171301782524e-01) (52, 1.00836116391552144123e+00) (137, 1.16788134607451077329e+00) (43, -3.21813330962790544731e+00) (90, 1.50000000000000000000e+03) (76, -2.60554071160052158618e+00) (41, 5.27847039945280727125e+00) (18, 1.50000000000000000000e+03) (108, 9.29041850416454262351e-01) (85, 4.46719291690246844695e+00) (58, 6.27746244318953205976e-01) (77, 1.85591443006710243857e+00) (9, 5.96965497180535731303e+00) (64, 5.53157207207623891065e+00) (40, 1.25559213958880255824e+00) (38, -1.57009990517445818803e+00) (34, 1.18055055936103547864e+00) (120, 1.75924270791207049136e+00) (25, -5.98982137058649044548e+00) (66, 3.51382618761402332197e+00) (47, -1.25990218869302755822e-01) (127, 6.14477840935707342318e-01) (50, -7.99584142112343854158e-01) (51, -3.12678585191455346570e-02) (21, 2.48332732629433866611e-01) (132, 2.42010179448050521955e+00) (65, -7.16649549389177131786e-01) (70, 6.87938304860706839605e-01) (125, 1.19036893289842748977e+00) (19, 1.50000000000000000000e+03) (37, -1.04685715378421195787e+00) (63, 3.10809193710125475363e+00) (131, -1.67758087695947311069e+00) (56, -2.34561380445862965871e+00) (81, 3.45935492529914201398e+00) (123, -2.28703938703352527284e+00) (73, 3.53540847677378949898e-02) (129, -2.64521398368807239554e-02) (71, -8.54044780739074305131e-01) (140, 4.34214749216483042460e+00) (126, 4.79523985951534004180e-01) (4, 1.34782973212122492157e+00) (55, 1.27623964822789648377e-01) (138, -9.65090315181571734016e-01) (75, 2.20441750496932598047e-01) (14, 4.36162576204105367772e-01) (96, 3.68985861037838147602e-01) (54, 4.51371371797766096634e-01) (91, 9.20763346576371211061e-02) (72, -6.70903858431603383750e-01) (135, -4.52515307746409511935e+00) (134, -1.50431532666780354290e+00) (23, 1.08855998770215656180e+00) (27, 3.41478230267556837063e+00) (74, -9.01229138506540877751e-02) (93, 5.58999870346133498344e+00) (130, 1.05946983204004485657e+00) (114, 2.62277954810782265582e+00) (16, 9.49156098736318676323e-01) (99, -3.10148476992030186494e+00) (98, -4.33892768032791309452e+00) (48, -1.61858530905548292367e+00) (44, -6.19746924627678774655e-01) (15, -2.30620586019516427001e+00) (8, 2.08551747855710800650e+00) (87, -4.83360943677086662973e+00) (7, 4.71468777354729962070e+00) (0, -1.87370035095235110134e+00) (119, 1.11235041842147519553e+00) (136, 1.88192004183325134470e+00) (2, 1.43650080258876418071e+01) (100, 6.50229427643983637353e+00) (122, -1.68339382586079305826e-01) (59, -6.19728029954723758088e-01) (5, 2.33526616467463288274e+00) (109, -7.69353494837833662423e-01) (115, 8.25112677474816713641e+00) (157, 3.35430841797228151968e-01) (151, -6.99003942270376210644e-01) (154, 8.54455792276617742166e-04) (155, 1.48955182033337796277e-01) (149, 2.02603369971103841607e+00) (150, 1.31888350977204804604e-01) (147, 5.94281427592886907219e-02) (148, -1.60404398328061148504e+00) (144, 6.91659527660600903509e-01) (157, -2.63031539368911215782e-01) (147, 7.46184894577545332339e-01) (155, 8.19782914371791959773e-01) (148, 1.21660561384496168635e+00) (146, -3.27987874556738112641e-01) (154, -1.37154010938815851262e+00) (144, 1.80226897091006199592e-01) (150, 2.96793798448072942975e+00) (149, 3.66428045704685845241e-01) (157, 1.88507921013430723711e-01) (152, -2.86892893249273361889e-01) (147, 9.47478779735480336477e-01) (150, 7.71545006298376523368e-01) (151, 1.64526700528397951118e+00) (153, 5.66596860328002271956e-01) (145, -2.44436631248743124756e-01) (156, 3.63513298676890195260e-01) (144, -1.29819112068685615924e+00) (149, 1.50495585938241416279e+00) (157, -2.84959906401484400207e-02) (156, 1.12383308660730957262e-01) (149, 1.09412043450231988295e+00) (154, 1.37306685566168784618e+00) (144, -9.70501919869704854360e-02) (152, 2.11344965288722333452e-02) (150, -2.08128822146744052457e-01) (147, 9.32320455786436630419e-01) (143, 1.11988404058078316189e-02) (157, -1.16975288056827442240e+00) (150, 2.46562350259975332500e-01) (147, -5.68277735812758977296e-01) (148, -5.65116965299536144762e-01) (145, 5.95135824543325475666e-01) (152, -4.04026759453031750202e-02) (146, 3.77085316441760964867e-01) (154, -8.16863350729694737140e-01) (153, 2.21814783744731430781e-01) (156, -2.02194964844003399751e-01) (157, -5.49596597080710180805e-01) (144, 1.18623453620678920295e+00) (148, 6.63672276177279418796e-01) (154, -4.91948533819059079519e+01) (146, -7.89754895991507055442e-01) (145, 1.27697867799485886842e+00) (153, -7.25176528303852152568e-01) (152, 9.35835274816693707400e-01) (150, -7.26184077026369312335e+00) (157, 2.40812192940793945439e+00) (156, 2.04908998330248248720e+00) (149, 9.15951985182869021784e-01) (151, -1.42142399226241722410e+00) (145, 3.02828371653211103620e+00) (154, 2.95960397303669431324e+00) (152, -6.42773229416850749862e-02) (150, 4.97430042706374198058e-01) (155, 1.21367541886226087966e-01) (157, -6.23407328197554622129e-01) (149, -1.90659103099922150326e-01) (156, -3.19643065866013875720e-01) (151, -4.71449520934317689580e-01) (152, -1.96468413147614540115e-01) (146, 4.85983542334156748410e-01) (155, -2.10534341544472945740e-02) (153, -4.53693191465806389129e-01) (147, -1.82406251704658600721e-01) (144, 5.54293294041432793584e-01) (157, 4.79478184203648238881e-01) (145, 5.40832302503609341215e+00) (153, -5.94564282731098181500e-01) (144, 1.25993730116731894597e+00) (154, 9.51446341688510610624e-01) (143, 2.77282284522920186021e+00) (150, 2.76846516468395220656e+00) (146, 2.13788420274371476770e-01) (152, -5.79595300073612818004e-01) (157, 2.44410040741023480704e-02) (153, -2.46247569529657844845e-01) (148, 5.55371639819015050499e-01) (145, 3.11816527263929665903e-01) (147, 6.19758076095427851149e-02) (151, -4.21427641958059678862e-02) (152, -1.92331684222960541675e+00) (144, 4.98183742511104143968e-01) (154, -3.47721534142097055131e-01) (150, 1.46462469226709329773e-01) (157, 4.89250067178784497912e-01) (153, 3.67234821214707796155e-02) (145, 1.69476192268454894929e-01) (150, 2.30186296027291209532e-01) (147, 1.03953921181261024764e-01) (154, -5.49479643546127716203e-02) (148, -5.42419157903359039352e-01) (146, 3.79765023737547890992e-01) (155, 5.83200491530983661237e-03) (157, 3.76597745322530597090e-01) (146, -1.10355721942932111235e-01) (153, 4.30961646958849420308e-01) (152, -6.06918976377854635373e-01) (149, 1.28791434593575537804e+00) (145, 1.14977036775213492525e+00) (150, -1.72881571721754112581e-01) (155, 1.13684126154358938754e-01) (151, 1.94787898389256641796e-01) (157, 8.16773009445673103812e-01) (143, -3.91143726964643889676e-01) (153, -6.26328075233211212236e-01) (151, 2.83136966801411260608e-01) (156, 1.12991789742642301242e+00) (154, -6.13340972051229504913e-01) (150, -2.39692116200797278314e-01) (147, 1.96794777832346001745e-01) (144, -7.74000944114239031180e-01) (145, 1.61168248740032708788e-02) (157, -7.45302290715088855411e-02) (154, -6.10764907648787103156e-01) (151, -7.13853125172003277754e-01) (144, 8.68285052450592287343e-01) (153, -4.32265752974033967693e-01) (155, 6.13179111570152701738e-01) (152, 6.02645894521085634388e-01) (145, 5.64105033597596117190e-01) (148, 1.76751500679978162944e-01) (157, -3.69649366737251905413e-01) (145, -2.22129144982990567314e+00) (155, 1.32610804949902461036e-01) (154, -2.09653483563554648983e-01) (148, 4.67501203718274860321e-01) (150, -1.41240194274827035592e+00) (151, 4.79349989004478060917e-02) (143, -1.85862961446425467571e+00) (149, -3.57452437631674668772e-01) (146, -5.10561206802086942069e-01) (173, -1.81200017291612280879e-01) (172, 7.81780000013330422792e-02) (162, 3.43599685007817257087e+01) (160, -8.63545735114914592145e+00) (167, -1.64157578187996633368e+00) (163, -1.30261547588433046485e+00) (171, 4.82061592325778998092e-01) (165, 3.67914645215631779251e+01) (164, 5.74857910698588892018e+00) (161, 3.64185264739574847681e+01) (173, 1.26090104746823250537e-01) (161, -8.38232256419822185922e-02) (172, 6.36928899983915663974e-01) (164, -4.37383173681498815810e-01) (162, 1.34435329085253185699e-01) (166, -2.29379296881903005367e-01) (167, -5.25078203460803694114e-01) (171, 2.32351259883489175140e-01) (170, 3.11711931688784416039e-01) (169, 7.39605873134059343954e-02) (173, 8.95650986071002352951e-01) (159, 3.17591891258353631322e-01) (169, -1.81007081574707662242e+00) (166, 1.09594769405905045900e+00) (171, -7.05585039254303492129e-01) (165, 8.09032858739782767543e+00) (162, 1.68426312034746494817e+00) (167, 2.13266245698727735514e-01) (161, -2.77493154401316166613e-01) (163, -1.55605184677225838463e+00) (173, 3.54611112165396924478e-01) (162, 1.89262879793582960986e+00) (159, -3.64879074669484493310e-01) (171, 1.30562387193192214196e-01) (161, 1.80763224508169811910e-01) (169, 7.83404306849588283335e-01) (167, -4.05980064475708248700e-03) (166, -2.16786841974931851484e-03) (170, 5.12338166673336981027e-01) (163, 6.68497869793038268504e-01) (173, 9.89446778265986703893e-01) (158, 1.59330701453623948538e+01) (166, 7.25935745973953938659e-01) (171, 3.05709803058292317601e+00) (160, -9.86941952788368936922e+00) (161, 4.59377476526358830000e+00) (170, -2.15101825316924788467e+00) (168, -4.04741438432685451954e-01) (164, 1.30281482244266211268e+00) (165, -8.81941121520312232285e-01) (173, -3.47321506818764613733e-01) (161, 7.28715834623562308536e+00) (163, 3.99722016377231259554e+00) (165, -1.43458890838693839953e+01) (170, -1.69641180467268753995e-01) (166, -1.85562318317246033317e+00) (164, -3.56295591444454828878e-01) (168, -6.11864748398476154811e-01) (172, 9.15491101226766801346e-01) (162, 8.45709843337086319970e-01) (173, 2.45049901705509581840e-01) (162, 4.72572561177546257571e-01) (168, 1.79661642998333974386e-02) (166, 1.54210376899094137038e+00) (160, 4.65207309929202506016e-01) (164, -1.30190483309264470879e-01) (170, 2.15881639298932781479e-01) (169, -1.10041969547526541362e+00) (172, -5.22140251335695859680e-01) (163, 2.28094412272431490418e-01) (173, -3.96533695619820381051e-01) (164, -7.12808331044819332156e-01) (161, -2.37066916035618968639e-01) (159, 4.64308096087901189808e-01) (172, 9.93965130885179348752e-01) (167, 3.40135591647010404603e-01) (166, 3.55306185009176600520e-01) (170, 1.20546031157468022665e-01) (162, -3.19871853027298869154e-01) (169, 4.83350832257513629564e-01) (173, -1.52802318695924560510e-01) (162, 4.46866812591716233705e-01) (167, 7.54044091340098088239e-01) (164, -5.29920169209635472107e-01) (163, 7.55416477940846348149e-02) (169, 7.19424696235681088163e-02) (170, 1.35584158342071742220e-01) (160, 3.49226775552501644828e-01) (161, 5.38751827067206132127e-02) (171, -4.75412941432063085312e-01) (173, 9.76869467934537327736e-01) (170, 4.60195372480647957314e-01) (158, -3.66135743164202276390e-01) (162, 8.83931723081726739011e-01) (161, -1.74810984131909985528e-01) (163, 1.84847557451301769404e-01) (160, 6.33745743471242795053e-01) (165, -1.43584757263283968598e+00) (167, 1.11065576790243536465e+00) (172, 3.80384332617506926155e-01) (173, 1.85769039384246159585e-01) (164, 5.86427823971034101191e-01) (159, -4.39176226093170918308e-01) (168, -1.29725160651574089599e+00) (169, -7.77449833242666143995e-01) (163, -2.95075497610925496783e-01) (167, 2.95178998376671331005e-01) (161, 2.62010240621364409730e-01) (170, -8.38610051940261835846e-01) (158, 7.62824027020265471588e-02) (173, 8.25528915134786211993e-01) (160, 4.67497121505533463903e-01) (163, 2.13960461694481418604e+00) (162, -4.31794283608757201165e+00) (165, -7.29674211070325817730e+00) (169, 3.11968658816841193371e+00) (164, -1.13602023056437650972e+00) (159, -4.45266751298065588394e-01) (167, -1.91423859277621666308e+00) (172, 3.87887656457441343250e+00) (173, -3.03331239006271502490e+00) (167, 5.23048799624109772566e+00) (170, 3.80362183800402897660e+00) (163, 7.67164867785399162692e-01) (159, 3.74354309969532916824e+00) (168, -5.74755658909279620872e+00) (161, -4.60728537715517028062e-01) (169, -3.47512712108669452604e+00) (171, -1.26082767401606137270e+01) (164, -2.27983632733190910713e+00) (173, 6.01347596990339239298e-01) (163, -1.08997028096075387893e+00) (171, -5.75582129486841398425e-01) (166, 1.56881005608407164686e+00) (159, -2.42501956491214754053e+00) (160, 1.22704806527360354984e+00) (161, -5.95562855707087202006e+00) (170, -3.59442465736641336704e+00) (168, 4.73582326991772828428e-01) (162, 3.48871883268764115815e-01) (173, 4.81231140253983113997e-01) (165, -5.28891219500921039298e+00) (170, 1.40866495300323468776e+00) (169, -1.48812471332991941297e-01) (164, 1.86018523352060510812e-01) (168, 6.31147784931836053346e+00) (160, -5.77975471935539664159e-01) (166, 1.53232675307400922904e-01) (158, 2.41235869913636813422e+00) (171, 3.69602590957410326311e+00) (173, 2.62496589070077224193e+00) (171, 2.18822005658926812544e+01) (167, -1.24543460456330521424e+01) (160, 1.32705876246206533331e+00) (168, 1.84434465217678074112e+01) (166, 1.38643781027903645331e+00) (163, -1.84181216085723187259e-01) (159, -2.81539572993334430429e-01) (164, 1.25165052775641427729e+01) (165, 6.73517684746143263652e+00) (190, -4.08840074795787267181e-01) (178, -3.89976991226421487724e-01) (182, 1.26289111128314490706e+00) (184, 9.85414524745778175330e-01) (189, -1.20620272437415088085e+00) (180, 1.17578533117483341464e+00) (176, 7.17098898842384757657e-01) (181, 6.51282520848246559986e-01) (188, -5.06290421821147029746e-01) (175, 4.81139685073649181479e-01) (190, 2.94709591833580031306e-01) (181, 5.98271849976403591320e-01) (185, 6.44655889114135072226e-01) (186, 7.00732606214495734598e-01) (188, -1.83268668238458748432e-01) (175, 5.75335164898055362315e-01) (177, 2.45086931953710840393e-01) (180, 1.09846861156759526001e-01) (187, -2.08570138913090008526e-01) (174, 3.44535529872064372192e-01) (184, 4.30608831118502843882e-01) (190, -6.59812098074847586116e-02) (174, 1.00123104385809424954e+00) (175, 1.02904239487721604895e+00) (176, -7.73463531661312653220e-01) (177, 6.71352332595553935590e-01) (179, 1.26491572683224506868e+00) (180, -4.25498267404112562318e-01) (183, -7.39445898753588126695e-01) (187, -6.57997540831361860114e-01) (181, 2.07512808915808089072e-01) (188, 3.86849082921575881944e-01) 
