FANN_FLO_2.1
num_layers=5
learning_rate=0.700000
connection_rate=0.700000
network_type=0
learning_momentum=0.000000
training_algorithm=2
train_error_function=1
train_stop_function=0
cascade_output_change_fraction=0.010000
quickprop_decay=-0.000100
quickprop_mu=1.750000
rprop_increase_factor=1.225000
rprop_decrease_factor=0.325000
rprop_delta_min=-10.000000
rprop_delta_max=10.000000
rprop_delta_zero=0.100000
cascade_output_stagnation_epochs=12
cascade_candidate_change_fraction=0.010000
cascade_candidate_stagnation_epochs=12
cascade_max_out_epochs=150
cascade_max_cand_epochs=150
cascade_num_candidate_groups=2
bit_fail_limit=5.00000000000000027756e-02
cascade_candidate_limit=1.00000000000000000000e+03
cascade_weight_multiplier=4.00000000000000022204e-01
cascade_activation_functions_count=10
cascade_activation_functions=3 5 7 8 10 11 14 15 16 17 
cascade_activation_steepnesses_count=4
cascade_activation_steepnesses=2.50000000000000000000e-01 5.00000000000000000000e-01 7.50000000000000000000e-01 1.00000000000000000000e+00 
layer_sizes=143 101 102 103 4 
scale_included=0
neurons (num_inputs, activation_function, activation_steepness)=(0, 0, 0.00000000000000000000e+00) (0, 0, 0.00000000000000000000e+00) (0, 0, 0.00000000000000000000e+00) (0, 0, 0.00000000000000000000e+00) (0, 0, 0.00000000000000000000e+00) (0, 0, 0.00000000000000000000e+00) (0, 0, 0.00000000000000000000e+00) (0, 0, 0.00000000000000000000e+00) (0, 0, 0.00000000000000000000e+00) (0, 0, 0.00000000000000000000e+00) (0, 0, 0.00000000000000000000e+00) (0, 0, 0.00000000000000000000e+00) (0, 0, 0.00000000000000000000e+00) (0, 0, 0.00000000000000000000e+00) (0, 0, 0.00000000000000000000e+00) (0, 0, 0.00000000000000000000e+00) (0, 0, 0.00000000000000000000e+00) (0, 0, 0.00000000000000000000e+00) (0, 0, 0.00000000000000000000e+00) (0, 0, 0.00000000000000000000e+00) (0, 0, 0.00000000000000000000e+00) (0, 0, 0.00000000000000000000e+00) (0, 0, 0.00000000000000000000e+00) (0, 0, 0.00000000000000000000e+00) (0, 0, 0.00000000000000000000e+00) (0, 0, 0.00000000000000000000e+00) (0, 0, 0.00000000000000000000e+00) (0, 0, 0.00000000000000000000e+00) (0, 0, 0.00000000000000000000e+00) (0, 0, 0.00000000000000000000e+00) (0, 0, 0.00000000000000000000e+00) (0, 0, 0.00000000000000000000e+00) (0, 0, 0.00000000000000000000e+00) (0, 0, 0.00000000000000000000e+00) (0, 0, 0.00000000000000000000e+00) (0, 0, 0.00000000000000000000e+00) (0, 0, 0.00000000000000000000e+00) (0, 0, 0.00000000000000000000e+00) (0, 0, 0.00000000000000000000e+00) (0, 0, 0.00000000000000000000e+00) (0, 0, 0.00000000000000000000e+00) (0, 0, 0.00000000000000000000e+00) (0, 0, 0.00000000000000000000e+00) (0, 0, 0.00000000000000000000e+00) (0, 0, 0.00000000000000000000e+00) (0, 0, 0.00000000000000000000e+00) (0, 0, 0.00000000000000000000e+00) (0, 0, 0.00000000000000000000e+00) (0, 0, 0.00000000000000000000e+00) (0, 0, 0.00000000000000000000e+00) (0, 0, 0.00000000000000000000e+00) (0, 0, 0.00000000000000000000e+00) (0, 0, 0.00000000000000000000e+00) (0, 0, 0.00000000000000000000e+00) (0, 0, 0.00000000000000000000e+00) (0, 0, 0.00000000000000000000e+00) (0, 0, 0.00000000000000000000e+00) (0, 0, 0.00000000000000000000e+00) (0, 0, 0.00000000000000000000e+00) (0, 0, 0.00000000000000000000e+00) (0, 0, 0.00000000000000000000e+00) (0, 0, 0.00000000000000000000e+00) (0, 0, 0.00000000000000000000e+00) (0, 0, 0.00000000000000000000e+00) (0, 0, 0.00000000000000000000e+00) (0, 0, 0.00000000000000000000e+00) (0, 0, 0.00000000000000000000e+00) (0, 0, 0.00000000000000000000e+00) (0, 0, 0.00000000000000000000e+00) (0, 0, 0.00000000000000000000e+00) (0, 0, 0.00000000000000000000e+00) (0, 0, 0.00000000000000000000e+00) (0, 0, 0.00000000000000000000e+00) (0, 0, 0.00000000000000000000e+00) (0, 0, 0.00000000000000000000e+00) (0, 0, 0.00000000000000000000e+00) (0, 0, 0.00000000000000000000e+00) (0, 0, 0.00000000000000000000e+00) (0, 0, 0.00000000000000000000e+00) (0, 0, 0.00000000000000000000e+00) (0, 0, 0.00000000000000000000e+00) (0, 0, 0.00000000000000000000e+00) (0, 0, 0.00000000000000000000e+00) (0, 0, 0.00000000000000000000e+00) (0, 0, 0.00000000000000000000e+00) (0, 0, 0.00000000000000000000e+00) (0, 0, 0.00000000000000000000e+00) (0, 0, 0.00000000000000000000e+00) (0, 0, 0.00000000000000000000e+00) (0, 0, 0.00000000000000000000e+00) (0, 0, 0.00000000000000000000e+00) (0, 0, 0.00000000000000000000e+00) (0, 0, 0.00000000000000000000e+00) (0, 0, 0.00000000000000000000e+00) (0, 0, 0.00000000000000000000e+00) (0, 0, 0.00000000000000000000e+00) (0, 0, 0.00000000000000000000e+00) (0, 0, 0.00000000000000000000e+00) (0, 0, 0.00000000000000000000e+00) (0, 0, 0.00000000000000000000e+00) (0, 0, 0.00000000000000000000e+00) (0, 0, 0.00000000000000000000e+00) (0, 0, 0.00000000000000000000e+00) (0, 0, 0.00000000000000000000e+00) (0, 0, 0.00000000000000000000e+00) (0, 0, 0.00000000000000000000e+00) (0, 0, 0.00000000000000000000e+00) (0, 0, 0.00000000000000000000e+00) (0, 0, 0.00000000000000000000e+00) (0, 0, 0.00000000000000000000e+00) (0, 0, 0.00000000000000000000e+00) (0, 0, 0.00000000000000000000e+00) (0, 0, 0.00000000000000000000e+00) (0, 0, 0.00000000000000000000e+00) (0, 0, 0.00000000000000000000e+00) (0, 0, 0.00000000000000000000e+00) (0, 0, 0.00000000000000000000e+00) (0, 0, 0.00000000000000000000e+00) (0, 0, 0.00000000000000000000e+00) (0, 0, 0.00000000000000000000e+00) (0, 0, 0.00000000000000000000e+00) (0, 0, 0.00000000000000000000e+00) (0, 0, 0.00000000000000000000e+00) (0, 0, 0.00000000000000000000e+00) (0, 0, 0.00000000000000000000e+00) (0, 0, 0.00000000000000000000e+00) (0, 0, 0.00000000000000000000e+00) (0, 0, 0.00000000000000000000e+00) (0, 0, 0.00000000000000000000e+00) (0, 0, 0.00000000000000000000e+00) (0, 0, 0.00000000000000000000e+00) (0, 0, 0.00000000000000000000e+00) (0, 0, 0.00000000000000000000e+00) (0, 0, 0.00000000000000000000e+00) (0, 0, 0.00000000000000000000e+00) (0, 0, 0.00000000000000000000e+00) (0, 0, 0.00000000000000000000e+00) (0, 0, 0.00000000000000000000e+00) (0, 0, 0.00000000000000000000e+00) (0, 0, 0.00000000000000000000e+00) (0, 0, 0.00000000000000000000e+00) (0, 0, 0.00000000000000000000e+00) (0, 0, 0.00000000000000000000e+00) (100, 11, 5.00000000000000000000e-01) (100, 11, 5.00000000000000000000e-01) (101, 11, 5.00000000000000000000e-01) (100, 11, 5.00000000000000000000e-01) (101, 11, 5.00000000000000000000e-01) (100, 11, 5.00000000000000000000e-01) (100, 11, 5.00000000000000000000e-01) (101, 11, 5.00000000000000000000e-01) (100, 11, 5.00000000000000000000e-01) (101, 11, 5.00000000000000000000e-01) (100, 11, 5.00000000000000000000e-01) (100, 11, 5.00000000000000000000e-01) (101, 11, 5.00000000000000000000e-01) (100, 11, 5.00000000000000000000e-01) (101, 11, 5.00000000000000000000e-01) (100, 11, 5.00000000000000000000e-01) (100, 11, 5.00000000000000000000e-01) (101, 11, 5.00000000000000000000e-01) (100, 11, 5.00000000000000000000e-01) (101, 11, 5.00000000000000000000e-01) (100, 11, 5.00000000000000000000e-01) (100, 11, 5.00000000000000000000e-01) (101, 11, 5.00000000000000000000e-01) (100, 11, 5.00000000000000000000e-01) (101, 11, 5.00000000000000000000e-01) (100, 11, 5.00000000000000000000e-01) (100, 11, 5.00000000000000000000e-01) (101, 11, 5.00000000000000000000e-01) (100, 11, 5.00000000000000000000e-01) (101, 11, 5.00000000000000000000e-01) (100, 11, 5.00000000000000000000e-01) (100, 11, 5.00000000000000000000e-01) (101, 11, 5.00000000000000000000e-01) (100, 11, 5.00000000000000000000e-01) (101, 11, 5.00000000000000000000e-01) (100, 11, 5.00000000000000000000e-01) (100, 11, 5.00000000000000000000e-01) (101, 11, 5.00000000000000000000e-01) (100, 11, 5.00000000000000000000e-01) (101, 11, 5.00000000000000000000e-01) (100, 11, 5.00000000000000000000e-01) (100, 11, 5.00000000000000000000e-01) (101, 11, 5.00000000000000000000e-01) (100, 11, 5.00000000000000000000e-01) (101, 11, 5.00000000000000000000e-01) (100, 11, 5.00000000000000000000e-01) (100, 11, 5.00000000000000000000e-01) (101, 11, 5.00000000000000000000e-01) (100, 11, 5.00000000000000000000e-01) (101, 11, 5.00000000000000000000e-01) (100, 11, 5.00000000000000000000e-01) (100, 11, 5.00000000000000000000e-01) (101, 11, 5.00000000000000000000e-01) (100, 11, 5.00000000000000000000e-01) (101, 11, 5.00000000000000000000e-01) (100, 11, 5.00000000000000000000e-01) (100, 11, 5.00000000000000000000e-01) (101, 11, 5.00000000000000000000e-01) (100, 11, 5.00000000000000000000e-01) (101, 11, 5.00000000000000000000e-01) (100, 11, 5.00000000000000000000e-01) (100, 11, 5.00000000000000000000e-01) (101, 11, 5.00000000000000000000e-01) (100, 11, 5.00000000000000000000e-01) (101, 11, 5.00000000000000000000e-01) (100, 11, 5.00000000000000000000e-01) (100, 11, 5.00000000000000000000e-01) (101, 11, 5.00000000000000000000e-01) (100, 11, 5.00000000000000000000e-01) (101, 11, 5.00000000000000000000e-01) (100, 11, 5.00000000000000000000e-01) (100, 11, 5.00000000000000000000e-01) (101, 11, 5.00000000000000000000e-01) (100, 11, 5.00000000000000000000e-01) (101, 11, 5.00000000000000000000e-01) (100, 11, 5.00000000000000000000e-01) (100, 11, 5.00000000000000000000e-01) (101, 11, 5.00000000000000000000e-01) (100, 11, 5.00000000000000000000e-01) (101, 11, 5.00000000000000000000e-01) (100, 11, 5.00000000000000000000e-01) (100, 11, 5.00000000000000000000e-01) (101, 11, 5.00000000000000000000e-01) (100, 11, 5.00000000000000000000e-01) (101, 11, 5.00000000000000000000e-01) (100, 11, 5.00000000000000000000e-01) (100, 11, 5.00000000000000000000e-01) (101, 11, 5.00000000000000000000e-01) (100, 11, 5.00000000000000000000e-01) (101, 11, 5.00000000000000000000e-01) (100, 11, 5.00000000000000000000e-01) (100, 11, 5.00000000000000000000e-01) (101, 11, 5.00000000000000000000e-01) (100, 11, 5.00000000000000000000e-01) (101, 11, 5.00000000000000000000e-01) (100, 11, 5.00000000000000000000e-01) (100, 11, 5.00000000000000000000e-01) (101, 11, 5.00000000000000000000e-01) (100, 11, 5.00000000000000000000e-01) (101, 11, 5.00000000000000000000e-01) (0, 11, 0.00000000000000000000e+00) (71, 11, 5.00000000000000000000e-01) (71, 11, 5.00000000000000000000e-01) (71, 11, 5.00000000000000000000e-01) (71, 11, 5.00000000000000000000e-01) (71, 11, 5.00000000000000000000e-01) (71, 11, 5.00000000000000000000e-01) (71, 11, 5.00000000000000000000e-01) (71, 11, 5.00000000000000000000e-01) (71, 11, 5.00000000000000000000e-01) (71, 11, 5.00000000000000000000e-01) (71, 11, 5.00000000000000000000e-01) (71, 11, 5.00000000000000000000e-01) (71, 11, 5.00000000000000000000e-01) (71, 11, 5.00000000000000000000e-01) (71, 11, 5.00000000000000000000e-01) (71, 11, 5.00000000000000000000e-01) (71, 11, 5.00000000000000000000e-01) (71, 11, 5.00000000000000000000e-01) (71, 11, 5.00000000000000000000e-01) (71, 11, 5.00000000000000000000e-01) (71, 11, 5.00000000000000000000e-01) (71, 11, 5.00000000000000000000e-01) (71, 11, 5.00000000000000000000e-01) (71, 11, 5.00000000000000000000e-01) (71, 11, 5.00000000000000000000e-01) (71, 11, 5.00000000000000000000e-01) (71, 11, 5.00000000000000000000e-01) (71, 11, 5.00000000000000000000e-01) (71, 11, 5.00000000000000000000e-01) (71, 11, 5.00000000000000000000e-01) (71, 11, 5.00000000000000000000e-01) (71, 11, 5.00000000000000000000e-01) (71, 11, 5.00000000000000000000e-01) (71, 11, 5.00000000000000000000e-01) (71, 11, 5.00000000000000000000e-01) (71, 11, 5.00000000000000000000e-01) (71, 11, 5.00000000000000000000e-01) (71, 11, 5.00000000000000000000e-01) (71, 11, 5.00000000000000000000e-01) (71, 11, 5.00000000000000000000e-01) (71, 11, 5.00000000000000000000e-01) (71, 11, 5.00000000000000000000e-01) (71, 11, 5.00000000000000000000e-01) (71, 11, 5.00000000000000000000e-01) (71, 11, 5.00000000000000000000e-01) (71, 11, 5.00000000000000000000e-01) (71, 11, 5.00000000000000000000e-01) (71, 11, 5.00000000000000000000e-01) (71, 11, 5.00000000000000000000e-01) (71, 11, 5.00000000000000000000e-01) (71, 11, 5.00000000000000000000e-01) (71, 11, 5.00000000000000000000e-01) (71, 11, 5.00000000000000000000e-01) (71, 11, 5.00000000000000000000e-01) (71, 11, 5.00000000000000000000e-01) (71, 11, 5.00000000000000000000e-01) (71, 11, 5.00000000000000000000e-01) (71, 11, 5.00000000000000000000e-01) (71, 11, 5.00000000000000000000e-01) (71, 11, 5.00000000000000000000e-01) (71, 11, 5.00000000000000000000e-01) (71, 11, 5.00000000000000000000e-01) (71, 11, 5.00000000000000000000e-01) (71, 11, 5.00000000000000000000e-01) (71, 11, 5.00000000000000000000e-01) (71, 11, 5.00000000000000000000e-01) (71, 11, 5.00000000000000000000e-01) (71, 11, 5.00000000000000000000e-01) (71, 11, 5.00000000000000000000e-01) (71, 11, 5.00000000000000000000e-01) (71, 11, 5.00000000000000000000e-01) (71, 11, 5.00000000000000000000e-01) (71, 11, 5.00000000000000000000e-01) (71, 11, 5.00000000000000000000e-01) (71, 11, 5.00000000000000000000e-01) (71, 11, 5.00000000000000000000e-01) (71, 11, 5.00000000000000000000e-01) (71, 11, 5.00000000000000000000e-01) (71, 11, 5.00000000000000000000e-01) (71, 11, 5.00000000000000000000e-01) (71, 11, 5.00000000000000000000e-01) (71, 11, 5.00000000000000000000e-01) (71, 11, 5.00000000000000000000e-01) (71, 11, 5.00000000000000000000e-01) (71, 11, 5.00000000000000000000e-01) (71, 11, 5.00000000000000000000e-01) (71, 11, 5.00000000000000000000e-01) (71, 11, 5.00000000000000000000e-01) (71, 11, 5.00000000000000000000e-01) (71, 11, 5.00000000000000000000e-01) (71, 11, 5.00000000000000000000e-01) (71, 11, 5.00000000000000000000e-01) (71, 11, 5.00000000000000000000e-01) (71, 11, 5.00000000000000000000e-01) (71, 11, 5.00000000000000000000e-01) (71, 11, 5.00000000000000000000e-01) (71, 11, 5.00000000000000000000e-01) (71, 11, 5.00000000000000000000e-01) (71, 11, 5.00000000000000000000e-01) (71, 11, 5.00000000000000000000e-01) (71, 11, 5.00000000000000000000e-01) (0, 11, 0.00000000000000000000e+00) (71, 11, 5.00000000000000000000e-01) (72, 11, 5.00000000000000000000e-01) (72, 11, 5.00000000000000000000e-01) (71, 11, 5.00000000000000000000e-01) (72, 11, 5.00000000000000000000e-01) (72, 11, 5.00000000000000000000e-01) (71, 11, 5.00000000000000000000e-01) (72, 11, 5.00000000000000000000e-01) (72, 11, 5.00000000000000000000e-01) (71, 11, 5.00000000000000000000e-01) (72, 11, 5.00000000000000000000e-01) (72, 11, 5.00000000000000000000e-01) (72, 11, 5.00000000000000000000e-01) (71, 11, 5.00000000000000000000e-01) (72, 11, 5.00000000000000000000e-01) (72, 11, 5.00000000000000000000e-01) (71, 11, 5.00000000000000000000e-01) (72, 11, 5.00000000000000000000e-01) (72, 11, 5.00000000000000000000e-01) (71, 11, 5.00000000000000000000e-01) (72, 11, 5.00000000000000000000e-01) (72, 11, 5.00000000000000000000e-01) (72, 11, 5.00000000000000000000e-01) (71, 11, 5.00000000000000000000e-01) (72, 11, 5.00000000000000000000e-01) (72, 11, 5.00000000000000000000e-01) (71, 11, 5.00000000000000000000e-01) (72, 11, 5.00000000000000000000e-01) (72, 11, 5.00000000000000000000e-01) (71, 11, 5.00000000000000000000e-01) (72, 11, 5.00000000000000000000e-01) (72, 11, 5.00000000000000000000e-01) (71, 11, 5.00000000000000000000e-01) (72, 11, 5.00000000000000000000e-01) (72, 11, 5.00000000000000000000e-01) (72, 11, 5.00000000000000000000e-01) (71, 11, 5.00000000000000000000e-01) (72, 11, 5.00000000000000000000e-01) (72, 11, 5.00000000000000000000e-01) (71, 11, 5.00000000000000000000e-01) (72, 11, 5.00000000000000000000e-01) (72, 11, 5.00000000000000000000e-01) (71, 11, 5.00000000000000000000e-01) (72, 11, 5.00000000000000000000e-01) (72, 11, 5.00000000000000000000e-01) (72, 11, 5.00000000000000000000e-01) (71, 11, 5.00000000000000000000e-01) (72, 11, 5.00000000000000000000e-01) (72, 11, 5.00000000000000000000e-01) (71, 11, 5.00000000000000000000e-01) (72, 11, 5.00000000000000000000e-01) (72, 11, 5.00000000000000000000e-01) (71, 11, 5.00000000000000000000e-01) (72, 11, 5.00000000000000000000e-01) (72, 11, 5.00000000000000000000e-01) (71, 11, 5.00000000000000000000e-01) (72, 11, 5.00000000000000000000e-01) (72, 11, 5.00000000000000000000e-01) (72, 11, 5.00000000000000000000e-01) (71, 11, 5.00000000000000000000e-01) (72, 11, 5.00000000000000000000e-01) (72, 11, 5.00000000000000000000e-01) (71, 11, 5.00000000000000000000e-01) (72, 11, 5.00000000000000000000e-01) (72, 11, 5.00000000000000000000e-01) (71, 11, 5.00000000000000000000e-01) (72, 11, 5.00000000000000000000e-01) (72, 11, 5.00000000000000000000e-01) (72, 11, 5.00000000000000000000e-01) (71, 11, 5.00000000000000000000e-01) (72, 11, 5.00000000000000000000e-01) (72, 11, 5.00000000000000000000e-01) (71, 11, 5.00000000000000000000e-01) (72, 11, 5.00000000000000000000e-01) (72, 11, 5.00000000000000000000e-01) (71, 11, 5.00000000000000000000e-01) (72, 11, 5.00000000000000000000e-01) (72, 11, 5.00000000000000000000e-01) (71, 11, 5.00000000000000000000e-01) (72, 11, 5.00000000000000000000e-01) (72, 11, 5.00000000000000000000e-01) (72, 11, 5.00000000000000000000e-01) (71, 11, 5.00000000000000000000e-01) (72, 11, 5.00000000000000000000e-01) (72, 11, 5.00000000000000000000e-01) (71, 11, 5.00000000000000000000e-01) (72, 11, 5.00000000000000000000e-01) (72, 11, 5.00000000000000000000e-01) (71, 11, 5.00000000000000000000e-01) (72, 11, 5.00000000000000000000e-01) (72, 11, 5.00000000000000000000e-01) (72, 11, 5.00000000000000000000e-01) (71, 11, 5.00000000000000000000e-01) (72, 11, 5.00000000000000000000e-01) (72, 11, 5.00000000000000000000e-01) (71, 11, 5.00000000000000000000e-01) (72, 11, 5.00000000000000000000e-01) (72, 11, 5.00000000000000000000e-01) (71, 11, 5.00000000000000000000e-01) (72, 11, 5.00000000000000000000e-01) (72, 11, 5.00000000000000000000e-01) (72, 11, 5.00000000000000000000e-01) (0, 11, 0.00000000000000000000e+00) (72, 11, 5.00000000000000000000e-01) (72, 11, 5.00000000000000000000e-01) (73, 11, 5.00000000000000000000e-01) (0, 11, 0.00000000000000000000e+00) 
connections (connected_to_neuron, weight)=(142, 9.53153321633844696770e-01) (77, -7.23625135793507234805e-02) (38, 2.52184199893042793050e+00) (102, -8.42502180817661233680e-02) (86, -2.22402422110142772294e-01) (54, -6.16746126966349339504e-01) (101, -2.01048376505677772741e+00) (14, -2.50089415955530129654e-02) (5, -3.41311935496115270716e-01) (75, -9.43944547918435516998e-01) (60, 1.59969244461879267494e-01) (138, -2.96360320402290933206e-01) (42, 1.68018192989791620429e-01) (103, -3.43491463928943385753e+00) (31, -1.91508303732036146982e+01) (44, 1.63652711470871770061e+00) (2, -6.39369476246607426617e+00) (84, 1.06124506672710020028e-01) (129, -1.78384027940827549763e+00) (133, -6.49526051829445538743e+00) (135, -8.54337068896728801803e+00) (73, -3.53665555699315348193e-01) (18, 1.50000000000000000000e+03) (114, -2.87344238761974124508e-01) (131, -3.55079877743030736248e-01) (88, 1.50000000000000000000e+03) (115, -5.66191532217835469254e+00) (126, -5.99555520185455326221e-01) (141, -6.73191539551931783514e-01) (80, 2.62645434950545708652e-01) (9, -5.67337430970956901888e-01) (57, -6.36636453623163678373e-01) (45, -1.14881353265516156226e-01) (37, 1.37511934091274556913e+00) (116, 3.22068467239121469792e-01) (19, 1.50000000000000000000e+03) (7, -5.53188385939964583082e-02) (97, -2.12975513550283457320e+00) (87, 2.73748187844863266616e-01) (47, -7.68772604709841655968e-01) (21, -9.79423524668959766259e-03) (121, -1.02080283297067064829e+00) (32, -5.38561708749783554784e-02) (78, 5.79827259468492894889e-01) (53, -8.86520283857058277732e-01) (1, -8.50042909373749266955e-01) (35, -2.79416772081384356952e+00) (16, -5.00555662455258246202e-02) (71, 3.85756298524509988468e-01) (70, -7.11243331392444444461e-01) (22, -1.08530122270627402137e-01) (83, 1.52775935353734348965e-01) (104, -7.99508822152107112569e-02) (65, -6.39471367894822839695e-01) (68, -9.99209028605437671322e-02) (76, 1.34457128689708216296e-01) (125, -7.56191061519993601436e-01) (30, -6.73539988305918435607e-02) (111, 9.21816502258585718232e-02) (50, -4.59588726169577577174e-01) (137, -4.72803992150430174579e-01) (119, 1.23055241869925391374e-01) (93, -2.88100851587691142441e+00) (11, -5.52482271863221185981e-01) (91, 1.49033077344461389879e-01) (0, 6.94903875090755906996e+00) (59, 6.50189683532530260379e-01) (49, -9.59874812098989060871e-01) (132, -3.47443275847872579121e+00) (39, -3.36843453406945936290e-01) (63, -1.34601948018573569499e+01) (96, -9.58903548346438427963e-01) (74, -8.62841546986426233268e-01) (28, -4.48054700004632752708e-02) (66, -4.45094367952429736945e-01) (82, 1.99088089481188390550e-01) (118, -4.59498819411965131465e-01) (109, -1.71248668926920766253e+00) (69, -6.27212122941475547222e-01) (25, -2.66801059716994881654e+00) (140, -6.24838539684388183382e-01) (85, 2.58208771812238557786e-01) (134, -9.63104625207294590128e-02) (62, -7.88298152952422337414e-01) (106, 1.58810144703618361106e+00) (26, -5.53486126478963780251e-01) (24, -6.64361158622096659165e-01) (79, 1.85177985054454707914e-01) (139, -4.41183673959361422057e-01) (92, -8.91346906021143969845e-01) (17, 1.50000000000000000000e+03) (112, 5.40540402787241447413e+00) (36, 1.88697072586106184833e-01) (13, -1.38415636832491362185e-01) (3, -6.14096128634714299999e-01) (108, -6.89566893288118443195e+00) (117, 3.38845746806195891043e-01) (124, -3.36662303901345383306e-01) (136, -1.77293851004519131820e+00) (51, -7.61280257235397161963e-01) (142, 3.67184068418928977184e-01) (23, 3.98934791763958448985e-02) (69, -1.38194033340325386772e-02) (55, -5.73495494637894620560e-01) (3, 9.04756187977749093410e-02) (39, -4.72749004192316579775e-01) (53, -6.72443842706455102709e-02) (68, -1.83706162743218354150e-01) (66, -2.65944833304546490726e-01) (50, -9.56792595894939562617e-02) (136, -1.77277075870567180083e-01) (97, -1.25524485312934530601e-01) (96, -2.71929556317916987229e-01) (4, 9.38768699781181575892e-02) (13, 8.05010125273915300159e-02) (139, -2.57936288882722464244e-01) (60, 3.66926276576414744923e-02) (138, -2.37277009949244110931e-01) (51, -1.72251352448418937335e-01) (16, 2.69447614837963200785e-01) (88, 1.50000000000000000000e+03) (2, -6.13247265414972805853e-02) (10, 2.22885741176544055486e-01) (89, 1.50000000000000000000e+03) (48, -2.48161478282389269534e-01) (93, 1.06143084795026709788e-01) (78, 5.93405088783592743473e-02) (56, -4.12118848998273973327e-02) (7, 1.47549493126275299559e-01) (105, -5.36731159570521879076e-02) (133, -9.62308831364526995333e-02) (71, 1.20199878154954631349e+00) (129, -6.78907623158166217969e-01) (115, -2.90185040170497010603e-01) (103, 2.79305387676331839941e-01) (114, 1.69093107932768077495e-01) (75, -1.47097650605234775423e-01) (84, 7.53247403400955500841e-02) (37, 4.50055034855534538685e-02) (85, 1.04362124650214833921e-02) (79, -1.31896848367052038631e-01) (15, 2.84415113511442996241e-01) (104, 4.94154120774548899497e-01) (62, -7.25144846933547526646e-01) (26, -6.71404564469422315831e-01) (106, 8.50147723620118950238e-02) (81, 7.42840974228104355959e-01) (126, -2.10359554606118798192e-01) (87, -1.26395335669576280857e-01) (61, -5.25087829354566326678e-01) (21, -8.96994182812547169448e-01) (70, -1.56067605785958740672e-01) (128, -5.67578841772064968119e-01) (92, -1.46061977308343626802e+00) (17, 1.50000000000000000000e+03) (107, -7.52082515358626246815e-01) (41, 6.86961487713680485356e-01) (117, -3.12026662999973669610e-01) (47, -1.51700233432417536106e-01) (140, -1.62942738996146280206e-01) (101, 5.17934913237081739901e-01) (30, -2.00595365922191376518e-01) (91, 2.64304207512290112447e-01) (65, -2.44990782352557723289e-01) (73, -1.41762986680176533705e-01) (27, 3.88604833929562598627e+00) (32, -1.10485283736468486993e+00) (132, -1.13787717319729878018e-01) (82, -1.28081567929863998634e-01) (42, 3.65740136002471238896e-01) (63, -5.82515956590599293108e-01) (31, 5.74155950623863486904e-01) (108, 3.42381688065542255650e-01) (25, -6.45364524115862037146e-02) (90, 1.50000000000000000000e+03) (83, 4.73525146144532949055e-01) (118, -3.01997609977610881327e-01) (94, -6.62647635380252730819e-01) (6, 5.26438681719252232760e-01) (111, -1.68203234738522500180e-01) (36, 1.14606294115353002372e-01) (110, 9.30239579031243435381e-02) (99, 8.82985993318512352168e-01) (124, -2.50297379440889089519e-01) (11, 4.74635369689403396887e-01) (135, -6.59552036115144124651e-02) (121, -1.58650856036845727681e-01) (28, -1.54493828388965170895e+00) (33, 6.42124941645032643045e-01) (127, -1.91708981043884174600e-01) (52, 4.69133312506418709287e-02) (12, 3.33335548583031049397e-01) (1, 4.26268066774219550608e-02) (64, 2.08823845924986199740e-02) (137, -2.05321061190185422118e-01) (113, -7.03206791819357412976e-01) (54, -2.48731611755379528050e-01) (80, -1.05448179913693124155e-01) (77, -1.16260487625629668762e-01) (19, 1.50000000000000000000e+03) (142, -1.51685307554511872308e-01) (120, 2.99364928288930243205e-01) (20, -1.17704130233519943527e-01) (43, -3.40245678675285434522e-01) (54, 2.31646453245054534387e-01) (12, -1.18698540095595952981e-01) (39, -7.71197059103173820915e-01) (115, 4.20756397691131878158e-01) (47, 2.65071850178847490120e-01) (11, -2.19922822404077566993e-01) (131, 4.33628043156564724203e-01) (125, 3.21466346604596608927e-01) (95, 1.71259094522928506654e-01) (108, 9.60259222154688230066e-02) (44, -4.04580712724660562785e-01) (69, 1.95764345647586213151e-01) (102, 1.03207096108024393155e-01) (93, 5.23805510964210352398e-02) (51, 1.42271650067514965343e-01) (49, 3.53860139941621798521e-01) (56, 2.94745773383491727060e-01) (29, -6.29367301794745009902e-02) (21, 3.13288787467625828853e+00) (113, 1.78210927969798066384e-01) (25, 1.63945961360618563951e-01) (7, -5.42672282088394741795e-02) (60, 4.35386501420852556343e-01) (3, 1.79390535865446676400e-01) (137, 3.61143419169153323534e-01) (71, -5.48680177008412539585e-01) (133, 1.51990280657321591429e-01) (141, 2.64667081092298972500e-01) (5, -1.01357284717272677632e-01) (90, 1.50000000000000000000e+03) (4, 1.53127581519282601752e-01) (87, 3.12252556965552686974e-02) (103, 3.02078955639996871163e-01) (75, 6.01403272699763569165e-01) (81, 7.76003369438370005362e-01) (82, 1.67035242000241068716e+00) (100, 1.49492002035818427608e+00) (27, -2.29901020453346011108e-01) (67, 4.67420173469511535114e-01) (136, 3.30643990030725254403e-01) (89, 1.50000000000000000000e+03) (117, 5.48686206680290555759e-01) (1, 1.78551482171613956629e-01) (123, 3.22146471928591249245e-01) (140, 3.25163300310019887096e-01) (86, 2.15573601441635842590e-01) (18, 1.50000000000000000000e+03) (32, 1.95941443233593948214e+00) (124, 5.01843485845961834180e-01) (68, 2.43160148726381475370e-01) (98, 1.76610068333876668589e+00) (16, -1.43507898507556830303e+00) (111, 9.38013058625515983024e-01) (88, 1.50000000000000000000e+03) (106, 1.03477110309981995551e-01) (58, 4.49534400223827623755e-01) (77, 4.95441605156747288952e-01) (73, 2.09796000879708666176e+00) (15, -3.88057019686729523511e-02) (61, 1.80539482101253634383e+00) (99, 1.71262496774550437850e-01) (26, 2.18495330687128536118e-01) (14, -1.10372248991157184683e+00) (107, 5.45698395509327860431e-01) (132, 2.40660270957259614377e-01) (129, 1.84846368105921726732e-01) (23, 2.45695019974695838538e-01) (66, 3.35687406299666868392e-01) (57, 2.49288504032546015532e-01) (53, 3.53325370526606841182e-01) (31, 2.35891669078614502064e-01) (92, 2.53936393019788830827e+00) (64, -7.08138206709825190899e-02) (41, -4.33675883551455532139e-01) (55, 3.70905687179971077505e-01) (110, 1.90897677046988123450e-01) (76, 6.94534644362055142430e-01) (62, 2.54370110526278447871e-01) (101, 7.38748597212694757541e-02) (13, -3.54731810982953782441e-02) (8, -1.76685098439492427325e+00) (30, -1.83136190232385542842e+00) (135, 7.14118076377114330278e-01) (36, -3.23795328854051545076e-01) (127, 4.14593466272959509933e-01) (34, 5.19790853665553997942e-01) (28, 2.19589582649254655422e+00) (35, -1.42920101469950017181e-01) (91, 5.90433415905530889489e-01) (17, 1.50000000000000000000e+03) (52, 3.06590343173892054818e-01) (116, 1.16444907608931780274e-01) (2, 2.75080020545789449837e-01) (46, -1.45722307386746385838e+00) (33, 3.26459765903955312361e-01) (0, -4.87670083012513577714e-01) (104, 6.74421556490648499427e-01) (142, 1.61956782158348883138e-01) (44, -4.46685319257759505529e-01) (48, 3.66257421185443368672e-02) (116, 3.84121183798254595826e-03) (49, -1.69097997267552063727e-01) (59, -1.52001077139636512486e-02) (71, 1.40608269464401125504e+00) (111, 1.53727628651074366140e+00) (7, 1.92411868785642869994e-01) (131, 1.84218498058986546173e-01) (8, -4.28977070440725860578e-01) (10, -2.55239363931100471383e-01) (38, -1.90636715020958552591e-01) (75, -2.68853256265656870294e-01) (130, -1.85451546570637937350e+00) (101, 1.65720113769694199490e-01) (90, 1.50000000000000000000e+03) (96, -1.76835944540359446542e-01) (11, 4.43187702097153912728e-01) (30, -3.05114695291787030307e-01) (57, -1.68067913679258058857e-02) (92, -7.61673332655369184074e-01) (61, 6.88414805846323973881e-01) (33, 3.21106004118056134744e-02) (128, -7.45686979573980945890e-02) (40, -2.57281270442739296023e-01) (76, -2.25628520592194181660e-01) (121, 8.42719110823594075299e-01) (54, -6.35715188061344027570e-02) (81, -1.85240334956210506157e-01) (1, 2.70636083197897565900e-02) (34, -1.64801150800303913835e-01) (14, -6.13737433270431620436e-01) (129, -5.06964825673171318177e-02) (80, -7.39790585796316069178e-02) (136, -6.58652981723459041152e-02) (56, -7.19513570194491025589e-02) (104, -2.59748000999567685287e-01) (15, 1.96228259196428639344e-01) (68, -1.55999893440074855616e-02) (37, -5.35693762646610172062e-01) (45, 4.88015404972069050116e-03) (102, -8.02220983135312692980e+00) (69, 7.26101653141401209846e-02) (87, 7.51564014962598399283e-03) (135, 4.44096978123354413359e-01) (94, -3.58740658780008714324e-01) (82, 6.24999072546631867509e-02) (134, 6.81384492381707507214e-01) (133, -5.19559687729675284684e-02) (52, 2.27310033453071352882e-01) (123, -7.59072357386496587850e-02) (85, -1.56275446169062720569e-01) (42, 2.12293259124089306322e-01) (3, 7.48021235130439388072e-02) (78, -1.23885059589942794767e-01) (20, -2.54227593807495100275e-01) (77, 8.62010201549911619923e-02) (62, 2.31708072522930408343e-01) (119, 6.45098870502774646152e-02) (137, 3.16807714617811722602e-02) (64, -6.35655167053441605418e-02) (98, -1.57532613676682808901e+00) (95, 1.51240658861465732121e-01) (83, -1.05529477852862943466e-01) (17, 1.50000000000000000000e+03) (13, -1.52809939884245543640e-01) (51, 1.39802034983106782118e-01) (35, -3.38234949734670220511e-01) (39, -5.82262265674554635453e-01) (74, -2.26421408512314792372e-01) (5, 1.47152090710017086073e-01) (36, 2.02667167127317859876e-01) (120, 4.46256334974842322483e-02) (25, 1.19904738576776526138e-01) (31, 7.59169796251321117586e-03) (32, -1.23946527217108970476e+00) (93, 2.61498393749138580144e-01) (127, -1.22845708447250137607e-01) (100, -1.25499306539422672557e+00) (28, -2.74087698008240820968e+00) (88, 1.50000000000000000000e+03) (29, 1.89594049442069645384e-01) (66, -3.41358087204027271788e-02) (124, -2.13310827129172236871e-01) (72, -4.54046052357466423111e-01) (115, 1.10434685713138910218e-02) (41, 3.12452809042655488270e-01) (70, -1.37463308585816318397e-01) (58, 4.94423215340907690196e-02) (79, 1.89748385297110674919e-02) (132, -9.49021147245488437549e-03) (23, 1.24953281231458587786e-01) (16, -5.43478148556177376172e-01) (106, 4.18518233378394499677e-01) (140, -6.43538204751269993231e-02) (53, 4.51129818266557958140e-02) (24, -1.82217156883858616423e-01) (103, 1.24610520927283641157e-01) (112, 1.57607571163325632657e-01) (142, 4.29543304447041890404e-02) (127, 1.05432187986522554746e-02) (38, 6.20933402870835315923e-01) (93, 9.91040422785287478114e-01) (96, -1.69334348143707347223e-01) (97, 6.55965746344400968404e-01) (48, 2.25491472246951013547e-01) (65, 5.47646625844877069089e-02) (37, 4.08162773917609744689e-01) (42, -1.32126371593081465283e-01) (95, 5.79950179465705956128e-02) (55, -2.13594505204421386546e-01) (35, 6.69228896878666712489e-01) (49, 2.54595579636885060992e-01) (77, -6.10995569195067686485e-02) (109, 3.24192322590838744034e-01) (128, 1.85563843249889587339e-01) (14, 2.87165557497062462478e-01) (43, 2.13116780436676123145e+00) (138, 2.27676460276849068620e-01) (11, 1.83132857871895105006e+00) (115, 1.52968799579956438173e+00) (91, -9.94331897485592336450e-02) (133, -1.63279426642153946414e-01) (87, 1.19774377535919268611e-01) (135, -7.77994003110141774116e-01) (80, -1.85941328588987042636e-01) (44, -9.76826688755151467669e-02) (5, 1.08379486726363349902e+00) (10, 1.80443868434009779822e-01) (98, -4.95650346734410884864e+00) (62, 9.92148600921758001825e-03) (60, 3.52100608138730453156e-01) (106, 6.09368234955477539039e-01) (67, 1.48334546196756511538e-01) (46, 5.19130286773111460086e-01) (84, 5.36483335640341230111e-01) (136, 1.60787713151585381910e-01) (57, 2.28301871656530624977e-01) (75, -3.07294391395818544677e-01) (31, 4.05246026902050804352e+00) (39, 1.56690362064028176903e+00) (45, 2.64884337998924435098e+00) (73, -2.24412781810488182188e-01) (137, 1.19742886102920303992e-01) (58, 1.00819989525242695305e-01) (33, 3.79433438833035985294e-01) (100, -1.48688276520344535986e-02) (126, 1.13624695579467110962e-01) (129, 1.02235002905051067246e-01) (74, -1.36758764177596053857e-01) (131, -3.37531703312620792734e-02) (0, 1.81596612156845060859e+00) (8, 8.65234784741074736125e-01) (76, 1.58553371847501983760e-01) (40, 8.19296074723002837326e-02) (7, 6.51642977012743696008e+00) (139, 2.61711552545353332011e-01) (3, 4.63479766651951230472e-01) (36, 7.72655708260598039772e-01) (117, 3.09759541948110561638e-01) (19, 1.50000000000000000000e+03) (78, 5.17168272918254734449e-01) (28, -2.60680744993888202643e+00) (88, 1.50000000000000000000e+03) (102, -1.47317479202278816403e-02) (1, 6.46785704882749001854e-01) (90, 1.50000000000000000000e+03) (20, -1.57640594231011399451e+00) (79, 8.94234369386357613729e-03) (122, 1.14722539405610918228e-01) (18, 1.50000000000000000000e+03) (16, 6.20040697040119992423e-01) (123, 1.12929870230271650611e-01) (71, 5.62990597046789709168e+00) (23, 4.06567803612502498556e-01) (101, 1.07772110873963078426e+00) (121, 1.44036472821127359278e-01) (2, 1.23308089613005122942e+00) (22, -3.05633072273456152246e-01) (114, 1.19560030270952610820e+00) (124, -3.19463168830954047372e-02) (51, -1.67616617582430488254e-01) (83, 5.68069241261719218294e-02) (32, -7.93768761858407390086e-01) (108, 1.93147575104556512571e+00) (111, 1.73446348180353093760e-01) (110, -3.76296682433854695615e-02) (53, 2.32415074592806664144e-01) (118, 9.46723577759471801585e-02) (119, 1.66230266796017739361e-01) (113, -3.63884198306199280193e-01) (56, 1.50789846025069756985e-01) (4, 6.97818798208855284315e-01) (52, -3.51919155041209241741e-01) (81, 1.83623819814868749489e-01) (85, 1.45824291914269266179e-01) (59, 8.04495461723475080440e-02) (120, 1.87996074424243458934e-01) (29, -6.14515515069967155348e-01) (105, -8.53273895186228203968e-01) (142, -7.90458820551963703416e-01) (105, 1.13524716974653272494e+00) (108, -2.43783536121852772993e+00) (130, 3.43327338205374976710e-01) (1, 4.56460495178209946232e+00) (111, 1.19314160378694444908e+00) (52, 5.96638152313151159944e+00) (17, 1.50000000000000000000e+03) (60, 1.86808269013079075727e+00) (84, -7.63251013069227823848e-01) (63, 8.77028978018656091287e-01) (5, -3.58518669565078995642e-01) (65, 9.64560011710408726771e-01) (121, 1.29846214306735929789e+00) (123, 3.12921157902542601548e+00) (94, 1.96197104054295967668e-01) (103, 1.27651810298952983480e+00) (140, 9.85532035325328625852e-01) (101, 1.45730089080529667811e+00) (23, 8.46723742019018899008e-01) (26, 3.69707905591887930896e-01) (47, 1.47597839612107128993e+00) (113, -3.89026764377918832238e-01) (53, 8.20740601158911120550e-01) (46, 3.42388608538556626915e-01) (71, 4.52206704177273266509e-01) (112, 2.70830810620992190607e+00) (45, -2.30652551895416668692e-01) (50, 3.70406935157205019493e-01) (80, -1.03246632636660562454e-01) (129, 1.23718979416076679811e+00) (34, 4.11671294618010719102e-01) (134, -3.43791163574310942863e+00) (19, 1.50000000000000000000e+03) (131, 3.55859894122526276838e-01) (125, 1.02695083203108339376e+00) (64, 3.63514582348596237971e-01) (139, 1.04437194575103742267e+00) (69, 8.41928664892187095248e-01) (141, 1.04775892087845567957e+00) (25, 2.63055057934534375352e-01) (72, 2.56638519735810810563e-01) (7, -8.72307515131434785260e-01) (114, -2.42289707730359982207e+00) (90, 1.50000000000000000000e+03) (83, 1.90757625910999928376e-01) (75, 2.54349210248295265480e-01) (59, -4.22628610459351961026e+00) (35, -5.23772843508595808970e+00) (107, 6.94035144129521996970e-02) (74, 1.21501057899870049117e-01) (18, 1.50000000000000000000e+03) (86, -5.54615291901933371577e-01) (132, 2.92263694144193841851e-01) (14, -3.11282239294162876853e-01) (9, 5.79267668898111542930e-01) (92, 1.06699096972049511933e+00) (89, 1.50000000000000000000e+03) (133, -2.45331784443678735386e+00) (82, 4.40020410218982319095e-02) (66, 9.02983485230819171719e-01) (99, 1.21113826518409006816e+00) (136, 8.64642181187679326193e-01) (81, 1.27537468404656684218e-01) (42, 9.33951844629782534923e-01) (44, 4.20525075268660675221e-02) (135, 1.10364829833541011617e+00) (3, 8.89918216876771195345e-01) (124, 3.99411744240047716925e-01) (56, 8.14450021844732585663e-01) (120, 1.71098520385079444495e+00) (61, 4.76326676999232312415e-01) (126, 9.83874588405897698706e-01) (55, 1.06255743353335851964e+00) (102, 3.38593630594859973382e-01) (48, 1.47162495407966287253e+00) (79, 7.26915928595301130688e-02) (78, -2.49222770193762865887e+00) (62, 3.98622552541287755723e-01) (6, -1.93651191765582209037e-01) (117, 2.77084799788809554855e+00) (119, -1.16837344155735074480e+01) (106, 1.08228725002709547098e+00) (93, 1.75818247142856587395e+00) (10, -1.28372030430680328372e+00) (122, 1.58685142329098050062e+00) (95, 2.01985085339976144780e+00) (115, 5.99139835962503516931e-02) (97, 1.64540898437126226206e+00) (8, -2.49155172729614959870e-01) (37, 1.38724206371097746882e+00) (40, 3.19896941860931982582e-01) (29, -6.40522815372296072667e+00) (67, 2.46998120179603208868e+00) (77, 1.49266720450308254531e-01) (104, 4.92965134022539219760e-01) (11, -9.96201594991760891462e-02) (137, 1.05812560408755751418e+00) (22, 2.87747633393689306036e-01) (138, 1.04139591874708603569e+00) (142, -2.12971263983509323525e-01) (71, -8.83396050748062600100e-01) (129, 9.80657839012685106361e-01) (85, 2.26246570598282709108e-01) (81, 4.33797692357007269592e-01) (128, 4.42318649052720835879e-01) (41, 3.67555430235026903141e-01) (10, -2.68639473150993346451e-01) (135, 4.54814637317328795962e-01) (52, 4.21645332012267115562e-01) (31, 2.65255850912453139401e+00) (55, 4.29473117792606107201e-01) (76, 1.79788857777320593145e-01) (53, 3.09029280386795945912e-01) (121, 2.94028047965065320035e-01) (78, -1.30736286839485293942e-01) (139, 6.11141313615963244210e-01) (140, 5.29859755701065249234e-01) (58, 5.53252052625171519828e-01) (63, 1.62145302326922169378e+00) (105, 6.21034436685112378740e-01) (69, 7.22718418301899978573e-01) (89, 1.50000000000000000000e+03) (100, 1.27856737247874580055e-01) (123, 3.39532695800748518522e-01) (37, 9.53874802957898060285e-01) (83, 1.67095649640663340696e-01) (46, 5.99292065784789995675e-01) (4, 4.20473147375497957601e-01) (70, 4.82854606537742536698e-01) (50, 1.85057156694538815778e-01) (82, 1.86193568765203942839e+00) (59, -1.71793642254875278397e+00) (24, 3.33293518388025733490e-01) (56, 3.23678952744527514973e-01) (122, 4.36753846498325326575e-01) (120, 3.83254307302816399350e-01) (7, -2.71994327226080800930e-01) (90, 1.50000000000000000000e+03) (87, -5.39670534367859944247e-01) (112, 2.58799478134948568453e+00) (132, 4.42296029639973553582e-01) (74, 2.54004806274744920902e-01) (15, -3.53262538102633028014e-02) (9, -1.24232801427952583434e-02) (61, 7.09143445468962352329e-01) (98, -4.56998759230966777878e-01) (86, -1.99564449133199151021e+00) (113, -4.04962047769362010197e-01) (92, 6.14731472076355522915e+00) (62, 5.72776116280050984209e-01) (6, -2.90376734866932995072e-01) (75, 4.68349546005533912130e-01) (30, 2.91513378693996794144e-01) (126, 7.65454995955282879727e-01) (141, 5.08710706245407040527e-01) (96, 4.30149562165179299988e-01) (28, 1.94645322332185157811e-03) (3, 3.85161676767680372091e-01) (116, 1.27506995293737074304e-01) (67, 5.90516106324256662141e-01) (34, 5.75360695242710717956e-01) (45, 6.81280047713056502445e-01) (73, 4.34094222233390003574e-01) (14, -1.71694446607911888059e-01) (17, 1.50000000000000000000e+03) (1, 5.29556734474086909792e-01) (133, 1.02433669801427829071e+00) (110, 1.07942145248720944295e+00) (93, -5.16125713969980903784e+00) (68, 5.92524951693554458032e-01) (48, 3.52615678888782424494e-01) (39, -7.76930387357594176567e-02) (136, 8.40475981531920157686e-01) (12, -1.50785938083447729197e-01) (13, -1.41985931100363421686e-01) (26, 3.90108416287098247466e-01) (134, 5.19611150873892424507e-01) (54, 6.21447072591520432994e-01) (115, 4.13740447362044294621e-01) (88, 1.50000000000000000000e+03) (84, -6.21074384232290999108e-01) (43, 1.42913771373036979639e+00) (77, 1.66676656275165063770e-01) (119, -7.34699850084449129772e-02) (19, 1.50000000000000000000e+03) (130, 3.53100479890277541006e-01) (11, 1.55776902934693733949e-01) (32, 5.70450615079832079601e-01) (42, -5.80232656336029051225e-01) (27, -2.52330746820148832388e-01) (103, 9.64104615758498040279e-01) (111, -1.22517406881900662446e-02) (131, 3.72295599530456322590e-01) (2, 7.00967771847700649168e-01) (35, 3.26862877503713233907e-01) (72, 3.53778407856321586156e-01) (101, -6.93852683376243817293e+00) (109, 9.54093325559591920459e-01) (79, 2.92453686998700064514e-02) (142, 6.88165454364478956784e-01) (108, 4.53431992192047828016e-01) (39, 1.06000087358616573718e-01) (33, -5.82314834817160911773e-02) (42, -1.66085121325159762451e-01) (106, -2.70096946676699367629e-01) (115, -3.14920127527843041193e-01) (10, 4.02273584310702425615e-01) (99, 5.44685559934866350695e-02) (77, -4.82996321258564231815e-01) (17, 1.50000000000000000000e+03) (19, 1.50000000000000000000e+03) (56, -6.40698333972514050272e-02) (0, 5.00850630494391393932e-02) (54, -4.15834631617553740490e-01) (128, -3.15661278706445502795e-01) (66, -4.71636130818147814026e-01) (72, -1.20451484211239243649e+01) (52, -1.14173682210636795453e+00) (135, -2.42703669471676541924e-01) (141, -3.66977266397542245535e-01) (132, -2.55968746022403104146e-01) (27, 2.37852263839939542800e-01) (87, -3.29936903327891717375e-01) (84, -7.42751462364139303229e-02) (112, 3.84510187507982825750e-01) (91, -4.13070815700089410960e-01) (55, -3.74929208389983059657e-01) (46, -7.68196044774480113482e-02) (131, -7.82793757365904174783e-01) (85, -4.43749686348847038886e-01) (104, -1.06164001005640717956e+00) (50, -1.69225745016225309625e-01) (130, -6.28927163144275436224e-01) (32, -3.66345229510426917408e-01) (76, -4.53799296030977905581e-01) (117, -2.50968368975762068374e+00) (139, -2.87330456304580761362e-01) (12, 4.85696791431226349012e-01) (25, 5.77081827906572933373e-02) (44, 6.14835224650294387416e-01) (67, -4.12298822211849214092e-01) (89, 1.50000000000000000000e+03) (79, -4.31610750462916747949e-01) (116, -3.37154918294192085249e-01) (97, -2.56920020874209197037e-02) (22, -2.28063034750172866083e+00) (11, 4.83722240753491850018e-01) (45, 1.69754586963593162574e-01) (51, -2.86865023421881470966e-01) (94, 1.01521755111277887096e+01) (35, 3.84282082746950859331e-01) (101, -1.43314882154266298731e-01) (40, -6.07252646772941884201e-01) (96, -7.01359681799283540826e-01) (34, -4.99166601794530429004e-01) (90, 1.50000000000000000000e+03) (109, -3.31842587362015328800e-01) (102, -9.93801707003118539596e-01) (7, 2.45362303457918928817e-01) (68, -2.92557838753792542885e-01) (18, 1.50000000000000000000e+03) (119, -1.37917081912960343137e-01) (80, 4.33561692906089257704e-02) (121, -1.27409394644114826178e-01) (100, -1.75902443076809328337e-01) (69, -1.75652459947297168164e-01) (136, -3.54423892828414244249e-01) (126, -3.56663063136873625947e-01) (47, -5.17233526387569503280e-02) (93, -1.15389254535287755221e-02) (103, -2.26576384988766976747e-01) (122, -2.39518013382207212159e-01) (140, -2.34823809446568304571e-01) (75, 4.35542692435446521237e-01) (1, -1.50640154054052455290e-01) (113, -8.84066719543450951768e-02) (73, -1.72677418426982476340e+00) (120, 4.17450635196148833739e-01) (123, -6.60040625490418975119e-02) (124, -3.36852675172070958887e-01) (58, -4.49681954546773510195e-01) (6, -6.02755654405772323817e-03) (20, 3.90193911128963510926e-01) (23, -9.86444010584228009320e-02) (8, -3.04267692676118695072e-01) (64, -2.53258520215602980774e-02) (2, 5.89191661941852653367e-03) (49, -4.94716846694610926094e-02) (16, 5.78506610149314981495e-02) (98, -7.38476272876918304888e-01) (118, -1.20586530725725112750e-02) (107, -5.24458558063202406885e-01) (88, 1.50000000000000000000e+03) (105, -3.22172440774155799392e-01) (83, -7.55890572691165218977e-01) (61, 1.06975562561410031392e+00) (95, -1.47683767861774506436e-01) (13, 4.74549436359442800004e-01) (5, 3.98015081823794136806e-01) (138, -2.95834936827026162565e-01) (142, 3.12765403590478274776e-01) (139, -1.53289916723179792113e-01) (82, -1.14652217387949373339e+00) (89, 1.50000000000000000000e+03) (15, 2.53455626179183268754e-01) (55, 1.25449964448191619848e-01) (25, -1.42637329486085512320e-01) (76, -5.22685024293400690709e-01) (97, -1.16717429281307238931e-01) (28, -7.21406672572230345253e+00) (49, -1.79617622940149400390e-02) (85, -1.55653895988663970584e-01) (32, -1.89166111739002307246e+00) (61, -1.50098482661853016573e+00) (60, 1.03906603109988426858e+00) (74, -3.31358427841083769128e-01) (20, -1.57849864329457467704e+00) (47, 2.02697106900879449320e-02) (137, -6.65691826850347140310e-02) (80, -1.22482118238476456185e+00) (73, -3.72411397458107362723e+00) (123, 1.22470689127105925031e+00) (4, -2.96657744943838556917e-02) (43, -8.98740774724642726978e-02) (87, -1.69524115207741188360e-01) (68, -7.44590170151816777011e-02) (12, 2.55137801847924672316e-01) (24, -2.86598728152952175741e-01) (62, -5.45266703994281912160e-02) (106, 6.47574197118817862506e-02) (8, 4.54549523839200587949e-03) (66, -2.00948042129767495689e-01) (88, 1.50000000000000000000e+03) (27, 1.94089438655727408722e+00) (122, 1.61100359804051462831e-01) (54, -1.74271310608471480252e-01) (112, -2.99934835309642433554e-01) (125, -1.69937192758707250606e-01) (52, 7.23201783598345970816e-01) (64, -1.06853235128112539210e-01) (56, -4.02233455841458156788e-02) (31, -7.24544717049627751138e-02) (39, 2.03194511389406667901e-02) (14, -1.31045327603117017778e-01) (93, 1.61793558370848078454e+00) (1, 5.18025283022819013623e-02) (7, 2.29513179637185871229e-01) (140, -1.51222651216841169619e-01) (23, -8.78617662331532267572e-02) (45, 7.22222408145778649313e-01) (90, 1.50000000000000000000e+03) (59, -2.16557747795927735268e-01) (26, -1.57482887128046616931e-01) (70, -5.75568217510167082218e-02) (40, -3.22827755434706820115e-01) (102, -7.55265559321342294652e+00) (108, -4.43213189868401413740e-01) (92, -8.53542469391990521466e-01) (77, -2.15690772095997684854e-01) (38, 9.12636920936750306588e-01) (138, -1.78316839134207927309e-01) (42, -4.94537433010758309404e-01) (129, -3.99053479370162084150e-02) (128, -7.40866667838220721576e-02) (110, -8.86826103084122130404e-01) (0, 2.89040696036718280926e-01) (96, -8.16148576146818571786e-01) (58, -2.00531169794647412541e-01) (29, -4.31363878647263027100e-02) (44, 4.15249601288101621854e-01) (50, -5.16095659560558070456e-02) (21, -4.99607037399127396071e+00) (116, -1.00217881599153280092e+00) (94, -2.74424027751393317942e+00) (10, 1.70863344431730734829e-01) (17, 1.50000000000000000000e+03) (71, 1.10856443548471172988e+00) (107, -1.83761103531403013900e-01) (72, -2.97522387582591330002e+00) (41, -1.16306325880318507660e-02) (6, 1.27154573111461610679e-01) (67, -5.88355376540109012429e-02) (141, -1.68427569254269465793e-01) (119, -1.21584722470429229535e-01) (98, -1.82517638616162503062e+00) (11, 4.11486488837811303920e-01) (111, -4.74496634026671859630e-01) (132, 1.73219704373658266172e-02) (18, 1.50000000000000000000e+03) (130, 3.36890341657637426565e+00) (101, 6.99485740257521082519e-01) (5, 2.64897506958321871107e-01) (2, 6.08730895010707387383e-02) (126, -9.45747686370533302558e-02) (118, -2.64401678089275393724e-01) (104, -8.85067748334070029947e-03) (33, 3.55109916200864461633e-02) (65, -2.12300603218187916577e-01) (83, -1.16637694344279382874e-01) (46, 6.40474477906332384514e-01) (142, -1.52155741387340975868e-01) (50, 3.29462577249610921726e-01) (103, 1.62789494717505389687e+00) (109, 3.34495713620353685158e-01) (86, 4.61697273744432978848e-01) (57, 3.73093506544025621530e-01) (136, 2.50582294774390867964e-01) (139, 3.06296851503515488169e-01) (55, 3.58079633081810511097e-01) (78, 4.41484333505224424421e-01) (39, 5.75139332666425584506e-02) (112, -3.52800398095698586332e+00) (74, 5.77410448999143913196e-02) (35, -1.47376932051716758032e+00) (76, 2.26729645192905698847e-01) (77, 1.90842004338028059518e-01) (3, 2.79387167858214380267e-01) (63, -1.16766206446424769538e+00) (34, 1.06231640459643672525e-01) (12, 3.24062667323057607138e-01) (69, 1.33245634220356873323e-01) (138, 2.65569069368202792525e-01) (111, 4.29167851220298990356e-02) (37, 3.97939913051880644890e-01) (28, 5.07794815480253486362e-02) (135, 3.21671082978867151070e-01) (21, 1.10817167049404141643e+00) (16, 8.43310878897036375612e-01) (31, 1.62288618265552431197e+00) (110, 3.00638289954307080798e-01) (79, 3.07651593475110840537e-01) (98, -2.24268018735847007861e-02) (58, 3.58919204785403178626e-01) (70, 2.84757669185742190443e-01) (140, 4.17446304523096889394e-01) (121, 2.56841366321086284064e-01) (59, 8.91644421002124820674e-01) (7, 3.30184695295006991334e-01) (66, 1.08922848190007776070e-01) (29, 2.56785232422187148504e-01) (45, -2.54224133288305405298e-02) (113, -2.31502140052692456651e-01) (97, 2.68147543829830581341e-01) (61, 1.09589862449394379040e-01) (96, 1.96178877725601635840e-01) (6, 7.86383944180483324127e-02) (26, 2.84350967531971809965e-01) (92, -9.99595358960110730306e-02) (11, 2.11788295040375856848e-01) (40, 9.95596500351160873521e-01) (32, 4.49673701145411677804e-02) (118, 2.64270568099232994186e-01) (134, -1.36908914292200173390e-01) (27, 3.97768664472781641184e-01) (25, 5.33519634054989033700e-01) (44, 1.48193797057134957207e+00) (8, 4.67007442774462766533e-02) (104, 7.01497895805179572104e-02) (46, 9.33775191795800152406e-01) (132, 3.08632168055325784017e-01) (87, 1.61276529935142104444e-01) (128, 2.52669750870277098898e-01) (4, -4.97383595265233957594e-01) (90, 1.50000000000000000000e+03) (126, 2.89084909015949298450e-01) (120, 1.64434235646907705997e-01) (108, 7.85409073124761492046e-01) (56, -1.84288251590807056202e-01) (65, 2.06489112542884406531e-01) (67, 2.95896012665232355232e-01) (137, -7.50052420821836873799e-01) (33, 1.95644710522564313493e+00) (38, 1.28824525813491064241e+00) (1, 2.27225996474661950941e+00) (73, 1.93426993074629516300e-01) (52, 2.90574101740349088896e-01) (102, 1.31031580877052855616e-01) (106, -3.27882141155435069546e-01) (80, 5.12556153913504980446e-03) (119, 4.04668302757969944317e-01) (64, -8.18104460270349553852e-01) (131, 1.38068027008948435164e-01) (47, 1.78780163232994199207e-01) (130, 1.34383412591518869306e-01) (60, 1.81605488251435009950e+00) (68, 2.77932437575798330087e-01) (71, 8.82613069413979212108e-01) (42, 4.17410513133772531624e-01) (5, 3.07967560239663540322e-01) (88, 1.50000000000000000000e+03) (22, 8.62273849170474941672e-03) (20, 3.44438693219071279117e-01) (105, 1.89692808010260827167e+00) (117, 1.48176058908000618519e-01) (18, 1.50000000000000000000e+03) (43, 6.55357208180538997055e-01) (19, 1.50000000000000000000e+03) (107, -1.05857645273414480158e+00) (114, 1.05449268424853936921e+00) (30, 2.37577797563224751842e-01) (48, 3.74188927399020376807e-01) (142, -3.55679501453733601379e-02) (74, 1.87831783550991970877e+00) (73, 6.97284462046123043599e-01) (2, -8.38489291739764053268e-01) (105, 1.62185213283657786443e-02) (90, 1.50000000000000000000e+03) (138, 4.48405496807997239195e-01) (114, 2.77183474915908334424e-01) (35, 1.07189774549911701063e-01) (70, -6.18870810871132576159e-02) (51, -7.14798278864439556868e-02) (12, 3.89339441057300228444e-01) (106, 5.83685217576723203159e-01) (67, -3.72587610006345937297e-01) (98, 1.15299874870025340079e-01) (91, 3.60293995245377862702e-01) (17, 1.50000000000000000000e+03) (122, -4.62012636835419321368e-01) (40, 7.76223906273615371632e-01) (139, 1.72189970212162979379e-01) (4, 2.36080864614516723610e-02) (75, 3.78624884854412036006e-01) (84, 6.11815467511233945785e-01) (119, 3.52732953308214103316e+00) (121, -9.74981754101912762023e-02) (116, 1.77170033937616488995e-01) (109, 5.25863862574194387833e-02) (94, 5.60463698723456271722e+00) (50, 7.06944504086354563732e-01) (93, 1.42481949915409448863e-03) (22, 2.90494406819944095410e-01) (1, -1.86047886669285755801e+00) (135, -2.22281740383970305430e+00) (69, 9.57735270179433717530e-01) (117, 8.31599939254256903531e-01) (29, 1.49019273596426471418e-01) (36, 1.77542315798768912671e+00) (15, 5.26247991014994753733e-01) (33, -1.80043629893800655184e-01) (34, 2.66296381952851102248e-01) (54, 2.75079298678619355023e-01) (133, -2.86083694218258410835e-01) (77, 2.67771754852062338070e-01) (9, 1.32531366867864236481e-01) (10, 2.53767297353620691069e-01) (61, 1.30097093712853939529e-01) (130, 5.83187912402014729807e-01) (48, -1.19957425960614849636e+00) (5, 5.40946806592009332704e-01) (62, -5.96434890890368898941e-02) (21, 1.23936896576606603304e+00) (134, -1.36038339562726839915e+00) (60, -1.74116487783301882031e-01) (88, 1.50000000000000000000e+03) (45, -1.00617874487459235677e-01) (7, 5.75648641047213582844e-01) (16, 4.11561826037354638874e-01) (26, 2.30502412608221657342e-01) (41, -1.76749458855921692813e-01) (127, 1.40867664495021426702e-02) (92, 1.78674780057916970932e+00) (53, 2.19938521025256850105e-01) (104, 1.92012094717060310956e+00) (125, 2.22158077297705203179e-01) (110, 9.77990668728994871906e-01) (101, 1.75656926162947457648e+00) (63, -1.81177986554689796073e+00) (58, 2.28125823380137010554e-01) (37, 1.54119148415977691435e+00) (86, 5.02921345512635009634e-01) (113, -3.08658790162163909621e-01) (129, 1.55416179244673630100e-01) (52, -1.00489213690893447462e-01) (65, 9.51303014523243450906e-02) (28, 2.89954246700863838004e-01) (13, 4.84488537451453649130e-01) (123, -4.95920249947040120420e-02) (115, 3.05322269026064185837e-01) (32, 1.64950690494907570294e-01) (107, 2.91334715865070870144e-01) (19, 1.50000000000000000000e+03) (24, 1.37845201906321768170e-01) (71, 2.31588151684365833871e-01) (14, 4.84704185689730115971e-01) (59, 8.12559918727913665926e-01) (131, 2.36611533404599150288e+00) (103, -6.32290810300486949558e-01) (126, 2.81528059450033230071e-01) (68, -2.71013330663374629736e-01) (141, 3.08585614366230887029e-01) (3, -1.88254580242138064294e-01) (120, 3.64959277089847211606e-01) (43, 1.20671317538391309476e+00) (83, -4.17148782034898135684e-01) (39, -1.10609447080426082088e-01) (132, 2.83979820692016937667e-01) (78, 8.05541543983835928167e-01) (118, 3.26909413547587068827e-01) (38, -7.90514577199933676788e-01) (89, 1.50000000000000000000e+03) (142, 1.07996768761292849526e+00) (93, -3.42526421085403631750e+00) (126, -7.15777209304591877093e-01) (110, 3.77420617247386331813e-03) (7, -6.66810885056701385665e-01) (2, -3.96084276985176342301e-01) (89, 1.50000000000000000000e+03) (34, -1.32319434165154514726e-01) (81, -2.31642719156134901937e+00) (45, -9.04690358437505781630e-01) (127, -7.55874681412302629191e-01) (123, -1.85437674136771968314e+00) (51, -6.16786550363584984424e-01) (70, -6.66756707133965287326e-01) (49, -7.83126434471365873158e-01) (44, -2.10755502324467292041e+00) (38, -9.44515129633380634555e-02) (63, -3.52159613727976372743e+00) (25, -3.65161568551057580390e-02) (107, -1.70858519970135624977e-01) (62, -1.23370056694617633020e-01) (23, -5.71607785703131310306e-01) (57, -6.78712486430975592278e-01) (88, 1.50000000000000000000e+03) (125, -7.31327035678457915147e-01) (3, -6.13717882561393812679e-01) (101, -1.60383849772629138997e+00) (31, -8.65651404394262513620e+00) (78, 4.17722296731839137784e-01) (29, 4.17390559634777602582e+00) (77, -9.80645306091683793825e-02) (118, -4.18289183102186767904e-01) (90, 1.50000000000000000000e+03) (56, -6.31600404333558906877e-01) (24, -1.28340139468715586091e-01) (103, -9.61388576571558850503e-01) (115, 7.18072669784084349764e-01) (119, -4.35490866117798913759e-01) (27, 9.71723908038261585673e-01) (114, -4.94643594629031291277e+00) (14, 4.01715333411556496657e+00) (82, 1.49770498955597436419e-01) (105, 5.29755087831946713806e+00) (134, 3.69821756115517796815e+00) (61, -1.38215872578850651475e-01) (8, 3.00071458806292767907e-01) (92, 9.57804871490820164404e-01) (15, -4.66832671188050496447e-01) (72, -1.04755418247915982333e-01) (46, 5.11791365953793819799e-01) (97, -2.13206963044248620776e+00) (74, -6.33168040383801228321e-02) (4, -2.09196271699238073305e-01) (108, -6.09386038787416772777e+00) (76, 3.46558654292855095047e-01) (64, -2.03219368312571146973e-01) (19, 1.50000000000000000000e+03) (22, -7.13051428435839129705e-02) (91, -1.02542155453690519984e+00) (109, 2.35485258260416152609e+00) (16, 2.17795823749241623801e+00) (113, 7.05167205672151825580e-02) (36, 5.52423723029330168699e-02) (39, -1.34225199105567405411e+00) (50, -2.83581873458727984350e-01) (42, 4.37234111277267467610e-01) (10, 8.50388195199889551645e+00) (111, 1.86047345649973161485e-01) (73, -2.97936660998433973380e-02) (71, 1.73806781822093059375e+00) (17, 1.50000000000000000000e+03) (137, -6.09327342487496093071e-01) (130, 1.58614934071640845126e-01) (5, -6.09656311007632401022e-01) (21, -2.71553375223403081762e+00) (65, -6.29782285592559110121e-01) (138, -4.30190989211432839312e-01) (99, 2.86923767409114027771e+00) (0, 2.16406229537960159703e+00) (33, -1.56451569137352497485e+00) (135, -8.89416534923390234013e-01) (66, -8.86755530402443925553e-01) (9, -2.70111932452990921583e-01) (106, 8.77234286656655037895e-01) (116, -3.36136743626578526900e-01) (41, -2.39540156074471122238e+00) (53, -7.31131278645109849990e-01) (131, -1.93331963492083758194e-01) (59, 1.18120105150966825391e+00) (58, -6.93525927550206811034e-01) (85, -2.29259754731794607174e-01) (139, -7.38462412118937816530e-01) (18, 1.50000000000000000000e+03) (141, -9.44156622360793895687e-01) (54, -7.08000945136488590848e-01) (47, -5.39118518789452605411e-01) (100, -3.92206353541048757805e+00) (43, -1.88492286666366776204e-01) (128, -7.48125860105672391143e-01) (37, 9.31378288942444204634e-02) (142, -1.85031479828754757966e-01) (58, 5.64297379244146801724e-01) (19, 1.50000000000000000000e+03) (48, 3.84211308622091629594e-01) (23, -3.31374390890529224585e-01) (45, -8.21912239780362013919e-02) (53, 7.09767349444746509235e-02) (39, 3.26542482886909790629e-01) (96, 5.95167727680845914939e-01) (20, -7.22263036387412404871e-01) (94, 7.11501603507970759033e-01) (93, -2.06770901016676666995e-01) (33, -6.05729628075460269088e-01) (76, 4.55426719283641839864e-02) (89, 1.50000000000000000000e+03) (63, 6.62647608470554483340e-01) (60, -1.44396666705289999921e-01) (7, -3.16494298500257564832e-01) (121, 4.42214160062483485625e-01) (114, -2.87312189085600355742e-01) (18, 1.50000000000000000000e+03) (1, -2.26404629701803722375e-01) (109, -8.96953269862270530233e-01) (31, -3.34260253557860820273e-01) (98, 3.27190092623560357943e-01) (55, 5.26283839130840092047e-01) (110, 1.22005447318705595450e+00) (101, -3.05540176839670052367e-01) (105, -4.07620435858118079775e-01) (24, 6.17577463729353959287e-01) (66, 5.78678647435223569850e-01) (25, -2.19388825341315513162e-01) (29, -3.42874910600893867407e-01) (70, 5.43841853622315740679e-01) (116, 3.83688489098771012831e-01) (137, 4.54815344660331521975e-01) (129, 4.13168733462706341819e-02) (2, -2.40128645584116284795e-01) (26, 6.46890849979747994958e-01) (49, 1.40877189473286815874e-02) (107, -4.16470020976645316502e-01) (69, 5.16269167571299369968e-01) (134, -2.20045339519684773899e-01) (65, 5.43955923201693170022e-01) (27, -4.80199549826738791847e-01) (42, -1.42957706197086564792e+00) (5, -2.49462657456791192523e-01) (9, -9.48658504049972761685e-01) (126, 4.85778686854270502771e-01) (138, 5.78402309573070816384e-01) (113, 1.87056393005506832461e-01) (71, -3.26399548016690743690e-01) (102, 2.79377107670101088033e+00) (47, 5.03096116355552180899e-01) (41, -8.17912949717127690796e-01) (28, 7.04367766175525544803e-01) (120, 4.11481354370111074292e-01) (6, -1.11791618861552713438e-01) (97, -1.55379823211599543686e-01) (127, 5.99910908680189369768e-01) (35, -4.87939880825987604140e-01) (79, 7.64934545581367641987e-01) (61, 1.29003360195395666565e+00) (40, -3.45520489368242755823e-01) (75, 5.91754411040264494126e-01) (43, -1.04186762832018178782e-01) (82, 1.84094160639387799394e-01) (46, -2.64670890309538886509e-01) (57, 5.44086943225057018125e-01) (90, 1.50000000000000000000e+03) (85, -2.06060472054773069495e-01) (17, 1.50000000000000000000e+03) (119, 3.67369646509859204553e-01) (117, 1.71815035755118444838e-01) (37, 2.09542742896879408132e-01) (130, -3.71249047380198982093e-01) (131, 9.68472321212807907287e-01) (135, 7.45205071952112774181e-02) (99, -1.54173391911132573462e+00) (106, 1.09236904682277558010e+00) (11, -1.10203152499962930833e+00) (133, -1.15221655039890860661e-01) (38, -4.19222258327223540331e-01) (34, 3.40731157405703755092e-01) (50, 4.19209638554657454401e-02) (92, 4.50870815705039396093e-01) (81, 3.17030919434471147866e-01) (112, 1.00040757280592029765e+00) (100, -9.24852595804861316031e-02) (59, -2.53709880913885410525e-01) (52, 3.69032827813179920007e-01) (111, -1.23660123470672969614e-01) (95, -1.97174854347640204910e-01) (4, -2.68343429360106189296e-01) (87, -6.62628216361051264327e-02) (30, 1.79114331932335280051e-01) (139, 5.39659969499068581378e-01) (83, 1.88483382400919385891e-01) (140, 1.66079247989798839402e-01) (86, -6.18747492174503144202e-02) (128, 4.99684618301869609702e-01) (142, 9.03942619147496823073e-02) (17, 1.50000000000000000000e+03) (31, -1.83680994016897441989e-01) (37, 2.43462285021701113630e-01) (65, -4.89084832033765334880e-02) (22, -4.71019722092633416621e-02) (128, 1.64599983784721487501e-01) (129, 1.00150758645260595792e+00) (23, 2.37255354272874474653e-01) (64, -3.89732997684301529784e-01) (127, -4.68950832488547048049e-02) (87, 2.92196220234076875499e+00) (84, -5.10813284131954870038e-02) (26, 1.24271640001167263390e-01) (3, 3.58939188909077194767e-02) (58, 2.60824019010814645014e-02) (45, 6.18470536567278794671e-01) (48, 2.12462881769854700087e-01) (110, 1.65083042595896034577e+00) (28, -1.25036964161385522054e+00) (74, -5.23300859610884988582e-02) (90, 1.50000000000000000000e+03) (46, 9.33889470263261300964e-01) (91, 2.14165827614216618124e-02) (82, -2.78728648011756163783e+00) (43, 6.59101125956976119369e-01) (99, 1.90980015503415967437e+00) (140, 1.76554787085045239436e-01) (124, 2.38738395014620706502e-02) (53, -4.44796352629337893303e-02) (11, -6.09190938172265217254e-01) (115, 6.35269364474915887442e-01) (2, 1.48839988456830191188e-01) (33, 3.15779230810984179456e+00) (7, -7.45279805661621108648e-01) (106, 5.27917521477866302781e-01) (50, 3.27684389544299514707e-01) (107, 5.96524240883609113695e-01) (111, 6.14828126715917577805e-01) (38, -6.59589080213276446329e-02) (68, 1.32744210421160746538e-01) (72, 1.38672876773440877790e-02) (20, 1.95890941623906106317e-01) (57, -3.79589645669845682230e-02) (60, -2.64421985797257752537e+00) (59, -3.84000186775105167847e-01) (18, 1.50000000000000000000e+03) (118, 1.60051896114523001247e-01) (88, 1.50000000000000000000e+03) (69, 1.15150979802368155086e-02) (52, -7.47595261119386789161e-01) (120, 4.79595319216801041495e-01) (41, 1.65942194512641427728e+00) (67, -8.25198574508296589514e-01) (40, 2.08387485570781211264e-01) (100, -1.77172164229817763470e+00) (108, -2.29248905654939078014e-01) (79, 3.70429093692347644051e+00) (105, -5.22077758866439478602e-01) (130, -9.89684368836615369069e-01) (94, -1.58126339020518785761e-01) (29, 7.51842573486892873369e-01) (14, -2.87081307042146127717e-01) (1, 6.88181687083927878801e-02) (42, -7.88995774871310784349e-01) (49, 8.78962863755553214240e-01) (123, 2.13380961324593831918e-01) (9, -1.17065691908349062134e-01) (24, 1.79180360572726071755e-01) (102, -4.94966232404093930963e-01) (137, 5.05126615748344599127e-03) (101, 5.46456728718940243361e-01) (54, 9.78225182209954274848e-02) (16, -6.28649409285663929303e-01) (35, -8.82504013320065006099e-01) (139, 6.80687673376238255862e-01) (89, 1.50000000000000000000e+03) (70, -7.05007012329397997341e-01) (6, -1.11702644476497275905e-01) (51, -1.37226408345182604442e+00) (112, -4.16871106797519530573e+00) (138, 7.39266574689265598685e-01) (121, 3.90949970678220071196e-01) (62, 1.22612015236998064815e-01) (97, 9.99018951716839631594e-01) (47, 3.16762639059834039124e-01) (71, 2.31329717416970837007e+00) (34, -1.09847603166855378731e+00) (61, -9.15459516878368434467e-02) (116, 1.59010734827001876113e+00) (66, -6.72847057786833069315e-01) (10, 4.51722908257698063661e-01) (55, 2.35959312370349783006e-01) (103, -1.23027314135657865612e-02) (81, -3.80796819626320059982e-01) (96, -8.00910406267090896337e-02) (76, -1.43814459461057159856e-02) (141, 1.20444208125452548175e-01) (131, 1.68528813706145780271e-01) (4, -3.76601273317064919738e-03) (142, 4.98007756530002954065e-01) (123, 1.88623355732079084346e-01) (131, -2.48451429724723310555e-01) (89, 1.50000000000000000000e+03) (18, 1.50000000000000000000e+03) (108, -7.69788139978955676668e-01) (45, 6.09080668717999151873e-01) (74, -2.31043398726276910660e-01) (50, 1.76107963662453098630e-01) (113, -1.42584090455811635101e-01) (107, -3.69581247331803253164e-01) (30, -1.00230397009143934461e+00) (63, 1.54554444573600924251e+00) (97, 1.20516185010640569653e-01) (53, 2.01535210934370601077e-01) (121, 2.28961713450743953313e-01) (87, -1.01764772136766698529e-01) (98, -3.03272389936566022506e-01) (34, -5.31957286102554882667e-01) (42, 4.60129592455651548200e-01) (77, 2.19228119070190852202e-01) (61, -1.20995792808466617885e-01) (3, 2.42239663054230308648e-01) (83, -3.41434869262641216281e-02) (24, -3.38460703112787586466e-01) (13, -1.88279632582660089168e-01) (55, -2.37877393371528050858e-01) (16, -1.40031989587495964145e+00) (111, 2.35481403907416536603e-01) (23, 2.97443262180132395045e-01) (69, -2.45232442617418673614e-02) (14, -1.15567852560255412975e+00) (37, 7.94238500694274707215e-01) (44, 1.13284324657650747881e+00) (64, 7.64574299181898009437e-01) (8, 3.21693602044827720032e-02) (11, 1.93762278782835445368e-01) (96, -2.90397873299419129189e-01) (60, 6.34353764343174142404e-01) (66, -1.86731844098742716387e-01) (71, 1.73205218918238412762e+00) (47, 1.89962084636349781697e-01) (136, -2.55014045968752256499e+00) (105, -1.44096733807070909172e+00) (80, 5.10418944313737688034e-01) (125, -1.83973695928644875863e-01) (93, 3.01998523820425912589e-01) (38, 1.76430498436904237280e+00) (31, 1.01466453144628374616e+01) (112, -3.19164083464348635744e+00) (7, 6.13223928807338336533e-01) (127, -3.95725564544507413256e-01) (36, -1.28832596497014756354e-01) (58, -1.35032502002749438264e-01) (1, 4.06682696438826041252e-01) (140, -3.86507394587797314944e-01) (99, -4.39087365238390425759e+00) (81, 1.22213499333898398258e-01) (52, -3.07724790604067965916e+00) (120, 8.60609143808894860861e-01) (27, -5.77229550887029652095e-01) (119, 1.32227162364376149561e-01) (65, -3.23048782192660810519e-01) (90, 1.50000000000000000000e+03) (109, -4.55116949825246475125e-01) (4, 3.05822649061688878191e-01) (39, 2.22299346571116984705e+00) (141, -5.65675902665498164801e-01) (95, 2.52334133495763945909e-01) (106, -1.34912036709909055610e+00) (20, -1.51467539871768530624e+00) (101, -1.77263174192477251934e-01) (84, -1.87112132346629578272e+00) (9, 1.98005688521820627512e-01) (88, 1.50000000000000000000e+03) (82, 2.40885290323116091349e-01) (124, -4.50618005720158087968e-01) (135, -9.27364010749504252829e-01) (100, 2.99004792637956706702e-01) (132, 2.08802059587632399262e-01) (17, 1.50000000000000000000e+03) (102, -1.77757985750514380108e-01) (46, 1.82511384675551280310e-01) (137, -3.47896595691232213277e-01) (25, 3.29753940371760256856e-01) (48, -1.75116356017195634598e-01) (68, -1.84518705223271739513e-01) (86, -2.67349955899508406887e+00) (79, 1.76175151403443003284e-01) (126, -5.99765934760445373897e-01) (2, 2.83216295110744753494e-01) (70, 9.83407318824259246703e-02) (6, 3.99993162740395369337e-01) (75, -4.24728264206719274831e-01) (54, -1.22439532664392225492e-01) (138, -4.96389756732003639694e-01) (26, -1.70730629503781899947e-01) (67, -1.54509437660682730220e-01) (128, -5.28940866556298794343e-01) (103, -8.69937922648895356481e-01) (104, -3.94296788220600658015e-01) (142, -7.05502378865563717358e-02) (54, 2.21194253576185162480e-01) (86, 6.07194764460792568705e-01) (77, 5.91286227617291215708e-01) (125, 3.64616462594199108871e-01) (27, 3.77824501376645194295e-01) (22, 1.00389107979243674684e+00) (112, -2.58927060087568827740e-01) (65, -1.83374354017061223787e-02) (83, 1.38798338929799558450e+00) (88, 1.50000000000000000000e+03) (56, 2.20924319398979107643e-01) (123, 2.76833832773094479229e-01) (127, 3.14233158432959847062e-01) (44, 1.65309957293227260955e+00) (137, 4.02806262197762332544e-01) (81, -2.74834568891156250103e+00) (121, 3.94101181610930328958e-01) (23, 2.43436315572961053944e-01) (92, 2.04764951334433648045e-01) (115, 1.41466157101468120727e-01) (139, 3.80903684872704317854e-01) (113, -8.12349281051324423331e-01) (41, 2.61875798213569987993e-01) (102, 2.35919900903095403066e+01) (31, 2.84415186338741354799e-01) (18, 1.50000000000000000000e+03) (33, 2.41321402903930781747e-01) (109, 1.05471988268739380601e+00) (19, 1.50000000000000000000e+03) (110, 1.33752194989166750538e+00) (133, 5.77844173476701583603e-01) (59, -3.45961591532635948099e-01) (131, 1.73679482484542946352e+00) (2, 1.92886453924554446271e-01) (84, 5.50223077079058153771e-01) (10, 7.26390500786420423296e-01) (24, 6.60703594443184605289e-01) (9, -1.11677758613578231861e-01) (7, -1.72954489066433972355e-02) (69, -1.59304400654793609782e+00) (58, 6.32140377305358991400e-01) (126, 4.00763989686309163307e-01) (13, 2.20429470528503895776e-01) (55, 6.29132258088027418452e-01) (72, 1.74004325253174063626e+00) (90, 1.50000000000000000000e+03) (101, 1.42270863921160395371e+00) (34, 8.58853806039789557936e-01) (15, 4.30238920557481085982e-03) (0, -2.85884936033960687651e-02) (12, 1.10808667462737750475e-01) (70, -1.32963181544785702393e-01) (28, 1.78803042144466095564e+00) (42, -2.10156523635000658246e+00) (1, 1.74515491908810632671e-01) (97, 3.65701765465819617074e-01) (30, -1.81952886277016917527e-01) (105, 3.14137815710998358210e-01) (107, 3.75630483832794126453e-01) (111, 9.10281391888185353878e-01) (140, 4.57483692418897358589e-01) (35, 2.19918551807743067883e+00) (78, 7.41831890017800921200e-01) (129, 5.94080064838438892671e-01) (6, -6.34452680560792098285e-02) (135, 1.68971440997135818884e-01) (114, 1.64427801631871561838e+00) (108, 1.99224541279733058374e+00) (62, 9.03439637689027907896e-01) (117, -1.62984531351294426038e+00) (141, 3.07826947936428618746e-01) (104, -2.61542203713004681731e+01) (138, 3.37329128869945649161e-01) (132, 6.35396463541925804464e-01) (32, 2.45551848807380723727e+00) (116, 7.90507282884302386883e-01) (17, 1.50000000000000000000e+03) (64, 3.83247303640387171342e-01) (87, 1.14882728325597760488e+00) (4, 2.47167258017342489351e-01) (119, 3.81398144334995636839e-01) (53, 2.66692402000533290707e-01) (85, 1.67373195101833438514e+00) (124, 1.17544010465931880738e+00) (52, -2.20324890144088314514e+00) (100, -7.28356417106132414396e-01) (106, 9.04340004249089668420e-01) (118, 1.20008953849743615905e+00) (60, 3.11168287796721287908e-01) (3, 2.32416822258025485004e-01) (94, 2.88499527396413535385e+00) (46, -7.04683731109896904776e-01) (16, 2.43439463445579373779e-01) (68, 3.12841576255227460379e-01) (43, -1.25759416878089669289e+00) (11, -1.36978948543129086524e-01) (136, 2.01359310225605137035e+00) (128, 6.08372960351165392723e-01) (48, 3.41899714935233522972e-01) (142, -2.46322549597877832328e-01) (9, -1.40529294207153387930e+00) (64, -3.85070075364612462998e-02) (69, 5.29704502591057391214e-01) (43, -7.07572910651328712550e-02) (16, -2.37339363018687465878e-01) (141, 1.52761875623753290432e-01) (28, 7.46484522283163309808e-01) (52, 5.91522767420858297527e-01) (78, 1.21124944164353265386e-01) (98, 1.42011996913057769731e-01) (10, -6.23565713113360065023e-01) (21, -4.96401504910980562180e-01) (109, 8.56116185295575315983e-01) (46, -5.68858932372845682579e-01) (57, 5.38072630459172973616e-01) (23, -1.93202242631643705817e-01) (53, -8.79390454760279466351e-02) (92, 4.44939124444877931452e-01) (97, -1.04701908346855540599e-01) (18, 1.50000000000000000000e+03) (1, -7.47542371097411756375e-02) (121, 3.74274736575995262133e-02) (8, 7.68550227140856884178e-02) (125, 5.71612706425801864185e-01) (65, 5.27569765863028394826e-01) (129, 5.82975618191380773325e-01) (100, -1.62895292617222187115e-01) (87, 6.73621578911654944610e-02) (79, 1.21862659211182198377e-02) (50, 1.15179674443130236616e-01) (108, -6.78150930395777784554e-02) (39, 2.87206566353673427294e-02) (126, 1.97686044760641776996e-01) (82, 2.00164784785351629326e-01) (35, 2.34747906593339372705e+00) (135, -6.41245657675339197912e-02) (40, -9.86672658053582063431e-01) (123, -8.08094335569125576946e-02) (47, 2.06213521154740342389e-01) (25, -1.49366499310621625440e-01) (2, -1.01707222900578320157e-01) (84, 5.82942347389033208027e-02) (13, -4.22883467827647629989e-01) (76, 1.26379821946547954425e-01) (66, 6.27144233908249915110e-01) (105, -1.52426944484995829932e-01) (134, -6.97077072340853420851e-02) (60, -7.70605491368640260763e-02) (90, 1.50000000000000000000e+03) (42, -6.02371531084473721407e-01) (24, 2.13287936280497714137e+00) (37, -1.71697979088057915698e-02) (116, 1.38356139602400285415e-01) (96, 3.14205426838663703926e-01) (7, 1.49522283091014229761e-01) (88, 1.50000000000000000000e+03) (114, -7.25587307753906424201e-02) (61, 1.37067763805670295163e+00) (138, 5.77638087901675256752e-01) (91, 9.02699190432730558253e-02) (83, 1.07143331376465422711e-01) (58, 4.70325931658094109622e-01) (111, -3.22357292056756561394e-01) (12, -4.21905183920720350255e-01) (36, -7.60362183773472311010e-01) (106, 4.46223142030453601148e-01) (15, -5.55875816482287454789e-01) (70, 6.19598735122122046270e-01) (132, 9.44609295997246023457e-02) (103, -5.20302815107467273026e-02) (137, 5.06062578943040630719e-01) (14, 8.48345377174726106295e-02) (63, -2.99820933087525887117e-01) (29, -4.27916012064240569579e-01) (49, -7.44329738401762388417e-03) (26, 1.03817600058888337422e+00) (27, -7.80169836253473802934e-01) (0, -5.74547659581667868878e-01) (139, 3.95455658692234063301e-02) (17, 1.50000000000000000000e+03) (117, -2.97870880273693960927e-01) (113, 4.91347744735099345448e-01) (127, 7.76513427660290578292e-02) (128, 4.83151894497741429824e-01) (59, -3.45471976751476287509e-03) (130, -5.09181219838311993620e-01) (73, 2.83418074687506404974e-01) (51, 2.44973671747871879489e-01) (56, -1.09317726065842904526e-01) (86, 3.77913860431200662737e-02) (62, 3.56045997109842526918e-01) (11, -1.50955783371948326632e+00) (120, 1.78516149763038339815e-01) (44, 2.25306721492126271755e-01) (104, 2.04364904287780368985e-01) (31, -1.30438553450299143943e-01) (77, -2.12867697480210692207e-02) (55, 4.04158679385360708469e-01) (48, 4.67365813223218795613e-01) (142, 5.89081379636046897907e-01) (124, -6.71339702655971287681e-02) (82, 4.14744206252510017041e-01) (13, -1.03314759744663878238e-01) (37, -2.17757066242230706843e-01) (90, 1.50000000000000000000e+03) (111, 7.64810371967155955275e-01) (86, 2.25893053050985281871e-01) (11, 1.44420832546465827129e+00) (138, 3.27126999434312948356e-01) (78, 4.56639249660167279021e-01) (88, 1.50000000000000000000e+03) (133, 2.91040914001998007876e+00) (107, 5.75462305954543729136e-01) (56, 8.35295402358966931899e-01) (58, 4.80121679073033935659e-02) (35, -3.94127082780010906671e-01) (6, 3.20295295496845100480e-01) (36, -1.44599669966973198854e+00) (110, -1.79405367875768245733e-01) (15, -1.01002752653442939845e-01) (126, -3.45704447923163460388e-01) (140, 3.73975814383944865638e-02) (76, 3.15748525335901863986e-01) (27, -3.86824220003995911110e-01) (17, 1.50000000000000000000e+03) (2, -1.75489665946660333695e+00) (22, -8.09582448104388396892e-02) (79, 5.24778151386555369307e-01) (5, -3.01616862990879197604e-01) (129, -1.72465938281385511299e-01) (137, -2.00779054625725927874e-01) (38, -1.09897231452487920134e-01) (8, 3.40624977729803712911e-01) (21, 6.04445883381549142754e-01) (105, 4.16723715011734011093e-02) (62, 5.29789431853316429566e-03) (139, -6.71257736213749511833e-02) (45, 1.50102354988816577563e-01) (23, 5.94211699864393372295e-01) (55, 6.97316015446532017075e-02) (135, -3.74303573189815441680e-01) (96, 3.86778644986760777869e+00) (92, -4.96099519936385013885e-01) (44, 6.69212982677755308103e-01) (80, 3.33515472055974537824e-01) (73, 1.54896623074705397372e+00) (115, -1.82350724170545347436e-01) (7, -5.90864417894329252423e-02) (136, -2.00143056063099455955e-01) (10, -3.15737585951362920156e-01) (43, 4.61071764424824503958e-01) (84, 3.09091665625286282637e-01) (18, 1.50000000000000000000e+03) (93, 4.14606954505566704938e+00) (83, 7.20594320008851596526e-02) (89, 1.50000000000000000000e+03) (66, 6.80384014572606860005e-02) (4, 2.91711630371439945009e+00) (25, 2.77154587796516194143e-01) (16, -3.04811551941482905548e-01) (112, 7.13953051055552845305e-01) (106, 1.25711820452535011361e-01) (116, 3.43292724749984304311e-02) (117, 2.88416356709455645735e-01) (68, -2.41497723093034272202e-01) (29, -4.58300324568764350097e-01) (114, 1.66965270456778336339e+00) (99, -2.90859649951864396300e+00) (91, 3.59002426151296349932e-01) (34, 1.26656887383582938966e-01) (141, 1.70550823038160097311e-02) (3, -8.75375213354634140739e-02) (32, 1.89896381554066934205e-01) (49, 6.79953059026018213906e-01) (12, -3.57115234388446001201e-01) (70, 1.12078417303827487100e-02) (31, -3.44326533419320952589e+01) (81, 1.62753282748415467607e-01) (57, -9.37121547143725808215e-02) (0, -2.30082741100655491229e-01) (132, 1.25230851531870879256e+00) (48, 1.07647193757172177087e+00) (60, 2.35357852009727475107e+00) (131, 1.33259443982060327150e-01) (128, -4.43906789532839296530e-01) (1, -7.52160056412060629150e-01) (9, 1.13043157534741345316e+00) (65, -4.20375476825972871353e-01) (72, 1.49860871066806367047e+00) (98, 8.82834400517161665967e-01) (61, -2.15355903691841849001e-01) (40, -9.52077932616835265200e-01) (39, -2.40102408135578091961e-03) (42, -6.18934774730096615158e-01) (63, 1.05847872967973755109e+00) (26, 1.49315218865006232862e-01) (75, 1.56902111912986197417e+00) (74, 5.66312346607603256388e+00) (30, -2.56911450679701047761e+00) (122, -3.02185663748703148279e-01) (142, 2.15658009523572558042e-01) (39, 6.87891237965220919692e-02) (87, 5.95035120401533109552e-03) (9, -2.16465867924736876660e+00) (83, 2.35572485590010177736e-01) (74, 2.67596165377695316412e-01) (16, 8.04763228874914138267e-01) (93, 1.40904168715479199969e-01) (33, -7.19827213988662872879e+00) (0, -3.09259930606210375892e-01) (114, -4.22328234440633554225e-01) (113, -8.31730209797195141341e-02) (122, -1.29010243118985706845e-01) (41, -5.74953087220540948188e-01) (123, -4.64271744548600418662e-03) (14, 8.76439318247260956696e-01) (77, 8.74551291788579210351e-02) (84, -1.09006525102007090222e-01) (2, -1.81272252639110154071e+00) (8, 3.92567733911911853628e-01) (73, 3.36793862002681132495e-01) (89, 1.50000000000000000000e+03) (40, 2.73129523466411006094e-01) (56, -1.29612992724894987573e-01) (137, 1.03556474009974128214e-01) (29, 1.31841505254738788899e+00) (34, 2.72145609197422644332e-01) (75, 2.57806924975506113196e-01) (119, 5.94781667918094059111e-01) (116, 9.12930548629853455544e-01) (90, 1.50000000000000000000e+03) (68, -3.50043846932633420654e-02) (11, -2.13334444865063010965e+00) (36, -7.75052381850597549295e-01) (125, -6.89704349160105006922e-02) (26, 4.17079840177763783160e-01) (129, -8.01440991098478217047e-02) (3, -6.30240434827348677826e-02) (27, 2.40395382646433286578e-01) (94, 5.02212474803676034441e-01) (42, -5.49276773975368337588e-01) (136, -4.04006350585527987396e-02) (67, -5.48801829808676644440e-02) (98, 3.18439216707145034135e-01) (134, 8.28947715154288777839e-01) (101, 8.60308842436652176922e-01) (138, 3.92891566192528091800e-03) (55, 2.40740191386790369776e-01) (17, 1.50000000000000000000e+03) (69, 3.47378103487857525788e-01) (57, 1.42030227256508077144e-02) (109, 3.26497332580160504190e-01) (111, 1.71411872187264224809e-01) (24, 3.56866181857248943032e-01) (50, 6.19223131063630985449e-02) (53, -1.26180750560401538918e-01) (13, 2.17571902892586710454e-01) (66, 3.70176970624219892070e-01) (126, -3.29356842683282205475e-02) (99, -3.63237202756006904991e-01) (141, -1.06872925248364895184e-02) (121, -4.98782233347492068298e-02) (64, -1.08205866598743427609e-01) (79, 2.63251113390415625304e-01) (124, 3.58281156903118624957e-01) (139, 6.03637564999964584822e-02) (1, -3.81921720362609629085e-01) (15, -6.14948762987169494920e-01) (140, 9.10639775533053780210e-02) (107, -4.22065704663632038085e-02) (80, 2.54171379294226451595e-01) (22, 7.14884546530123787811e-01) (59, -2.49177617126756928423e-01) (7, -6.61169622366959530702e-01) (4, -5.56987773079738388016e-02) (102, 2.68649437506807142739e-01) (128, 5.05928899606841939174e-02) (51, 2.24705236664836466298e-01) (115, -2.38450112610296832694e-01) (12, 2.31979330090738278258e+00) (44, 6.12545015347978269449e-02) (78, -1.12452810332253502756e-01) (38, -4.63803987741372159004e-01) (95, -1.47238516269940944436e-01) (28, 1.23174079544018888477e+00) (131, 1.48768949371879566357e-01) (103, -1.07735865184549278739e-01) (97, -1.87368076523510528053e-02) (76, 1.50034404627999162773e-02) (63, -3.60254847279398229820e-02) (25, -7.61804508792154611019e-02) (32, 6.40198856025338436382e-01) (60, 1.45661143412914184658e+00) (20, 2.28321938645478716978e+00) (6, 3.68068696343284762484e-01) (135, 2.41649788463388109916e-01) (46, 4.19923413480233320705e-01) (106, 2.25358741185926580997e-01) (45, 1.30142823540589286369e-01) (48, 3.01514904293712193706e-01) (142, 3.81821249161016229579e-02) (52, -2.14084965452746711634e+00) (15, -6.35337291714882401727e-01) (50, 5.62365324074593719850e-01) (49, 2.22823124545029699339e-01) (5, -9.55242458644940950485e-01) (13, 1.96729391556934585239e+00) (113, 1.98943798426192164364e+00) (84, -6.26938584146114763485e+00) (31, 1.46905727800487840781e-03) (86, 3.92620662040729706543e-01) (81, -6.48492284971502241930e-01) (21, 3.46798141951586216813e-02) (57, 7.20404926016151164747e-02) (104, 1.37264213930342493519e-01) (47, 1.63021088187326246288e-01) (96, 1.65025010551834327988e-01) (65, 5.93844970153116658018e-01) (37, -2.95786655877609305776e+00) (41, -4.97751306402323212552e+00) (109, 3.38679043089418874146e+00) (89, 1.50000000000000000000e+03) (48, 3.40590531223960768514e-01) (45, -1.08938158949848862278e+00) (114, 3.87554541607759928112e+00) (75, 1.95747917948299210433e-01) (119, 1.68360191570932460348e-01) (116, 1.69137730239728023562e+00) (79, 7.20789769293678994622e-01) (91, -9.49402382384772480783e-01) (118, 3.21343284931873141019e-01) (12, -1.38672095683796431365e-01) (95, 1.29960986769785152850e-01) (130, -1.55266330077590303249e-01) (132, 6.21751110450331698210e-02) (19, 1.50000000000000000000e+03) (2, -8.29073560653674546117e-01) (51, -7.13895380422279512977e-01) (71, 3.48554859175985720654e-01) (112, 2.72856233670020431603e+00) (64, 3.42520735809463905408e-01) (131, 4.22794106587925100360e-02) (85, 9.64436692405805984230e-01) (97, 2.54912029308756782342e-01) (123, 5.59565876465841993692e-01) (72, 1.51543714918867505892e-01) (11, -1.73563504759337949857e+00) (62, 1.79289410703006801828e-01) (66, 1.85853473281644504533e-01) (141, -1.78580243645080627424e+00) (103, -2.46655586423261463658e-01) (73, 1.84983684489291005937e-01) (39, -1.36401861690998549292e+00) (16, -2.49842376661515680469e-01) (102, 3.00953491371093173612e+00) (105, -1.45951042808660780281e+00) (34, 2.74783697308582097740e-01) (110, 6.18082384099589599025e-01) (55, 7.41031837643572055541e-02) (92, -6.97444891936167543633e-01) (77, 2.13893772461454800826e-01) (129, 4.12885002019221930558e-02) (121, -8.85723273177622449914e-01) (54, -1.47450950972585967391e-02) (93, -7.84954896133723822871e-01) (8, 2.64202533482311596735e-01) (3, -1.30100640678095541558e-01) (108, -5.52157724622052703545e-02) (7, -7.49775120265902872418e-01) (136, -4.51608690354154129754e-02) (87, 3.40300213461741163368e-01) (134, 1.78581867580400094342e-01) (38, 7.84085883702107300230e-01) (35, 3.34741138166041451996e-01) (76, -3.87234349062984317680e-01) (6, -8.69211931963378009458e-02) (90, 1.50000000000000000000e+03) (36, 2.04438619184383707506e+00) (17, 1.50000000000000000000e+03) (58, 2.59164733879017561424e-01) (138, -7.17302367161364202996e-03) (80, 3.33065956263672635629e+00) (137, 7.81266511697561588656e-02) (25, 2.31279073704792476063e-01) (63, 1.18218078382763658318e+00) (60, -4.07735396149809786043e-03) (88, 1.50000000000000000000e+03) (43, -3.74906225193439690546e-01) (125, -3.66496690559380000618e-02) (98, 3.91476539531299705388e+00) (32, 1.42095698973316553193e+00) (22, 3.71791231962869606065e+00) (74, 1.72054854058944273199e-01) (26, 1.77634749584928530730e-01) (23, 4.10223885041842706300e-02) (107, 1.02878992984809847222e+00) (117, 6.19292780352621474727e-01) (69, 1.95708562007624389811e-02) (20, -6.48659288252390942020e-01) (10, 4.11593172606298740579e-01) (100, 2.98485658234472683858e+00) (142, 5.80990951589067883276e-01) (4, -3.08243994153988454254e-01) (36, -3.62995907636897097159e-01) (43, -1.01463268213313373423e+00) (17, 1.50000000000000000000e+03) (97, -2.26864817073998484287e-02) (8, 2.29710115861512992330e-01) (46, -1.81265139416749820889e-01) (98, 1.00250374657021694702e+01) (91, 1.05502563486257794345e+00) (31, -1.23366224773131749615e+00) (134, -3.73894117404396486570e-01) (16, 1.53281512680553122507e-01) (56, 2.00684561443929654345e+00) (102, 3.70766254329299327352e-01) (29, -8.36534659683454973056e-01) (23, -1.26880934603267742089e-01) (42, 2.98091574081643696792e-02) (3, -7.61239725005754125364e-02) (117, 6.38603652732954163440e+00) (127, -2.75862325179452971824e-01) (110, 4.91891313186945067226e-01) (68, -2.67489998657267524784e-01) (14, 1.60711712255621058665e-01) (80, 2.63172196366954036506e+00) (41, 8.15375086421567307760e-01) (121, 4.00232405093480458902e-01) (63, -4.17652703041438200238e-01) (90, 1.50000000000000000000e+03) (82, 2.82617569074950747421e+00) (111, 9.76322968081717146305e-01) (116, 4.39114882812348894525e-01) (118, 1.98796332531056885173e+00) (11, 2.17518539434414848177e-01) (44, 9.23722263779794161564e-01) (106, -3.10655434899657079129e-01) (52, 6.56351135259371498698e-02) (60, 4.07942120636371718945e+00) (77, 4.40957892423878505817e-01) (138, 1.22464742279972629846e-01) (93, 2.46373757799449544237e+00) (71, -1.38071090957789865961e+00) (51, 4.94247680792006260919e-02) (126, -2.80088004471027829378e-01) (20, -1.06826008356030191515e-01) (100, -6.20837845431397283846e+00) (135, -4.73272306186429736474e-01) (45, 4.21561506040829092612e-01) (81, 9.60029961755298866244e-01) (0, -3.38686897626529315186e-01) (27, -2.81138835631315142649e-01) (107, -2.08126656978568869150e+00) (124, -1.51146870626345269928e-01) (57, -5.68461019592447491799e-02) (12, 5.10832199209531379047e-01) (101, -5.98342249492734401528e-01) (99, -3.76028394074038629924e+00) (53, 6.43605576185218297702e-02) (122, -1.18305453581179054190e+00) (24, 1.93949670179500627265e-01) (7, 2.53711814602237406557e-01) (61, 1.63571739357869672116e-01) (83, 6.20798235399403974810e+00) (26, 1.05622014739750566537e-01) (85, -1.18884720011271857731e-01) (87, -1.56040792055023036511e+00) (79, 3.00399108390934355128e+00) (72, 7.09315257382681085829e-01) (96, 2.74067408057676265010e-01) (103, -8.31241185952135697157e-01) (28, 3.98565929483336744976e-01) (50, 6.19329936097387068195e-01) (95, -6.67992589795388669316e-02) (66, -7.54387857763922503596e-02) (94, 3.31583746834285097993e-01) (9, 1.95415575035562338879e-01) (113, 1.28329848738466245628e+00) (62, 8.69324391848228794633e-02) (69, 7.09092993687724243435e-02) (58, -6.20142894460965904413e-02) (47, -2.43151718556803425608e-03) (109, 3.07511260152336617091e-02) (86, -1.81560239809310419723e+00) (92, 3.69459880061278678198e+00) (73, 5.65575011021544060696e-01) (35, 9.80580555530922159946e-02) (55, 1.49078693438778581148e-01) (89, 1.50000000000000000000e+03) (54, -2.63376651771310588135e-01) (115, 2.05697356768452843667e+00) (139, -2.03136569133601202486e-01) (59, 1.69191932952888424158e-01) (2, -6.75540400828631248942e+00) (133, -5.01187041698103241671e-01) (40, -1.53901429094357333760e-01) (6, 2.66451353747543639994e-01) (65, -1.34958454733391386426e+00) (32, 2.05147360455961741410e-01) (30, -1.48197868989440117993e+00) (104, 1.34680671808626972741e-01) (142, 4.16291379266343020138e-01) (102, -4.72682068971491398113e-02) (117, -8.85048498186532389687e-02) (83, 6.71109297354542166936e-01) (77, -3.47609581148586699317e-01) (36, 1.44830575154482138478e-01) (3, -4.72532792974753867998e-01) (63, 3.71242811792718285790e-01) (58, -2.12963345371093265568e-01) (43, 1.89487988134047907751e-01) (120, -2.01058378386385835923e-02) (39, 2.08563319127989948987e-02) (101, -1.83195672276863352756e+00) (112, -4.90089754474344191371e-02) (69, -1.61403942900024244267e-01) (50, 1.13416602455889869994e+00) (21, 4.10842798279451693055e-01) (32, -5.95012573637573524699e-02) (14, 9.58996828039082177542e-02) (115, -1.74266707845552176748e-01) (28, 6.37160191045069157489e-01) (80, 8.55354204863879474807e-01) (38, -2.35033183756349739468e-01) (74, -7.36904640211196067245e-03) (71, -2.18104556934863236251e+00) (79, -4.37076705980880830804e-03) (118, -1.39787410326585037623e-01) (34, 1.41824864264494567012e-02) (18, 1.50000000000000000000e+03) (61, -1.25643542934388730004e-01) (41, -3.42735304576919294628e-02) (72, 5.45856036421559498439e-02) (54, -2.51139007731041030702e-01) (114, 3.88023206146755317292e+00) (124, -1.20242923062593237704e-01) (106, 5.74172385867259271741e-01) (85, -4.03732554787140096586e-01) (15, -6.77469997262770684543e-02) (56, -7.90819272995379879410e-02) (89, 1.50000000000000000000e+03) (123, -2.13932696240529046650e-01) (131, -2.02744361176417448034e-01) (135, -9.36086037261049802582e-02) (138, -1.18525537836425179372e-01) (57, -1.19690698932182704173e-01) (103, -1.64825469672874452831e-01) (93, 1.39571718171522363150e+00) (92, 4.38453054170976908033e-01) (0, -3.00732006591168332665e-01) (121, 3.07222172694015952313e-03) (91, 6.50625145956093775546e-01) (6, -2.04489586037500149784e-02) (2, 1.67851675036854414147e-01) (125, -2.24830683329341723953e-01) (17, 1.50000000000000000000e+03) (4, -2.59168403761152965625e-01) (1, -1.07934672636501094445e+00) (51, 4.43470365552062484316e-02) (136, -7.82652310502416126425e-01) (88, 1.50000000000000000000e+03) (49, -4.59952524758814929040e-01) (98, 3.36134811443749281779e+00) (128, -2.88290514378140461105e-01) (26, -1.82542149738613268539e-01) (70, -1.97863646533274872841e-01) (99, -1.14944335319441326426e+00) (16, 1.04034590850027738873e-01) (76, 2.99978499519528263306e-01) (37, 1.06240898524070526143e+00) (64, 5.65468260139901229833e-02) (90, 1.50000000000000000000e+03) (47, 2.77597625517161994413e-01) (65, -3.80732697751209533954e-02) (113, -1.53697876534958144390e+00) (68, -2.97866461139712046524e-01) (27, -2.33633021760126208255e-01) (119, 6.36779169344136586339e-02) (134, 3.77540472953173444903e-01) (137, -1.60290818987436550769e-01) (59, 9.82352171883462271795e-02) (31, -2.05515253756385476436e+01) (130, -1.24518191654916510203e-01) (11, -5.02774243776078599844e-01) (100, 4.86081811390067897172e-01) (127, -1.51886827862965895219e-01) (42, 7.50215340767750905882e-03) (67, -5.23810497338086378249e-01) (48, 3.66184906019101086283e-02) (44, 1.91116485626375391671e-02) (110, -1.37667562270836402183e-01) (94, -1.22056381229342772454e-01) (29, 3.73517691274979704574e-02) (25, -3.67669231611248203961e-01) (73, 1.76073730738650797989e-02) (10, 4.29308546291333081868e-01) (81, 5.38729653433697497356e-01) (141, -5.53718064729672582169e-02) (139, -1.69830105247137708169e-01) (95, -3.38969020974435264471e-01) (129, 1.28979101757726744709e-02) (142, 4.15758688256363362346e-01) (1, 2.33128460881710103392e-01) (68, -2.00940791985722316815e-01) (70, 2.26720030776956071872e-01) (12, -7.81666935357139158747e-01) (94, -2.43433611333850302705e-01) (103, 6.44712507322067374105e+00) (101, -2.33635611655524844110e+00) (93, -7.96087780427483626688e-01) (95, -8.47354085328737710592e-02) (14, 9.55524992768365888374e-01) (91, -3.37681328387860302254e-01) (60, 3.59556243071558156998e+00) (109, 7.53505165147689170979e-01) (138, -5.31274712008570626498e-02) (49, -1.37161366589325955934e-01) (66, -4.76934737359220706221e-01) (83, -8.97177599341337450589e-01) (54, -2.27880402126154707476e-01) (11, 4.32535107867285439909e+00) (77, -7.98757245497250523147e-02) (87, -2.44560435113271967822e+00) (137, -2.02740095977207601674e-01) (90, 1.50000000000000000000e+03) (96, 1.55529523603778446761e-01) (69, 2.04797109867203407790e-03) (131, 4.19356912091467137760e-01) (45, 5.30560310260249412551e-01) (52, 2.10559206813779198342e+00) (97, -5.71528890420414728557e-02) (71, -5.89942376166601722964e-01) (108, -2.72559972075530065894e-01) (58, -2.30579488439801388866e-01) (10, -2.45558328702845507507e+00) (86, 4.19812603341958023861e+00) (32, 4.32282688287638106051e-01) (126, -1.49558336094751109790e-01) (79, -1.17125426151684020049e+00) (118, 6.94998554837967935649e-02) (82, -2.80892161344768709341e+00) (62, -2.83050532285760991780e-01) (7, 4.51538304644237276086e-02) (112, -1.75317729627199869746e+00) (57, -1.05434483278111112980e-01) (64, 1.58127641189550649514e+00) (122, 1.02247566595577293880e-01) (115, -1.19052488761118380189e+00) (72, -4.20381428580013372098e-01) (29, 1.11611546740786415910e+00) (28, 8.61914588010706528287e-02) (43, -8.04600599356754875302e-01) (125, -2.82509771755066807497e-01) (22, -1.75235492996589869996e+00) (27, 7.89721764695801642375e+00) (135, -4.57714507372440210231e-02) (16, -1.88925375032563303002e+00) (141, -3.63601981277728858455e-01) (110, 1.21178130123330318746e+00) (21, -3.81535809514809587384e+00) (132, -1.19098770428500988494e+00) (18, 1.50000000000000000000e+03) (128, -2.40149401600686013269e-01) (121, 1.30383178566386391528e-02) (15, 3.85432332363045970780e-01) (20, 6.03419653486851004232e-01) (41, -2.48306028673187872968e+00) (24, -2.25503952528921969289e-01) (63, -1.74305483431717345155e+00) (119, 1.37135068282632610615e-01) (34, -5.18118157643040144755e-01) (89, 1.50000000000000000000e+03) (17, 1.50000000000000000000e+03) (25, -4.95581121771410462729e-03) (98, -4.58806141973357739516e+00) (85, -1.38744643080084339992e+00) (100, 1.03243496585457145143e-01) (75, 2.61865545647119932204e-02) (139, 6.98300689629742926678e-02) (38, -4.14623756133389309575e-01) (0, -6.74672903858499051211e+00) (26, -2.32061038029785809966e-01) (140, -3.36992459056349502600e-01) (9, 4.82012581159513153750e+00) (56, 1.43430796020412171243e-01) (76, 1.52811659166110391794e+00) (102, -2.88596066363789605091e+00) (5, 3.05684632127688371561e-01) (134, -1.38879757770416989437e+00) (88, 1.50000000000000000000e+03) (46, 1.67075669556012884609e-01) (39, 1.06254619725044596734e+00) (92, -5.35983604843946470631e-01) (23, 1.41233550574760446938e-01) (2, 2.14128132038040486229e-01) (37, 4.48500431779294495005e-01) (116, -7.02216430024550808398e-01) (136, 1.57228729871418532182e-01) (61, -5.00334749804582812338e-01) (40, 2.12840121434096163355e+00) (31, 2.85492137057556771840e-01) (59, 9.00292679485089064606e-01) (142, -5.83782675530826411503e-01) (42, -1.28689972443267564017e+00) (41, -1.21189071753446842017e-01) (53, 1.30429650162579946482e+00) (62, 3.40391565885077351794e-01) (27, 6.76932214664083042877e-01) (16, -2.62163026055148351556e-01) (5, 7.69144108035019202774e-01) (105, 4.08127776890270776988e+00) (101, 2.36486178526324009042e+00) (13, 3.35027707165637078646e+00) (117, 3.05950999595003159115e+00) (66, 1.25059081345285205700e+00) (34, 3.40655187657766977960e-01) (111, 5.19707854910278488347e-01) (77, 3.24871088564827548151e-01) (79, 3.73361254099318418120e-01) (38, 3.73560042961607674528e+00) (83, 6.94383343638088623706e-02) (110, 7.94839617087442912302e-02) (9, 8.74509224176077237800e-01) (39, -4.91746384675181058554e-01) (104, 3.14013407617183604170e-01) (35, 4.11910224349337017458e+00) (136, 8.63957476497146714678e-01) (124, 1.08805972768000214224e+00) (4, 7.02074162752182928671e-01) (61, 3.31142487528766127358e-01) (99, 1.51556787737442144604e+00) (14, -2.80654143261651445318e-01) (54, 9.74673519400268140167e-01) (102, 3.10696348199535399282e-01) (93, 3.18936918855773487991e+00) (132, 1.14508530264999155435e+01) (51, 1.07859030268342093173e+00) (52, 4.05288406369316345224e-01) (10, -1.61976228742945949080e+00) (112, -1.95502434943252367816e+00) (47, 2.80281591703686938644e+00) (106, -9.39530101909047510311e-01) (95, 1.20580570402059072954e+00) (140, 5.66383573234730763879e-01) (76, -9.14548205780090356365e-02) (82, 2.00925583918357109070e+00) (119, -1.43102272295909447308e+01) (29, -2.90296837149344844065e+00) (129, 2.16904243554787962145e-01) (122, 2.63258997030395924810e+00) (85, 3.05274017883807702312e-01) (37, 1.06797691838630359751e-01) (3, 2.61676038670537414177e+00) (98, 1.63322771819273326876e+00) (2, 6.58529125220421729381e-01) (138, 9.87166783909913858608e-01) (40, 4.42522247633923171417e-01) (116, -3.82640030282146492713e-01) (114, 9.19059077679023950225e-01) (50, 8.59698865314117877112e-01) (58, 9.27497977107576643263e-01) (81, 1.22420442544940305529e-01) (25, 1.25403765143217660327e-01) (12, 7.74777856405823417418e-01) (108, 1.50232794910112765763e+00) (131, 4.98567526482963652157e-01) (133, -1.57016152201740455396e+00) (78, -6.88807936629756561997e-02) (123, 1.02340927377062236303e+01) (45, -1.05441148369070747393e+00) (130, 3.18470860375074160675e-01) (121, 6.38664548069731496938e-01) (64, 9.32392945758906321885e+00) (28, 5.94706953205329558187e+00) (46, 6.65872553584216653189e-02) (126, 1.01860629376381162103e+00) (48, 9.93892667259089757081e-01) (30, 2.77489929149257941177e+00) (125, 8.88567170059795241599e-01) (68, 1.19782996278082198849e+00) (94, 2.78735663571157088469e-01) (103, 1.58688519094594293612e+00) (43, 6.67068239592681022643e-01) (75, 2.42932880307733328751e-01) (24, 4.15517801291246990925e-01) (32, 2.96828582878037150472e-01) (84, -7.81810139022472705417e-02) (69, 2.27108106678685583990e-01) (1, 1.02064285356469532928e+01) (70, -4.61756261703414466746e-02) (91, 3.20663014552715175398e-01) (109, -2.13936023666640151575e+00) (6, -1.95087245170705497754e-01) (89, 1.50000000000000000000e+03) (67, 3.30515043224995741511e+00) (71, 8.05426839137054928486e-01) (120, 9.65693322240932738865e-01) (33, -5.54543923136316330158e+00) (96, 2.09956451398265991903e-01) (100, -1.16832170537326640591e+00) (20, 7.37935827224031615224e-01) (63, -1.81112662967071430531e-01) (142, 1.54567097723318280789e-01) (8, 1.41268872374175347151e-01) (11, 2.78083681307889518664e-01) (76, -3.23297634414807077974e-01) (90, 1.50000000000000000000e+03) (110, 4.37377822002022076386e-01) (108, -3.32099134591616329537e-01) (65, 1.42702373748679819943e-02) (49, -1.54050711091786557416e-01) (66, -2.22627240010815297122e-01) (114, -7.78596341052044005338e-01) (102, -7.16483629419714884712e-01) (2, -1.77186196824890840329e-02) (36, 2.77460566676155639954e+00) (17, 1.50000000000000000000e+03) (6, 1.25887651141195516802e-01) (122, 1.19897122961544103092e-01) (28, -1.77849128331171546513e+00) (111, 4.86714950834513521150e-02) (101, 4.28047403524427161337e-01) (124, 4.64427556457723475503e-02) (46, 6.78559570919615995255e-02) (9, 2.79899759119119961870e-01) (53, -5.98513131570230644263e-02) (84, -4.91958612936639394508e-01) (38, -2.48634295638342550649e-01) (67, 8.05792670082003809062e-02) (68, 1.03844681497675065535e-02) (138, -1.26481252293869583792e-01) (69, -3.64970760915285952902e-03) (18, 1.50000000000000000000e+03) (57, -1.52158715740228489555e-01) (50, -3.46143870814873189090e-01) (72, -1.83050966880335647113e-01) (105, 4.83420203104822365781e-02) 