FANN_FLO_2.1
num_layers=5
learning_rate=0.700000
connection_rate=0.500000
network_type=0
learning_momentum=0.000000
training_algorithm=2
train_error_function=1
train_stop_function=0
cascade_output_change_fraction=0.010000
quickprop_decay=-0.000100
quickprop_mu=1.750000
rprop_increase_factor=1.225000
rprop_decrease_factor=0.325000
rprop_delta_min=-10.000000
rprop_delta_max=10.000000
rprop_delta_zero=0.100000
cascade_output_stagnation_epochs=12
cascade_candidate_change_fraction=0.010000
cascade_candidate_stagnation_epochs=12
cascade_max_out_epochs=150
cascade_max_cand_epochs=150
cascade_num_candidate_groups=2
bit_fail_limit=1.00000000000000005551e-01
cascade_candidate_limit=1.00000000000000000000e+03
cascade_weight_multiplier=4.00000000000000022204e-01
cascade_activation_functions_count=10
cascade_activation_functions=3 5 7 8 10 11 14 15 16 17 
cascade_activation_steepnesses_count=4
cascade_activation_steepnesses=2.50000000000000000000e-01 5.00000000000000000000e-01 7.50000000000000000000e-01 1.00000000000000000000e+00 
layer_sizes=143 22 23 24 4 
scale_included=0
neurons (num_inputs, activation_function, activation_steepness)=(0, 0, 0.00000000000000000000e+00) (0, 0, 0.00000000000000000000e+00) (0, 0, 0.00000000000000000000e+00) (0, 0, 0.00000000000000000000e+00) (0, 0, 0.00000000000000000000e+00) (0, 0, 0.00000000000000000000e+00) (0, 0, 0.00000000000000000000e+00) (0, 0, 0.00000000000000000000e+00) (0, 0, 0.00000000000000000000e+00) (0, 0, 0.00000000000000000000e+00) (0, 0, 0.00000000000000000000e+00) (0, 0, 0.00000000000000000000e+00) (0, 0, 0.00000000000000000000e+00) (0, 0, 0.00000000000000000000e+00) (0, 0, 0.00000000000000000000e+00) (0, 0, 0.00000000000000000000e+00) (0, 0, 0.00000000000000000000e+00) (0, 0, 0.00000000000000000000e+00) (0, 0, 0.00000000000000000000e+00) (0, 0, 0.00000000000000000000e+00) (0, 0, 0.00000000000000000000e+00) (0, 0, 0.00000000000000000000e+00) (0, 0, 0.00000000000000000000e+00) (0, 0, 0.00000000000000000000e+00) (0, 0, 0.00000000000000000000e+00) (0, 0, 0.00000000000000000000e+00) (0, 0, 0.00000000000000000000e+00) (0, 0, 0.00000000000000000000e+00) (0, 0, 0.00000000000000000000e+00) (0, 0, 0.00000000000000000000e+00) (0, 0, 0.00000000000000000000e+00) (0, 0, 0.00000000000000000000e+00) (0, 0, 0.00000000000000000000e+00) (0, 0, 0.00000000000000000000e+00) (0, 0, 0.00000000000000000000e+00) (0, 0, 0.00000000000000000000e+00) (0, 0, 0.00000000000000000000e+00) (0, 0, 0.00000000000000000000e+00) (0, 0, 0.00000000000000000000e+00) (0, 0, 0.00000000000000000000e+00) (0, 0, 0.00000000000000000000e+00) (0, 0, 0.00000000000000000000e+00) (0, 0, 0.00000000000000000000e+00) (0, 0, 0.00000000000000000000e+00) (0, 0, 0.00000000000000000000e+00) (0, 0, 0.00000000000000000000e+00) (0, 0, 0.00000000000000000000e+00) (0, 0, 0.00000000000000000000e+00) (0, 0, 0.00000000000000000000e+00) (0, 0, 0.00000000000000000000e+00) (0, 0, 0.00000000000000000000e+00) (0, 0, 0.00000000000000000000e+00) (0, 0, 0.00000000000000000000e+00) (0, 0, 0.00000000000000000000e+00) (0, 0, 0.00000000000000000000e+00) (0, 0, 0.00000000000000000000e+00) (0, 0, 0.00000000000000000000e+00) (0, 0, 0.00000000000000000000e+00) (0, 0, 0.00000000000000000000e+00) (0, 0, 0.00000000000000000000e+00) (0, 0, 0.00000000000000000000e+00) (0, 0, 0.00000000000000000000e+00) (0, 0, 0.00000000000000000000e+00) (0, 0, 0.00000000000000000000e+00) (0, 0, 0.00000000000000000000e+00) (0, 0, 0.00000000000000000000e+00) (0, 0, 0.00000000000000000000e+00) (0, 0, 0.00000000000000000000e+00) (0, 0, 0.00000000000000000000e+00) (0, 0, 0.00000000000000000000e+00) (0, 0, 0.00000000000000000000e+00) (0, 0, 0.00000000000000000000e+00) (0, 0, 0.00000000000000000000e+00) (0, 0, 0.00000000000000000000e+00) (0, 0, 0.00000000000000000000e+00) (0, 0, 0.00000000000000000000e+00) (0, 0, 0.00000000000000000000e+00) (0, 0, 0.00000000000000000000e+00) (0, 0, 0.00000000000000000000e+00) (0, 0, 0.00000000000000000000e+00) (0, 0, 0.00000000000000000000e+00) (0, 0, 0.00000000000000000000e+00) (0, 0, 0.00000000000000000000e+00) (0, 0, 0.00000000000000000000e+00) (0, 0, 0.00000000000000000000e+00) (0, 0, 0.00000000000000000000e+00) (0, 0, 0.00000000000000000000e+00) (0, 0, 0.00000000000000000000e+00) (0, 0, 0.00000000000000000000e+00) (0, 0, 0.00000000000000000000e+00) (0, 0, 0.00000000000000000000e+00) (0, 0, 0.00000000000000000000e+00) (0, 0, 0.00000000000000000000e+00) (0, 0, 0.00000000000000000000e+00) (0, 0, 0.00000000000000000000e+00) (0, 0, 0.00000000000000000000e+00) (0, 0, 0.00000000000000000000e+00) (0, 0, 0.00000000000000000000e+00) (0, 0, 0.00000000000000000000e+00) (0, 0, 0.00000000000000000000e+00) (0, 0, 0.00000000000000000000e+00) (0, 0, 0.00000000000000000000e+00) (0, 0, 0.00000000000000000000e+00) (0, 0, 0.00000000000000000000e+00) (0, 0, 0.00000000000000000000e+00) (0, 0, 0.00000000000000000000e+00) (0, 0, 0.00000000000000000000e+00) (0, 0, 0.00000000000000000000e+00) (0, 0, 0.00000000000000000000e+00) (0, 0, 0.00000000000000000000e+00) (0, 0, 0.00000000000000000000e+00) (0, 0, 0.00000000000000000000e+00) (0, 0, 0.00000000000000000000e+00) (0, 0, 0.00000000000000000000e+00) (0, 0, 0.00000000000000000000e+00) (0, 0, 0.00000000000000000000e+00) (0, 0, 0.00000000000000000000e+00) (0, 0, 0.00000000000000000000e+00) (0, 0, 0.00000000000000000000e+00) (0, 0, 0.00000000000000000000e+00) (0, 0, 0.00000000000000000000e+00) (0, 0, 0.00000000000000000000e+00) (0, 0, 0.00000000000000000000e+00) (0, 0, 0.00000000000000000000e+00) (0, 0, 0.00000000000000000000e+00) (0, 0, 0.00000000000000000000e+00) (0, 0, 0.00000000000000000000e+00) (0, 0, 0.00000000000000000000e+00) (0, 0, 0.00000000000000000000e+00) (0, 0, 0.00000000000000000000e+00) (0, 0, 0.00000000000000000000e+00) (0, 0, 0.00000000000000000000e+00) (0, 0, 0.00000000000000000000e+00) (0, 0, 0.00000000000000000000e+00) (0, 0, 0.00000000000000000000e+00) (0, 0, 0.00000000000000000000e+00) (0, 0, 0.00000000000000000000e+00) (0, 0, 0.00000000000000000000e+00) (0, 0, 0.00000000000000000000e+00) (0, 0, 0.00000000000000000000e+00) (0, 0, 0.00000000000000000000e+00) (0, 0, 0.00000000000000000000e+00) (0, 0, 0.00000000000000000000e+00) (72, 5, 5.00000000000000000000e-01) (72, 5, 5.00000000000000000000e-01) (72, 5, 5.00000000000000000000e-01) (72, 5, 5.00000000000000000000e-01) (72, 5, 5.00000000000000000000e-01) (72, 5, 5.00000000000000000000e-01) (72, 5, 5.00000000000000000000e-01) (72, 5, 5.00000000000000000000e-01) (72, 5, 5.00000000000000000000e-01) (72, 5, 5.00000000000000000000e-01) (72, 5, 5.00000000000000000000e-01) (72, 5, 5.00000000000000000000e-01) (72, 5, 5.00000000000000000000e-01) (72, 5, 5.00000000000000000000e-01) (72, 5, 5.00000000000000000000e-01) (72, 5, 5.00000000000000000000e-01) (72, 5, 5.00000000000000000000e-01) (72, 5, 5.00000000000000000000e-01) (72, 5, 5.00000000000000000000e-01) (72, 5, 5.00000000000000000000e-01) (72, 5, 5.00000000000000000000e-01) (0, 5, 0.00000000000000000000e+00) (11, 5, 5.00000000000000000000e-01) (12, 5, 5.00000000000000000000e-01) (11, 5, 5.00000000000000000000e-01) (12, 5, 5.00000000000000000000e-01) (11, 5, 5.00000000000000000000e-01) (12, 5, 5.00000000000000000000e-01) (11, 5, 5.00000000000000000000e-01) (12, 5, 5.00000000000000000000e-01) (11, 5, 5.00000000000000000000e-01) (12, 5, 5.00000000000000000000e-01) (11, 5, 5.00000000000000000000e-01) (12, 5, 5.00000000000000000000e-01) (11, 5, 5.00000000000000000000e-01) (12, 5, 5.00000000000000000000e-01) (11, 5, 5.00000000000000000000e-01) (12, 5, 5.00000000000000000000e-01) (11, 5, 5.00000000000000000000e-01) (12, 5, 5.00000000000000000000e-01) (11, 5, 5.00000000000000000000e-01) (12, 5, 5.00000000000000000000e-01) (11, 5, 5.00000000000000000000e-01) (12, 5, 5.00000000000000000000e-01) (0, 5, 0.00000000000000000000e+00) (12, 5, 5.00000000000000000000e-01) (12, 5, 5.00000000000000000000e-01) (12, 5, 5.00000000000000000000e-01) (12, 5, 5.00000000000000000000e-01) (12, 5, 5.00000000000000000000e-01) (12, 5, 5.00000000000000000000e-01) (12, 5, 5.00000000000000000000e-01) (12, 5, 5.00000000000000000000e-01) (12, 5, 5.00000000000000000000e-01) (12, 5, 5.00000000000000000000e-01) (12, 5, 5.00000000000000000000e-01) (12, 5, 5.00000000000000000000e-01) (12, 5, 5.00000000000000000000e-01) (12, 5, 5.00000000000000000000e-01) (12, 5, 5.00000000000000000000e-01) (12, 5, 5.00000000000000000000e-01) (12, 5, 5.00000000000000000000e-01) (12, 5, 5.00000000000000000000e-01) (12, 5, 5.00000000000000000000e-01) (12, 5, 5.00000000000000000000e-01) (12, 5, 5.00000000000000000000e-01) (12, 5, 5.00000000000000000000e-01) (12, 5, 5.00000000000000000000e-01) (0, 5, 0.00000000000000000000e+00) (12, 5, 5.00000000000000000000e-01) (13, 5, 5.00000000000000000000e-01) (13, 5, 5.00000000000000000000e-01) (0, 5, 0.00000000000000000000e+00) 
connections (connected_to_neuron, weight)=(142, 7.94664365970162211994e-01) (81, -1.85892314762517996130e+00) (116, 1.21423188089505429410e+00) (16, 5.48295080964385217470e+00) (138, 5.12048136956439248202e-01) (52, -2.55668369139173623505e-01) (91, 8.62318051492330650554e-01) (14, 1.22749526715712287128e+00) (33, 3.38426789054869114892e+00) (100, -3.11744884857228843345e+00) (94, 8.15987844127711525744e-01) (77, 1.04629895222951435629e-01) (140, -1.33507970493696803693e+00) (67, 3.29522205685271962761e-01) (42, -3.04778843819080491606e-01) (112, -1.19247481555886691851e+00) (136, -2.03475092098682891484e-01) (101, -6.20631240127668082351e+00) (39, -1.41886035107909713737e+00) (137, -3.13531547123161724588e-01) (49, -3.19779945096828999151e-01) (41, 8.92799289336790979910e-01) (97, 1.04457220011444515961e+01) (98, 5.02562698381893202537e+00) (124, -3.61199556379112274307e-01) (47, 3.51195772314038569262e-03) (108, -2.42792811373484207493e+00) (114, 3.35270020175758620695e+00) (106, -1.48430321986158467867e-02) (17, 1.50000000000000000000e+03) (131, -3.15393680923505892455e-01) (71, -7.33548775127317664868e+00) (105, 9.43269863967301391838e-01) (27, -1.64483995224069512453e+00) (37, 1.47814177785742284499e+00) (31, -2.84304275302003759407e+01) (5, 1.59404981978474968862e-01) (10, 4.31765810446046138793e+00) (55, -2.94781902471421997092e-01) (102, -1.07415400339648539618e-01) (107, 2.93854781350784376170e-02) (28, 2.42355865618048271770e+00) (99, -3.40554835276051059978e+00) (103, -2.10849980407909365354e+00) (25, 2.33254094562049107964e+00) (11, -4.13403895323172054788e+00) (7, -2.29563632541182371938e+00) (115, -1.54133065689111825591e+00) (134, -1.12598905335741195088e+00) (111, 2.09328415527628308723e+00) (6, -3.47817861279104745265e-01) (61, -6.34076421253375155374e-01) (89, 1.50000000000000000000e+03) (62, -2.08920696606448935695e-01) (32, -6.12333707678564653776e-01) (57, -5.34541613974372387119e-01) (82, -1.36910485717419860840e+00) (130, -1.77109130513591284117e-01) (48, -6.01232716877056372340e-01) (63, 1.15142788643004356786e+00) (126, -1.62286937950560261612e+00) (86, 1.90095387167159540764e-01) (139, -3.58500870454049713754e-01) (66, -4.20280196025227947842e+00) (12, 5.82199946151669922578e-01) (50, -3.39610557936637025289e-01) (18, 1.50000000000000000000e+03) (96, 2.00171296273654958364e-01) (72, 1.90286763030498795590e-01) (70, -4.69785413251192329742e-01) (43, 9.35555459964519053884e-01) (85, 2.20210407284385734084e-01) (142, 2.11364526043653855325e-01) (40, -1.85901339112864727454e+00) (67, -2.00352981030636190241e+00) (70, 1.66537889054359289354e+00) (77, 8.31829864600014845522e-01) (99, 8.33437912654044321670e-01) (83, -1.38332025916841594437e+00) (96, -1.41422656401845658891e+00) (55, -1.37646940109556383675e-02) (8, -3.21907798890735730168e-01) (21, -9.78435251491831081694e-01) (137, -1.48071921922601185129e-01) (45, 3.77988581623051134173e+00) (113, -1.80320476233481841177e+00) (62, 1.58248318519010422456e+00) (17, 1.50000000000000000000e+03) (133, 8.27096364508578596464e-01) (72, -7.37763897633249321473e+00) (1, 2.10784844273274651894e-01) (74, -2.37683121723110257761e+00) (13, 1.20085021057118046528e+00) (84, 2.68612840996200485932e+00) (6, -2.22951248531860368729e+00) (127, -1.64872500174326808153e-01) (39, -5.00786500403881396082e-01) (108, -4.73975277147328544203e+00) (25, 1.85460506443138412047e-01) (138, -8.69255326113032111834e+00) (19, 1.50000000000000000000e+03) (97, 7.65906408240195346604e-02) (57, -2.02578392475341573231e+00) (76, -1.37214126955186110912e+00) (29, 1.58882462588298545292e+00) (16, 1.18193347877252130651e+00) (118, 5.73842709565426156715e-01) (139, 7.91137165807544590068e-02) (125, -2.80538888768858164779e-02) (135, -2.35936646263643166194e-03) (105, 2.82183210746288770654e-01) (116, -1.48257044937732626079e-03) (44, 1.17738363583334759710e+00) (32, -2.24067186506816966585e+01) (43, 2.64341475949397031187e+00) (124, -9.26944924796109792631e-01) (61, 7.85508416515082963372e-01) (120, 7.30627598686132029293e-01) (114, -1.10439097451737211486e+00) (107, -7.22618567483886420355e-01) (89, 1.50000000000000000000e+03) (88, 1.50000000000000000000e+03) (38, 6.28915203086945417965e+00) (35, 6.81994719257063564122e-01) (95, 2.05403177631426590855e-02) (48, 3.20933019701058119821e+00) (54, -5.39496129506292429467e-02) (140, 2.53564484898817221747e-01) (2, 1.01349532603355441118e-01) (90, 1.50000000000000000000e+03) (10, 2.66001312856929583717e+00) (111, 2.06594770733135479901e+00) (53, -2.02816378565947794121e-02) (80, -9.26247534327805821519e-01) (136, 6.48153219685940890082e-02) (66, 7.71085723226488162219e-01) (100, 6.78829140099544048326e+00) (110, 8.07798920730792291423e-01) (106, -9.44582602655084757615e-01) (41, 1.99807899990212378682e+00) (28, -4.44333856450734288046e+00) (26, -2.08442146452320642425e+00) (23, 1.42022100093461611792e-01) (56, 1.46523413392988605120e-01) (142, 6.49979925010406245356e-01) (8, 1.65022512286403966186e-01) (26, -3.64282516511799991932e-01) (37, -3.47796910937161141142e-01) (38, -2.61326701594846888543e-01) (45, -7.49043235679110575020e-01) (80, 9.71963488521896623595e-01) (86, 5.01951085767789795256e-01) (112, 1.02204545399404000960e+00) (127, -3.66025651133641494184e-01) (43, -3.53718493372140285746e-01) (75, -2.05120059955838984767e-01) (117, -2.01075481150392171292e-01) (51, -2.38814158787448022059e-01) (41, 5.00429276615264373440e-01) (35, -3.45542861633816589251e-01) (69, -3.39695740124306755359e-01) (118, 6.07434740953714680245e+00) (124, -3.34199052573902366525e-01) (6, -9.22955862291317125079e-02) (30, -2.75651211386741801235e+00) (9, -4.52815850630898741880e-01) (44, -2.17842338197911572495e-01) (81, 1.37969666968197945955e+00) (79, 1.32021308568424635896e-03) (70, -3.26622607676919862740e-01) (108, -2.72824754111417155933e-01) (137, 6.01604839583039341377e-01) (66, -7.34002504933995991721e-01) (87, -6.98944601977716128971e-01) (57, -3.97482927301973876233e-01) (34, -4.46300026600122579090e-01) (13, -1.95284949255617590325e+00) (20, 2.04641008924919182155e-01) (25, -1.96804600338775648183e+00) (49, -3.09928606515248783460e-01) (74, 1.54998852100294903789e-01) (101, -4.12469465802898838103e-01) (94, 2.62733705979571130484e-01) (5, -6.29480154908369282651e-01) (125, -3.34937340058903854079e-01) (48, 2.43474038210051313413e-01) (14, 1.94270797832677089012e-01) (23, -3.65377335959699989232e+00) (116, 1.41395136302882695745e+00) (114, 4.91543909720894234283e-01) (123, 2.46739504335406412139e+00) (0, 2.80335857454364090202e+00) (61, -3.01414384842652038898e-01) (71, 3.07248512778987814542e+00) (88, 1.50000000000000000000e+03) (1, -9.04615574714515524590e+00) (111, -1.36969547886869075226e-01) (54, -3.15880129205820647798e-01) (128, -3.41282424707875065018e-01) (103, 1.06696059907282547741e+00) (63, 1.68566984739888670042e+00) (27, 3.49166178273463012616e+00) (17, 1.50000000000000000000e+03) (55, -3.73254661095496376166e-01) (113, 7.50676567960077534281e-01) (105, -2.41647789403131341146e+00) (134, -1.84503409173415944267e+00) (82, -1.53580574961819582569e+00) (32, -3.51773609751344917829e-01) (56, -2.82284255439727083115e+00) (92, -4.32011688912828040188e-01) (65, -4.32283206246523832306e-01) (130, -3.84605893615362959270e-01) (52, 3.02080736638534630423e-01) (4, -3.38548455424101057964e-01) (12, 2.50523350336689043516e-01) (142, 5.06576186388783766823e-01) (4, -2.72252717780912867340e-01) (9, 2.22836125761742387397e+00) (10, 1.71648162821063920980e+00) (24, 3.13956153711205399048e+00) (30, -6.61399862341286781664e-01) (35, -1.72764296675297690520e-01) (48, 1.34537090168549378078e+00) (74, 4.65908623288602186108e+00) (83, 1.92779765502036237734e-01) (115, -7.64103846899622379807e-02) (124, -2.04991159964599378718e-01) (67, -4.25968921804357136818e-01) (123, -4.49722561634090245430e-01) (18, 1.50000000000000000000e+03) (116, -2.19489192811527067395e-01) (128, -1.71023422407011210788e-01) (140, 6.31981496350747407043e-01) (19, 1.50000000000000000000e+03) (5, 9.23837099772902015093e-02) (96, 2.29804215761961860842e-01) (85, 2.53814481518979728758e-01) (12, -1.77645038299616891964e-01) (54, -3.41381635961153451220e-01) (95, -2.12530555247714025846e-01) (36, -2.03257045959560567194e-01) (133, 2.45959398864873834967e-01) (88, 1.50000000000000000000e+03) (108, -8.09918063881504696200e-02) (139, -1.26290406189701082118e-01) (15, 4.69292334446760217581e-01) (105, 2.44299348681003475336e-01) (53, -2.31585764146048589396e-01) (107, -4.00459018138078159943e-01) (23, -3.47991217669737895601e-01) (7, -1.91178095900558592257e-01) (103, -3.80277461033451336103e-01) (3, -3.75483346536777395919e-01) (98, -8.18432911131068176191e-03) (121, 3.85504585104107955207e-01) (75, 1.08755070637357120766e+00) (37, -4.97817713507113734916e-01) (14, 3.04936591505034104710e-01) (120, 8.19003997556291274407e-01) (62, -1.65703959588283447624e-02) (29, -4.78598937960181602946e-01) (22, 4.87203774633788666559e-01) (80, -9.39563325880131916534e-01) (101, -6.76504666865478609949e-01) (102, 1.94710300163456473399e-01) (93, 9.25063371354077346176e-01) (59, 6.43259823603037905748e-01) (122, -3.78402551632001094006e-01) (2, -7.35397738087118302275e+00) (91, 1.79827552429013326485e-01) (45, -2.58631721599437203185e-01) (31, -5.24890169280919938188e+00) (84, 1.56810193499886252333e+00) (50, -3.35822862453354353818e-01) (73, 5.22680556785850902735e-01) (33, 2.71720390921391663497e+00) (68, -2.54448742010675466041e-01) (25, 4.11541597113701029809e-01) (63, -2.18474560814807261533e-01) (57, -2.82378848184268560484e-01) (16, 3.38887140151557131329e-01) (6, 4.28294965928448304049e-02) (87, 3.10681770508174859291e-01) (46, -2.58564691383384670509e-01) (112, -3.58652520116326034572e-01) (129, -1.49339093271189715662e-01) (113, 4.01184089635774399074e-01) (142, 8.76229290666217242034e-02) (95, 9.61219764118172032008e-02) (126, 2.39582184836191411370e-02) (141, 7.70984113830005673984e-02) (60, 4.28357533985623206707e-01) (66, 1.43194221669328158875e-01) (99, 4.65458919704001827800e-01) (108, 3.24961693903861537081e-01) (139, -1.10756014802659952245e-01) (77, 7.36277027657597726851e-01) (5, -7.50464103169080076761e-02) (26, -1.02151185505068520243e-01) (138, 1.17687941211923080553e-01) (101, 8.92841539139155454530e-02) (63, 1.17060054154282680572e-01) (53, -1.61850012762129902288e-01) (81, 1.28117806223638197594e+00) (67, -9.78522742034749343221e-02) (134, 5.20341060543799582838e-01) (83, 1.63894398835373433787e-01) (137, -1.69402399894356209265e-01) (120, 6.97448497870828409972e-01) (44, 2.79635171649144920192e-01) (133, 4.53261899023125858221e-01) (32, -1.62248110431779113405e-01) (73, -1.22005881132291993385e-01) (7, 5.82500712549635091264e-01) (30, 6.77809824358445389691e-01) (0, 5.14771783728811382908e-01) (93, 1.12720023151082338053e+00) (61, -1.46697522332379287624e-01) (128, -3.24936208770994910955e-03) (70, -1.34675967889417935730e-01) (28, -2.88252756513015517825e-01) (20, -3.12941616695512792035e-01) (8, -6.49618920354076145873e-02) (52, 1.17003504912805575411e-01) (106, -3.23357647769662748249e-01) (36, 4.04905800526613013357e-01) (45, 5.58156678742195100362e-01) (50, -3.09222351676347595451e-01) (88, 1.50000000000000000000e+03) (24, -4.16242255771769736894e-03) (132, 4.88638563369214573573e-01) (123, -2.14607515585831409854e-01) (90, 1.50000000000000000000e+03) (55, 1.25033549543071016014e-02) (39, -8.35748339801362649659e-01) (10, -5.83738708077918500017e-01) (69, 2.78669216707501951960e-03) (23, 3.33207811563359157514e-01) (75, -1.54147950013324402940e-01) (46, -1.07463129858955772078e-01) (78, 1.22303158119534016723e-01) (116, -1.40728505263652704099e-02) (3, 1.63171792942783083769e-01) (15, 1.11330885421479064412e-01) (96, -9.62175437732735172602e-02) (136, -1.68423954413825377463e-01) (94, -2.69510019323398708480e+00) (64, 3.38088008668634754095e-01) (58, 7.41122292982705349607e-02) (82, -1.56287426504544996186e-01) (111, 1.90803229482719272081e-01) (86, -1.40867656180998945814e-01) (9, 1.18059607928698095947e+00) (87, 6.76708094619713040885e-01) (38, -4.90321741212977196822e-02) (112, 1.37874136867314756039e-01) (17, 1.50000000000000000000e+03) (48, 1.45480585351600161248e-01) (97, 7.96691673760253622587e-04) (142, 6.75435633200798468678e-01) (12, -1.20722997361324468901e-01) (66, -6.66251571802185638127e-01) (101, -6.20117871666603193148e+00) (122, -2.64375294717837827640e-01) (132, -3.91830156922526473551e+00) (135, -6.51053304357849871309e+00) (80, 2.30833604438376610579e-01) (76, 2.16971180833356841466e-01) (74, -6.68776901792096645227e-02) (63, -1.86495057361335692114e+00) (36, 1.27942186720298933800e+00) (82, -4.78016577582036694682e-01) (134, 2.13038836810317988579e+00) (73, -1.89768918596733893178e-01) (123, -3.49430425165155078560e+00) (51, -1.21500394321127003217e+00) (22, 5.01966572651121545334e-01) (139, -1.58824087546093006829e+00) (62, -3.43337461842913860277e-01) (85, 1.22392891841198087066e-01) (48, -5.55255168570069512768e-01) (108, 7.43163989689700987817e-01) (34, -1.89836450330254924435e-01) (131, -2.16968359895342827182e-01) (79, 3.25268310166555274510e-01) (136, -2.93442059575246272374e-01) (70, 2.57785383195027362202e-01) (87, 7.80457838935355363574e-01) (49, -1.50338835337601395281e+00) (2, -3.81782397027214059904e+00) (18, 1.50000000000000000000e+03) (40, 6.36614870870629290245e-01) (47, -3.13400754969624051327e+00) (98, -2.68702962987284577068e-01) (112, -1.54608025035839968808e+00) (97, 4.32194650489786891256e-01) (107, 7.61428755295506243250e-01) (32, -2.51507370534955976282e-01) (20, 1.57150918204100897846e+00) (4, -3.01176235544040049597e-02) (37, -9.08551895914847085223e-01) (110, 3.94479988626164679300e-01) (57, -2.86771027507448539318e-01) (14, 2.35478012935136815642e+00) (114, 2.77646910319677431289e+00) (109, -4.17758498090791086099e+00) (128, -2.53660678275806517057e-01) (113, 5.35437466052792476745e+00) (44, 1.02680743575254019434e-02) (89, 1.50000000000000000000e+03) (120, -1.48987627106836595381e+00) (95, -9.55770846313323096943e-01) (137, -2.81286037330771510057e-01) (59, -3.61077755053658933093e+00) (104, -6.27428694896745797749e-01) (38, -1.62141520855643705978e-01) (56, -3.94017155209403346916e+00) (52, -4.24171956924461468486e-01) (11, 1.26169038730577343088e+00) (8, 9.56652552488123919527e-02) (55, -1.29494647988818778472e+00) (43, -1.21651784659391720700e-01) (90, 1.50000000000000000000e+03) (54, -3.71312295536004255414e-01) (116, 5.92324991354938212851e-01) (30, 1.37560054425106303988e+00) (92, 6.56374622543142383080e-01) (91, 1.33437363810101006223e+00) (81, 4.09665735267031261291e-01) (25, 1.37296617266488674147e+00) (100, -1.03527063191318702273e+00) (142, 2.28679781420604133491e-01) (25, -4.81971961287328110046e+00) (50, 1.92120585890440342958e-01) (53, 1.15938893386542604680e-01) (71, -3.13406704308124006708e-01) (98, 1.64715855278177580878e+00) (134, 4.03921800251837659346e+00) (136, 4.62273234598536808537e-01) (139, 2.11099827094309661080e-01) (10, 8.72837145426517579949e+00) (17, 1.50000000000000000000e+03) (84, -1.02774076009954407063e+00) (15, 1.90263332256951001042e+00) (21, 1.99308290571396207191e+00) (89, 1.50000000000000000000e+03) (5, 9.38458776928052906818e-01) (95, 2.75193801944168148221e-01) (64, 2.75977748581976101150e+00) (140, 1.45263548714896217895e-01) (30, 1.92756561416160798750e+00) (49, 3.99699696327408704466e-01) (117, -6.69147053188134388613e-01) (56, 1.57743797263623142246e-01) (124, -4.39904306386198706846e-01) (101, -1.03363585945727298743e+00) (45, -1.91047350013919858824e+00) (79, -1.47341105521085080632e+00) (92, 5.02940061373682567591e+00) (52, 6.84825859758923072285e-01) (54, 2.24822789062298827867e-01) (118, 4.09429081901485192319e-01) (133, -9.30477461831508145806e-01) (107, 1.11558806072927577113e-01) (34, 8.10393885799827295990e-01) (113, 9.02716935576067247560e-01) (28, 1.09055616287255974228e+00) (11, -1.12964991224468436215e+00) (13, 1.78483638052073323443e+00) (57, 2.49392478596937472446e-01) (82, 8.52811153196732729675e-01) (20, 5.46466433342250645921e-01) (128, 1.17721973030501206314e-01) (108, 2.51971567805848239985e+00) (126, 4.75177579182182383000e-02) (104, 8.50003077383181038229e-01) (111, 1.06080822472633506948e+00) (38, -1.90796159393456649100e-02) (24, 4.95307681684912348707e-01) (90, 1.50000000000000000000e+03) (63, -5.31428395196665404043e-01) (32, -6.26527363408296289471e-01) (16, 6.39382585276268788910e-01) (110, -2.14600130001597300122e+00) (120, 1.21547346048953985864e+00) (105, 6.83031762938951625408e-01) (83, 6.06816251416896768056e-01) (123, 2.05760099033528964796e+00) (138, -1.22150447846578158462e+00) (102, 1.53333113539470158315e+01) (48, 1.06583657346758875484e+00) (35, 8.99198747480712962110e-02) (27, -8.56138082416923040796e+00) (7, -1.12600687951354985761e-01) (112, 3.87492203747055397045e-01) (129, -4.12485674811070444825e-04) (22, 2.99306815650498458936e+00) (132, -2.10788134895677159442e-01) (69, -1.43404311091004488254e-01) (80, 8.24522240080341362045e-01) (119, 2.61715581846355793694e-01) (74, 3.98468560464198429116e+00) (141, 2.20657668788127037107e-01) (142, 2.50880926358756306538e-01) (17, 1.50000000000000000000e+03) (28, 6.61222702611705265285e-02) (31, -1.42889393074375314896e-01) (59, -1.72889680056544335629e-02) (117, 3.31942621639382540177e-02) (128, 2.53067474717349680247e-02) (130, 1.07220554107102461483e-01) (138, -7.24721464446283214489e-02) (4, -5.93984613796649102424e-02) (102, 1.06916210249009080435e+00) (38, -9.95082865637586244656e-02) (83, 3.12058962532424655212e-01) (141, 2.78542352178765655057e-02) (62, 2.17398529993804767724e-01) (27, 2.68102971548157343121e-03) (48, -7.08031574020121373669e-02) (127, 5.55723550692147627572e-02) (10, 1.64706343085998130338e-01) (65, 8.77553571685035643801e-02) (21, -3.32198392590861771301e-02) (16, 8.84300554089830354032e-02) (11, -1.26272071096486832031e-01) (43, 1.14021953968356862252e-02) (82, 3.93095075777317587429e-02) (81, 7.70286134884241302512e-02) (90, 1.50000000000000000000e+03) (94, 1.65872456142297108883e+00) (103, -1.19227223720418731845e-01) (115, 5.45059322310730356986e-02) (133, -3.61054872977355266819e-03) (3, -1.03390165951963222679e-01) (54, 7.52418384331881573424e-02) (70, 1.25021108201437330942e-01) (111, -4.14379645991237374747e-02) (101, 4.01290800208539411020e-02) (99, -2.16296273596299326591e-01) (23, -1.15543407892120308933e-01) (18, 1.50000000000000000000e+03) (12, -8.55837747553918337662e-03) (53, 9.56991597965071993936e-03) (136, -2.16120658101477160218e-02) (29, 2.52099144884610146256e-02) (80, 3.02922125770138661593e-01) (134, -1.01679923755950783054e-02) (63, 1.08943861214898449208e-01) (9, -8.21672030578690371083e-02) (108, 4.35807095930552113039e-02) (89, 1.50000000000000000000e+03) (107, 9.78824645489963229839e-02) (50, -5.96916712097530222092e-02) (7, 3.62397682766439022117e-01) (56, 1.24208115582873715455e-01) (84, -3.92618634477409134131e-01) (125, 7.93891433064660284602e-02) (124, -2.96722763804570834056e-02) (2, -7.45369816329876089256e-01) (40, -6.53985195119991397084e-02) (131, -1.20747820501529625620e-02) (98, -2.27691213555360622012e-01) (13, 2.46134820952507715752e-01) (120, -1.10985387620686534738e-01) (49, 1.23803049060944719839e-01) (132, 7.05597821365787775116e-02) (19, 1.50000000000000000000e+03) (104, -1.95403624854850771486e-01) (36, 1.52322789192769290217e-02) (73, 7.93746640174550627256e-02) (88, 1.50000000000000000000e+03) (26, 8.84540819250862336842e-02) (15, -2.57496050196547310307e-01) (52, -5.73210906800613734235e-02) (142, -3.95815443759450436012e-01) (3, 4.82002618640673174966e-01) (23, 2.77875478207047033052e+00) (33, 5.44063026935032389986e+00) (34, 4.53291963636597683429e-01) (39, 3.41226084759867376306e-01) (56, -5.91240135373419684051e-01) (68, -2.14006852230196831233e-01) (79, 5.38507747202930353581e+00) (93, 3.17620283635252675936e+00) (116, 9.02212390711458200876e-01) (51, 3.96093618753352749717e-01) (61, 6.21986041449674398329e-01) (43, -6.05459038173198238475e-01) (67, 1.74998999623238460366e+00) (12, 1.33198006957590486810e-01) (21, 1.23516045511635708110e+00) (50, 3.48547408309921147307e+00) (140, 5.86672294969258323327e-01) (133, 2.27860258040804763979e+00) (64, 2.72401750055658364857e+00) (70, 5.64961262662780905330e-01) (139, 2.40871189062649415646e+00) (126, 7.33769342881636199571e-01) (37, 3.13377109965852995721e-01) (84, 1.75128692700644877922e-01) (4, -7.42377651067520960559e-01) (107, -9.66285908550264638350e-01) (119, 1.41341917163881602981e+00) (109, 4.13072878392111847434e-02) (108, 3.28572091315237013731e-01) (114, -8.75245338607441580869e-01) (113, -4.22478310475828677806e-01) (22, 9.75593689971963606844e-01) (48, -1.16443017425588513092e+00) (138, 5.99899324484940765778e-01) (6, 1.30229835779836111698e+00) (54, 6.51885318845264127852e-01) (8, 1.65539283858264507643e+00) (41, 3.70275841858917642568e+00) (98, 6.91959171940621786678e-02) (96, 6.20275693196485122805e-01) (73, 4.50500308044761821336e-01) (92, -4.25681989962199469613e-01) (129, 1.51210945456796252984e+00) (74, 1.52866267194161891546e-02) (83, 3.05626417396205052324e-01) (20, -1.05954965391605249181e+00) (47, 1.04275978463813270847e-01) (127, 6.46971877112723525727e-01) (110, -2.61466363370150868539e-02) (120, 2.74514094692801702280e+00) (36, 9.69486694188554598561e-01) (53, 1.46562290419355445437e+00) (112, 8.02483365924776537170e-01) (28, -2.28018033283873533534e+00) (45, 2.71871151138853073270e-01) (99, -1.24411472884151685925e+00) (88, 1.50000000000000000000e+03) (29, -3.21626957666489854404e-01) (81, -1.93471109843940031192e-01) (94, -1.81769833297008437389e-01) (80, -1.34939828672623529648e+00) (66, 8.11010490843629527902e-01) (42, 3.56477495895623475164e+00) (103, 6.97621934235360274812e+00) (131, 4.89971510756137040854e-01) (18, 1.50000000000000000000e+03) (38, -2.12649571135948312062e+00) (1, 4.18999853736919547487e+00) (32, 4.60757001426214063411e-01) (115, -3.32469712021899699295e+00) (142, 2.79606195876945406997e-01) (54, -9.09729508265603309392e-02) (75, 1.35383762291034742686e-01) (76, 3.88914294458859374770e-02) (82, 1.06284428015013054925e+00) (84, -3.75098565545883277927e-01) (107, 1.37178309601761576342e-02) (97, 1.24271708690154558674e+00) (22, 1.36104760927105794543e+00) (47, -7.20783823232828829708e-02) (110, -1.81916449330739249390e-01) (11, -1.32913992521565466065e-01) (14, 8.88447227144194134896e-02) (40, -5.15896475527406805917e-01) (124, -7.88631229763931268506e-02) (137, -6.30296819883889164471e-02) (108, -1.00856267928499304665e-01) (39, -6.24290276275091468583e-02) (130, -4.20804249047273759565e-01) (72, 2.02920886610530226690e+00) (26, 3.33371046043767424449e-02) (138, -8.56836409226528483707e-02) (30, -6.44755310145965543356e-01) (118, -1.92130877730589018360e-02) (4, -4.41241841329527290094e-02) (35, -1.54447100475866960778e-01) (71, 3.23489062955468931193e+00) (131, 4.04283287747608965912e-01) (12, 1.44051399682021363802e+00) (125, -1.02545394086890853669e-01) (49, 2.13083541881315452482e-01) (88, 1.50000000000000000000e+03) (62, -1.00671448281354422583e-01) (109, 1.12052568086524806379e-01) (100, -9.80894417896540971036e-01) (67, 1.14917608325336595421e+00) (90, 1.50000000000000000000e+03) (68, -5.24649715316576475965e-02) (59, -7.25738928553531781329e-02) (57, -2.02311005702586227395e-01) (29, 3.72128104337782428246e-01) (121, -1.38395702026599537460e-01) (28, -1.92254577875994418779e-02) (136, -6.90384389498807232721e-02) (117, -1.77790373109110166894e-01) (23, -1.35033680940174538598e+00) (79, 3.41314283985437949553e-01) (48, 1.73473707890819883737e+00) (42, 2.95706914323836778102e-01) (15, 3.52148807092065363467e-01) (94, 1.00581087464164542489e+00) (116, 2.94571791162137885944e-01) (46, -1.02875452011064724700e-01) (103, -2.12033034471988557357e+00) (102, 2.70661297805871892130e-01) (111, -4.82411642137807114561e-02) (53, -4.23896591424449409313e-02) (104, -1.54222474264176956371e-01) (70, -5.31117678156862726979e-01) (8, -6.12602299689396778692e-02) (92, 2.17810131079910707097e-01) (134, 9.75203477880219216090e-01) (126, -1.98803044238702653068e-01) (31, -3.65526202877039452233e+00) (18, 1.50000000000000000000e+03) (36, -1.51587549513491431918e-01) (52, -1.15746840666565667388e-01) (86, -4.55972224910357326610e-01) (58, -2.61330604329682247844e-01) (106, -3.69247152942158873845e-01) (56, -3.57973485064791430155e-01) (81, -9.11101936224209402182e-02) (142, -2.51917216852452843789e-02) (15, 5.41126057677635663445e-01) (43, 2.30003504770571381988e-01) (69, -6.45140209884791371309e-02) (92, 1.53282528666568884645e-01) (108, 7.36535584046989377782e-01) (137, 1.13864405384384040354e-01) (134, 2.76801359739631547274e-01) (3, 7.11842971266440804889e-01) (57, 2.81709037710897614026e-01) (6, 4.26527688878744593026e-01) (122, 5.11864412530597667761e-01) (50, -4.42537455871703733212e-01) (38, 1.70352597830444929539e-01) (115, -3.64909653427221647437e-01) (26, -3.92537799061153033775e-02) (52, -2.43617829368569882575e+00) (87, -9.77267693345218874112e-02) (126, 4.25068006710384971303e-01) (111, 2.97167075029577620882e-01) (140, 1.88518148178033750906e-01) (78, -3.73696068470895981228e-01) (88, 1.50000000000000000000e+03) (54, 7.26488909513068603641e-02) (104, 1.05760731441242747386e-01) (25, 1.71096798588729925861e+00) (32, -5.94188302616551533575e-01) (30, -3.89365614466283538331e-01) (97, -2.70916412508635051637e+00) (31, 3.40956273707780199711e-01) (65, 1.91481803694342617161e-01) (59, 8.91619089383551138850e-02) (77, -2.11792384758107798959e-01) (62, 3.74567465787947251332e-01) (1, 9.34755645038940485847e+00) (136, 1.03837237186142683498e-01) (46, -8.11207003978824531254e-02) (101, 3.31843284806385641073e-01) (10, -7.61064573482715528430e-02) (128, 9.49126038517320996801e-02) (5, -5.71014059161412346199e-01) (99, 6.91473069998671641123e-01) (129, -5.35209501300168144500e-02) (39, 8.98288295919233148457e-02) (49, -1.21144734784970986574e+00) (47, -3.28075268259652406966e-03) (109, 4.41265941307792508574e-01) (55, 2.65444970152373393990e-01) (60, -6.89455546620287185178e-01) (61, 7.59163795186266060488e-02) (11, -3.63306696579141275016e-01) (95, 1.07593424493269661235e-02) (40, -4.25819442101901257658e-01) (114, -7.51882042299174324640e-01) (119, -8.21818855236699175038e-01) (81, 3.47572069823921414589e-01) (20, 1.50586684081376875888e-01) (72, -8.81036730906536780239e-01) (64, -3.01745592539060469850e-01) (96, -5.02927011330408957335e-01) (51, -1.66409581279643781215e-01) (36, 1.22866182254567718468e-01) (14, 3.82062428026012146365e-01) (75, -7.77407979297971007959e-01) (48, -1.60190896656696030176e-01) (74, -1.02822067055381660694e+00) (141, 1.02402654293866371416e-01) (53, -7.20451696564639920695e-01) (86, 7.54326443860155182453e-02) (84, 4.56621426576048039525e-01) (133, 1.85049697065396173690e-01) (125, 1.34636333706673605448e-01) (142, -1.50665000102771229340e-01) (21, 1.54757968621967023637e+00) (41, -2.13294485366313818497e-01) (60, -2.30793316132419379372e+00) (10, -4.76592127563408907154e-01) (2, 1.25666302322118217383e+00) (5, 4.04623782948077326260e-01) (132, 9.28083471891714278934e-02) (32, -1.05256897267712945521e+00) (91, 5.06561395305927697486e-01) (63, -2.43066994542752823349e+00) (98, -2.03210122540182736017e+00) (62, 1.96980553982392059265e-01) (33, 9.10369465839935720908e+00) (47, 1.49095476124408432561e+00) (16, 1.79890214584291580069e-01) (8, 5.92407723695781984752e-01) (73, 7.86800059939778417828e-02) (55, 1.41136371253502868051e-01) (61, 2.49913315434799110371e-01) (99, 1.97302359938047588983e+00) (15, 3.06401138866329636468e-01) (118, 9.67724726376508193049e-02) (12, 1.39076201747334238235e+00) (92, 2.58433561654644794459e+00) (54, 3.25466689933299302417e-01) (116, 4.14031916512749398329e-01) (49, 2.66955546407540211806e-01) (26, 3.42450414634283495374e-01) (89, 1.50000000000000000000e+03) (6, -1.56861644490692217491e-02) (115, -5.42405329213808795608e-01) (138, -2.40219752811337317056e+00) (24, 1.55618210081954866375e-01) (87, 1.26650934287019767410e+00) (124, 3.35853102911949363829e-01) (72, 1.16242668547594990569e-01) (7, 4.57342603356181598429e-01) (29, -1.25464503307659658304e+00) (17, 1.50000000000000000000e+03) (58, 6.34780457789885455000e-01) (83, 8.52715228038613992645e-01) (110, 5.36762303847711508276e-01) (37, -3.76107733871364591227e-01) (43, -1.19534522555754119111e+00) (125, 2.06529591049325111918e-01) (36, 2.02501638011002765838e-01) (78, 2.46607472079811396171e+00) (100, 1.55757933685711136285e+00) (77, 7.79267153169444171112e-01) (131, 1.33966712190177028585e-01) (67, -5.87285913113729463042e-01) (9, 2.16928673338757371791e-01) (137, 2.06864839112310738845e-01) (106, -5.73671158779174739095e-01) (35, 2.38839322195108699765e-01) (44, 2.01176871175596128083e+00) (28, -7.96369578152247181713e-01) (42, -7.26786021227917800047e-01) (52, -3.80987558731685238556e+00) (94, 1.74500651566971004547e-01) (85, 2.58557883563076518207e-01) (128, 2.99586258155973306216e+00) (93, 2.78372551739582796415e+00) (102, -1.42565232018007064657e-02) (38, -9.02039232175010696757e-01) (134, 7.60764727701487619704e-01) (136, 6.31976626575295324928e-02) (40, 1.70119584855736283302e+00) (127, 2.42734491271982821825e-01) (101, -6.33995978226705503289e+00) (126, 1.06445371733223903554e+00) (142, -1.16367106389144131517e-01) (36, 1.33112981274051755953e+00) (52, 1.63614031302557694225e-01) (65, 1.81259888097668769857e-01) (90, 1.50000000000000000000e+03) (94, 5.52157367245521424337e+00) (110, -2.79632335699703027387e+00) (113, 2.28270445531863153121e+00) (118, 3.04200112446552872747e-01) (140, -2.34243999070213981817e-01) (70, -1.13062585771402254742e-01) (76, 7.27733457499841041027e+00) (67, 3.89832480445071194453e+00) (57, 4.66227831030375572396e-01) (129, 8.06881430720591708017e-01) (26, 2.79950516857905118417e-01) (50, 4.10889837144974290339e+00) (85, 2.03334115291700889827e+00) (56, 4.75385632628462617699e-01) (84, -8.41316922978409820200e-02) (29, 2.47490096521341840230e+00) (53, -1.17530806601966664182e+00) (112, -2.52702596617175201388e+00) (86, -2.29974403855788223083e+00) (102, 3.90798715665096851879e+00) (77, -1.07164124664532756093e+00) (114, 1.62539897319215143057e+01) (30, 5.43010207398033983850e+00) (45, -6.66303347313332988699e-02) (89, 1.50000000000000000000e+03) (139, 3.68821568575881442165e-01) (14, 1.83675255474067988803e-01) (15, 2.38828603309008707933e-01) (126, 2.79375509773148955617e-01) (87, -8.74296161816226158336e-01) (74, 2.73028283625901035947e-01) (37, 1.14462949806739433534e+00) (134, 6.93911612418103507238e-01) (124, 1.93613116048205857744e-01) (125, 3.68606082947146029838e-01) (133, -9.02919031458347509655e-01) (9, -1.86513107449651482916e+00) (19, 1.50000000000000000000e+03) (62, 5.09342532237448852861e-01) (132, 2.48587244133559870374e-01) (6, -9.15704230517077832907e-01) (101, 1.65007442067455190049e+00) (121, 4.08690272072547822191e-01) (54, 1.94206342110472579554e-01) (141, -1.27065639391404638925e-01) (48, 1.68938823662637083167e+00) (106, 6.95685921503315318759e-01) (99, -3.86737764777436332508e+00) (46, -2.80759211770775163330e+00) (42, 3.05473495035279929422e-01) (34, 8.66893877354152575521e-01) (31, 2.47561128661345941637e+00) (103, 6.57010879765400956920e-01) (20, -3.10365483094030691902e+00) (25, 1.79379151490077548559e+00) (60, 1.97428889002849605738e+00) (104, 1.10803893718544460567e-01) (122, -1.04727183219089408084e+01) (18, 1.50000000000000000000e+03) (5, 1.04171688950867458168e+00) (39, -2.31302219441167716818e-01) (79, 2.78105794200022327090e+00) (41, -2.81237575961073349440e-01) (66, -6.20085637061184580254e-01) (12, -2.13082570263996950999e+00) (38, 2.61108372847199055045e+00) (80, 6.22918099007332237704e+00) (142, 8.88345676227290215188e-01) (13, -1.55083027219834823640e+00) (14, 1.11425094612373953851e+00) (16, 4.30794454602375809227e-01) (19, 1.50000000000000000000e+03) (32, -9.36306319008943011006e-01) (57, -6.14151406403720900862e-01) (73, -2.19799926740782247681e-01) (85, 8.85961797476021106768e-01) (109, -4.58328565303614210436e-01) (135, -1.48665895246339796465e+00) (4, -2.29187729479635254881e-01) (34, 1.51154041120506898999e+00) (80, 2.85755224569666121948e-01) (91, 1.67323353381520978367e+00) (77, -1.40662221204582521539e-01) (120, 1.79239418305643327667e-01) (136, 5.78766086968291570969e-01) (70, -6.32214580349283128413e-01) (114, -2.78760474872194174978e+00) (125, -5.86811183751730691682e-01) (95, -3.08413784521364919833e-01) (1, -3.85777875939233072522e-01) (60, 3.24037298481260782612e-01) (11, 1.52007961113921474805e+00) (61, -2.39843425009682453819e+00) (48, -4.23627102714670356054e-01) (63, 1.03994610772179885139e+00) (2, -3.69098640956216361708e-01) (124, -9.27940270126478145007e-02) (102, -1.77992197792211790386e+01) (20, 2.66015642466385138221e+00) (59, -6.88648066698329786028e-01) (44, 8.03522152092316255256e-01) (17, 1.50000000000000000000e+03) (98, 6.58654176357597709313e-01) (83, 1.38187472803780231345e+00) (45, -1.10484808056006111876e+00) (12, -7.11797826932488025831e-02) (96, 2.06124518394740913196e-01) (65, -5.12660696631597523343e-01) (115, 5.20112296692401110398e-01) (55, -5.35981997255028819183e-01) (140, -6.29391045140382798806e-01) (74, -3.18538136331378007871e-01) (22, -1.01804360751950543490e-02) (86, 2.17510009617620320155e-01) (132, -4.70067129567836028414e-01) (89, 1.50000000000000000000e+03) (0, 2.35030836398315834401e+00) (41, -8.52313974106858829316e-01) (53, -2.35401541413663900615e-01) (123, -5.51527154132441044254e+00) (79, -4.27589414243946461247e-02) (54, -6.26771632647756149481e-01) (103, -7.05200772247057794395e-01) (107, -2.44486522889734658737e-01) (93, -3.28124020816609851536e+00) (128, -5.67103410167282717680e-01) (51, -2.56485542634901086956e-01) (92, -3.91100853623314348440e+00) (30, -2.64457963081145841500e+00) (118, 3.06315893300640684771e-01) (113, -6.57346545467241694105e-01) (39, -1.10567412866887782030e+00) (100, 8.68737780875475262832e-01) (66, -5.39097539821289828410e-01) (40, 9.57927333484418719323e-01) (139, -4.07111144820186510174e-01) (3, -2.54230157968242942435e-01) (7, -9.89886254596068354550e-02) (5, -4.10090570778577745426e-01) (142, 2.49228677786462515797e-01) (18, 1.50000000000000000000e+03) (49, 1.23316319393893092382e-01) (63, 2.06158078075598244494e-01) (102, 1.72746092230624287422e-01) (129, -1.38944720963489726229e-01) (66, -1.00861279462988506772e-01) (29, 4.37356706523369620498e+00) (19, 1.50000000000000000000e+03) (11, 5.72004754995769984505e-03) (114, 2.36795573386695279439e+00) (35, 9.06626805944342750720e-01) (2, -3.02812770096975025780e+00) (111, 1.18697743657592691413e+00) (81, 2.47674323066070040111e-01) (4, -2.15403402418808814778e-03) (76, -4.66611342744855273068e-01) (70, -1.16399576266920951745e-02) (12, -7.47117078960240155183e-01) (89, 1.50000000000000000000e+03) (24, -4.94768363743502831431e-02) (69, -1.21235239989451681897e-01) (97, -1.42698995657122823522e-01) (22, 2.66010749885316544194e+00) (98, 7.12214318233051102425e+00) (9, 1.20393199277860896146e+00) (106, 2.67051675016116174532e+00) (87, 9.38646612652465628379e-01) (65, -2.29387515361051813612e-01) (120, -1.50973809328676239483e-01) (51, -9.76190783628845260012e-02) (36, 1.39923766245834446664e+00) (121, -2.04547868025070833653e+00) (73, 1.15580128730903258782e-01) (3, -1.31840232987872979509e-01) (84, -2.16755302030236629562e+00) (107, 1.32517942861759219220e-01) (6, -1.18193681652250165426e-01) (5, -2.80013343478818232946e-02) (100, 1.11135916153864977574e+00) (41, -1.40147587651037741630e-01) (20, -7.30898650563008178693e-01) (135, -3.66018489293587490074e-01) (55, -4.49030584453995185168e-02) (59, 4.51104048972192805955e-01) (140, 2.22206509178291489182e-01) (83, 3.03708591418702600340e-01) (85, 2.86533861442369697237e-01) (90, 1.50000000000000000000e+03) (27, -1.09379620220914368645e+01) (127, 1.21759292232059609246e-02) (130, -1.78840663114422770974e+00) (133, -1.31066839986636618498e+00) (79, 1.24501693822982217874e+00) (58, -6.56144281913326465894e-02) (64, 4.57997629267568129308e+00) (110, -7.92799324116586601185e-01) (47, -1.82906564983591346518e+00) (54, 2.44234035228130842710e-02) (38, 4.43335541526782228594e-01) (122, 5.38922107592425425615e-01) (15, 9.43782587546311502180e-01) (116, -2.48666247815973906476e-01) (108, -4.27141738232581225088e-01) (118, 3.39250695557360315568e-01) (10, 1.21125278575464789821e-01) (37, 2.57529504232201722491e-01) (46, 1.07823408695765565746e+00) (16, 2.89604889495397033183e-03) (113, 1.05597779463898389096e+00) (26, -4.49591674457489910710e-03) (71, -1.22850207859547344569e+00) (142, 2.07170075116899693457e-01) (0, 5.66767753723399270172e+00) (46, 8.76758150222102794480e-01) (89, 1.50000000000000000000e+03) (96, -2.86474256728077802947e-01) (100, -7.30801558818620966562e-01) (106, -1.32439044968911418670e-02) (111, 3.19650591089715649384e-02) (120, -4.39983108610020740015e-02) (123, -2.38450123653262874290e-01) (131, -1.13145232562161343615e-01) (112, -1.55232682468921384666e-01) (99, -5.51127029980266525122e-01) (13, -1.10164890118984937217e+00) (121, -5.09226195061849851164e-02) (12, 6.85097179980109660669e-01) (22, -1.18069201134021306565e+00) (80, -8.04275098632300289303e-01) (69, 2.28394260344917193750e-01) (76, 3.38930514360107015825e-01) (93, 2.44650631464624068734e-01) (104, 2.29446270215330309916e-02) (134, -2.21918621848358199600e-01) (92, -2.42888817440867932351e-01) (77, -2.40480054722117891908e-01) (14, -9.25218297659210486827e-02) (87, 2.11820369616797121726e-01) (118, -8.27205891518485031400e-03) (64, 2.02914134583885158447e-01) (43, -3.46771242962906484086e-02) (135, 8.03819194286589655540e-02) (35, -3.24298009391564945325e-01) (86, 4.47468565599833612012e-01) (28, 2.94016606242037625840e-01) (18, 1.50000000000000000000e+03) (84, 1.50891566965132950529e-01) (34, 1.12536765379104161666e-01) (10, 2.63510982785769898307e-01) (20, -6.80016846413262349147e-02) (27, -1.20593109291092415170e+00) (88, 1.50000000000000000000e+03) (109, -6.50172303049657979157e-02) (122, -1.52718384321756273092e-01) (15, 3.11306747021178775725e-01) (73, -1.94568340014306451202e-01) (26, -1.32735857468533474668e-01) (136, -2.35446714252890348940e-01) (16, 2.06142707128834312691e-01) (49, -8.86127240002067273483e-02) (41, 6.98272131299112586156e-01) (3, 1.75253146618898375531e-01) (2, 7.79989685962321321888e-01) (5, 1.37875078179184817895e-01) (95, -5.83064222487595235078e-02) (117, 8.92817384518614365341e-02) (81, -6.70059926681853129660e-02) (62, -1.21664961914520350361e-01) (11, 6.08586147861439941131e-01) (79, -5.11460214899229909102e-02) (126, 1.74390861704188493420e-01) (85, 1.74542183687562107997e-01) (58, 1.06727469996189788803e-01) (101, 5.67911434303441375882e-02) (40, -7.27204395475163800633e-01) (60, -1.83469216852711380916e+00) (7, 2.35888800193889441870e-01) (141, 7.44113689392433552694e-02) (32, -3.31600957199052359670e+00) (94, -4.56397849571757052711e-01) (53, -2.23143541479222939916e-01) (25, 2.54524889831397871376e+00) (68, -5.49331589640968229356e-04) (142, 1.25678459674380246724e+03) (1, -1.50000000000000000000e+03) (11, 1.47605142996152994783e+03) (42, 1.50000000000000000000e+03) (61, -1.50000000000000000000e+03) (103, 1.50000000000000000000e+03) (104, 1.37300651371201774964e+03) (105, 1.50000000000000000000e+03) (114, -1.24093263756514443230e+03) (119, -1.50000000000000000000e+03) (121, -1.50000000000000000000e+03) (101, 1.50000000000000000000e+03) (27, -1.50000000000000000000e+03) (9, 8.58922881988891731453e+02) (19, 1.50000000000000000000e+03) (117, -1.50000000000000000000e+03) (34, -1.02993491137688079107e+03) (102, 8.34684205076787151256e+01) (52, -1.50000000000000000000e+03) (129, 1.50000000000000000000e+03) (84, -1.38497261285420563581e+03) (37, -1.50000000000000000000e+03) (60, -1.50000000000000000000e+03) (126, -1.50000000000000000000e+03) (137, -1.50000000000000000000e+03) (40, -1.50000000000000000000e+03) (120, -1.50000000000000000000e+03) (113, -1.50000000000000000000e+03) (81, -1.50000000000000000000e+03) (83, -1.50000000000000000000e+03) (96, -1.50000000000000000000e+03) (130, -1.50000000000000000000e+03) (63, -1.50000000000000000000e+03) (86, 8.25561627226931591395e+02) (29, -1.50000000000000000000e+03) (109, -1.50000000000000000000e+03) (41, 1.50000000000000000000e+03) (26, -1.50000000000000000000e+03) (125, 1.25357680529172865226e-03) (16, -1.50000000000000000000e+03) (3, -1.50000000000000000000e+03) (65, -1.50000000000000000000e+03) (24, -1.50000000000000000000e+03) (23, -1.50000000000000000000e+03) (69, 1.50000000000000000000e+03) (49, -1.50000000000000000000e+03) (74, -1.50000000000000000000e+03) (30, -1.50000000000000000000e+03) (95, -1.50000000000000000000e+03) (67, -1.50000000000000000000e+03) (58, -1.49257858444367275297e+03) (4, -1.50000000000000000000e+03) (66, -1.50000000000000000000e+03) (92, 1.50000000000000000000e+03) (6, -1.50000000000000000000e+03) (131, -1.50000000000000000000e+03) (59, -1.50000000000000000000e+03) (10, 4.36673234016961764326e+00) (85, -1.50000000000000000000e+03) (136, 1.49998028243909175217e+03) (82, 1.49998775372703380526e+03) (55, -1.50000000000000000000e+03) (31, -1.50000000000000000000e+03) (15, 1.49978489924496511776e+03) (57, -3.26758063818155697344e-01) (99, -6.07008397173588832629e+02) (76, -1.50000000000000000000e+03) (133, 1.50000000000000000000e+03) (80, -1.50000000000000000000e+03) (21, -1.50000000000000000000e+03) (138, 8.19873866571798828318e+01) (79, -1.50000000000000000000e+03) (142, 6.74199661953940543313e-01) (7, 1.31291573497557889638e+00) (20, 3.37922525624255454257e-01) (22, 2.37715570681254290131e-01) (27, 3.75753025564406761827e-01) (29, 7.43325139549599112065e-01) (47, 2.14290969624598925947e+00) (51, 4.97234822387271790944e-01) (58, -8.17696739833095098682e-01) (91, 2.30403651463742031869e-01) (73, 8.38584112823617666699e-02) (60, 4.66930373962952671718e-01) (106, -3.84305748132114488591e-01) (3, 3.89646463910288654020e+00) (21, -2.46075209666415856136e-01) (18, 1.50000000000000000000e+03) (6, -8.23552997927808339007e-01) (122, -1.26963930725547922973e-02) (115, 2.42730849324269519485e-02) (56, -1.37197805211870301617e-02) (130, 3.36763238568271283668e-01) (71, -6.52167730540021903241e-03) (55, -1.41378997461222177812e-01) (134, -9.34207908837988154627e-02) (126, -4.05490656352941736262e-01) (141, -1.45044239715248740596e-01) (46, -3.45204661517688471406e-01) (117, -2.39934045742920987188e-01) (104, 1.90979496654786418119e-01) (120, -1.79638282886279948558e-01) (53, -2.06662388033730208547e-02) (136, -3.97613439496109721816e-01) (4, 3.50434211536195749925e-01) (26, -2.81237658944925528193e-01) (137, 2.38244099404336315273e-02) (0, -9.87499988665223871198e-02) (74, -5.72212289812501273545e-01) (105, -6.82712536862153607231e-01) (40, 3.11055918567969491573e-01) (9, -9.64254127946726380394e-01) (80, 1.15152223423423660797e+00) (87, -3.97954127885476405257e-01) (30, -2.99156494786838200728e-01) (44, -4.46224018823957235824e-01) (78, 3.34721271428209787846e-01) (128, -3.28694358724669677407e-01) (66, -4.33249587473655606296e-01) (57, -4.30287908226838211601e-01) (52, 1.19259129423536247572e+00) (24, -6.04491326389410721376e-01) (50, -1.18222029538868705911e-01) (113, 1.61255674217727157371e-01) (48, 3.75216320798746560961e-01) (103, 1.75603638476486856312e+00) (5, 4.24561952912722237463e-02) (62, 1.70665116747292955335e-01) (114, -9.74056739509258640020e-02) (107, -3.63976710642210543600e-01) (19, 1.50000000000000000000e+03) (69, -1.45734951597134981816e-01) (119, 5.28752426638381622936e-01) (76, 5.17435988888169991901e-03) (109, -2.79622166928186643986e-01) (16, 2.71968190896847539229e-01) (118, 5.94298450036227055016e-01) (108, -6.04754507168069402323e-02) (98, -5.72516520272147277915e-01) (72, -6.00412956495725236294e+00) (79, -3.45905207856232674302e-02) (139, -3.38121428865248097040e-01) (127, -6.32614203583430234623e-01) (89, 1.50000000000000000000e+03) (142, -1.26059065162467565102e-01) (2, -4.72910639058567561221e-01) (5, 4.25914822378757329524e-01) (44, -7.31579529795238214795e-02) (62, -1.58029545546666899680e-01) (64, 2.31001504710854121960e-01) (72, -5.85793463743789821763e-01) (78, -3.19827324328047479796e+00) (125, 3.19804289457071955205e-01) (133, -1.09908602459655072026e-01) (27, -3.08549791189859923257e-01) (121, 4.26642730940358594349e-01) (40, 7.68846322214005728490e-02) (108, 2.74528095695117158037e-01) (84, 3.02706792314632322505e-01) (70, 2.56551069059354097668e-01) (77, -1.42857696057464757938e-02) (8, -8.95581342612428166206e-01) (120, 3.90949967969470291163e-01) (54, 2.21554690648095298222e-01) (52, 3.86139807212154545502e-02) (17, 1.50000000000000000000e+03) (71, 9.35536991564505093777e-01) (91, -2.39284520316807941542e-01) (37, -6.37623587692473653421e-02) (29, -7.41244044768350374142e-01) (107, 6.31011317577975683335e-01) (59, 5.44180342425111193694e-02) (109, 2.63835774255254840170e-01) (3, 2.42049198575186114146e-01) (73, -4.30157393165513657340e-01) (113, -2.05102416153361527540e-01) (50, 7.92223808990490385717e-02) (95, 2.61713770778639109871e-01) (82, 8.28472037207133804593e-01) (35, 1.12928542691858715963e-01) (106, 2.14102774288284702919e+00) (135, -2.78638560264778990805e-02) (16, 4.23021421656775309383e-01) (89, 1.50000000000000000000e+03) (141, 8.23197712332799647061e-02) (139, 2.17314084608921986863e-01) (67, 1.36121126431216432628e-01) (9, 6.60656091087013647156e-02) (61, -2.65296346683445538606e-01) (20, 3.12970117982765305698e-01) (57, 2.90631779469643192204e-01) (10, -3.47073610799819520789e-01) (1, 3.59773104264673015962e-01) (116, 3.85919325265789564527e-02) (74, -6.10549481574525709782e-01) (4, -6.43015682229402862902e-01) (30, -1.48355149904978361741e-01) (28, -2.45564163618123609822e-01) (34, -4.15169618972448140060e-01) (18, 1.50000000000000000000e+03) (112, -2.38782626231541428297e+00) (32, -1.62725612653376594530e+00) (102, -3.57922729856515342561e+00) (6, 2.96661971460807694090e-01) (103, 2.38296329272395590593e+00) (53, 3.70710644177938752897e-01) (99, -5.53757094399825233744e-01) (25, 1.19180846642366847221e-01) (26, 2.06623088566578572145e-01) (39, 2.33584880648500914369e-01) (47, 4.05182306548301396365e-01) (79, -3.68453790855721219355e-01) (33, 1.37648283422141681775e+00) (58, 2.83741346523114945644e-01) (130, -1.46476872893744253235e-01) (87, 6.13867123066322434299e-02) (142, 6.59030681726851530478e-02) (6, -1.30026615581645410558e-02) (55, 5.93291690056818810106e-01) (87, 4.18585760157684227956e-01) (88, 1.50000000000000000000e+03) (97, -5.60649463443408491159e-01) (37, -2.98791462089889381382e-01) (113, 1.69038662898065994433e+00) (76, 2.99472694354284363349e-01) (86, -5.70871397285583059844e-02) (99, -4.22712987302570508685e-01) (111, -1.65457148566561379477e-01) (14, -2.28335268718607808935e+00) (81, 2.55218628794951163385e+00) (52, -4.94864943812040658511e-01) (131, -1.27998799417494124597e+00) (121, 5.92508635092909519138e-01) (40, 1.59554782807117634391e+00) (105, -6.65415603857800630472e-01) (61, 1.83823666303656407806e+00) (43, 5.54866036099007309268e-01) (102, -6.13020738722965363721e-01) (17, 1.50000000000000000000e+03) (35, -4.05301559713752701519e-01) (133, -1.23946297361496579614e-01) (118, -3.84148712871185626927e-01) (91, 3.57427153977994294110e-01) (137, 2.10854466790119710051e-01) (33, 5.73966058336911544302e+00) (108, 3.00157484429154519656e-01) (128, 5.63889703601235692254e-01) (54, 3.92538744788972771005e-01) (127, 7.12374906808300956129e-01) (71, 2.07810414413166499870e+00) (122, -2.40217653160516420030e+00) (9, 9.35407479098714489396e+00) (73, -1.10561879908654892013e+00) (119, -4.25564267205884999568e-02) (126, 4.11752372639539176991e-01) (64, -2.26778243885997460305e-01) (15, 2.80276472099438955787e-01) (84, -5.49747000823150422377e-01) (117, 1.54507477809696092130e-01) (2, -1.08445157390391599961e+00) (90, 1.50000000000000000000e+03) (30, 1.74575198008009180306e+00) (44, -1.17869295767129145247e+00) (92, -1.08690923638254610673e+00) (82, -3.53697387818886044286e+00) (24, -1.16740132049621703203e+00) (130, 2.84989602803576540235e-02) (49, 4.66563168546520024016e-01) (8, 3.09216463995105161899e-01) (89, 1.50000000000000000000e+03) (32, -3.75271478193776708565e+00) (112, 3.78509991755283603521e-01) (7, 2.41748034836720959717e+00) (41, 1.73314509611872091810e+00) (65, 1.31480195775574060235e+00) (26, -7.76117766812161047341e-01) (60, 2.00224619422579941386e+00) (77, -9.05827552434242622148e-01) (132, 6.88780048539158418208e-01) (13, -4.92281452846135003654e+00) (67, 6.56190713499956168597e-01) (75, -1.20241533560878233189e+00) (69, -1.66124969575225511775e+00) (85, -6.95081430865683191911e-01) (134, 1.11692336778253831220e+00) (115, 7.65309579565782605037e-01) (3, 7.77928420869405945481e-01) (59, 4.47739413522183216099e-01) (142, 2.22123997417647933705e-01) (7, 8.87994657668066267320e+00) (48, -2.84946501698861764940e-01) (95, 1.56127315672512895217e-01) (93, 1.41851184376914885021e+00) (21, 9.46136898166675788246e-01) (113, -1.65468046597483686710e+00) (125, -2.34949162789419505049e-02) (49, 1.37527922686702080979e-01) (91, -4.80300171806723774637e+00) (81, 3.09744715776718360090e+00) (131, 1.85161757536295046300e-01) (102, -3.17362034200161569064e-01) (3, 2.88602433541629788127e-01) (25, 2.24975880230004580962e-02) (35, -2.59898258983093244368e+00) (9, -1.21626175519743395803e+00) (56, -5.45785155119008158486e-01) (120, -1.51331019784491904723e+00) (20, 4.18679559950214219555e+00) (117, -2.56128238479583103526e+00) (36, -1.34538024551798396367e+00) (31, 1.30956456197474269132e+00) (114, -4.05791387995554764245e+00) (42, 4.20747230553032647293e+00) (90, 1.50000000000000000000e+03) (29, 4.13446377067835868502e+00) (4, -7.76643226120675378432e-01) (43, -1.86222692596870875725e+00) (124, 1.27496211552291877078e-01) (133, 1.51537181879590243661e+00) (138, 1.65783732923490423339e+00) (68, 4.72772380287799609544e-01) (121, -6.07711267267498495004e-02) (75, -2.70220085037637114400e-01) (5, 7.86396427748520743251e+00) (19, 1.50000000000000000000e+03) (69, -4.06639792910236108625e-01) (103, 3.39450101866162734510e+00) (129, 3.61751713172384470329e-01) (22, -3.59027305346293523769e+00) (104, -1.70594376977214357005e+00) (84, 2.83596872477216432884e+00) (45, -3.49337171164255178013e+00) (107, -8.58503101832798432014e-01) (59, -2.25688330440855039472e-01) (33, 1.57616533541805612373e+01) (38, 2.55170755207242994089e+00) (94, -3.49866956673949935919e+00) (13, -9.72018578155774726213e+00) (65, -1.34390171035241512421e+00) (30, -5.44078964097607808981e-01) (97, -3.70288126552850704876e-01) (139, 5.57325372657092255047e-01) (72, -1.84183897491948245229e-01) (53, 5.50729172300391811579e-02) (8, 6.74725909281836511155e-01) (140, 2.51906249196313281047e+00) (37, 4.50598455103210837613e-01) (2, 1.05241631384940803606e+00) (44, 2.15344507005190610727e+00) (89, 1.50000000000000000000e+03) (99, 2.02165478740493370635e-01) (12, 6.40133146628850457915e+00) (130, -5.34676961290345253985e-01) (61, 7.43807463153668274591e-02) (40, -2.17181817499195251031e+00) (132, -1.19526247344631353364e+00) (27, 1.85917887880184089511e+01) (116, 5.34892299933716319771e+00) (41, 1.71005552930980075921e+00) (115, -4.61406118944638077295e+00) (164, 1.48068423171993340803e-01) (148, 1.32155688792344322424e-01) (150, 6.35936524971747602075e-02) (153, -4.50748603370465961149e-01) (146, -8.74878698641417540394e-02) (151, 6.49251284312073129179e-01) (162, -6.41327087740071744015e-02) (156, -3.54700525306112846025e-01) (152, 2.43438935369054060276e-01) (160, -4.68814364788385038590e-03) (157, -1.17941080650398683050e-01) (164, -1.08503972276032964461e-01) (154, -4.51345983548861018342e-01) (145, -1.84978076846631450669e-01) (158, 2.24495600366538317072e-01) (155, -4.25902072385307750579e-01) (146, 7.79894126167243184611e-01) (147, 6.68443404537204854954e-01) (159, 6.61452938471957518907e-01) (151, -1.95537974283204546433e-01) (148, -1.58548772361758877336e-01) (144, -1.83995106700238775232e-02) (143, 9.27309326883010986986e-02) (164, -5.03178347661805136504e-01) (155, -4.73327201176190426324e-01) (145, -3.65035900349698461120e-01) (144, 2.55910119112620661197e-02) (150, 2.65314160953076916272e-01) (152, -1.23148292532160930079e+00) (153, 1.68992772494517629056e+00) (143, -1.21712679805844686820e-01) (147, -8.62269212892565639628e-01) (148, -5.52905633012491626310e-01) (151, 2.26948513808971158445e-01) (164, -3.51296362711623177955e-01) (145, -2.64403912074651969988e-01) (151, -2.25711333426584989659e-02) (156, -2.91766915701283102713e-01) (146, 3.29558981665401562466e+00) (153, 4.59081903993750428672e-01) (148, -2.44027109677420833700e-01) (143, -2.55370998776246471706e-01) (159, 1.86130345045008638305e-01) (162, 5.21196728712123746874e-01) (149, -3.12215413033500310824e-01) (144, 8.72987121767710982922e-02) (164, 6.66829488817601734318e-01) (157, 5.68640529519883974885e-01) (153, 4.69322474806410649961e-02) (158, -3.08064623669846215925e-01) (146, 1.78773493739078984111e-02) (151, 9.87395784966972195340e-02) (145, 6.98421208717014740941e-01) (160, -8.57037588394839594530e-02) (154, 2.16349179404991570630e-01) (159, 2.50945955498582604082e-02) (150, 7.96109460682173780688e-02) (164, 6.21449242744517071912e-01) (147, -3.36258607649091378899e-01) (150, 1.35020860698800149180e+00) (156, 2.04520277519924832677e-02) (146, 6.28974068261443752803e-01) (148, 7.09358011644465047407e-02) (151, -3.64321041535660694599e-01) (155, -2.87861218955528186392e-01) (149, 2.54574984011550105312e-02) (154, -1.97197658198288799936e-01) (159, 5.42133491252773769276e-01) (161, -1.36615637851527504942e+00) (164, -2.64873081091707929247e-01) (149, 6.74156671195574208610e-01) (153, -1.84671494406451863757e-01) (156, -4.79512280967460624570e-01) (152, 6.79422831758872275421e-02) (150, 1.43373522889379745315e+00) (146, -7.25858516345945448123e-01) (154, 5.74132838798951383730e-02) (158, -1.46845393848467264952e+00) (155, 3.44905355528124568654e-01) (151, 5.85372358338780429676e-01) (164, 7.17497854624538744517e-01) (144, 1.11001725191383807112e-01) (148, 5.92093456833895359637e-01) (158, 2.76245161891422973122e-02) (157, -1.14026180428476925366e-01) (153, 1.72363731398823993857e-01) (155, 1.17082989731408321221e-01) (160, 7.15485066145152059924e-01) (161, 5.21571173989371472679e-01) (150, -9.06703374476386492198e-01) (151, 1.73028236389743211854e-01) (147, 2.08652286807003761737e-01) (164, 7.03055495250250239714e-01) (159, -4.09177691670192411610e-01) (153, 3.11707231618215119262e-01) (149, 3.50912607582043845067e-01) (152, -2.40884216750686691588e-01) (150, -1.90535740332875014325e-01) (155, 7.62853819365329477442e-01) (148, 8.15450990026731270532e-01) (156, 5.75886600885383681536e-01) (161, 1.06209313126197579802e-01) (157, 3.80011189192347997867e-01) (164, 2.36596850493038052266e-01) (143, 8.23492827699237928130e-01) (155, 7.44020724975371361420e-02) (154, 4.33619459914241112131e-01) (162, -4.92855283624571260948e-01) (148, 2.64599985585745878236e-01) (152, 2.29879842860709809882e-01) (159, 1.49795420142031440736e-02) (149, 3.80056603207096665997e-01) (158, -3.62992763388964467808e-01) (147, -1.23411217645699768097e-02) (146, -1.32566762352373579414e-01) (164, 6.36761202238472212578e-01) (147, -5.13426185055603445662e-01) (149, 5.63706383508578712238e-01) (151, 2.37578436679743515425e-01) (143, 7.62051240247321848287e-01) (154, 1.07110096647046604268e+00) (150, 9.67825458980287461896e-02) (144, 3.18618270387061031101e-01) (148, 4.64680888672270864248e-01) (152, 1.28162127908230716322e+00) (159, -1.23740937556943805808e-01) (164, 5.41865948877297970432e-02) (162, 9.44580614640229965229e-02) (144, 4.56188144209829171682e-01) (145, 1.17135675955038098817e-01) (146, -5.25657577031475087281e-01) (147, -1.52756223545609443049e-01) (156, -3.88823494752035037081e-01) (143, 4.97040310166776799772e-01) (159, 1.73657519581375097140e-01) (151, 5.78999584107423359569e-01) (150, -8.52646127263809727737e-01) (154, 3.13335958729185459770e-01) (164, -8.04374819697808024488e-02) (147, -3.48071223649127015065e-01) (151, 5.73534070986270516634e-01) (156, -1.89417366760229716194e-01) (153, -1.27662923654412840957e-01) (146, -1.15425131953890730552e-01) (148, -1.30444387156404464218e-03) (159, 1.75111445046779307111e-01) (158, -2.59191637700910249009e-01) (154, -8.31105200447884162607e-02) (162, -1.49249217915172455173e-01) (164, 4.20008280145097279146e-01) (151, -4.96617362097307224467e-01) (156, -4.75416796888492310114e-02) (162, -2.95411546820819270742e-01) (145, 5.08176505469737138654e-01) (159, -1.62467076318354580744e-01) (160, -6.32788742592086533856e-02) (154, 3.15569018581434782011e-02) (144, 6.08754069345562975890e-01) (143, 8.43038355771857150778e-01) (155, 1.03365901653736069754e+00) (146, 6.23614904232687727870e-01) (164, 2.34110228296400907366e-01) (146, -8.98235025154507149558e-01) (163, 5.01229330566282382797e-01) (162, -7.65979407334213685532e-02) (153, 1.02964884014968324766e-01) (145, 2.56102005976234725626e-01) (148, 2.12763149038921267620e-01) (150, -1.32622295677721796503e-01) (157, 4.40901718353254978844e-01) (154, 3.18625156673791654072e-01) (151, 5.36942402474182012284e-01) (164, 6.23003768414065906001e-01) (161, -1.20465369943077146853e-01) (147, -2.64646863326641890168e-01) (160, 1.91401982340901784252e-02) (156, 2.59518934701439814381e-04) (146, 1.98421797310658537539e-01) (159, -6.87172368186568793824e-02) (152, 4.12215958262085624408e-01) (155, 2.89297245094864319270e-01) (158, -5.09367758123819402982e-01) (145, 6.48760308726093137821e-01) (150, -6.52559454858587240089e-02) (164, -6.53643937055135348935e-01) (158, 5.98583268725594530579e-01) (162, 9.98139467108326461364e-01) (153, 7.06591406183778580896e-01) (148, -3.29668696170652864019e-01) (150, 1.85447165518972834075e-01) (157, -4.81018989332355317856e-01) (143, -4.56503737528757669306e-01) (160, 1.01617721130416754916e-01) (155, -9.35754718288800413362e-02) (154, 2.33867636807562027934e-02) (164, 1.40637206988845270272e-01) (159, -1.11939587477060231713e-01) (162, -1.91241501700630367466e-01) (145, 9.11571886454821456169e-01) (146, 2.61931177424927152941e+00) (154, -2.16841434678462530172e+00) (151, -1.31282677978634310101e+00) (153, 1.75430774887567819675e+00) (144, -3.97727616515788862106e-01) (157, 1.10879339951429467526e+00) (148, 1.12333284611368666717e+00) (160, 1.17714800382537987389e+00) (164, 5.50795234116664769730e-02) (152, -8.57935014771399329092e-02) (155, -4.38790091008677496376e-01) (150, 2.51841927756415950856e-01) (157, -7.09167095628484289715e-02) (162, 5.21681272032522430626e-02) (149, -2.29697875370698217923e-01) (160, 9.32351036400587362962e-01) (163, 1.12663358157592471964e-01) (159, 4.13330961004234886946e-01) (148, -3.49367127442475264298e-02) (164, 3.68347413472104423526e-01) (160, 9.89373198757605432085e-01) (147, 4.47046012734300612923e-01) (158, 3.03083959613111575404e-01) (157, -2.64189141681041572696e-01) (144, 3.94636020197254133723e-01) (156, 1.07499750895965773267e+00) (161, -3.01343430792689492836e-01) (154, -4.38102494046651858017e-01) (153, 3.99303526511620709982e-01) (149, -7.45769828078515550907e-01) (146, 3.10714779591772571887e-01) (164, -9.59986428012775915020e-03) (158, 6.07062509246471093682e-01) (157, -1.28239357757416905237e-01) (144, -1.80458131489405412817e-02) (147, 3.30847474482912351501e-01) (156, 1.96797249956221609324e-01) (148, -1.68613187887221960271e-01) (160, 1.84612507398426578531e-01) (145, -2.50013373445971409659e-01) (153, 5.99524393432727009667e-01) (146, 1.70871835671977168047e-01) (164, -9.80236488066058980761e-02) (160, 1.46215681285201924700e-02) (146, 5.01056619329914076921e-01) (156, 1.42845231886577495040e-01) (150, 3.07201502939306170248e+00) (158, 7.55566448699647952303e-01) (159, 1.92810524406790917418e-01) (152, -3.52421022282071838561e-01) (161, -8.54178214618496856048e-01) (157, 9.68817051115072463974e-02) (147, -1.59272278926947397082e-01) (155, -3.17660569345869156499e-02) (187, 1.76488317283453932660e-01) (183, 8.00193040780801667644e-02) (182, 1.16413073584911944125e-01) (179, -2.82705008282073455561e+00) (186, -1.16261099141197227214e-01) (176, 9.05929947557634673849e-01) (180, 9.37737305170622370554e-01) (169, -5.04449852178981528183e-01) (168, -2.24961160136199433968e-01) (170, 3.28873996826087866552e-02) (174, 6.46574316751832162131e-02) (171, -5.71323854511706530346e-01) (187, 9.66186245300287294135e-01) (184, 3.87845343273762566128e+01) (168, -6.45842552137642078591e-01) (174, 2.73382774896297094103e-02) (180, 2.28708202210686384337e-01) (176, 7.84913552247596291167e-01) (172, -1.83797125191388417420e+01) (183, 1.51316811087504854427e+00) (173, 3.07832906889185187183e-01) (169, 4.94659159175663221131e-01) (175, -1.29517820349334140256e-02) (179, 4.10468927928904700475e-02) (187, 1.49966718172565904865e-01) (185, -3.45797060420009294557e-01) (168, -1.29024899738778398017e-01) (177, 6.86170544427565531898e-01) (183, -2.94428548819785473878e-01) (171, -1.05364255734170755852e-01) (180, 4.82014720812978192388e-01) (174, -6.75201015442829094448e-02) (178, 2.21009498432221507258e-01) (169, 7.67065473258285224212e-01) (175, 1.02004530724786635076e+00) (184, -3.03734609732734181509e-02) (187, -3.81105194107960898453e-01) (170, -9.33696236254489497775e-01) (174, -7.74616214811743170054e-02) (169, -1.48344589307250307453e-01) (167, 2.51698254648686836621e-01) (181, 6.87270068183534865724e-01) (182, -6.88169989151609984290e-01) (185, 9.65077995188009102323e-02) (186, 2.08111350691172508620e-01) (178, -3.35960834620402049033e-01) (171, 3.06211323234007293248e-01) (180, -1.14075449858673483305e+00) (187, 1.72822182192509041232e-02) (167, -1.61412327433148095057e-01) (168, 5.94831550453045476701e-02) (180, 1.10294379340150050517e+00) (181, -3.07579446867808803390e-01) (183, -1.92341678131004756303e+00) (173, -7.81915638612850627531e-02) (172, 1.32255964708485551640e+00) (170, 1.20811302837813661082e-01) (178, 5.67407973942128496248e-01) (176, -1.63909187025963087869e+00) (182, 4.02844087654292193346e-01) (187, -4.05457189643884385877e-01) (176, 7.59884600501868012756e-01) (178, -2.17808680495435585955e-01) (175, 4.91106923257616893863e-03) (172, 7.10686643638568649184e-02) (171, 3.29587820245900664506e-01) (167, 6.72010238044220331588e-01) (177, 5.05435351444600833304e-01) (173, -8.64426438838045707591e-02) (165, 1.86831811098142425154e-01) (180, -5.50561492122332518662e-01) (179, 5.99706472381564381635e-01) (187, 4.33822002929170266738e-02) (177, 1.05755376682797413990e-01) (168, 1.39186823315971319737e-01) (171, 3.60741575383371482211e-01) (166, -1.18996100050823772065e+00) (174, -8.95818183867773010221e-01) (185, -3.29824325101851945075e-01) (167, 6.16652696816628737020e-02) (173, -3.43075788244106172353e-01) (183, -5.60472012738805425158e-01) (180, -1.22583676252839265941e-01) (170, 2.76129400283518955383e-01) (187, -3.92218399432480213651e-01) (165, 2.11206836936744934974e+00) (186, 1.70971366081976583473e+00) (181, 5.02645336839973144727e-01) (167, 5.54689419062236788172e-01) (175, -1.57583560757118129603e-01) (179, -3.89297548570210261154e-01) (182, -2.74760743915357263933e-01) (185, -3.82756728905423726506e-01) (174, 4.34064251340195883522e-01) (184, -2.34912443763130918128e+00) (171, 3.13155184726988777832e-01) (187, 1.77657700779070060193e-01) (178, 8.00316767743730506091e-01) (177, -7.21896359367830281473e-02) (173, 6.23792906244784894909e-01) (167, -1.13207153947442096253e+00) (176, -1.41946537691118068736e+00) (185, -2.53799509680960611036e+00) (169, 6.10296881477797037441e-01) (179, -8.23052844735412514332e-01) (184, -1.27252032247029880224e-03) (170, 2.27826361219279904802e+00) (168, -4.13685563965283109589e-01) (187, 2.90229279156412389717e-01) (184, 7.49440925486173137315e-01) (175, -2.84118546040416586340e-01) (166, 5.07218348177064237703e-01) (176, -6.15691128262071840638e-01) (168, 1.00572885253734270461e-01) (183, -5.99491434297484415694e-01) (165, 1.11769878917111056826e-01) (185, -2.08503471768896364580e+00) (174, 3.14116093567922693985e-01) (178, -1.66237933861591108409e-01) (182, 9.81843349051274572048e-02) (187, -4.75951328764713244013e-01) (170, -1.31970464625101424616e+00) (172, -4.80099436366201309800e-02) (169, -6.29361789078816125098e-01) (167, 3.32842900031493582613e-01) (168, 2.36163680439478579354e-01) (178, -2.12739966769253080470e-01) (179, 7.00912952226814711665e-01) (176, 4.71904754570175277717e-01) (185, 1.57933032089641978146e+00) (173, -1.24453909769505518916e-03) (174, -2.43808681697607693151e-01) (187, -3.54023077106414174597e-01) (166, 6.29283976778629461357e-01) (173, -1.75022948603521216748e-01) (172, 3.79516992560703925186e-01) (182, -4.31732221248342484810e-01) (181, 1.06796017053347136461e+00) (180, -5.37800189886384671922e-01) (169, -3.71940045645600958490e-01) (175, -8.37092190168979150000e-02) (185, 1.40127614780577475218e-01) (178, -2.45348390361552343153e-01) (167, 5.02173820689341354750e-01) (187, -4.38593785473928132745e-01) (169, -3.90481626889046362638e-01) (173, -1.09773766234348979509e-01) (168, 6.60560027472948840810e-01) (184, -1.37219071175680107366e-01) (182, -5.46164786976895411108e-01) (177, 4.52300908436802984181e-01) (176, 5.83846037655889049667e-01) (183, 2.18126078205582579761e-02) (185, 8.04631490543882166300e-01) (178, -1.27555808080767968393e-01) (179, 1.68513045033009833951e+00) (187, -3.52580073185507880673e-01) (175, -2.06970665828462990765e-02) (174, 2.90059934974860322843e-01) (184, -1.85972818861097094478e-01) (179, -7.65089573090894925489e-02) (178, 5.57492336091596624170e-02) (177, 4.80994757917596937880e-01) (183, -3.15667523646915929025e-02) (166, 2.89131185022958758779e-01) (172, -1.37930600391036578545e-01) (165, 2.87414306384182804965e-01) (168, 1.62898683936730542809e-01) (187, 5.21025784838011762901e-02) (171, 3.30631256739015833013e-01) (173, -2.36310551433936755217e+00) (180, -2.66216992822857601020e-01) (175, 7.04346167482266638515e-01) (181, 2.43997100882659978538e+00) (182, 8.46536321161920068956e-02) (179, 5.06510121366361598660e+00) (165, 5.00717197177556472276e-01) (183, -1.36947422099450033528e+00) (172, -5.88024283120203272723e-01) (174, 7.34279522148073038323e+00) (187, 2.39246935592890730415e-01) (172, 8.72725116832851754989e-02) (175, -1.62464197174233021537e-01) (169, 2.50696014215364082478e-01) (180, 1.94492668304726640249e-01) (183, -6.55502804383688353340e-01) (178, 1.54779419312815358367e-01) (181, -2.68713666979354481867e+00) (184, 5.03606395450564070515e-01) (165, 2.13359783764218463586e-01) (168, 1.65040010073644410893e-01) (185, -2.24046492865162066854e-01) (187, 5.72394719813116292784e-01) (175, 4.84643938798770346210e+00) (176, -4.75484659088671379745e-01) (180, 1.45958213472151872026e+01) (173, 4.30487501712569109458e+00) (178, 9.08538827162042039731e+00) (181, -2.45549196547566195292e+00) (170, 3.33119191905828904154e+00) (167, -3.55126569828204008417e-01) (182, 1.02812304163699756998e+01) (171, -2.03451138600256910272e-02) (183, 1.76034987922386060299e-01) (187, 1.43769326396127661294e-01) (168, 6.46934090226808478086e-01) (173, -3.17422026084277164593e-01) (175, -3.29998973129230543933e-01) (179, 3.73090190003997745904e+00) (172, -9.24433577262978728450e-02) (180, -6.14703838379954792259e-01) (185, 4.23732476606139940589e-01) (183, -1.20508450770086442128e-01) (169, 1.69100105721810035908e-02) (182, 3.18510643318791336620e-02) (178, -3.81010846436963368511e-01) (187, -2.75041136190681163864e-02) (167, 1.80362909486050410068e-01) (182, -9.11373867942765966688e-03) (181, 1.77146016609496498306e-01) (183, -6.38398513410767032283e-01) (172, -2.12540448093867295754e+00) (176, 4.19517856423085241935e-02) (173, -2.36827236233669663479e-01) (178, -3.58320555966957610128e-01) (174, 4.87698298486231196502e-01) (177, 1.27571910377791430946e+00) (166, 2.27035687097798338785e-01) (187, 9.45191440994337661596e-02) (182, 1.04473380371901666819e-01) (178, 5.59242779128249489773e-01) (180, 4.58193946535642215867e-01) (168, -4.23155597707656871975e-01) (167, -3.27278770002491281588e-01) (184, 2.33093311979780365428e-01) (174, 1.16905773879095509216e+00) (166, -2.25866691319864809628e-01) (177, 1.08402288495401025181e-01) (169, 4.14151801173863520766e-01) (171, -1.99516027554914016084e-01) (187, 6.90037610066694395705e-01) (165, -1.53732819256870101299e-01) (167, -6.77224160496438520873e-01) (185, -1.82793351624801236888e+00) (173, 5.71376723822033860678e-01) (172, 9.82376632615774153523e-02) (175, -6.10106619896779500678e-01) (169, 7.47388582451431471299e-01) (170, 3.75421840148668062298e+00) (176, -3.70584250994545116864e-01) (171, -4.86448824558834425069e-02) (180, 6.66349341642589743095e-01) (187, 1.05515935705534323608e-02) (173, -2.49520034612570523747e-01) (179, 6.39334762162254155449e-02) (183, -6.31307466261548322350e-01) (186, 9.37053786324929638418e-01) (176, -4.30804035287182751635e-01) (170, 2.34088216925457393014e-01) (171, 2.90236818148945807661e-01) (169, -6.01897094632128926150e-02) (178, -2.80667275736058818847e-01) (185, -6.82711965231667106124e-01) (166, 2.21659726337826434861e-01) (187, 1.47345789917684488746e-01) (171, 3.91020421968659825929e-01) (186, 1.20415290004478325869e+00) (168, 1.46062705999745051644e-01) (185, -3.21759065247686271150e-01) (181, 7.57232675931114873613e-01) (169, 2.70956192528373773776e-02) (173, -6.42024485577433856598e-01) (179, 4.49921658773272781229e-01) (178, -9.28236745931994150505e-02) (170, 7.97709983920925624901e-01) (180, 2.88592985620090225485e-01) (211, -6.36815889641355492579e-01) (189, -7.77630160131574155180e-01) (192, 3.46139669361432700256e-01) (193, 8.33458239378218945781e-01) (196, 1.11674860231806372113e+00) (204, -3.08265512648660477968e-01) (205, -3.75282961041391582846e-01) (206, 8.91620481098717165835e-01) (208, -4.99665921475992647061e-01) (209, 1.10188483282027704924e+00) (200, 6.37126064071654507615e-01) (190, 3.21522528849737920797e-01) (211, -3.70062523453964953291e-01) (188, -1.27560393911768876762e-01) (190, 7.49756873154684838623e-02) (191, 5.11498605254156357702e-01) (194, 2.21238034480115669522e-01) (195, 5.52520896199622635336e-01) (197, 1.53607657861938640131e-01) (198, 5.43908568917154111588e-01) (199, 5.01202593803991569565e-01) (201, 5.44983566072376079958e-01) (202, -6.22951337250461992245e-02) (203, 1.17469803927844035352e-01) (207, 2.23144135488564349101e-01) (211, -2.07655333544082137953e-01) (200, 6.36663702490755989416e-01) (210, -3.62563795786040643510e-01) (202, -1.92687348314616119227e-01) (209, -6.38234172402642130351e-01) (205, 8.27617376370118063011e-02) (206, -1.20631315421462770310e-01) (199, 7.35087087169469244330e-01) (208, -3.52697082405100059699e-01) (190, -2.26891448970627268578e-01) (194, -1.90479607928296906794e-01) (204, -7.11338950286661164668e-01) (193, 6.24981374243785525735e-01) 
