FANN_FLO_2.1
num_layers=5
learning_rate=0.700000
connection_rate=0.600000
network_type=0
learning_momentum=0.000000
training_algorithm=2
train_error_function=1
train_stop_function=0
cascade_output_change_fraction=0.010000
quickprop_decay=-0.000100
quickprop_mu=1.750000
rprop_increase_factor=1.225000
rprop_decrease_factor=0.325000
rprop_delta_min=-10.000000
rprop_delta_max=10.000000
rprop_delta_zero=0.100000
cascade_output_stagnation_epochs=12
cascade_candidate_change_fraction=0.010000
cascade_candidate_stagnation_epochs=12
cascade_max_out_epochs=150
cascade_max_cand_epochs=150
cascade_num_candidate_groups=2
bit_fail_limit=5.00000000000000027756e-02
cascade_candidate_limit=1.00000000000000000000e+03
cascade_weight_multiplier=4.00000000000000022204e-01
cascade_activation_functions_count=10
cascade_activation_functions=3 5 7 8 10 11 14 15 16 17 
cascade_activation_steepnesses_count=4
cascade_activation_steepnesses=2.50000000000000000000e-01 5.00000000000000000000e-01 7.50000000000000000000e-01 1.00000000000000000000e+00 
layer_sizes=143 41 42 43 4 
scale_included=0
neurons (num_inputs, activation_function, activation_steepness)=(0, 0, 0.00000000000000000000e+00) (0, 0, 0.00000000000000000000e+00) (0, 0, 0.00000000000000000000e+00) (0, 0, 0.00000000000000000000e+00) (0, 0, 0.00000000000000000000e+00) (0, 0, 0.00000000000000000000e+00) (0, 0, 0.00000000000000000000e+00) (0, 0, 0.00000000000000000000e+00) (0, 0, 0.00000000000000000000e+00) (0, 0, 0.00000000000000000000e+00) (0, 0, 0.00000000000000000000e+00) (0, 0, 0.00000000000000000000e+00) (0, 0, 0.00000000000000000000e+00) (0, 0, 0.00000000000000000000e+00) (0, 0, 0.00000000000000000000e+00) (0, 0, 0.00000000000000000000e+00) (0, 0, 0.00000000000000000000e+00) (0, 0, 0.00000000000000000000e+00) (0, 0, 0.00000000000000000000e+00) (0, 0, 0.00000000000000000000e+00) (0, 0, 0.00000000000000000000e+00) (0, 0, 0.00000000000000000000e+00) (0, 0, 0.00000000000000000000e+00) (0, 0, 0.00000000000000000000e+00) (0, 0, 0.00000000000000000000e+00) (0, 0, 0.00000000000000000000e+00) (0, 0, 0.00000000000000000000e+00) (0, 0, 0.00000000000000000000e+00) (0, 0, 0.00000000000000000000e+00) (0, 0, 0.00000000000000000000e+00) (0, 0, 0.00000000000000000000e+00) (0, 0, 0.00000000000000000000e+00) (0, 0, 0.00000000000000000000e+00) (0, 0, 0.00000000000000000000e+00) (0, 0, 0.00000000000000000000e+00) (0, 0, 0.00000000000000000000e+00) (0, 0, 0.00000000000000000000e+00) (0, 0, 0.00000000000000000000e+00) (0, 0, 0.00000000000000000000e+00) (0, 0, 0.00000000000000000000e+00) (0, 0, 0.00000000000000000000e+00) (0, 0, 0.00000000000000000000e+00) (0, 0, 0.00000000000000000000e+00) (0, 0, 0.00000000000000000000e+00) (0, 0, 0.00000000000000000000e+00) (0, 0, 0.00000000000000000000e+00) (0, 0, 0.00000000000000000000e+00) (0, 0, 0.00000000000000000000e+00) (0, 0, 0.00000000000000000000e+00) (0, 0, 0.00000000000000000000e+00) (0, 0, 0.00000000000000000000e+00) (0, 0, 0.00000000000000000000e+00) (0, 0, 0.00000000000000000000e+00) (0, 0, 0.00000000000000000000e+00) (0, 0, 0.00000000000000000000e+00) (0, 0, 0.00000000000000000000e+00) (0, 0, 0.00000000000000000000e+00) (0, 0, 0.00000000000000000000e+00) (0, 0, 0.00000000000000000000e+00) (0, 0, 0.00000000000000000000e+00) (0, 0, 0.00000000000000000000e+00) (0, 0, 0.00000000000000000000e+00) (0, 0, 0.00000000000000000000e+00) (0, 0, 0.00000000000000000000e+00) (0, 0, 0.00000000000000000000e+00) (0, 0, 0.00000000000000000000e+00) (0, 0, 0.00000000000000000000e+00) (0, 0, 0.00000000000000000000e+00) (0, 0, 0.00000000000000000000e+00) (0, 0, 0.00000000000000000000e+00) (0, 0, 0.00000000000000000000e+00) (0, 0, 0.00000000000000000000e+00) (0, 0, 0.00000000000000000000e+00) (0, 0, 0.00000000000000000000e+00) (0, 0, 0.00000000000000000000e+00) (0, 0, 0.00000000000000000000e+00) (0, 0, 0.00000000000000000000e+00) (0, 0, 0.00000000000000000000e+00) (0, 0, 0.00000000000000000000e+00) (0, 0, 0.00000000000000000000e+00) (0, 0, 0.00000000000000000000e+00) (0, 0, 0.00000000000000000000e+00) (0, 0, 0.00000000000000000000e+00) (0, 0, 0.00000000000000000000e+00) (0, 0, 0.00000000000000000000e+00) (0, 0, 0.00000000000000000000e+00) (0, 0, 0.00000000000000000000e+00) (0, 0, 0.00000000000000000000e+00) (0, 0, 0.00000000000000000000e+00) (0, 0, 0.00000000000000000000e+00) (0, 0, 0.00000000000000000000e+00) (0, 0, 0.00000000000000000000e+00) (0, 0, 0.00000000000000000000e+00) (0, 0, 0.00000000000000000000e+00) (0, 0, 0.00000000000000000000e+00) (0, 0, 0.00000000000000000000e+00) (0, 0, 0.00000000000000000000e+00) (0, 0, 0.00000000000000000000e+00) (0, 0, 0.00000000000000000000e+00) (0, 0, 0.00000000000000000000e+00) (0, 0, 0.00000000000000000000e+00) (0, 0, 0.00000000000000000000e+00) (0, 0, 0.00000000000000000000e+00) (0, 0, 0.00000000000000000000e+00) (0, 0, 0.00000000000000000000e+00) (0, 0, 0.00000000000000000000e+00) (0, 0, 0.00000000000000000000e+00) (0, 0, 0.00000000000000000000e+00) (0, 0, 0.00000000000000000000e+00) (0, 0, 0.00000000000000000000e+00) (0, 0, 0.00000000000000000000e+00) (0, 0, 0.00000000000000000000e+00) (0, 0, 0.00000000000000000000e+00) (0, 0, 0.00000000000000000000e+00) (0, 0, 0.00000000000000000000e+00) (0, 0, 0.00000000000000000000e+00) (0, 0, 0.00000000000000000000e+00) (0, 0, 0.00000000000000000000e+00) (0, 0, 0.00000000000000000000e+00) (0, 0, 0.00000000000000000000e+00) (0, 0, 0.00000000000000000000e+00) (0, 0, 0.00000000000000000000e+00) (0, 0, 0.00000000000000000000e+00) (0, 0, 0.00000000000000000000e+00) (0, 0, 0.00000000000000000000e+00) (0, 0, 0.00000000000000000000e+00) (0, 0, 0.00000000000000000000e+00) (0, 0, 0.00000000000000000000e+00) (0, 0, 0.00000000000000000000e+00) (0, 0, 0.00000000000000000000e+00) (0, 0, 0.00000000000000000000e+00) (0, 0, 0.00000000000000000000e+00) (0, 0, 0.00000000000000000000e+00) (0, 0, 0.00000000000000000000e+00) (0, 0, 0.00000000000000000000e+00) (0, 0, 0.00000000000000000000e+00) (0, 0, 0.00000000000000000000e+00) (0, 0, 0.00000000000000000000e+00) (0, 0, 0.00000000000000000000e+00) (0, 0, 0.00000000000000000000e+00) (0, 0, 0.00000000000000000000e+00) (0, 0, 0.00000000000000000000e+00) (0, 0, 0.00000000000000000000e+00) (86, 5, 5.00000000000000000000e-01) (86, 5, 5.00000000000000000000e-01) (86, 5, 5.00000000000000000000e-01) (86, 5, 5.00000000000000000000e-01) (87, 5, 5.00000000000000000000e-01) (86, 5, 5.00000000000000000000e-01) (86, 5, 5.00000000000000000000e-01) (86, 5, 5.00000000000000000000e-01) (86, 5, 5.00000000000000000000e-01) (87, 5, 5.00000000000000000000e-01) (86, 5, 5.00000000000000000000e-01) (86, 5, 5.00000000000000000000e-01) (86, 5, 5.00000000000000000000e-01) (86, 5, 5.00000000000000000000e-01) (87, 5, 5.00000000000000000000e-01) (86, 5, 5.00000000000000000000e-01) (86, 5, 5.00000000000000000000e-01) (86, 5, 5.00000000000000000000e-01) (86, 5, 5.00000000000000000000e-01) (87, 5, 5.00000000000000000000e-01) (86, 5, 5.00000000000000000000e-01) (86, 5, 5.00000000000000000000e-01) (86, 5, 5.00000000000000000000e-01) (86, 5, 5.00000000000000000000e-01) (87, 5, 5.00000000000000000000e-01) (86, 5, 5.00000000000000000000e-01) (86, 5, 5.00000000000000000000e-01) (86, 5, 5.00000000000000000000e-01) (86, 5, 5.00000000000000000000e-01) (87, 5, 5.00000000000000000000e-01) (86, 5, 5.00000000000000000000e-01) (86, 5, 5.00000000000000000000e-01) (86, 5, 5.00000000000000000000e-01) (86, 5, 5.00000000000000000000e-01) (87, 5, 5.00000000000000000000e-01) (86, 5, 5.00000000000000000000e-01) (86, 5, 5.00000000000000000000e-01) (86, 5, 5.00000000000000000000e-01) (86, 5, 5.00000000000000000000e-01) (87, 5, 5.00000000000000000000e-01) (0, 5, 0.00000000000000000000e+00) (25, 5, 5.00000000000000000000e-01) (25, 5, 5.00000000000000000000e-01) (25, 5, 5.00000000000000000000e-01) (25, 5, 5.00000000000000000000e-01) (25, 5, 5.00000000000000000000e-01) (25, 5, 5.00000000000000000000e-01) (25, 5, 5.00000000000000000000e-01) (25, 5, 5.00000000000000000000e-01) (25, 5, 5.00000000000000000000e-01) (25, 5, 5.00000000000000000000e-01) (25, 5, 5.00000000000000000000e-01) (25, 5, 5.00000000000000000000e-01) (25, 5, 5.00000000000000000000e-01) (25, 5, 5.00000000000000000000e-01) (25, 5, 5.00000000000000000000e-01) (25, 5, 5.00000000000000000000e-01) (25, 5, 5.00000000000000000000e-01) (25, 5, 5.00000000000000000000e-01) (25, 5, 5.00000000000000000000e-01) (25, 5, 5.00000000000000000000e-01) (25, 5, 5.00000000000000000000e-01) (25, 5, 5.00000000000000000000e-01) (25, 5, 5.00000000000000000000e-01) (25, 5, 5.00000000000000000000e-01) (25, 5, 5.00000000000000000000e-01) (25, 5, 5.00000000000000000000e-01) (25, 5, 5.00000000000000000000e-01) (25, 5, 5.00000000000000000000e-01) (25, 5, 5.00000000000000000000e-01) (25, 5, 5.00000000000000000000e-01) (25, 5, 5.00000000000000000000e-01) (25, 5, 5.00000000000000000000e-01) (25, 5, 5.00000000000000000000e-01) (25, 5, 5.00000000000000000000e-01) (25, 5, 5.00000000000000000000e-01) (25, 5, 5.00000000000000000000e-01) (25, 5, 5.00000000000000000000e-01) (25, 5, 5.00000000000000000000e-01) (25, 5, 5.00000000000000000000e-01) (25, 5, 5.00000000000000000000e-01) (25, 5, 5.00000000000000000000e-01) (0, 5, 0.00000000000000000000e+00) (25, 5, 5.00000000000000000000e-01) (26, 5, 5.00000000000000000000e-01) (25, 5, 5.00000000000000000000e-01) (26, 5, 5.00000000000000000000e-01) (25, 5, 5.00000000000000000000e-01) (26, 5, 5.00000000000000000000e-01) (26, 5, 5.00000000000000000000e-01) (25, 5, 5.00000000000000000000e-01) (26, 5, 5.00000000000000000000e-01) (25, 5, 5.00000000000000000000e-01) (26, 5, 5.00000000000000000000e-01) (26, 5, 5.00000000000000000000e-01) (25, 5, 5.00000000000000000000e-01) (26, 5, 5.00000000000000000000e-01) (25, 5, 5.00000000000000000000e-01) (26, 5, 5.00000000000000000000e-01) (26, 5, 5.00000000000000000000e-01) (25, 5, 5.00000000000000000000e-01) (26, 5, 5.00000000000000000000e-01) (25, 5, 5.00000000000000000000e-01) (26, 5, 5.00000000000000000000e-01) (26, 5, 5.00000000000000000000e-01) (25, 5, 5.00000000000000000000e-01) (26, 5, 5.00000000000000000000e-01) (25, 5, 5.00000000000000000000e-01) (26, 5, 5.00000000000000000000e-01) (26, 5, 5.00000000000000000000e-01) (25, 5, 5.00000000000000000000e-01) (26, 5, 5.00000000000000000000e-01) (25, 5, 5.00000000000000000000e-01) (26, 5, 5.00000000000000000000e-01) (26, 5, 5.00000000000000000000e-01) (25, 5, 5.00000000000000000000e-01) (26, 5, 5.00000000000000000000e-01) (25, 5, 5.00000000000000000000e-01) (26, 5, 5.00000000000000000000e-01) (26, 5, 5.00000000000000000000e-01) (25, 5, 5.00000000000000000000e-01) (26, 5, 5.00000000000000000000e-01) (25, 5, 5.00000000000000000000e-01) (26, 5, 5.00000000000000000000e-01) (26, 5, 5.00000000000000000000e-01) (0, 5, 0.00000000000000000000e+00) (26, 5, 5.00000000000000000000e-01) (26, 5, 5.00000000000000000000e-01) (27, 5, 5.00000000000000000000e-01) (0, 5, 0.00000000000000000000e+00) 
connections (connected_to_neuron, weight)=(142, -3.06733794457637098940e-01) (73, 6.46368273780020041741e-01) (112, 8.76474278385867833219e-02) (42, 4.11014612565742953887e-01) (29, -7.99829037079247684439e-01) (52, 5.33957304804571264434e-01) (68, 6.27252931454696294189e-01) (72, 5.47352896155188894944e-01) (140, 5.51595573121850368814e-01) (124, 6.43719917165088806321e-01) (79, 7.16071132317512626386e-01) (123, 6.31414285062856173170e+00) (130, 1.17550106691537847858e+00) (53, 6.03958838876806902718e-01) (126, 5.32940885619093696057e-01) (59, 3.99346436551534900161e-01) (76, 3.35585551269974746713e-01) (15, 7.63491250569056845166e+00) (31, 3.51081931757386667137e-01) (108, -8.37355817048038297834e-01) (18, 1.50000000000000000000e+03) (67, 4.80915440845903485734e-01) (16, 1.65140061570736995655e+00) (0, 5.40328470480952560706e-01) (129, 4.84697155883577535107e-01) (116, 5.53481327025254321583e-01) (11, -3.51367344124999647637e-01) (12, -7.05106532396234886306e-01) (56, 6.13830033964617549636e-01) (104, -7.14444142754187216937e-01) (38, -8.65417237216134616062e-01) (106, -4.58492305542325187528e-02) (86, 5.75352317780240762879e-01) (111, 8.02725859621458703863e-01) (110, 6.86370013934854528159e-01) (36, 8.43125501185955861239e-01) (122, 5.87125420795783892203e-01) (95, 4.93972123154817088775e-01) (61, 6.34397567536427176016e-01) (25, 1.58861734267719059699e-02) (47, 5.59387947608008029299e-01) (40, -1.75941782061038942686e+00) (78, 2.13501498655832538942e-01) (132, 5.82180046565795694669e-01) (120, 6.24745990794384198352e-01) (35, 1.90505643915775269015e+00) (118, 5.11613145058067209092e-01) (107, -1.25805005059953095570e-02) (49, 6.23984414237870210762e-01) (3, 6.10340296550855310187e-01) (117, 5.96312364982146458914e-01) (100, 9.71977563267736988095e-01) (114, -1.04411489091212325575e-01) (54, 4.79861202348044080246e-01) (17, 1.50000000000000000000e+03) (91, 6.15080815372358813420e-01) (55, 5.75254886709685941959e-01) (60, -1.19261128959113296699e-01) (43, 2.40063675040267487937e-01) (69, 6.51987501831790994267e-01) (84, 5.26437948236392672108e-01) (81, 5.06347006377432240498e-01) (27, -1.72859240577457229371e+00) (14, 1.34515864393089878970e-01) (44, -7.68934150629321022663e-01) (89, 1.50000000000000000000e+03) (96, 4.31958242912476753084e-01) (113, -9.92927359280269122843e-02) (24, 5.08582647290285350117e-01) (97, 6.24308801895185783160e-01) (8, 2.97786431807641638336e-01) (57, 6.29956542787242224080e-01) (6, -1.07795887738806062117e+00) (62, 7.11184224764558781118e-01) (30, -6.72247230942474294224e-01) (127, 5.21654429368875294237e-01) (70, 6.27697709224619426749e-01) (77, 7.12038600264917609373e-01) (65, 5.50621333676492352716e-01) (75, 5.41866238521541698780e-01) (74, 5.89680620104709674045e-01) (93, -5.77002103893765327935e-02) (82, 3.81343954384138061897e+00) (141, 5.15852307362762885212e-01) (133, 6.33120693876349283080e-01) (4, 5.81629617897575279528e-01) (142, 1.12076915473950555757e+00) (38, -1.72878230478785782642e-01) (90, 1.50000000000000000000e+03) (108, -1.43084363453840124336e-01) (113, 1.73350144528406940880e-01) (13, 4.51215256497468492070e-02) (119, 1.47506517605486664468e-01) (62, -9.36998207032099572622e-01) (91, -2.16710369274066971812e+00) (128, -4.37561771567522461712e-01) (138, -5.02577760063650624822e-01) (3, -3.33187633700550656091e-01) (69, -4.51169280457230814640e-01) (81, -1.61821310360785597382e+00) (71, -3.80514103319072094500e-01) (84, 2.79466599149239047772e-01) (97, 6.08859116484310458617e-01) (122, -5.23668439441964284065e-01) (92, 1.07327037154807447550e+00) (39, 1.22261845692714032907e-01) (136, -5.29659513170549156591e-01) (57, -5.55202052148174862722e-01) (35, 1.03095795311123561433e-01) (25, -4.62984830626354149086e-01) (68, 1.45646570046225803940e-01) (99, -1.29003846565770907695e-01) (137, 6.68397518495238984748e-02) (30, 3.83343278386564845217e-01) (100, 1.11929356813586469710e-01) (52, -3.01414655732341940642e-01) (107, 9.15884674846637714118e-01) (140, -5.22106061489798989328e-01) (121, 8.14272705974053989664e-01) (45, 8.88213409869075404268e-02) (40, -1.32618121961062346292e-01) (88, 1.50000000000000000000e+03) (74, 1.20788370492821606206e+00) (29, -1.82549337243254644614e-01) (78, -1.96857594476472330669e-01) (36, 5.44704737526671561865e-02) (21, 1.92659444133962853840e-01) (77, -6.15036940851085733861e-01) (24, 6.98045778865782229339e-01) (53, -4.60188217998725279667e-01) (43, -1.50341271662476738680e-01) (23, -7.28971230321743157710e-01) (126, -5.27817061507932394626e-01) (41, 1.53535018288126545727e-01) (129, -3.57901195748570932764e-01) (10, 2.76428505280529208943e-02) (11, -3.24778990712027912369e-02) (48, -6.35029464652866137975e-01) (134, -5.66677744608934275128e-01) (14, -3.77136676676838478173e-01) (8, 1.27495764096187180758e-01) (2, -2.02209336526005922785e-01) (37, 1.83435913655848548132e-01) (76, -1.28062229269895327954e-01) (89, 1.50000000000000000000e+03) (26, -2.36433398467623540062e-01) (18, 1.50000000000000000000e+03) (125, -4.92257592449918568445e-01) (98, -1.68400116926470344580e+00) (115, -4.37344376379521948550e-01) (106, 1.02268511668754791266e+00) (103, 9.71384426356751373710e-01) (9, -8.41795888728341656915e-02) (93, -2.98634353284205678047e-01) (118, 9.37204422087989263979e-01) (49, -6.89824269976046733355e-01) (63, 2.22082255034180064968e+00) (82, 1.89443927091672917329e-02) (70, -5.74396441364484866554e-01) (79, -1.05130309999901006002e+00) (131, -8.30760620246004277689e-01) (96, 2.92454272210881160987e+00) (64, -7.82500426743618859859e-01) (73, 1.24540538727249766593e-01) (66, -6.76532446096549833214e-01) (60, -7.65807554591235506436e-01) (51, 2.59796580464602122618e+00) (67, -7.07972039770031313921e-01) (4, 2.24759015127302314019e-01) (32, -4.55283683542537065403e-01) (1, -2.76339640848453582667e-01) (123, -2.92135194063523417896e+00) (142, 1.45098329659413743942e-01) (9, -7.06365177279433820168e-01) (39, 2.92953723023013257176e-01) (51, 1.71970520483290881253e-02) (74, 4.85056012378836942656e-02) (113, -8.38464472584638853547e-01) (121, -2.97301206450186102093e-03) (123, -1.36015359334717950146e-01) (125, 9.38191854612864702123e-03) (55, -1.30050521826418408189e-01) (64, -2.03363169076566402405e-01) (59, -1.86113485320845595261e+00) (138, -2.37238884146347278614e-02) (84, -5.52168173128757655554e-01) (86, -4.02431098586388480420e-01) (87, -1.70392228691514047156e-01) (129, -8.71186853512806169686e-02) (19, 1.50000000000000000000e+03) (72, -1.08562917899731173343e-01) (43, -1.47524635960299049797e-01) (57, -6.85651629564636988512e-02) (24, -4.37282589396509602242e-02) (42, 1.29634786924892653204e+00) (46, 6.44022204898288208597e-01) (6, 3.78560554591702569383e-01) (50, 8.89866914441334921904e-01) (61, 3.33737467766015039050e-01) (53, 2.87578962779376501313e-02) (83, -4.51714991383261529889e-02) (18, 1.50000000000000000000e+03) (116, 2.83862896038202361382e-01) (90, 1.50000000000000000000e+03) (36, 6.88673907633264303918e-01) (109, -2.44682226980044337239e+00) (12, -1.56608648195991240204e-01) (98, -5.57304860452639383439e-01) (117, -6.39735350542969705145e-01) (93, 9.71560631487482950774e-01) (88, 1.50000000000000000000e+03) (103, 3.01455280315964135873e-01) (67, 3.66551579524997533932e-02) (101, 1.06855819917166439126e+00) (85, -3.99686178588145479829e-01) (108, -2.54165577713634516233e-01) (4, 9.81589088974724854886e-01) (16, 5.00444826022575117719e-01) (135, 9.20132902073996644665e-02) (1, 2.87797772907795401665e-01) (23, 1.32359486389640484960e-01) (34, -5.99996772921054799532e-02) (49, 2.36676932186627220212e-01) (14, 5.00369585701953778489e-01) (82, 4.09646180432585382825e-01) (105, 1.96296497313426993037e-01) (132, -7.57415742819804727048e-02) (25, 2.04994180336705733581e+00) (73, 3.82853841373744507859e-02) (40, 7.14676711365766159645e-01) (5, -1.16628699463986129636e-01) (66, 1.29697284285179154084e-01) (60, 4.42669570876030427087e-01) (65, -1.17953039759772587702e-01) (110, -7.05928109441271572910e-02) (78, -4.38112178374942373704e-01) (127, -4.90062970869591303137e-04) (106, 3.26251460751852406794e-01) (70, -1.84317877295076121280e-02) (112, 2.95770166333314987739e-01) (111, -5.64682402214288226006e-01) (33, -1.45485211405328906942e+00) (29, -9.96230731771439725897e-01) (96, 1.85591715610116912705e-02) (114, -6.64107444582346606587e-01) (37, 7.04960027176838810448e-01) (122, 7.90411774012749791807e-03) (128, -1.11203673055045443308e-02) (54, -7.29530129158875995099e-02) (126, 2.05087103930550740394e-01) (97, 5.25830769627508742836e-01) (20, 1.91698059356399663766e-02) (13, -8.77437113975456095538e-02) (130, -4.75749821839425036246e-03) (3, 3.84617077477398094931e-01) (28, 6.45932067766165185496e-01) (91, -1.23233782120203846921e-01) (124, -2.86221786764985462737e-02) (142, 1.99143022802895475198e-01) (23, 1.43975957814196170448e-01) (44, -8.31662101278788506997e-02) (78, -3.09714806046012813834e-01) (85, -2.95971175936340202828e-01) (132, 1.24810352485773518039e-01) (68, 1.60635121210040976436e-02) (90, 1.50000000000000000000e+03) (59, -1.04766681475574574556e+00) (45, 7.17838034762705995417e-02) (20, -8.07318398141751297770e-02) (55, -1.51282910753256033543e-01) (43, 1.07459656984362481036e-01) (105, 2.60238700091752939159e+00) (47, 9.21529334319831361366e-02) (84, -1.68369362173971803820e-01) (110, 1.44892818490653357832e-01) (66, 1.36358164928156000428e-01) (111, -1.03305395122479909409e-01) (107, 2.28309169912280562897e-01) (135, -4.84041891194134238363e-02) (122, 9.86993486459355612306e-02) (49, 2.39324801979640455762e-01) (27, -2.47296781792220643492e-01) (51, 2.26141673980911235564e-02) (39, 4.05780371416493423897e-03) (139, -1.10218393766405367562e-01) (48, 1.13764688204066141686e-01) (6, 1.20050585865464493063e-01) (89, 1.50000000000000000000e+03) (106, -7.76765805282812471511e-01) (80, 2.42843056005788149321e+00) (62, 9.58021593085752465324e-02) (92, 3.77120699342355703010e-01) (22, 1.58346999970797847057e-01) (128, -5.33064057129755686226e-02) (54, -1.40821825030092093178e-02) (9, -2.41613315598838668263e-01) (100, -5.99773457964719924895e-01) (2, 5.50400280058603530442e-01) (99, -2.19196216087847206566e+00) (42, 3.82102931890638986001e-01) (56, 7.87981612957321941870e-01) (5, 9.93194309452256202109e-03) (32, 1.26982342930755470745e-01) (3, 1.16572327636340719592e-01) (11, -5.47268437931298201704e-01) (33, -1.00116993100364792824e+00) (131, -7.02542316881537426410e-03) (93, 9.84580097948812515973e-01) (34, 1.14510674707893153612e-01) (36, 1.53836993453142556465e-01) (72, -5.17820391619586081755e-02) (15, -3.14783332348560623837e-02) (37, 3.55300609422050717168e-01) (41, 7.18942180684974396776e-01) (102, 1.64029578691540528501e-01) (71, -2.72850633235993189629e+00) (58, -4.18573668394173897811e-02) (25, -2.45275982431494954383e-01) (65, 3.20463982703224001258e-02) (91, 3.63405142539806602642e-02) (83, 3.38873767169600159654e-02) (69, 1.19042246408530588697e-01) (21, 7.14948117420764334140e-02) (53, 2.53487451288338834499e-02) (52, 9.64842854266072420810e-03) (17, 1.50000000000000000000e+03) (97, 6.75668584576945563391e-02) (115, -4.41417571959090093703e-01) (24, -4.98830366733874208673e-02) (70, -4.12792450403082419874e-02) (120, 6.68771647949702036096e-02) (38, 5.95798428009311709097e-01) (14, 2.85931571316016486239e-01) (134, 5.47319817454813284385e-01) (29, 1.56374957324976393558e+00) (7, -9.94889560597858046975e-02) (28, 1.30237468513942711290e+00) (8, 2.58486367151317120161e-01) (64, 2.82469069990199139752e+00) (109, -2.83811488600032635343e-01) (87, -2.62846793935134881437e-01) (130, -1.73347746896826727936e-02) (124, -4.58334525059901215505e-02) (18, 1.50000000000000000000e+03) (142, -3.25302545114378172109e-02) (3, 3.13025305146694299285e-01) (119, 2.01376358927498305684e-01) (23, 2.23170713943587506467e-01) (43, 8.98369602960867874586e-01) (84, 6.16568432886868862675e-03) (28, -1.63669689115783185684e+01) (55, -6.69877942338865106642e-02) (113, -8.55861360789910263769e-01) (75, -1.58499147002893525649e-01) (110, 9.11124691657537844058e-01) (86, -1.18007626275516730452e+00) (114, -2.59273455771651883950e+00) (82, -1.04405195720318282326e+01) (19, 1.50000000000000000000e+03) (32, -2.09455045598445771526e-01) (80, -9.44253324568047780474e+00) (21, 4.92388532947033330522e-01) (27, 1.15495025639060528988e+01) (98, -1.20700585143617402650e+01) (91, 9.71236813202875692852e-01) (62, -1.12792328964768609478e-01) (127, -1.33678155813739790725e-01) (66, 3.54193299468020528220e-01) (140, -1.61086206200345798123e-02) (38, 2.30355197760886060143e-01) (17, 1.50000000000000000000e+03) (67, 8.37732929653218993948e-01) (8, 9.36326431680021831205e-01) (39, -4.07913619446875674868e+00) (70, 1.11208906321864486877e+00) (124, -2.29243808584291303143e-01) (10, 2.23667148101518789560e-02) (137, 2.00322531111596230380e-01) (60, 7.77782201369670717073e-02) (1, 2.50885272221071042864e-01) (22, -8.84438168502723054409e-01) (103, 3.75063607031495327426e-01) (117, -3.51751490432797897512e+00) (18, 1.50000000000000000000e+03) (120, -4.10666716629540351491e-01) (11, 4.81000711499126509807e+00) (7, 2.56170589584751029477e-01) (77, 1.85832565175776709410e+00) (59, 2.87764668515596878928e-02) (0, -3.67104710361268748997e+00) (58, -3.13281330215974818110e-01) (9, 1.35361942872677354366e+00) (35, -1.92870432607208175391e+00) (53, 2.04164488126337306806e-01) (111, 1.85445143294123565569e-01) (118, 3.23459849241145847021e-01) (128, 2.41854108277260809734e-01) (41, 9.78680178966987335265e-01) (56, 3.09280545323208477804e-01) (45, -2.70068350103736731782e+00) (141, -1.33544410044448055158e-02) (44, 5.99888909967020267366e-01) (37, -7.22436104684882396398e-01) (89, 1.50000000000000000000e+03) (50, 2.27161015112511910363e-01) (47, -2.73451758431750957534e-01) (69, -5.00665828662014145145e-01) (26, -2.05888853836500712591e-01) (51, 1.14560849682694088081e-01) (92, -8.96829494281054628857e-01) (126, 2.26336716621968470076e-01) (102, 4.18951278855611508600e-01) (24, -1.50186877969002680056e-01) (122, 2.55510086279051529257e-01) (133, -3.58386263273139737962e+00) (49, 1.38067677258230520065e-01) (57, -1.82059512888412017295e-01) (107, -9.14352236327313550035e-01) (16, 1.33243884351567909441e+00) (139, 1.31602304432547945190e-01) (101, -1.17067163059482570731e+00) (65, -2.89904039195430451858e-01) (106, 2.52739634818355152213e-01) (87, 2.87970808081250062571e+00) (121, 1.18259270181888392903e-01) (33, 3.70079470849889968775e+00) (29, 4.72047921192706532167e+00) (76, -3.50407501534981735691e-01) (131, 8.69320065825428534012e-02) (72, -1.31188140692182569902e-01) (96, 9.78536165688813963648e-01) (142, -2.19619648987611970625e+00) (102, 7.42460582121819214763e+01) (122, 3.02184680645289338585e+00) (11, 3.55365678097597559315e-01) (4, 7.88715670129945034539e-01) (39, 8.23421353126695265701e+00) (41, 1.18135195888595689873e+00) (137, 3.12470363523163907615e+00) (67, 3.12977385266136121089e+00) (104, -6.13219361970699328168e+00) (31, 1.48438605441272630792e+00) (3, 9.24480991952860153837e-01) (26, 2.84582691642277074706e+00) (18, 1.50000000000000000000e+03) (79, 2.64579942601370021737e-01) (36, -8.46337591231786090518e-02) (108, 7.04649018663144666164e-01) (92, -7.86228961524199831956e+00) (130, -6.33858197475634516094e-02) (99, 3.02295722450123927061e-01) (46, -1.67619853530553530874e+00) (106, -2.33485727413005728081e+00) (84, -2.23903232466009155521e-01) (109, 7.36875651814767707037e+00) (56, 2.09379111893171598879e+00) (110, -1.19381713247411891388e+00) (81, 1.18703817843868120185e+00) (98, -5.42458725339061054171e+00) (60, 6.71780529613805854616e-01) (75, 2.75978489643139823784e+00) (107, 6.67387917964253236935e-03) (58, 3.09574665973357809889e+00) (96, -2.71414664930041682478e-01) (21, 3.04176599456046083958e+01) (44, 4.25410548247950492939e-01) (128, 2.98042317322244976197e+00) (120, 1.33123489816325180080e+00) (136, 3.03292102124496976145e+00) (34, 2.90463107894489702687e+00) (115, 3.63430555869914329037e+00) (133, 2.16832865657089346456e+00) (25, 8.49438844024675177025e-01) (42, -4.24081174073516531386e-01) (8, -1.66513358323266136285e-01) (7, 1.95725134511841508678e-01) (139, 3.09756141680147445427e+00) (94, -4.07455044408113220555e+00) (138, 3.04619043342683326614e+00) (125, 2.93370580972026440136e+00) (88, 1.50000000000000000000e+03) (43, 5.25522030563566389105e-01) (83, 1.35458863818549679614e+00) (93, 6.10120378425270781797e-01) (85, 6.86054792952231901060e-02) (100, -8.98835047915019913489e+00) (30, 1.23785066091254591925e+01) (37, 2.81485160880286766627e+00) (103, 5.04384905550715689770e+00) (6, -1.28574415696355015548e+00) (129, 3.00251765545595628026e+00) (5, 6.29148002126917460508e-01) (48, 1.78374423057669129200e+00) (124, 3.23347059455582508392e+00) (140, 2.95837967994983941367e+00) (72, -1.57156517743131516340e+01) (27, 2.32836670879712409610e-01) (57, 3.01665147841887559821e+00) (118, 1.06865969558194229272e+00) (66, 3.26238581715735564970e+00) (77, 2.11390348302469111008e-01) (86, 5.28387926069995961242e-01) (76, 6.11498148878662828309e-01) (117, 7.09879718799453218736e-01) (24, 2.98969456832783153644e+00) (101, 4.83615007426484166952e-01) (32, 3.60694316492501254601e+00) (113, 2.84235355513307086373e-01) (70, 2.98373903741595691841e+00) (78, 7.12302138314546584574e-01) (80, 7.45449162452066049767e-01) (126, 3.06987428827469921444e+00) (38, 4.30003903967371259309e-01) (64, 1.76348101996141970460e+00) (127, 2.96459752213524874165e+00) (28, -7.85210143167676619669e+01) (114, 4.65190674840325446571e-01) (142, -4.50834856030486785805e-01) (106, -2.32789207435106249022e+00) (114, -8.33523910050482097489e-01) (120, 5.66454600392712337431e-01) (124, 3.83464204514062434459e-01) (93, -1.65316795158890506023e+00) (14, -1.90194659926564968444e+00) (63, 3.05637837614037888301e+00) (38, -8.03417672514397107619e-01) (132, 5.19708345806313309900e-01) (29, 3.81925089858363320250e-01) (103, 7.54939610155762053090e-01) (78, 1.44287140156804305491e+00) (99, 3.97244024770976034144e-01) (125, 4.46496468776448218740e-01) (31, 5.79211367252055797650e-01) (136, 4.12008156393380620131e-01) (91, 8.14113985680792295874e-01) (5, -1.63624254002217223158e-01) (58, 1.39459953107562051322e+00) (72, 2.09766379434578942309e+00) (54, 5.72095210616408000881e-01) (47, 5.99101996252013768718e-01) (15, 3.70684497323058836926e+00) (44, 7.28733004989143728913e-01) (60, -3.75265163562047510126e+00) (27, 9.08922572003422080122e-01) (95, 6.93001618815499598192e-01) (42, 3.21353218832165810070e+00) (3, 5.92413655249354853538e-01) (90, 1.50000000000000000000e+03) (22, 2.02459254935872134951e+00) (128, 5.10017855105678541427e-01) (104, -4.28667589030698292785e-01) (117, 2.76590280132831434212e-01) (8, 2.89270332718382849890e+00) (41, 3.02032099540717746677e+00) (16, 6.28519340015212879536e+00) (25, 2.01832663665301281775e-01) (80, 3.72638969518642060308e-01) (56, 7.09376688827967116779e-01) (2, 1.05716557164438160199e-01) (79, 5.85487229923000507270e-01) (83, 2.99663525567447075471e-01) (55, 1.36169393844788011450e+00) (51, 4.24179338210720624502e-01) (59, 4.21363400397814835685e-01) (61, 1.04664969386623685210e+00) (73, 2.87298228064663707659e-01) (21, 1.23717621057680631225e+01) (88, 1.50000000000000000000e+03) (85, -1.01307141425179469962e+00) (23, 5.00722746772083171507e-01) (65, 7.41087257496717222160e-01) (75, 1.31602484522945456513e-01) (105, 9.54201602560442174727e-01) (10, -3.98029870061292578853e+00) (74, 5.58597534556068975320e-01) (49, 8.28334014701990306584e-01) (121, 6.45367601944820457049e-01) (82, -5.15524877152385374579e-01) (1, 4.68706081181285150183e-01) (89, 1.50000000000000000000e+03) (134, 1.68305846879269549454e+00) (45, 3.55518432300915376842e+00) (119, 4.79936234945346118508e+00) (43, -1.95303174898820852690e+00) (84, -6.13376625595939461988e+00) (37, -4.31088277474077963269e-01) (86, 3.72846992969033141918e+00) (18, 1.50000000000000000000e+03) (34, 1.33531983087610695016e+00) (35, 4.32517921760811829834e-01) (81, 8.60480636896149619908e-01) (127, 6.30094641738889182925e-01) (77, -3.51942309249931684079e+00) (139, 4.34850930975375360443e-01) (64, 1.79715298913329357688e+00) (111, -2.15898913109457923909e+00) (62, -2.13900408638801969863e-01) (115, 1.36356261244454941561e+01) (9, -1.71405663613809100543e-01) (57, 6.96446953470610141679e-01) (26, 9.92116310413356350395e-01) (24, 2.66833385769796382903e+00) (123, 2.24050216451099037940e+00) (142, -1.48008595309882043378e-02) (76, -8.40279990668514054075e-02) (112, -1.37888151332188735321e-01) (94, 1.51544656091339768889e-01) (32, 1.05734674491248948486e-02) (75, 7.64465384201186565205e-02) (79, -7.47964129092734686388e-02) (135, -1.11728349358723155760e+00) (133, 2.34180754346058755955e-01) (93, -2.81046257309676583702e-01) (67, 5.83275104184233922355e-02) (131, 2.62433560041874902602e-01) (37, -6.99497832017881571165e-02) (7, 8.97473043856737651147e-01) (59, -2.06188348717282421418e+00) (107, 3.97533759979067868873e-01) (1, -3.93326396015397261596e-01) (38, 8.45960768862680789759e-01) (116, 1.47609806354071948498e-01) (5, 8.38308904636947849198e-01) (29, 1.82949450525684365054e+00) (65, 2.87673941941971600400e-02) (80, 2.06841245647667282270e+00) (127, 4.68353435326690908935e-02) (111, 7.47216831346404930514e-01) (99, -1.17148990330190816422e+00) (52, 1.66630851211080233121e-01) (36, 2.27016702961967897778e+00) (117, 2.81090327118240024262e+00) (43, 1.90482918389743827170e+00) (28, -6.51610633463914623587e-02) (120, 1.05265879323756431085e-01) (141, 8.48153819242202650086e-02) (41, -5.77311088142591799510e-01) (115, 1.53852561764285322710e+00) (16, 8.14682679440320356434e-01) (39, 4.62906768311436400687e-01) (73, 5.27572972102649251358e-02) (87, 1.05003640469542067204e-01) (139, 5.15373878532324053436e-02) (78, -9.36455744335647731480e-03) (113, -7.52001278187356070326e-01) (25, 2.49727398264800370953e+00) (136, 5.31780954159173785412e-02) (84, 2.64244803070610545515e-01) (47, -6.83224085230215272269e-01) (63, 1.08898911471362747072e+00) (126, 2.33798933832233046815e-01) (58, 2.65537159525408794636e-01) (140, 7.18288301329911421655e-02) (72, 2.18628256955148619900e-01) (70, 2.57484170757909282268e-02) (123, 1.24410174089752176285e-01) (8, 4.26765174174494332782e-01) (128, 8.45675412361410611117e-02) (102, 6.65872947585166574669e-02) (138, 1.54842030819053483315e-01) (44, 6.70610402787673476332e-01) (77, 1.56538085777594676573e-01) (46, 7.97376427695724310230e-02) (125, 3.14131965406619223513e-02) (34, 7.99162690576966233680e-02) (104, -2.26481059082874497390e-01) (86, 1.15858906482499149360e-01) (105, 8.96733216774602270860e-01) (3, -3.11819454037461973872e-01) (97, 1.15324996824120260680e-02) (64, 2.43932835336394360226e+00) (92, 2.51197156453647130192e+00) (106, -1.72602495280375772824e-01) (88, 1.50000000000000000000e+03) (119, 1.27991610339521222350e+00) (45, 2.06036916671619080299e-01) (82, 1.09561411034629818673e+00) (53, 2.65545723461010962918e-01) (90, 1.50000000000000000000e+03) (40, 2.45423420235980793702e-01) (96, 2.09435075693798794516e-01) (15, 6.19072276594390680238e-01) (54, 1.50519846810462099018e-01) (48, -1.19412102919085796188e-02) (4, -1.37516837001371405869e+00) (109, -3.09675871853041018156e-01) (14, 8.27690388134660559594e-01) (55, 1.07590390920270825847e-01) (130, -2.49882371129134833732e-01) (142, 1.62340737328764506131e+00) (5, 2.21910249919627988735e-01) (49, -8.49579542445331958866e-01) (88, 1.50000000000000000000e+03) (104, -6.28109934978015704843e-01) (115, -1.72037069770169859240e-01) (75, -6.75539983030683743870e-01) (63, -4.05169989976434052892e-01) (2, 6.40508006475109734068e-03) (106, 8.64243173887869531313e-01) (30, -3.76907145099862173065e-01) (51, -6.25827462814183332895e-01) (32, 3.00738944614911095365e-02) (67, -9.78030942284295545797e-01) (47, -7.98445660791823441649e-01) (48, -2.26055993522994036482e+00) (74, -6.56218265889556895409e-01) (96, -2.81016037674135001068e-02) (99, 1.08574975003590257217e-01) (11, 2.20553165818955260180e-01) (33, 2.86981340383839600428e-01) (62, -8.01885402007090797305e-01) (87, 4.09313366231821440522e+00) (118, -6.12159128706173283341e-01) (141, -9.19996889471041190411e-01) (86, -2.43284945444124822700e+00) (68, -8.29545012393151703911e-01) (26, -8.33647813161672801563e-01) (95, -8.27266378465288387822e-01) (137, -1.23047625593272647038e+00) (128, -9.76269214065847545925e-01) (83, -8.94657519829098468733e-01) (94, 4.76246105330460345328e+00) (52, -7.07132115285438178631e-01) (7, 3.69926585929485185478e-01) (82, -6.98216848934039679975e-01) (61, 1.98943653695839856033e-01) (80, -8.21511839669150423227e-01) (27, -9.52963406995889494855e-03) (46, 2.45612582591968643675e-02) (114, 1.14446944505133907377e+00) (37, 2.27384765570311592198e-01) (102, -1.45357061352874357141e+01) (64, 7.31494785371315792144e-02) (134, 1.41360204239095454959e-01) (40, 7.53879050712163573111e-02) (6, 1.22085604382719647987e+00) (130, 8.04458328286569490650e-01) (98, -3.08336430957201024228e+00) (105, -1.01088585628543814465e+00) (35, -5.36455934458360372830e-01) (101, -1.36205500363807341380e+00) (36, 2.89594916054296547259e-01) (111, 6.59703688346958916355e-01) (89, 1.50000000000000000000e+03) (69, -1.07162076387094584717e+00) (108, -6.63700738149303859359e-01) (41, -3.42247215492456247077e+00) (140, -1.03563490437818517265e+00) (132, -9.76384080081690974851e-01) (100, -1.04499880148291657278e+00) (138, -9.86037782923909533750e-01) (72, 6.78685126603470245676e-01) (21, 2.12095216525554741693e+00) (117, -2.66124076350168103922e-01) (38, -2.14732510856336017424e-01) (121, -6.94435286462320444656e-01) (16, 9.59701619810705286451e-02) (4, -4.20989286678879748305e-01) (25, 1.09525110964028532523e-01) (90, 1.50000000000000000000e+03) (85, 3.38818567085779598358e+00) (81, -6.03439578867774217841e-01) (79, 3.93242417031349056344e+00) (29, 4.99485499995812654017e-01) (122, -8.70189582315499143839e-01) (42, 4.86070601167900184780e-01) (31, -3.33417965951756489762e-01) (77, 2.68527247102890909147e+00) (103, -8.76929218579046709792e-01) (139, -9.03898809092501087648e-01) (22, 5.70991650463066990895e-01) (116, 2.60665949784660533339e+00) (44, -4.64850722945862271374e-01) (24, -8.16417801254021746615e-01) (66, -8.58229874356990607431e-01) (142, 5.60060450473201854038e-01) (41, 3.51644221528757494610e+00) (103, -3.62502097390461075488e-01) (140, -1.51591928513739204742e-01) (128, -3.92796606052112584617e-01) (111, 6.05011675324017672573e-01) (40, -2.76251804309495807566e-01) (26, -3.44286426397850953141e-01) (29, -1.56749386648478661321e+00) (115, -2.28944893693178164185e+00) (76, 1.53902761846273522517e-01) (99, 4.99416134942692035992e+00) (51, -3.80021029660644382719e-01) (80, 1.42400745737277512060e-01) (117, 4.80391987034741396734e-01) (75, -3.83716585604256699149e-01) (18, 1.50000000000000000000e+03) (74, -3.15250533553721679070e-01) (57, -3.41031608645176009809e-01) (84, 1.24036072426865776053e-01) (102, -3.69444003586535785200e-01) (108, 2.73317258410361030307e-01) (85, -2.85922426740775126319e+00) (67, -3.24711944360508986129e-01) (126, -3.97078231142319881819e-01) (24, -3.34765160028843378193e-01) (12, 5.38215193567049485224e-02) (25, -1.41272106024277477321e-01) (56, -2.91147370697034779674e-01) (135, -6.47289877235718402737e-01) (69, -3.27414437332976371309e-01) (118, -1.83885753973456161914e-01) (14, -7.56503984323201317252e-02) (45, -7.70748912501426769461e-02) (4, -3.96918324485131368551e-01) (47, -3.44177537603522598619e-01) (2, 1.93443160284901521928e-01) (114, 1.52670480989085910473e+00) (33, -1.92332833283419746273e+00) (139, -3.37845829640230410629e-01) (121, -2.55428397438951459986e-01) (90, 1.50000000000000000000e+03) (83, -1.97750494337868495953e-02) (68, -3.21996885059375792526e-01) (11, -1.76569653454639013956e-01) (19, 1.50000000000000000000e+03) (22, -1.88526852262581146036e-01) (44, -6.22930144430481405604e-02) (133, -1.60549602773231936403e+00) (1, -5.13008147508614009702e-01) (62, -4.11135561708464436492e-01) (97, -3.81656219895686543708e-01) (119, 1.25122675398022797921e+00) (49, -1.35594640453634340815e-01) (60, -1.23206608231251091290e+00) (64, 7.88470643109097979462e-01) (91, -4.27918727854486646844e-01) (21, 3.87157653652580202586e-01) (88, 1.50000000000000000000e+03) (73, -3.26271201742828809156e-01) (61, -2.31470824419489740187e-01) (92, 1.30932208436253832984e-01) (70, -4.25373971386628302316e-01) (79, 3.02596430613032318924e-01) (38, -9.76756038282036942455e-01) (15, -2.98405624072329067609e-01) (54, -3.72563088697354105605e-01) (125, -3.31705896939936573098e-01) (129, -3.12485269636148199623e-01) (132, -1.25749338052488845996e+00) (136, -4.05148751084899616526e-01) (23, -4.44519465885927667070e-01) (58, -2.95405361936341703810e-01) (28, -2.37586138263091606326e-01) (39, -4.76798031755504225782e-01) (138, -3.00392414755161152318e-01) (66, -2.28255362615421508732e-01) (98, 3.16728489229257981208e+00) (52, -3.21302678542561892527e-01) (9, -1.38415675579062896761e-01) (20, -1.29933425905206456630e-01) (43, -2.18886128070617080876e-01) (113, -2.10808406367126055514e-01) (71, -1.87562716866513934377e-01) (37, 4.93273960977601788613e+00) (46, -6.11597618956587069095e-02) (55, -3.87296543642965784837e-01) (142, -6.93605791276575567306e-02) (71, 3.47207379653748648973e-01) (93, -1.42272142825190028859e+00) (101, 4.19174416373240710243e+00) (24, 2.12151864689079677762e-01) (22, 2.93718127905656378740e-01) (7, -1.47554861511484725067e-01) (67, 7.30222761207523635152e-02) (118, 1.93208370003039281437e-01) (19, 1.50000000000000000000e+03) (131, 2.38365513666510653312e-01) (109, 3.27223613006545954729e-01) (69, 1.69365563031652982540e-01) (70, 2.46137706185353993815e-01) (78, 5.95345252208731023913e-01) (98, -2.81456830591191170532e-02) (42, 8.86272430990685311514e-01) (88, 1.50000000000000000000e+03) (4, -9.82929359422577419991e-02) (130, 1.41913007956782910579e-01) (123, 1.48671177037998925030e-01) (9, 1.01430551704288010595e-01) (86, 6.99093346332548271072e-01) (5, -5.84150157833709937627e-01) (12, 1.86864871918214249524e-02) (115, 2.94957738389077461783e-01) (31, 1.28368008245417319912e+00) (89, 1.50000000000000000000e+03) (133, 1.41187226144908550829e+00) (128, 2.11217940568986073391e-01) (81, -9.46383198005454062685e-02) (17, 1.50000000000000000000e+03) (55, 1.45193315312352549951e-01) (113, 1.16981741597989263859e+00) (122, 8.31188659594954554199e-02) (103, 5.69233918732774513138e-01) (32, 1.61719622817979608032e-01) (79, -1.66529942870977165637e-01) (30, 7.12700135210332930136e-02) (18, 1.50000000000000000000e+03) (111, -3.13589600144358937595e-01) (58, 1.41939537568421092484e-01) (50, -1.26304808254581502069e+00) (66, 1.49772842212768764192e-01) (6, 7.44518194045052164598e-03) (34, 1.68106135755107161112e-01) (124, 1.94218327295577641856e-01) (64, -3.80307471935201035773e-01) (57, 1.07743987523784917615e-01) (48, 1.28515677721788290633e-02) (102, 2.49284347245653431502e-01) (44, -1.57065470125619971453e-01) (136, 2.56706479620287475463e-01) (132, 8.30403625005611822907e-01) (63, 4.57151818673992060837e+00) (20, -5.24196091475352954347e-02) (45, -1.27360541072448457678e-01) (60, -2.78820371490637319845e-01) (72, 1.61968256226526247099e-01) (23, 7.28686646532881454608e-02) (59, 1.47944630550822187054e-01) (116, 6.74736881694702361756e-01) (40, -1.14867080013036096386e-01) (92, 1.28806380464426073473e+00) (39, -1.05747413462957559616e-01) (129, 2.09365427963240563480e-01) (85, 3.59362540370154054381e-02) (105, 2.94500711841951978709e-01) (73, 2.16316445098462595276e-01) (8, -4.06038529496843964006e-02) (138, 2.40472792208390184765e-01) (112, -2.00983497106213215844e-01) (141, 2.16464506992687044651e-01) (99, 2.42543342144056317533e-01) (91, 1.37135121003342623502e-03) (117, -1.55161248902903909502e-02) (25, 6.61285593121376691350e-01) (41, -1.66974146342032614410e-01) (49, -1.70706793585727351070e-01) (15, -1.04489719651280954515e-01) (121, 2.21229543609692991257e-01) (125, 2.49589753320180351981e-01) (2, -3.25543447668616092727e-01) (126, 1.06975224326883777692e-01) (94, 4.58013700579395499624e-02) (3, 3.21242293105557866206e-02) (142, 2.57043121213679393033e-01) (32, -1.10771398995359385276e-01) (33, -6.79413938328222610785e-01) (130, 6.87658068462114330233e-02) (70, -9.42639731399737140771e-02) (12, 4.95637800381156859442e-02) (30, 8.39580992177114904251e-01) (117, -4.14612088790521027271e-01) (74, -2.19521060725502139763e-03) (124, -5.73705239003592382119e-02) (57, 2.04996823599939981264e-02) (106, -1.81083280578122673976e-01) (119, -3.08805167253983249565e-03) (76, -2.96083957403648345696e-01) (11, -1.18879441638402513770e-01) (63, -3.22160519205918538521e-01) (60, -6.80994456133439673984e-01) (34, -1.49144765889837299655e-01) (101, -1.69451798002615361405e+00) (8, -2.39204869044970402925e-01) (95, -1.14814274096051202600e-01) (126, 5.44066274607945600007e-04) (98, -7.21570148162514746204e-02) (31, -4.19226396408746460054e+00) (45, 1.80848194112666560418e-01) (43, -1.68648384956718744299e-01) (21, -1.60672441487660661030e-01) (65, 1.73156793308819226089e-03) (35, 1.11375738630451637245e-01) (46, -2.52911644813510971819e-01) (82, 2.63536749299072448061e-01) (83, -1.28851098747757242258e-01) (54, -9.58660388880217158303e-03) (104, -4.95225381814675472136e-02) (73, 4.69221680980114359827e-03) (69, -7.44759721294747240039e-02) (81, -2.08607076721741530045e-01) (112, -2.86004046350834983947e-01) (24, -2.92450994672300047805e-02) (80, 1.98975219504504446943e-01) (28, 5.36302888191082072211e-01) (87, 9.71771629411357779071e-02) (134, -1.70472758732169660245e-01) (14, -1.10002044421527292450e-01) (136, -5.78300213836018886515e-02) (78, -7.81708301661636073554e-01) (123, -1.52536174558549723901e-02) (13, -1.20215508493596121009e-01) (137, -7.73434887945607485275e-04) (77, -2.83721925975165212286e-01) (25, -3.72050305168613593132e-01) (121, -8.85984845688270739039e-02) (135, -4.49890428105756134958e-01) (115, -3.77127491306290252293e-01) (129, -9.53564389964685898970e-02) (131, -1.27903366208554608585e-01) (107, -4.52311442828461696131e-01) (91, -2.03793282877196807457e-01) (92, -4.22446401626710488220e-01) (18, 1.50000000000000000000e+03) (85, 6.56038147491923295807e-02) (9, -1.36472501026429743343e-01) (86, -2.41717095310427509958e-01) (68, 1.06182608677817633125e-01) (84, -2.09377695136669206288e-01) (127, -1.78664324342520330902e-01) (90, 1.50000000000000000000e+03) (10, -1.08491951862270466500e-01) (111, -5.01586253509002322204e-01) (100, -6.23148784077007689142e-01) (114, 8.78254021495411874021e-01) (2, 1.02134544014729566896e+00) (56, -3.38725793214624593119e-01) (105, -4.81629680240143603909e-02) (113, -4.69300626973423729016e-01) (5, -1.44596917205693148434e-01) (15, 4.35513281724013157081e-02) (1, 3.74289629053779979162e-02) (89, 1.50000000000000000000e+03) (48, -2.50263188935366392984e-02) (103, -1.25035880760991119365e-01) (67, -5.86484044072479379639e-02) (109, -4.61393792602019653382e-02) (62, -1.53788251929111701582e-02) (42, -6.26578326130365570457e-01) (50, 1.30963980845977490119e-01) (142, 1.76660203856829067792e-02) (75, 1.88288396681769804042e-01) (84, 1.38574905763145816984e+00) (89, 1.50000000000000000000e+03) (115, -5.73054719048860294883e-01) (4, 2.65519465106370033958e-01) (38, -6.24362867821961042836e-01) (105, 6.06411700959985089376e-02) (94, 4.71580635253368712911e-02) (3, 1.49318020471482321154e-01) (9, 4.65683732082681700604e+00) (139, -2.44727824880760197468e-01) (106, 1.40759166180577977023e+00) (44, 8.48138916972464351751e-01) (11, 3.35890030137081296857e+00) (122, 1.82201548663271734041e-01) (80, -2.83829281528847676697e+00) (78, 2.67976938451198465341e-01) (29, 1.15475621634549128203e+01) (46, 1.79893692878441302518e+00) (110, 4.00729227316558744842e-01) (102, -2.10503207316199453247e-01) (71, 8.36204972002156377009e-01) (65, 1.77635008266412014466e-01) (113, 3.43203168050978002501e-01) (87, -5.68636679081983453798e-01) (57, 1.62335975882786726077e-01) (96, 1.69659100626942366263e-01) (76, 3.90229742898232256909e-01) (118, 1.90837455912497205857e-01) (10, 1.05956141585758167878e+00) (88, 1.50000000000000000000e+03) (67, 1.82493834554302347684e-01) (116, 4.44676114239180075849e-01) (43, -9.32550915876245722913e-01) (108, 1.78271470058239445144e+00) (35, -7.11956944156205473462e-01) (97, 1.69916169166631769727e-01) (127, 1.05342984414353885159e-01) (33, 6.50875971700997180136e+00) (114, 3.76468788428329048656e+00) (48, 1.83544092221541721432e-01) (25, 1.35403445944508993293e+00) (8, 1.82341470500398949994e+00) (5, 5.11036176400223696170e-01) (72, 1.42773430435131659655e-01) (47, 4.74703163709442321760e-01) (124, 3.79443065861737038880e-02) (70, 2.05481238591059628407e-01) (117, -1.33855013321735105691e-01) (58, 2.74995466463069659913e-01) (137, 1.88731490664226564391e-01) (79, -8.96207436393621492687e-02) (134, -5.52367348542229130715e-01) (135, 4.98282298266053969016e-01) (2, 4.52194179121076123007e-01) (49, 8.70113460933448629175e-02) (121, 9.01864186523425176434e-02) (28, 7.47849402908940752432e-01) (53, 2.74718552919430203385e-01) (40, -4.30469856741286585611e-03) (82, -3.35115062574046840282e+00) (17, 1.50000000000000000000e+03) (98, -4.59507527638821688942e-01) (133, -8.97790678914241357944e-01) (112, -6.05383102822808827348e-01) (15, 2.95095311148886763064e-01) (18, 1.50000000000000000000e+03) (6, 1.13192848688735067664e-01) (131, 1.70218248199223154415e-01) (39, -1.32760042682568246697e-01) (132, 1.82431448433096748962e-01) (31, 9.21489460067419392797e-03) (99, 3.23562464382063863511e+00) (12, 2.63134808533403707909e-01) (129, 1.84218148248209534490e-01) (91, -6.11318761299219359806e-01) (77, -1.25871525068136314029e-01) (64, 1.41334095515720270519e+00) (66, 1.05208171743043199520e-01) (92, -5.64897869368185534533e-01) (1, 1.80868525390400408659e-01) (26, 1.00316192392862879590e-01) (128, 5.15470903498816135357e-02) (68, 1.52901440495092272309e-01) (56, 1.92683729035606238211e-01) (142, -2.53706694344514593897e-01) (7, -6.97467074195921715729e-02) (10, 5.39331638505602048439e-02) (13, -2.65901699287009574135e-01) (20, 1.75901856904753517430e-01) (36, 7.12151999096810928158e-01) (97, 4.41056960272853793015e-01) (134, 7.51623102248510144285e-01) (83, 7.68707535186759938206e-01) (113, 2.53936176818088998886e-01) (118, 4.10452753479042475870e-01) (84, 4.35984348548831612824e-01) (93, 5.45843394373789814189e-01) (106, 1.03758736258589645551e+00) (40, 4.70972244551437158044e-01) (74, 5.11624585126614683794e-01) (46, 4.74356067266852143849e-01) (100, -4.44600701222372732269e-03) (92, -2.97793939879200386667e-01) (67, 3.88750604250138298568e-01) (125, 4.76667186713850055124e-01) (71, 2.77271587618102104134e-02) (66, 5.57028368864537992700e-01) (57, 5.88239708899777613560e-01) (72, 6.53714172301816276445e-01) (115, 9.26933019548457304282e-01) (19, 1.50000000000000000000e+03) (94, 6.35426026008689581737e-01) (121, 5.10576836570793668457e-01) (73, 4.39364257618023723584e-01) (45, -2.17845490417806625372e-01) (120, 3.49492023356618830565e-01) (14, 3.12179698042608262665e-02) (124, 7.24736043409450081398e-01) (138, 6.86655977907002834648e-01) (91, 8.26685504734300136143e-01) (68, 4.24750175516122485675e-01) (135, 3.90269655172110152552e-01) (123, 1.08516675341394486232e+00) (98, 1.26274416470204120522e+00) (77, 1.23122509705229998822e+00) (53, 5.68078861293151993195e-01) (102, -3.13640206576657432080e+00) (43, -3.97438079818029487561e-03) (69, 7.43792209434496087717e-01) (82, 1.37755876336887461697e+00) (16, -2.20113385838731384636e-01) (119, 4.92721561322063406063e-01) (62, 6.99329936757855152862e-01) (11, -6.25013684811511482931e-02) (65, 5.20746147259289582365e-01) (38, -1.24413351200873947833e-01) (58, 4.37325220385926916045e-01) (49, 4.60082669713303749059e-01) (8, -1.02256240392977523768e-01) (116, -5.42842869447299647412e-01) (23, 4.90416324783668533538e-01) (86, 5.13309586443868037797e-01) (76, 4.52611566701583922789e-01) (17, 1.50000000000000000000e+03) (39, -4.42874310543066529444e-01) (33, -4.56110065807662667936e-01) (95, 4.53778642296155776403e-01) (131, 9.64087432246213960063e-01) (51, 6.94159977846613873709e-01) (30, 1.83104659134419023303e+00) (15, -1.33753972055413394848e-01) (60, 1.63945747159492156856e-04) (111, 2.40412934355818785903e+00) (128, 6.20097982861964713841e-01) (99, 2.17381371278266177782e-01) (41, -7.40840302991982890823e-01) (50, 5.65145857499043224870e-01) (136, 4.57072659743174125602e-01) (126, 5.73576536697026240219e-01) (80, 1.39791592246862084181e+00) (32, 1.09558730389909309011e+00) (42, 2.45116106462586330617e-01) (22, 3.96935074683902344717e+00) (103, 4.96537518532626565015e-01) (108, 6.26997244974455303357e-01) (4, 5.22581962198106042550e-01) (87, -2.67216807891147933862e-01) (79, 5.82318902300020146967e-01) (78, 6.63055372308120616331e-01) (48, 4.16835655701896345970e-01) (142, 8.45974510805180379691e-01) (47, 2.55969582464416922640e-01) (50, -1.61501423315422054650e-01) (65, -3.97241780304525449186e-01) (117, 1.04511628110268994796e+00) (126, -3.48883274798593212562e-01) (135, -3.88655120195486647461e-01) (53, -3.91109300910430446319e-01) (16, 2.51224483649034269206e-01) (7, -4.41337084036377724772e+00) (51, -5.80702993363052533127e-01) (46, -1.17678592206168852741e+00) (17, 1.50000000000000000000e+03) (6, -4.89608126039491164949e-01) (114, 2.01254294020698099033e+00) (85, -4.04935567544839336573e-01) (64, -3.08633795377660247183e+00) (0, 2.15791633178601172105e+00) (54, -4.10778094490379330761e-01) (8, -3.84512713822707408173e-01) (29, 3.46587519472659255637e-01) (4, -1.22915294229535554393e+00) (57, -4.25362842039862021348e-01) (73, -2.59428441201534409899e-01) (83, -4.77780133800493278518e-01) (14, -2.60015262030111993230e-01) (31, -4.27885671777379628100e-01) (60, -1.59816649266837673693e+00) (70, -2.92981297424283804176e-01) (133, -8.71421523013489407461e-01) (33, 1.38983447581264990545e-01) (127, -4.40990583818485881729e-01) (26, -2.70565492221319980892e-01) (96, 4.29229916812201517384e-01) (37, -3.60230341674119755591e-02) (87, -3.70895527001988967175e-01) (78, -3.14978886179410888513e-01) (27, 7.00884151867554705539e-01) (32, -4.70415954749408893321e-01) (34, -3.73916247663696299508e-01) (43, 1.47830144348684189293e-01) (76, -4.61419359450195021299e-01) (22, -4.46649017053076524686e-01) (103, -9.40654330735088417548e-01) (15, 3.14427753902355652804e-02) (88, 1.50000000000000000000e+03) (106, -1.34028449464972915228e-01) (55, -4.08492638152375020510e-01) (12, -5.54500812519720942539e-01) (131, -3.72973570838359802515e-01) (110, -1.68843023387062163287e+00) (42, 1.52331371420025524048e-03) (124, -4.02955020053681056691e-01) (129, -3.25160434426562949817e-01) (94, 6.63150121166989792165e-01) (132, -7.81139459546145831226e-01) (112, -5.08132645648967873342e-01) (19, 1.50000000000000000000e+03) (95, -8.60833237624475389183e-01) (61, -3.54453833567735021592e-01) (113, -2.23664783125862229318e-02) (82, -4.72806168443121316303e-02) (104, 9.45783668439409375139e+00) (72, -9.04649912782041099035e-01) (10, -1.00814323173250411370e-01) (68, -3.67605883549499801166e-01) (21, -4.37403919115636874437e+00) (138, -3.00365368649797570555e-01) (5, -1.42948458930273136769e-01) (125, -3.87753507853643153425e-01) (23, -1.09634903717816567514e+00) (136, -1.33638650645662854233e-01) (97, -7.76429540571601184418e-01) (38, -7.44784330911552383547e-01) (107, -1.17941917328104106666e+00) (102, -6.68367775850664180837e+00) (2, -1.40316927785960476882e+00) (86, 3.63116634813273664317e-01) (63, -1.13611973662062926138e+00) (134, -4.39140166316692948101e+00) (123, -9.36729905641719984288e-01) (93, 3.58986530697499472975e-01) (140, -3.04686310410930361048e-01) (40, -3.49725194290142482600e+00) (11, 2.59285638240607185789e-01) (48, -1.13499436145801202436e+00) (1, -2.94338140503356437971e-01) (142, -6.08081255252944874456e-01) (37, 7.19842222622419813938e-01) (59, 5.90518865450962660013e-01) (137, 1.21586673767111586031e+00) (141, 1.06078295162418267950e+00) (116, -1.22317482473356631267e+00) (43, 4.25376650921988952447e-01) (105, 8.33414333796166251211e-01) (17, 1.50000000000000000000e+03) (132, 1.01242589307750252559e+00) (110, -6.78045176355856149542e-01) (100, 6.80289276518741048427e-01) (5, -9.38546109591888999546e-02) (73, 1.11758068652279307642e+00) (39, 1.83572223588421956642e+00) (42, 8.17025935523060353738e-01) (66, 1.41469886830448166037e+00) (87, -3.86873977836070404024e+00) (127, 9.78254610644463507008e-01) (27, 1.82950387331835856441e-01) (139, 1.10751680530957430371e+00) (107, -1.38493174166363530730e+00) (10, -2.64448316612165446049e-01) (94, 5.76628596968274509393e-01) (79, 1.02550501889298817382e-01) (47, 7.79858542516370101261e-01) (124, 1.22930581451611420363e+00) (61, 9.42214326955537972985e-01) (98, 1.97306407008504791634e+00) (58, 9.65176061053648615129e-01) (64, 6.67790203983335772797e-01) (77, 1.04481595220340645058e-01) (30, 5.52936281213110181199e+00) (1, 5.36478315090347268601e-01) (67, 1.37629425588984410922e+00) (52, 7.88833221360310865578e-01) (102, 5.76948250573320287060e+00) (2, 5.21505187598611419375e-01) (9, -1.53939157660125114369e-01) (46, -4.07384156545031572705e+00) (82, 3.17812896846301873310e+00) (109, -1.22886991657956046176e+00) (85, -1.46485053659804331794e+00) (101, 2.73538298941255753061e-01) (18, 1.50000000000000000000e+03) (128, 1.24795759844544074113e+00) (8, -4.50317049970202631926e+00) (91, 8.58410040745109625959e-01) (104, -4.37848616258573475335e+00) (54, 1.35418366249020283298e+00) (63, 2.60552303727493494989e+00) (90, 1.50000000000000000000e+03) (133, 1.07742944361479864313e+00) (23, 5.21958160965217077276e-01) (112, 1.25928263397130035806e-01) (114, 2.65149813872717465824e-01) (83, 6.33328836931119543152e+00) (7, 2.46270194867792939497e-02) (11, -2.65203681225055942772e-01) (12, -2.71285850318116694702e-01) (97, 6.12372409746791301899e-01) (60, 6.11048620674765841088e-01) (21, 4.71958267453382340761e+00) (14, 3.07403546540524352793e+00) (62, 6.48366399786819536111e-01) (55, 1.33305313147976289834e+00) (72, 1.10463022243353981011e+00) (4, 5.48536046116675723994e-01) (96, 5.27928303766106665762e-01) (15, -1.35950440162952945755e+00) (70, 1.07043995295710625548e+00) (51, 1.15362295087290989137e+00) (34, 5.08771689784750735797e-01) (88, 1.50000000000000000000e+03) (57, 1.16637694695951332768e+00) (117, 1.01164305187287445476e-01) (74, 7.13162596183765762348e-01) (80, 1.34318512261769762439e+00) (131, -2.10785116261968330509e-01) (115, 2.13918237201129068925e-01) (130, -1.56858462028651524101e+00) (103, 1.15857230246004072605e+00) (140, 1.10789414485807680144e+00) (41, 2.15090758645642488034e+00) (36, 2.14470199898543167905e+00) (121, 5.48041496190295962521e-01) (142, 3.05280492690985887083e-02) (19, 1.50000000000000000000e+03) (86, 1.39656435453811833547e+00) (127, 2.48464840918646900914e-01) (15, 5.10767776240353188477e-01) (94, -5.47439641736337731515e-02) (30, 2.92114946444142320470e-01) (102, 1.77168276180093758887e-01) (82, -4.25732095775889843314e-02) (42, -2.74010221508200646490e-01) (29, 4.65063141136419389010e-01) (5, 3.22961357410818772351e-01) (73, 2.07840497013575903340e-01) (118, 6.95771670496356520186e-02) (37, -5.26537363167558294941e-02) (114, -2.94814479148793529006e+00) (8, -2.72339195737396566610e-01) (123, 3.02420083075221057811e-01) (104, 3.36551809152154546290e-01) (23, -1.42687331883206314220e-01) (91, 3.70914018784715637800e-01) (90, 1.50000000000000000000e+03) (6, -1.72779435406153369925e-01) (124, 2.53328169033779027064e-01) (25, -3.82671432638016367767e-02) (131, 2.49863832574087979532e-01) (98, -1.08350367488451881925e+00) (34, 2.27225873668516098469e-01) (52, 1.40234291581201486743e-01) (60, 2.11911735552362756607e+00) (110, 2.64768370768355132405e-01) (103, 1.16210163944762856492e-01) (100, -4.59083843459894280770e-01) (132, 5.40122184902896873560e-01) (65, 1.53235099133033986218e-01) (59, -4.54531707471307333535e-01) (120, -1.40084968014741284570e+00) (14, -2.31403243154665205772e-01) (99, 1.27831426821134658267e-01) (141, 1.26807146708418666536e-01) (70, 2.26875724976791842691e-01) (95, 1.48154430926468433372e-01) (39, -1.32891843841046963792e-01) (24, 1.61893659303082304568e-01) (40, -3.21702700183297607417e-01) (64, 3.55230875836077197860e+00) (93, 1.49167963347219800774e+00) (109, 4.28010384960917755759e-01) (68, 1.74926060324997467710e+00) (36, 1.66775416720237257273e+00) (130, 2.29042500286050221270e-01) (117, -7.95594296407660106496e-02) (3, 1.06076790363212380974e-01) (128, 1.59380939462247295246e-01) (41, -7.72154973930955224048e-01) (2, 5.03872694677195975821e-02) (116, 3.62344038831741710460e-02) (135, 3.59117421177117313036e-01) (137, 3.17616650744311612709e-01) (32, 1.63743772138589704923e-01) (107, 6.72883959577315948763e-01) (67, 1.65361758108389322874e-01) (111, -4.95807573920858057903e-01) (69, 6.17210482252995434882e-02) (71, 9.88420874131623189429e-02) (46, -2.83441011339995829754e-01) (35, -6.99812177832402571021e-01) (115, 1.03382009748130654359e+00) (72, -4.92852751266795729990e-02) (26, 1.89401425399723988274e-01) (75, 3.33624915459919513250e-01) (133, 5.33361686117243993799e-01) (106, -9.03130958784282948659e-03) (134, 2.36262837445489326527e+00) (18, 1.50000000000000000000e+03) (129, 2.95277492471245239791e-01) (38, 1.91656854591398889687e-01) (31, -2.47619318000721699846e+00) (10, -3.51036434219977266924e-01) (126, 3.22583846503323667942e-01) (48, -5.39449881963503297122e-01) (89, 1.50000000000000000000e+03) (97, 7.95370548359248391579e-03) (27, -3.64961429556047572964e-02) (33, -1.26828550647024629328e+00) (49, 8.62205682774428022741e-02) (142, 1.01502886492662569573e+00) (63, -1.62148567898169781998e+00) (73, 4.63721514180059427024e-02) (107, 2.22761047538127254786e-01) (109, 5.78408906229893715611e-01) (138, -6.05396950570194047891e-01) (70, -2.02991939523535058765e-01) (58, -3.41950735550055673340e-01) (91, -4.41673139837442385591e-01) (52, -1.55889301894052617614e-01) (114, 3.70535827320059713008e-02) (131, 5.46271699069478366972e-01) (12, 1.67237006562695605938e-01) (102, -2.13132161580640389076e+00) (37, -6.08083248777877782842e-01) (49, -4.52323511053446036811e-01) (50, 4.48631448365020668589e-01) (117, 2.88258021235901995549e-01) (97, 8.43165921184644284736e-01) (11, 3.88157628344192762171e-01) (137, -4.55536911460112214911e-01) (95, 1.46207589575742424870e+00) (94, 1.17470704957420610248e-01) (43, -1.33129673039328189077e+00) (61, 2.39087953391742158438e-01) (89, 1.50000000000000000000e+03) (74, 4.41062540389218910031e-02) (85, 3.04089712216350005480e-01) (62, 1.67825480381368213889e-01) (14, 1.68258778573281475577e-01) (128, -4.38072705218718494447e-01) (129, -4.21469681570921961278e-01) (34, 2.31506416258154157362e-01) (115, -5.77615683729020390480e-01) (9, 3.46663569323111264708e-01) (21, -1.84241505973648278527e+00) (32, -1.93165315740322118820e+00) (24, -3.21785259688420850407e-03) (116, -1.01520813148869473719e-01) (59, 6.67771366222622120290e-01) (41, 7.79117389443311436636e-01) (130, -1.00406065574722855316e-01) (5, 2.29301797314641259140e-01) (17, 1.50000000000000000000e+03) (100, -3.52200408933501851738e-01) (19, 1.50000000000000000000e+03) (111, 6.68061277263766850609e-01) (48, -4.11051284396239557939e-01) (27, -2.01553762178596052035e-01) (99, 1.02093833648263340730e-01) (77, 5.72102512054587734186e-03) (47, -1.11796651524007439882e+00) (51, -7.31848677788435458824e-02) (134, -7.50325380406735242822e-01) (66, -8.88011020151881713680e-01) (28, -1.76912657567725606356e+00) (55, -5.01205525477682600766e-01) (123, -1.20301908954417324793e+00) (38, 1.46968999205328770818e-01) (56, 4.84643814642297388051e-01) (25, -7.52138931402069776944e-01) (75, 9.36176712490035395353e-02) (132, -1.40065492783792683307e-01) (92, -9.46210848780018043414e-01) (82, 1.56968178101917266165e-01) (86, 4.56825916824535938066e-01) (79, 1.44335409982700363374e-01) (4, -3.52169877745135084801e-01) (30, 1.86867163440743189184e+00) (80, 7.50828550788404242011e-02) (72, 1.42899084720810171101e-01) (135, 9.18131637157055036091e-01) (120, -6.02111059657481906271e-01) (29, -2.83156425781958931420e-01) (68, -5.38375615091782666610e-01) (103, 4.84419246699964034519e+00) (121, -3.86170029840248119068e-01) (57, -4.65832280651640839864e-01) (87, 7.22268304392609139519e-01) (7, 2.64734661018256545173e-01) (18, 1.50000000000000000000e+03) (13, 1.78735826728307323208e+00) (96, 1.86056992434166595940e-01) (105, 4.46766466756874347510e+00) (33, -8.74550453229795743404e-01) (125, -3.18386102590792030576e-01) (142, 3.28561224868742840499e-01) (14, -9.08901604475520374926e-01) (60, 8.46259308693425360559e-01) (82, 1.39241253375628382116e+00) (95, -1.25042776788369031093e-01) (136, -1.27016586755679977694e-01) (78, 1.37348781990639240425e-01) (40, 8.76295841674283426670e-01) (102, -1.69512677675253520260e-01) (56, -1.70427449840393624436e-01) (18, 1.50000000000000000000e+03) (73, -1.15003674465383592951e-01) (2, 2.91454915458168206666e-01) (49, -9.18703187534822413030e-02) (130, 1.57725438811614471213e+00) (112, 1.10219742618665295097e+00) (139, -1.09731369780196619246e+00) (45, -1.67102348871970285416e+00) (115, 1.11054885241233947113e+00) (58, -1.33391668069466062807e-01) (120, -7.78538409349981922608e-03) (110, 1.35296832939339473079e+00) (55, -1.03137364914040199904e-01) (97, -3.14556089661705451377e-01) (31, -2.64417726628023785906e+00) (35, 1.85707873419138014270e+00) (11, -1.58189933512319602649e+00) (77, 2.39595370211349995015e-01) (23, -8.64140781233575655529e-02) (47, 2.59707799281805817859e-01) (91, 3.35656185706889154119e-01) (88, 1.50000000000000000000e+03) (119, -3.35215317627826414615e-01) (98, 2.78275516648609222425e-01) (9, -8.05649207324478644487e-02) (64, 1.18552204387826223830e-01) (99, -3.25793234071536996765e+00) (138, -1.48606796061857060476e-01) (69, -4.24330843820854425319e-02) (86, 1.69460482770596054802e-01) (15, -1.92447681118920382870e-01) (42, 2.44544660280387737838e-01) (28, 1.50253128209504982493e+01) (106, 1.62925621729222691592e+00) (63, -8.13462393025889296538e-01) (32, -1.51728858749144907003e-01) (10, 1.53518053522600173011e+00) (104, -1.08087423661655870899e-01) (141, -4.06554580040638380289e-02) (1, -2.39105073342874702158e-01) (53, -1.12362107372395103599e-01) (70, -6.29260005463302130035e-02) (34, 1.47104006080049955207e-02) (105, 6.27124459143774681813e-01) (124, -3.12010976743466061922e-01) (83, 4.99986056889352437071e-01) (96, -9.09116228949401333770e-02) (29, -4.51898997925053169666e-02) (101, 2.56681612303725836810e+00) (131, -1.14710955049091428704e-01) (103, -1.21669984418019905270e-01) (46, 2.53779522584653527417e-01) (67, -1.37863494783824758194e-01) (117, 2.90961301693867413487e-01) (66, 3.69377439045594224698e-02) (30, -9.91355432133486758062e-01) (36, -1.06580844543349018139e+00) (12, 2.97847553233685446994e-01) (71, 1.94266691643605371453e+00) (21, 7.39196556636999568823e-02) (132, -1.08443722220216323682e-01) (84, 2.85132179504198501885e-01) (129, -2.03778364990199717388e-01) (81, 4.25983775236397410602e-01) (8, -1.69906709398941813127e-01) (80, 6.42174485597856281593e-01) (140, -1.26228073893125652960e-01) (52, -1.29513484920490723473e-01) (61, -2.93724958765117172277e-01) (7, -1.90639563111888765690e+00) (121, -6.51656494559014892731e-02) (109, -9.35137270744659132582e-01) (13, 1.12552454332811424642e+00) (20, 6.74876420895327067129e-01) (94, -1.60063151508882534069e-01) (3, -2.15589240371878793079e-01) (142, 4.63434530624916907193e-01) (122, -3.51116481833343541119e-01) (44, 1.30709107780229150109e-02) (104, -2.15868086417267068811e-01) (4, 2.09005645513645865741e-01) (61, -7.05755993532874437157e-02) (96, -2.66086971995349808040e-01) (64, -4.64044218075219649933e+00) (31, 9.02912618889212703621e-01) (112, 1.41714129186731918608e+00) (97, -1.64211976359642686241e-01) (53, -3.65099290865614989343e-01) (138, -1.58984792669422697609e-01) (106, 1.27271897809865919271e+00) (23, -1.77366823372991505581e-01) (86, 2.95558807766468722988e+00) (68, -4.93192555716142566613e-01) (108, 2.84794321531615934884e-01) (32, -2.44279367711155104281e-01) (37, -6.87798737780409008558e-01) (60, 1.95426390239996083942e+00) (124, -2.09623264632919747985e-01) (28, 1.03845738920723773546e+00) (73, -1.89914667005949167056e-01) (16, -6.16191546763077746540e-01) (12, 9.71533669694081947199e-01) (9, -7.18768547253892386983e-01) (24, -2.83885532617736302541e-01) (52, 3.56983758297297684714e-02) (51, -7.26761095926792138888e-02) (120, -1.86108612244009152814e-01) (102, -3.10258762052051606517e-01) (131, -3.02316744599217646083e-01) (48, -3.85040115703942781300e-02) (89, 1.50000000000000000000e+03) (72, -2.64350868448387066323e-01) (125, -1.99467725493863018427e-01) (75, -1.89905223958655472449e-01) (8, -2.47625993348433826036e-01) (74, -1.59518856171614292760e-01) (98, -5.60533949915978935152e-01) (119, 1.36088416339039008918e-01) (17, 1.50000000000000000000e+03) (33, -4.65965544885284910226e-01) (126, -2.94303757725513370769e-01) (65, -1.68376789683229555195e-01) (63, -3.46426220910297066879e-01) (135, -1.95946869918132399180e-01) (127, -2.81804211948290750378e-01) (88, 1.50000000000000000000e+03) (66, -2.04693305175344841818e-01) (50, -1.22360474323172208067e+00) (117, 7.94782093274380763148e-01) (139, -2.72736089605695286586e-01) (85, 7.38354848559071519354e-01) (41, 3.30916627039412214462e-01) (83, 3.55311385976411597820e-01) (54, -2.68048189191231855943e-01) (7, 5.94600616743776802520e-02) (76, 9.37085597696164840364e-01) (70, -1.48873690493235760757e-01) (19, 1.50000000000000000000e+03) (103, -1.88607585726786319835e-01) (79, 6.20995185057028220577e-01) (95, -2.30751336284298197432e-01) (38, 8.66509631692743143017e-02) (26, -1.96469872740049428250e-01) (20, -6.50155211571809332760e-01) (78, 1.18416589207277800355e+00) (134, 4.30191092752389925291e-01) (141, -2.55340085685532069970e-01) (107, -2.36279781484910955669e+00) (136, -2.37918385801995230233e-01) (132, -5.00303076985325834158e-01) (18, 1.50000000000000000000e+03) (115, 5.83290617862115334802e-01) (11, -6.77071322684081766674e-01) (36, -1.64268398483690097889e-01) (109, 2.74107139993780535292e+00) (47, -1.82795199067176394880e-02) (101, 4.04743512669267058168e-01) (128, -3.11441402334105277294e-01) (93, -5.24737468252637295762e+00) (82, 2.20867043491422077039e+00) (137, -1.52369812272566851341e-01) (91, 3.01592871975987886213e-01) (123, -3.72462873344443168300e-01) (142, -1.17612919506372470835e+00) (26, 1.51797250781720860502e+00) (72, -9.00936957897611412349e-01) (132, 1.22185721513462541843e+00) (136, 1.12361544098655707913e+00) (47, -8.02393552162718348697e-01) (118, -6.84092602727057030876e+00) (116, -5.18891043699098997166e+00) (69, 1.65026971692652479895e+00) (22, -6.73115521830026541927e-01) (123, 4.93080743291880452261e-01) (25, 9.98795377710163356788e-01) (100, 3.91268278014362991257e+00) (45, 1.61124812859590216263e+00) (63, 5.37028859838934025106e+00) (128, 1.65098682564159893182e+00) (120, -1.84607858104864774873e+00) (8, -4.04850186816063839501e+00) (7, -1.20600488594149249377e-01) (27, -4.18213130192896104242e-02) (74, -7.77376282688149067290e-01) (49, -6.47747231204484630318e-01) (125, 1.42132220851365342895e+00) (86, 1.62783744509987338134e-01) (104, -3.90059856076996558372e+00) (129, 1.46053245093356154349e+00) (18, 1.50000000000000000000e+03) (35, 2.45025983771577049453e+00) (131, 1.12544071022643876745e+00) (138, 1.62981023698123039800e+00) (75, 1.32895240896036681555e+00) (97, -1.94140548702563364714e+00) (64, 1.20205662582936811944e+00) (55, 1.80672066510058404454e+00) (71, -1.40907124089047242066e+00) (48, -1.09536022299863411433e+00) (36, 1.27656963994714711674e-01) (9, 3.13586029076536251803e-02) (81, 2.94104659210892638299e+00) (57, 1.48310869465686012703e+00) (19, 1.50000000000000000000e+03) (52, 9.48119975796273939395e-01) (134, 6.31942099038477866912e-01) (92, -9.04170092710445461037e-01) (73, 1.26354187104582349477e+00) (68, 1.26129601830218307512e+00) (14, -1.28100602571520161277e+00) (126, 1.61868326259790240584e+00) (113, -2.86644011083185246136e+00) (110, -1.44994940226658819427e-01) (65, 1.70230891602259837292e+00) (122, 1.25625385262999200719e+00) (85, -1.24448472556015787838e+00) (88, 1.50000000000000000000e+03) (43, -2.97513621854694321200e+00) (58, 1.35356141159960685627e+00) (29, 8.25666092382137839500e-01) (99, -5.13517625763139862194e-01) (114, 1.30432786369678455074e+00) (53, 1.36371459661330240998e+00) (79, -2.42577641561893458944e-01) (41, 1.59003698177710039996e-01) (106, 4.46542389311480991676e-01) (93, -6.51547304381071973323e-02) (83, 9.67615477543668944804e-01) (62, 1.25664320094173165288e+00) (117, 3.59264106850122444392e-01) (10, 1.46137035073594545587e-01) (77, -4.84683031827891053211e+00) (15, -2.36104396583170339508e-01) (107, -2.84013282463840877057e+00) (34, 1.36690321455877339396e+00) (39, 6.88255791539197847584e+00) (56, 5.22879038932915096716e-01) (139, 1.61919232793198264453e+00) (84, -1.04617336089275192457e+00) (103, 2.69638873108811571999e-01) (109, 1.32341407318383758041e-01) (21, 7.23627183906092774635e+00) (31, 6.39235379455279528749e-01) (121, -6.83699256306369118619e+00) (141, 1.44807566855368463621e+00) (17, 1.50000000000000000000e+03) (2, -1.75452871499146456635e+00) (51, -5.51775344856021421336e-01) (32, 7.24980171796113914695e+00) (142, -4.62539661640665317188e-02) (43, 2.30248867116497768492e+00) (92, 1.63312133167027950797e+00) (57, 8.73271320466815770267e-02) (64, 7.54571064896558896251e-01) (51, 1.95948703318351402647e-01) (75, 7.03996410154692497940e-02) (83, 9.93480791756272019200e-01) (48, -1.38663385524388393932e-01) (23, 1.46746251214751222136e+00) (99, 2.28698717249622918146e+00) (118, -1.36543705673114385002e-01) (53, 9.14276697376795732808e-02) (30, -2.20069871179688070217e-01) (36, 3.38995875472525964867e-01) (132, 6.02995689463188266899e-01) (89, 1.50000000000000000000e+03) (123, 1.01435168913840467741e-01) (77, -3.50872988179883438242e-01) (141, 2.15282498181437992324e-01) (108, -7.09108442417195949936e-01) (16, 2.98472860782509230582e-01) (49, 5.69090144614768367326e-02) (7, 4.73457177053823285995e-01) (25, 4.24531241267052050770e-01) (2, 4.66749241658812485944e-01) (20, 9.32111591520504934039e-01) (8, -6.99442576592476245034e-02) (72, -3.39230378045718497515e-02) (117, 2.20516490341607696024e-01) (102, 1.49842686697823052056e-01) (0, -8.53764476274778139064e-01) (39, -1.01536161935434909864e-01) (122, 6.98180078083402572142e-02) (41, -1.65356776709381564361e-01) (60, -9.65378931245788440840e-01) (86, 2.18117581789671749481e-01) (97, 1.22163023730895506369e-01) (27, 3.04954938740780656659e+00) (29, 4.46299953838347307489e-01) (66, 6.92238399329755949019e-02) (28, 2.77420510089013472310e-01) (4, 6.98095722933423257217e-01) (21, 1.54617923327654605004e+00) (78, 2.03769006730096235991e-01) (82, -5.88524785683148587978e-01) (35, 9.71942074494232199910e-01) (33, 3.18755216651623429769e+00) (119, -2.82438132663908152142e-02) (34, 1.14483908784105498091e-01) (19, 1.50000000000000000000e+03) (84, 5.44029729107460946480e-01) (101, 1.58479165481331141230e+00) (105, 2.20647228696533836967e+00) (6, -1.93684642835077275302e-01) (46, 2.69813626713718904271e-02) (69, 1.15410550785052412603e-01) (91, 2.15439342527998761723e-01) (127, 2.09181691910247741228e-01) (135, 4.25131932263172265807e-02) (1, 8.66232812572666821538e-01) (137, 5.95756184517108600129e-02) (95, 1.20950385887317282685e-01) (114, -6.81164074691736343148e-01) (32, 9.91835423951393513331e-02) (26, 1.19707885047711015680e-01) (98, -1.10012522043693006246e+00) (3, 5.90685005407297514246e-01) (52, 2.14213021282238375020e-01) (73, -1.10142120776369305257e-02) (54, 2.63973159836722093274e-01) (134, 1.68581620421866140713e-01) (65, 9.41837711555754547588e-02) (74, 2.90608341488851375234e-02) (104, 2.20478679034854962993e-01) (61, 2.63013437927920590287e-01) (15, 4.89338270191803592635e-01) (22, 9.18383248536397689410e-02) (18, 1.50000000000000000000e+03) (115, 1.33743195948944043616e-01) (113, -4.93146385736521530863e-01) (96, 9.67459170274354574026e-02) (9, 2.60508962098013174824e+00) (116, -7.38352615096153352958e-01) (109, -3.27447804405052333987e-01) (85, -8.82838905223172987213e-01) (142, 4.77606904757936434613e-01) (31, 5.14133336165888898961e+00) (115, -6.08770171815469551824e-01) (68, -4.11595465351839495671e-01) (103, -2.43087222337238811898e-01) (7, -4.87138713973480352859e-02) (58, -4.03593410538293340117e-01) (20, -8.27260530545903205457e-01) (1, 2.81039726751873053523e-01) (132, -3.14728496687757652861e-01) (105, -2.82605186266393992867e+00) (29, -4.51285991157778121341e-01) (124, -3.00632588631280839309e-01) (49, 2.91837567959984611754e-01) (97, -3.15160221214529800982e-01) (54, -4.31842117463904606733e-01) (107, 1.85304050001346115595e-01) (34, -2.30511383329015773214e-01) (16, -3.12193997709589610157e-01) (28, -3.01980474224548878226e-01) (136, -5.15710117538435319773e-01) (52, -4.10964856438351566759e-01) (121, -4.69025577722530173652e-01) (112, 1.43165284307298712463e+00) (8, -1.59091227042395005897e-01) (71, 7.82624850916576408899e-01) (15, -1.04081643572883936200e-01) (138, -3.22568404879872816515e-01) (35, -3.85001499125108448407e-01) (94, -2.95282071294159953467e-01) (104, -2.53673110082226538342e-01) (55, -3.16623351746693093567e-01) (123, -2.84549063135784929823e-01) (85, 1.69491040356203187534e-01) (117, 9.12019806994509574238e-02) (57, -3.36793158200568765182e-01) (127, -3.92589199879998240750e-01) (98, 2.14748221658387139499e+00) (133, -3.65523940234249777870e-01) (78, -2.88077337851953274583e-01) (48, 6.40163898663760749796e-02) (26, -2.66092543210791177000e-01) (25, -3.29677186843988889731e-01) (66, -1.59408258360845961343e-01) (84, -6.29040531176033174132e-03) (113, -5.94329437196566612300e-01) (87, 1.35921150651549260679e+00) (64, -3.03705107976641852652e-01) (63, -4.14965650035930000428e-02) (39, -5.85970479706212410420e-01) (46, -4.38684438202482762659e-01) (40, 6.30119556996312502051e-02) (67, -1.96864052332159644720e-01) (114, -1.21193925591751061610e+00) (59, -5.13240820869311997754e-01) (73, -2.54361222365536598922e-01) (140, -3.10523152269454483232e-01) (92, -2.04813465535675170992e-01) (21, -1.37691871680772820463e-01) (108, -1.22291671659603418121e+00) (131, -2.60973782173509250004e-01) (118, 8.68322451522849481087e-01) (9, -1.07906944883143243730e-01) (61, -2.96937684057048845165e-01) (38, -5.06063550592321997890e-01) (12, -2.33145758170116651486e-01) (93, -1.43645466172040159325e-01) (77, 2.78218535105320512180e-02) (53, -2.65409803203801197835e-01) (75, -4.33270177298823722101e-01) (96, -2.92907285679103679410e-01) (22, -2.61525553750526162933e-01) (122, -3.89903323179019878353e-01) (32, -3.05299283647097408068e-01) (41, -9.96890319642755873275e-02) (100, -1.66866015581305843218e-01) (42, -2.65905515724226992891e-01) (134, -2.25016547020272322799e-01) (81, -2.96671978960431514949e-01) (33, -1.07073231756120690328e+00) (120, -9.45795624453260735942e-02) (82, 3.49301052074674489578e-01) (37, -6.31201639065271047357e-01) (95, -2.32483755481654785768e-01) (74, -2.59623541993589446175e-01) (19, 1.50000000000000000000e+03) (142, -5.52889804746975882521e-02) (40, 1.88778292567249272871e+00) (118, 1.90606126723459473604e-01) (12, 5.20380891403929957129e-01) (127, 1.18465057280118871152e-01) (25, -7.72072232541985009613e-03) (82, 4.38682298711096585464e+00) (126, 1.22967886623714342531e-01) (139, -4.19263774283849671720e-02) (28, 4.94214426653350968888e-01) (138, 6.06171718778380358428e-02) (130, 2.69501041699306498334e-01) (15, 4.69058670142731781727e-01) (14, 9.71630199678930717155e-01) (2, 1.36548329521199190983e-01) (41, 5.06350729539280397518e-01) (103, 1.31452732701994562392e-01) (129, 2.32622309271390187435e-01) (85, 2.20348949070295097030e+00) (120, 2.37645380796407346136e-01) (132, 2.19376596894421127537e-01) (80, 4.99848154013040435473e+00) (83, 2.95290731290994168390e+00) (96, 1.97540973221851906549e-01) (16, 8.71892218239629701593e-01) (81, 2.99319540875102374500e+00) (53, 1.40035358591854036669e-01) (29, 1.17431795509632078134e-01) (42, 7.02670582602603843725e-01) (105, 3.36167822674354882517e-02) (77, 3.18933181337146898215e+00) (117, 7.16377117911087690771e+00) (61, 1.70181923722597883142e-01) (93, -1.89723997239063024711e-01) (88, 1.50000000000000000000e+03) (19, 1.50000000000000000000e+03) (30, 3.36677517707163309613e-01) (18, 1.50000000000000000000e+03) (72, 1.33711218261378633754e-01) (135, -4.09220323765196847265e-01) (86, -5.04248978714799900303e+00) (68, 1.72167275348144327429e-01) (116, 2.30160610652546537835e+00) (10, 5.24601538410480849883e-01) (31, 3.94820572426115257159e+00) (7, 4.91272089482594764842e-01) (47, 1.01308832494212588959e-01) (64, 5.69522717209718698506e-01) (35, 2.32938218803435376225e-01) (27, 8.69692106320677504883e-01) (99, 2.31698540947323311512e-01) (78, -6.75852092445710650459e-02) (43, 3.15701064489497418286e-01) (124, 1.90639655203073354883e-01) (0, 6.08857885346036131757e-01) (110, 1.99081648397235988490e+00) (45, 1.57372182643005342761e+00) (63, 4.76756259190144027205e-01) (52, 1.06176949745020163252e-01) (57, 1.40279585931361749918e-01) (91, 2.99742490912085290944e+00) (60, -3.61755568144188677238e+00) (114, -2.77734117959756499072e-01) (56, 6.53172084583533985036e-02) (133, -7.21834400296837763733e-01) (87, 3.81547588490776012904e+00) (74, 1.65126822965393188491e-01) (98, 8.52373491060414956166e+00) (119, 1.51417519491692964539e-01) (108, 8.52434387681875148368e-03) (24, 2.29319784742978177716e-01) (79, 2.44689061986583134001e+00) (92, -9.97225374409040465906e-01) (34, 1.52148021947950323751e-01) (5, 5.28358687467588628017e-01) (109, 7.58707790554873917621e-01) (131, 2.82263230830275102523e-01) (33, 1.34718099659254297862e+00) (58, 2.23283831309351532557e-01) (125, 1.75592612962094052342e-01) (123, 2.88793548736954119871e-01) (67, 1.60281479249333141945e-01) (21, 4.57612237850070630030e-02) (13, 5.13904241237432835021e-01) (4, 8.19553877362604182855e-02) (37, 6.50331789445262153926e-01) (142, 1.92762900248688057170e-01) (57, 8.38176308648429756187e-03) (66, 1.31917761561905003131e-03) (92, 2.46003751600032155578e-01) (105, -3.11569011088425780465e-02) (116, 1.37845625470675275936e-01) (98, 7.49850143809524416483e-01) (99, 1.36289092826885904763e+00) (126, 1.17946639244062664864e-01) (121, -8.87787329500162730733e-02) (85, -6.66953224042769465818e-02) (29, 1.10082931381870263721e+00) (110, 1.91250949208879271468e-02) (101, -5.17336230809762209759e-01) (60, -1.97265329899916574963e-01) (67, -1.41072528922639717219e-01) (111, -2.78496450129239681015e-01) (30, 3.39612305157830474123e-01) (78, 2.55680236140312322490e-01) (118, -5.30481960642305988562e-02) (71, 6.52310608604436792390e-01) (97, -1.19750965941381556923e-01) (3, -2.83536519987314439284e-01) (1, 1.24027129451326031950e-01) (51, 1.43456476262094345664e-01) (47, -6.61535163893055694340e-02) (63, -3.00218402479821455664e-01) (49, 5.89729228936038823994e-02) (103, -8.05366242426903827800e-02) (42, 8.59061414698479630658e-01) (123, 8.25131303889697353959e-02) (43, -1.19611620494883288957e-01) (141, 1.28691589731118171541e-02) (33, -1.77602201868708964305e+00) (131, 6.49825884374790746500e-02) (114, 1.86466934475095991175e-01) (46, -3.99667118400889753715e-01) (62, 1.12138004582184175328e-01) (8, -3.03550656040487532028e-01) (75, 8.71247528016445144106e-02) (73, 6.56023392265218940889e-02) (102, -5.48534209487031160224e-02) (112, 6.05772026041590305745e-01) (15, -2.72594832152586230567e-01) (36, 3.85867694385196718931e-02) (37, 4.01726061340288292945e-02) (86, -4.49635191261335775970e-01) (45, -6.19851647882170175841e-01) (132, -8.48340966512283051193e-02) (52, 3.33163039004304439850e-02) (35, -2.02041045357808202176e-01) (91, -1.86818014146912791951e-01) (95, -4.14142232276453123307e-02) (77, -1.41720496682775920494e-01) (120, -1.05896273516099689860e-01) (56, -4.18466712083370370734e-02) (122, 9.47613082224372099693e-02) (106, -2.69122222580641778933e-01) (24, 4.35234224473128039623e-02) (19, 1.50000000000000000000e+03) (26, -1.04063244985252087438e-01) (6, -4.59576391828157349018e-01) (117, -9.80043500222201879879e-01) (27, -3.49729733426818123476e+00) (12, -2.60652971766094310180e-01) (16, -3.65493557483902609118e-01) (38, -1.90240748425171496416e-01) (17, 1.50000000000000000000e+03) (108, -2.66861948253049353907e-03) (94, 1.26176355778506527061e-01) (53, 2.29259656052532671822e-02) (76, 3.49168644210953782459e-01) (140, 8.71744514610808263200e-02) (88, 1.50000000000000000000e+03) (64, -1.13564055816292364121e+00) (68, -7.84444072613291881746e-02) (115, 5.89377378934029483304e+00) (139, 5.80058905550830047892e-02) (96, 1.35082663670814340229e-01) (129, 2.37367977151680328851e-02) (55, -1.68947487675482233005e-01) (40, -4.35623401859736580910e-01) (113, 1.67362749379509412329e+00) (125, -1.11970410604834147428e-01) (107, 5.05969951312113308539e-01) (79, -1.04750590249865858233e-02) (130, -2.10641474071270068391e-01) (142, 4.53777380062125812454e-01) (110, 1.96219406594865419802e-01) (129, -1.62706289216800054076e-01) (133, -7.63351281435485806703e-01) (82, 1.61576922687305043120e-06) (86, 1.02086212783256941039e-01) (8, 1.18353750519633177385e-01) (4, -6.33875895307013492719e-01) (34, -1.79948117109983374284e-01) (43, 9.29531870548456540249e-01) (93, 3.16526308032322900576e-01) (87, 2.05231001971470289336e-01) (115, -2.15273130047191951775e+00) (3, -1.84933346732579106941e+00) (104, -1.73223714969151287857e-01) (65, -2.35144892827802237667e-01) (47, -3.81621150517122281753e-02) (135, -3.44971063337716266073e-01) (97, -6.65957413445233292748e-01) (37, 1.96895988654794118489e+00) (95, -2.81595426856071195942e-01) (139, -5.67569217528114955407e-01) (32, -2.47683645057677176426e-01) (36, 2.38998531404679449841e-02) (128, -3.06682248312638405796e-01) (81, 1.93634175609033398757e-01) (127, -1.30740902429945654584e-01) (123, -2.30215700329854333628e-01) (102, -2.20706510212915152369e-01) (9, 1.68212966911580226459e-02) (137, -2.41498198440771139062e-01) (16, 2.38147869295427638825e-01) (73, -2.98347603398170790889e-01) (44, -3.00573087239039471452e-01) (136, -1.43582512581242160987e-01) (14, 2.99727246273821967826e-01) (98, 2.92561151780985850834e-01) (25, -1.63954216193904289689e+00) (42, 6.44691990877208909172e-02) (29, -9.10313278194945896260e-01) (84, -4.19436636616881686201e-02) (88, 1.50000000000000000000e+03) (131, -1.93168776215487003611e-01) (45, 5.05972348530719651105e-02) (66, -2.05636338762001047442e-01) (18, 1.50000000000000000000e+03) (56, -2.28272885445276552119e+00) (116, 1.55617212561263984494e-01) (59, -2.94975931835860551156e-02) (99, 2.30759597279210648679e+00) (103, -1.55893468214987562792e-01) (79, 2.21241322673217083450e-01) (121, -3.21833320960058399951e-01) (69, -2.53345962334310614850e-01) (12, -6.42970220639196066159e-01) (126, -2.07289970053736699596e-01) (6, 1.36222463906077062568e-01) (140, -2.12687270816056761547e-01) (23, -2.65413917045482161683e+00) (7, -1.47758868540249416190e-01) (26, -1.42876137499025362976e-01) (39, 9.14864457298626837511e-02) (92, 1.61273384844467893018e+00) (17, 1.50000000000000000000e+03) (53, -2.17675783873731931717e-01) (40, 2.53585416921227491116e-01) (76, 1.25461982690823176112e-01) (46, 1.67314046681892064639e-01) (13, -6.56021454980729584738e-02) (101, -3.66078189213261018242e-01) (107, -2.22764759671533162100e-02) (11, 6.04408028979694228466e-02) (74, -2.35427690656660637547e-01) (15, -2.29191251407131424411e-01) (63, -3.82056881215276078478e+00) (120, -4.25904989905671882422e-01) (51, -2.09791246808838066640e-01) (67, -1.86126027945613836678e-01) (83, 1.11110243577778752821e-01) (71, -1.95431211453986647397e-01) (57, -2.73829225362046790870e-01) (90, 1.50000000000000000000e+03) (2, -1.78005183579091275092e+00) (49, -2.54634329069653109201e-01) (41, -3.21016968409879899227e+00) (64, -3.33507839637774994301e+00) (142, 2.27870375443337408461e-01) (17, 1.50000000000000000000e+03) (52, 5.90644913543911936893e-03) (55, -6.10043876065414630849e-02) (5, -4.60283117227675786509e-01) (88, 1.50000000000000000000e+03) (10, -5.76736051116967241015e-01) (50, -8.83258813716975982322e-02) (137, -1.23981176740031506789e-01) (91, 1.35217627040853827225e+00) (76, 5.07988611317668925516e-01) (138, 1.29366651889661316011e-01) (9, -1.09126888266206223399e+00) (62, -4.43875112129457627397e-02) (66, 3.38765667381160304195e-02) (99, -1.68326284070997211906e+00) (128, -1.20497928590987096742e-01) (16, 2.50175295213031848029e-02) (106, -1.98081436603433536092e+00) (87, -9.47041244462957926276e-02) (125, -9.00499466750864507869e-02) (34, -6.49088041603291532322e-02) (105, 6.25406821187417111263e-02) (35, -5.55208134212583748202e-01) (75, -4.05557661111194331371e-02) (82, 2.58095621987414691745e+00) (29, -9.12296505248623823547e-01) (123, -1.38396553606286054627e-01) (3, -1.65548242841187326357e-01) (69, 1.30289654064947357792e-01) (46, -2.22108582851833574745e-01) (119, 6.94879954624782192329e-02) (95, -8.41304813482184610240e-02) (54, -1.34234744173485978647e-02) (6, 1.35414429706813776999e-01) (116, 3.54066441120111541352e-01) (113, 1.66747630904120658357e+00) (26, -7.97392193073227645295e-02) (49, -8.63476020484717082804e-02) (117, -8.16941271608645908087e-02) (109, 4.46513264479652838279e-01) (63, -1.36959082117825065028e-01) (110, 2.18771840388842203629e-01) (13, 1.35273398752792844979e-01) (4, -5.55960264886814423124e-02) (57, -2.59724266000942415056e-02) (42, -9.45602679102434451330e-01) (43, -6.23325036403496235415e-01) (2, -1.11127321924640656836e-01) (33, -4.39390517503014388367e-01) (111, 3.90652770601684906637e-02) (132, 2.90063569149071998066e-01) (47, -9.56185396286245714581e-02) (23, -1.58786348109886343849e-01) (38, -4.27477991995784067925e-01) (98, 3.68070362887350566172e-01) (67, -6.56072961252803649179e-02) (124, -2.23429398348660573914e-02) (140, 1.48943186784881331786e-01) (20, -5.91175145984831118540e-01) (127, -2.27475137916718257725e-02) (39, 8.42110278598137557138e-02) (61, 3.05995536593272055015e-02) (48, -4.10631170389444480340e-02) (32, 3.59695736191056316886e-03) (40, -3.12387934179967907689e-02) (101, -6.51808315435704055396e-01) (135, -2.59755492307059548951e-02) (12, -4.99133903960441771552e-01) (78, 6.73255499570067250659e-01) (74, -7.86477657307249056196e-02) (139, 1.74187760608908726034e-01) (11, -2.28771113006270354617e+00) (103, -3.62863386851088320917e-02) (90, 1.50000000000000000000e+03) (93, -8.30438995441757477067e-01) (27, -8.41743517393536588855e-01) (0, -1.00312343537340464827e+00) (118, -8.79503749769228321265e-02) (89, 1.50000000000000000000e+03) (86, 1.37131908626715715016e+00) (100, -2.81565943217328029657e-01) (77, 8.83157616442672710466e-02) (80, 2.89125430550996354029e+00) (108, -8.35255888489131459451e-01) (56, 4.33461087858632632130e-01) (142, -3.65375490666872831946e-02) (30, 5.01093249120907885397e-02) (61, 1.65710520019784035561e-01) (79, 1.51320646434857497553e+00) (111, -4.23232073157595811708e-01) (57, 1.53122233497176102324e-01) (104, 1.93439544639973509677e-01) (136, 4.81967919955251511421e-01) (2, -2.16460390329451790592e+00) (4, -1.83829617957321445054e-01) (50, 7.76902541207250690869e-03) (45, 6.23955590205252264013e-01) (24, 1.96139072150785881421e-01) (0, 3.07152730164794385281e-01) (63, 6.10046734979907134822e-01) (118, 3.59577690417854645144e-02) (12, 6.70164949475891003061e-01) (93, 4.63043955215107416734e+00) (133, 8.00642693753529255396e-01) (35, 2.61942899821061891963e-01) (115, -2.49827460982702476144e-01) (107, -2.80495394299964881379e-02) (83, 8.99757967714921780278e-01) (60, -3.75990122850674152177e-02) (74, 2.18770233127920377125e-02) (105, -7.17997541290329444053e-01) (48, 1.68585102907864131661e-01) (127, 1.71621036803881577004e-01) (39, 7.19058839798997317949e-01) (125, 6.18144768436041380788e-02) (81, 1.17594636861728929489e+00) (138, 2.57807070226447332395e-01) (38, -3.58979169295949640528e-01) (86, -4.36270824579829064049e+00) (28, -3.93922887542624222679e-01) (88, 1.50000000000000000000e+03) (7, 6.60199199661129498828e-01) (47, -2.69148025111522540276e-03) (82, -3.48734610437167313890e+00) (72, 1.88685887867222970571e-02) (89, 1.50000000000000000000e+03) (132, 2.95271390787433307690e-01) (33, 2.04048376857560764819e+00) (75, 9.74917609624764841536e-02) (8, 4.50148743678650431477e-01) (6, 2.52744287149836488471e-01) (92, 9.97820752235230479243e-01) (56, 1.15341736766456592900e-01) (84, -3.42325089219396971885e+00) (62, 2.12513804371366535340e-02) (109, -8.11643525928282150161e-01) (131, 6.54583116562587885578e-02) (23, -9.80498287478407705431e-03) (55, 2.69646427274358113646e-01) (31, -4.09416172745765916119e+00) (26, 1.31163629634739847818e-01) (22, -1.23576535289968494902e-01) (3, 1.04846928126228949862e-01) (41, 1.84754946399834407700e+00) (20, 1.30284949892306833874e+00) (43, 4.13333438367513128497e-01) (51, 3.43728692294829885068e-02) (101, 1.74636655605493440468e+00) (15, 3.03233491129007770581e+00) (21, -6.66567706786735381108e-01) (36, 1.23077502105919611708e+00) (112, 2.81544341814720988637e-01) (123, 1.73654610019437299906e-01) (120, -3.40144178734719360158e-01) (44, 6.47672719968074961372e-01) (11, 1.74726043321354329585e+00) (100, -8.19824936990999675324e-01) (122, 5.50850785859701569391e-02) (134, 6.43497732287114598826e-01) (16, 6.09606215316296252971e-03) (32, 6.18887865335021047919e-02) (69, 7.92685931214250627530e-02) (40, -3.42051368503216046690e-01) (73, 1.37325234259787737345e-01) (99, -2.32830789108029401202e-01) (34, 9.18146093019055753448e-02) (66, 6.61737845403527827348e-03) (17, 1.50000000000000000000e+03) (76, -1.20746324590152359635e-01) (64, -1.87003647182328491816e+00) (126, 2.25583842446906296386e-01) (142, -8.39734864753098664281e-01) (6, 8.47911565185008042622e-02) (64, 1.53865683912959916313e+00) (70, 9.48494949557834754472e-01) (139, 1.57700157788605022091e+00) (19, 1.50000000000000000000e+03) (31, 1.11711525163379077341e+00) (99, 4.83892090267733943065e-01) (9, -1.39404597995504797581e+00) (84, -1.30374522444820395428e+00) (101, 1.12215133133576605573e+00) (67, 1.37073553283297577821e+00) (11, -3.05207200331857608777e-01) (10, 8.86700396967405879423e-02) (109, 8.90948901404038706708e-01) (69, 1.63848801084770201442e+00) (103, 1.31376887604990044700e+00) (4, 8.63928307770150727407e-01) (105, 1.53755416105048259290e+00) (90, 1.50000000000000000000e+03) (85, 3.03219159485262623743e-01) (91, 1.35995089046709960456e+00) (73, 1.00864408874939370797e+00) (117, 7.81689771159782886834e-01) (92, -1.03696809037321724389e+00) (104, -4.52922004753969353885e+00) (106, -1.44527455933659898513e-01) (115, 2.55347432737660895441e+00) (57, 1.24662049152385479012e+00) (2, 9.52113036534655621246e-01) (55, 1.26636231967671220033e+00) (56, 1.46800516252714419174e+00) (26, 1.00163192789472832445e+00) (127, 1.26038037787128454070e+00) (110, 1.77044274692271602634e-01) (37, 2.95317350169462256027e-01) (137, 1.37896726633281940799e+00) (16, 4.27741020959443107863e-01) (122, 1.39871969142218821602e+00) (72, 7.60821608964426632227e-01) (54, 1.32736363876544283258e+00) (80, 2.10056766100222302995e+00) (58, 1.28583714679366889477e+00) (62, 2.63944334728732199480e+00) (125, 1.27879878403472413417e+00) (48, 9.78065167589449724339e-01) (107, 1.72335095642495689239e-01) (114, 4.54821184984047333089e-01) (8, 9.97328744576650161324e-02) (79, -1.27862730087860421158e-01) (88, 1.50000000000000000000e+03) (94, 6.85542814820901846851e-01) (82, 2.03586785839677553156e+00) (53, 1.03500458225749980556e+00) (35, 1.36939301623448983491e+00) (15, -6.91273140905010879953e-02) (43, 2.28068177989034587272e-01) (134, 1.49091976112152879708e+00) (1, 9.76277639847824119101e-01) (71, -1.97941522533247997728e+01) (96, -3.88432113218412089495e-01) (50, 5.00305594439701795118e-01) (83, 1.13196742445652809295e+00) (140, 1.34641023347267463350e+00) (78, 1.00254462083403250716e+00) (113, 3.37770861438517977504e-01) (18, 1.50000000000000000000e+03) (12, 1.80640773857771386179e-01) (108, -1.92888465466906189327e+00) (68, 1.49345448013679860111e+00) (136, 9.43051846904626178691e-01) (102, 4.06768608766193118242e+00) (138, 1.24824672757405652490e+00) (118, 7.24086809324175684210e-01) (60, 8.39454639025032478550e-01) (38, -2.19300196705675576325e+00) (63, 1.60643195707179065046e+00) (120, 1.07676846148596760955e+00) (132, 9.59775735701179022463e-01) (39, -4.02207232411647996884e+00) (42, -1.26273804058431499131e-01) (17, 1.50000000000000000000e+03) (74, 8.89646595993062838659e-01) (66, 1.43140738371877973556e+00) (30, 3.33206562357332503055e+00) (21, 2.24785644504158312884e+01) (142, 6.61756979112321119807e-01) (27, 9.13154096394578829177e+00) (35, 3.83274690176595811408e+00) (48, -4.27557446979932098685e+00) (67, -4.25979154767565648676e-01) (87, 5.37729535281955203785e-02) (99, -1.56620722299509984587e+00) (115, -4.97165187814728015692e-01) (94, -2.83917757169849793719e-01) (17, 1.50000000000000000000e+03) (92, -8.06444704615385310476e-01) (133, -2.24866535127329708610e-01) (55, -5.18343172942132723868e-01) (6, -9.22980203340004017043e-03) (50, -2.17855717925652969669e+00) (44, -7.15913318855167402077e-01) (30, 5.33585453564128120441e-01) (26, -1.75006724400920632423e-01) (105, 4.87229688890704545901e-02) (112, -3.89772396145553967628e+00) (57, -3.74293319115607148184e-01) (137, -5.19658653056862540609e-01) (77, -1.06454181967645555851e-01) (126, -3.17450375615234758886e-01) (100, -2.20960983863367183000e-01) (52, -5.67737257041479148612e-01) (62, -2.72298079080240729155e-01) (69, -2.71084054222935078027e-01) (4, -3.62452210881388792174e+00) (5, -6.18530768895169669186e-01) (101, -1.52946809944780137691e+00) (66, -2.62087302411051215056e-01) (121, -3.71544379162168647568e-01) (64, -1.04328595022321876651e-01) (102, -4.74130526838224930497e-01) (111, -4.55387737069112896737e-01) (53, -1.76901106560034937498e-01) (93, -6.34178098815514762476e-02) (47, -5.42119001461074390136e-01) (109, -1.47793054017358804764e+00) (95, -2.51551034130081063722e-01) (38, -2.78559711723011471651e-01) (75, -2.49736391437543503447e-01) (117, 5.16028697976075645393e-01) (129, -3.36629445223690981770e-01) (80, 1.81200010951384271607e-01) (136, -5.29656017187269956281e-01) (88, 1.50000000000000000000e+03) (59, -2.09055437559552109716e-01) (89, 1.50000000000000000000e+03) (3, -4.42827069199323464233e-01) (113, 2.00093011337372034264e-01) (7, -5.85834394686330250934e-01) (10, -5.41263374470910885172e-01) (16, 1.67071469818435319743e-01) (71, -1.60161822526820873946e-02) (91, -5.19017401519332644000e+00) (39, -8.29568436825539740065e-02) (12, -7.54695110478039765667e+00) (81, -5.80079392327456311307e-01) (127, -4.61392982511565685755e-01) (108, 1.50607413489943775531e+00) (46, 9.51030636367717341351e-02) (58, -3.97224729523392827701e-01) (76, -1.21181810020742852796e-01) (72, -2.27563602562074168700e-01) (132, -4.27053091983595201064e-01) (37, 9.80150232819331557188e-01) (13, 5.42749326422157363226e+00) (45, -4.93434410412103563459e-01) (42, -9.07481732310680966336e-01) (123, -1.37005949515143399253e+00) (103, -3.09374802176669072562e-01) (106, -2.12631432222627619888e-01) (131, -4.15899780137815200387e-01) (84, -7.19966704180858951823e-01) (0, -3.99939984719944879865e-02) (130, -3.80725686359538795234e-01) (104, -2.64304675059871374554e-01) (8, -1.82850407676507759058e-01) (9, -3.88178392991858356442e-02) (65, -4.34901205504406918045e-01) (73, -5.48460207576999425605e-01) (11, 6.42697745685963522932e-02) (139, -1.46755506981931715949e+00) (82, 1.16515682775292186979e-01) (122, -6.52888990253923107154e-01) (142, 1.61019028658465235271e-01) (0, -2.49017731247207452228e+00) (2, 4.12967540212910919073e-02) (15, -6.07110991485058870687e-01) (29, -5.35054348561417647545e-01) (42, 2.73175220615175851080e-01) (128, -7.40150147985981082810e-02) (6, 4.71183739895322029057e-01) (83, -2.09700599886668948013e-01) (91, -1.55424723066329456556e-01) (34, 3.64312429184698083340e-01) (36, 7.76201059435873252923e-01) (131, -5.99833180669682511366e-02) (103, 8.31459322661045496794e-01) (86, 1.45692603924207042532e+00) (11, 2.26234193360554680652e+00) (102, -1.73109699296819075087e+00) (57, 3.91792677337047479114e-01) (19, 1.50000000000000000000e+03) (100, -5.03744450324755366211e+00) (87, 1.83789400702584065916e-01) (68, 4.25924831934903908026e-02) (93, 2.41368076169867808167e-02) (62, -4.19447858402684399526e-03) (108, -5.43662984742180466213e+00) (76, -1.33613803027491928610e-01) (61, -2.14380440560535789896e-01) (92, -2.93234687897405388313e+00) (136, 1.22393311207119759310e+00) (117, -3.07773152459001331227e-01) (52, 9.64800065306056081615e-02) (110, -4.70162309070280892698e-01) (48, -4.99344583338271585937e-01) (137, -1.38678973763848800704e-01) (8, 4.51414215978150845654e-01) (129, -9.32001339065535450157e-02) (66, -5.66808807403065412212e-02) (98, -2.96067746633088146879e+00) (82, -2.47047620792734079487e+00) (50, 7.22670020881391650391e-01) (1, 6.52396453642420715013e-01) (139, 1.46288729406439638181e-01) (116, -4.44839305484683922298e-01) (81, 4.21394652010754322546e-01) (120, -1.69967869380095865095e-01) (126, 5.15675141265139469482e-02) (88, 1.50000000000000000000e+03) (89, 1.50000000000000000000e+03) (115, -2.97214753368961304147e-01) (32, -4.74695819131691620907e-02) (96, 3.15488572145813495062e-01) (23, 1.97681347383670658058e-01) (59, 1.76215439272016038963e+00) (40, 1.59066861672481207890e+00) (112, 1.24501578793431422199e+00) (63, -1.96476389085959768366e-01) (69, -1.35246163477308778411e-01) (4, 2.05158261073157613397e-02) (41, 2.05551734017287469902e-02) (73, 3.16043170738187828572e-01) (12, 2.00794783738053289612e-01) (53, 