FANN_FLO_2.1
num_layers=3
learning_rate=0.700000
connection_rate=0.800000
network_type=0
learning_momentum=0.000000
training_algorithm=2
train_error_function=1
train_stop_function=0
cascade_output_change_fraction=0.010000
quickprop_decay=-0.000100
quickprop_mu=1.750000
rprop_increase_factor=1.225000
rprop_decrease_factor=0.325000
rprop_delta_min=-10.000000
rprop_delta_max=10.000000
rprop_delta_zero=0.100000
cascade_output_stagnation_epochs=12
cascade_candidate_change_fraction=0.010000
cascade_candidate_stagnation_epochs=12
cascade_max_out_epochs=150
cascade_max_cand_epochs=150
cascade_num_candidate_groups=2
bit_fail_limit=1.00000000000000005551e-01
cascade_candidate_limit=1.00000000000000000000e+03
cascade_weight_multiplier=4.00000000000000022204e-01
cascade_activation_functions_count=10
cascade_activation_functions=3 5 7 8 10 11 14 15 16 17 
cascade_activation_steepnesses_count=4
cascade_activation_steepnesses=2.50000000000000000000e-01 5.00000000000000000000e-01 7.50000000000000000000e-01 1.00000000000000000000e+00 
layer_sizes=143 143 4 
scale_included=0
neurons (num_inputs, activation_function, activation_steepness)=(0, 0, 0.00000000000000000000e+00) (0, 0, 0.00000000000000000000e+00) (0, 0, 0.00000000000000000000e+00) (0, 0, 0.00000000000000000000e+00) (0, 0, 0.00000000000000000000e+00) (0, 0, 0.00000000000000000000e+00) (0, 0, 0.00000000000000000000e+00) (0, 0, 0.00000000000000000000e+00) (0, 0, 0.00000000000000000000e+00) (0, 0, 0.00000000000000000000e+00) (0, 0, 0.00000000000000000000e+00) (0, 0, 0.00000000000000000000e+00) (0, 0, 0.00000000000000000000e+00) (0, 0, 0.00000000000000000000e+00) (0, 0, 0.00000000000000000000e+00) (0, 0, 0.00000000000000000000e+00) (0, 0, 0.00000000000000000000e+00) (0, 0, 0.00000000000000000000e+00) (0, 0, 0.00000000000000000000e+00) (0, 0, 0.00000000000000000000e+00) (0, 0, 0.00000000000000000000e+00) (0, 0, 0.00000000000000000000e+00) (0, 0, 0.00000000000000000000e+00) (0, 0, 0.00000000000000000000e+00) (0, 0, 0.00000000000000000000e+00) (0, 0, 0.00000000000000000000e+00) (0, 0, 0.00000000000000000000e+00) (0, 0, 0.00000000000000000000e+00) (0, 0, 0.00000000000000000000e+00) (0, 0, 0.00000000000000000000e+00) (0, 0, 0.00000000000000000000e+00) (0, 0, 0.00000000000000000000e+00) (0, 0, 0.00000000000000000000e+00) (0, 0, 0.00000000000000000000e+00) (0, 0, 0.00000000000000000000e+00) (0, 0, 0.00000000000000000000e+00) (0, 0, 0.00000000000000000000e+00) (0, 0, 0.00000000000000000000e+00) (0, 0, 0.00000000000000000000e+00) (0, 0, 0.00000000000000000000e+00) (0, 0, 0.00000000000000000000e+00) (0, 0, 0.00000000000000000000e+00) (0, 0, 0.00000000000000000000e+00) (0, 0, 0.00000000000000000000e+00) (0, 0, 0.00000000000000000000e+00) (0, 0, 0.00000000000000000000e+00) (0, 0, 0.00000000000000000000e+00) (0, 0, 0.00000000000000000000e+00) (0, 0, 0.00000000000000000000e+00) (0, 0, 0.00000000000000000000e+00) (0, 0, 0.00000000000000000000e+00) (0, 0, 0.00000000000000000000e+00) (0, 0, 0.00000000000000000000e+00) (0, 0, 0.00000000000000000000e+00) (0, 0, 0.00000000000000000000e+00) (0, 0, 0.00000000000000000000e+00) (0, 0, 0.00000000000000000000e+00) (0, 0, 0.00000000000000000000e+00) (0, 0, 0.00000000000000000000e+00) (0, 0, 0.00000000000000000000e+00) (0, 0, 0.00000000000000000000e+00) (0, 0, 0.00000000000000000000e+00) (0, 0, 0.00000000000000000000e+00) (0, 0, 0.00000000000000000000e+00) (0, 0, 0.00000000000000000000e+00) (0, 0, 0.00000000000000000000e+00) (0, 0, 0.00000000000000000000e+00) (0, 0, 0.00000000000000000000e+00) (0, 0, 0.00000000000000000000e+00) (0, 0, 0.00000000000000000000e+00) (0, 0, 0.00000000000000000000e+00) (0, 0, 0.00000000000000000000e+00) (0, 0, 0.00000000000000000000e+00) (0, 0, 0.00000000000000000000e+00) (0, 0, 0.00000000000000000000e+00) (0, 0, 0.00000000000000000000e+00) (0, 0, 0.00000000000000000000e+00) (0, 0, 0.00000000000000000000e+00) (0, 0, 0.00000000000000000000e+00) (0, 0, 0.00000000000000000000e+00) (0, 0, 0.00000000000000000000e+00) (0, 0, 0.00000000000000000000e+00) (0, 0, 0.00000000000000000000e+00) (0, 0, 0.00000000000000000000e+00) (0, 0, 0.00000000000000000000e+00) (0, 0, 0.00000000000000000000e+00) (0, 0, 0.00000000000000000000e+00) (0, 0, 0.00000000000000000000e+00) (0, 0, 0.00000000000000000000e+00) (0, 0, 0.00000000000000000000e+00) (0, 0, 0.00000000000000000000e+00) (0, 0, 0.00000000000000000000e+00) (0, 0, 0.00000000000000000000e+00) (0, 0, 0.00000000000000000000e+00) (0, 0, 0.00000000000000000000e+00) (0, 0, 0.00000000000000000000e+00) (0, 0, 0.00000000000000000000e+00) (0, 0, 0.00000000000000000000e+00) (0, 0, 0.00000000000000000000e+00) (0, 0, 0.00000000000000000000e+00) (0, 0, 0.00000000000000000000e+00) (0, 0, 0.00000000000000000000e+00) (0, 0, 0.00000000000000000000e+00) (0, 0, 0.00000000000000000000e+00) (0, 0, 0.00000000000000000000e+00) (0, 0, 0.00000000000000000000e+00) (0, 0, 0.00000000000000000000e+00) (0, 0, 0.00000000000000000000e+00) (0, 0, 0.00000000000000000000e+00) (0, 0, 0.00000000000000000000e+00) (0, 0, 0.00000000000000000000e+00) (0, 0, 0.00000000000000000000e+00) (0, 0, 0.00000000000000000000e+00) (0, 0, 0.00000000000000000000e+00) (0, 0, 0.00000000000000000000e+00) (0, 0, 0.00000000000000000000e+00) (0, 0, 0.00000000000000000000e+00) (0, 0, 0.00000000000000000000e+00) (0, 0, 0.00000000000000000000e+00) (0, 0, 0.00000000000000000000e+00) (0, 0, 0.00000000000000000000e+00) (0, 0, 0.00000000000000000000e+00) (0, 0, 0.00000000000000000000e+00) (0, 0, 0.00000000000000000000e+00) (0, 0, 0.00000000000000000000e+00) (0, 0, 0.00000000000000000000e+00) (0, 0, 0.00000000000000000000e+00) (0, 0, 0.00000000000000000000e+00) (0, 0, 0.00000000000000000000e+00) (0, 0, 0.00000000000000000000e+00) (0, 0, 0.00000000000000000000e+00) (0, 0, 0.00000000000000000000e+00) (0, 0, 0.00000000000000000000e+00) (0, 0, 0.00000000000000000000e+00) (0, 0, 0.00000000000000000000e+00) (0, 0, 0.00000000000000000000e+00) (0, 0, 0.00000000000000000000e+00) (0, 0, 0.00000000000000000000e+00) (0, 0, 0.00000000000000000000e+00) (0, 0, 0.00000000000000000000e+00) (0, 0, 0.00000000000000000000e+00) (0, 0, 0.00000000000000000000e+00) (0, 0, 0.00000000000000000000e+00) (114, 5, 5.00000000000000000000e-01) (115, 5, 5.00000000000000000000e-01) (114, 5, 5.00000000000000000000e-01) (115, 5, 5.00000000000000000000e-01) (114, 5, 5.00000000000000000000e-01) (115, 5, 5.00000000000000000000e-01) (115, 5, 5.00000000000000000000e-01) (114, 5, 5.00000000000000000000e-01) (115, 5, 5.00000000000000000000e-01) (114, 5, 5.00000000000000000000e-01) (115, 5, 5.00000000000000000000e-01) (115, 5, 5.00000000000000000000e-01) (114, 5, 5.00000000000000000000e-01) (115, 5, 5.00000000000000000000e-01) (114, 5, 5.00000000000000000000e-01) (115, 5, 5.00000000000000000000e-01) (115, 5, 5.00000000000000000000e-01) (114, 5, 5.00000000000000000000e-01) (115, 5, 5.00000000000000000000e-01) (114, 5, 5.00000000000000000000e-01) (115, 5, 5.00000000000000000000e-01) (115, 5, 5.00000000000000000000e-01) (114, 5, 5.00000000000000000000e-01) (115, 5, 5.00000000000000000000e-01) (114, 5, 5.00000000000000000000e-01) (115, 5, 5.00000000000000000000e-01) (115, 5, 5.00000000000000000000e-01) (114, 5, 5.00000000000000000000e-01) (115, 5, 5.00000000000000000000e-01) (114, 5, 5.00000000000000000000e-01) (115, 5, 5.00000000000000000000e-01) (115, 5, 5.00000000000000000000e-01) (114, 5, 5.00000000000000000000e-01) (115, 5, 5.00000000000000000000e-01) (114, 5, 5.00000000000000000000e-01) (115, 5, 5.00000000000000000000e-01) (115, 5, 5.00000000000000000000e-01) (114, 5, 5.00000000000000000000e-01) (115, 5, 5.00000000000000000000e-01) (114, 5, 5.00000000000000000000e-01) (115, 5, 5.00000000000000000000e-01) (115, 5, 5.00000000000000000000e-01) (114, 5, 5.00000000000000000000e-01) (115, 5, 5.00000000000000000000e-01) (114, 5, 5.00000000000000000000e-01) (115, 5, 5.00000000000000000000e-01) (115, 5, 5.00000000000000000000e-01) (114, 5, 5.00000000000000000000e-01) (115, 5, 5.00000000000000000000e-01) (114, 5, 5.00000000000000000000e-01) (115, 5, 5.00000000000000000000e-01) (115, 5, 5.00000000000000000000e-01) (114, 5, 5.00000000000000000000e-01) (115, 5, 5.00000000000000000000e-01) (114, 5, 5.00000000000000000000e-01) (115, 5, 5.00000000000000000000e-01) (115, 5, 5.00000000000000000000e-01) (114, 5, 5.00000000000000000000e-01) (115, 5, 5.00000000000000000000e-01) (114, 5, 5.00000000000000000000e-01) (115, 5, 5.00000000000000000000e-01) (115, 5, 5.00000000000000000000e-01) (114, 5, 5.00000000000000000000e-01) (115, 5, 5.00000000000000000000e-01) (114, 5, 5.00000000000000000000e-01) (115, 5, 5.00000000000000000000e-01) (115, 5, 5.00000000000000000000e-01) (114, 5, 5.00000000000000000000e-01) (115, 5, 5.00000000000000000000e-01) (114, 5, 5.00000000000000000000e-01) (115, 5, 5.00000000000000000000e-01) (115, 5, 5.00000000000000000000e-01) (114, 5, 5.00000000000000000000e-01) (115, 5, 5.00000000000000000000e-01) (114, 5, 5.00000000000000000000e-01) (115, 5, 5.00000000000000000000e-01) (115, 5, 5.00000000000000000000e-01) (114, 5, 5.00000000000000000000e-01) (115, 5, 5.00000000000000000000e-01) (114, 5, 5.00000000000000000000e-01) (115, 5, 5.00000000000000000000e-01) (115, 5, 5.00000000000000000000e-01) (114, 5, 5.00000000000000000000e-01) (115, 5, 5.00000000000000000000e-01) (114, 5, 5.00000000000000000000e-01) (115, 5, 5.00000000000000000000e-01) (115, 5, 5.00000000000000000000e-01) (114, 5, 5.00000000000000000000e-01) (115, 5, 5.00000000000000000000e-01) (114, 5, 5.00000000000000000000e-01) (115, 5, 5.00000000000000000000e-01) (115, 5, 5.00000000000000000000e-01) (114, 5, 5.00000000000000000000e-01) (115, 5, 5.00000000000000000000e-01) (114, 5, 5.00000000000000000000e-01) (115, 5, 5.00000000000000000000e-01) (115, 5, 5.00000000000000000000e-01) (114, 5, 5.00000000000000000000e-01) (115, 5, 5.00000000000000000000e-01) (114, 5, 5.00000000000000000000e-01) (115, 5, 5.00000000000000000000e-01) (115, 5, 5.00000000000000000000e-01) (114, 5, 5.00000000000000000000e-01) (115, 5, 5.00000000000000000000e-01) (114, 5, 5.00000000000000000000e-01) (115, 5, 5.00000000000000000000e-01) (115, 5, 5.00000000000000000000e-01) (114, 5, 5.00000000000000000000e-01) (115, 5, 5.00000000000000000000e-01) (114, 5, 5.00000000000000000000e-01) (115, 5, 5.00000000000000000000e-01) (115, 5, 5.00000000000000000000e-01) (114, 5, 5.00000000000000000000e-01) (115, 5, 5.00000000000000000000e-01) (114, 5, 5.00000000000000000000e-01) (115, 5, 5.00000000000000000000e-01) (115, 5, 5.00000000000000000000e-01) (114, 5, 5.00000000000000000000e-01) (115, 5, 5.00000000000000000000e-01) (114, 5, 5.00000000000000000000e-01) (115, 5, 5.00000000000000000000e-01) (115, 5, 5.00000000000000000000e-01) (114, 5, 5.00000000000000000000e-01) (115, 5, 5.00000000000000000000e-01) (114, 5, 5.00000000000000000000e-01) (115, 5, 5.00000000000000000000e-01) (115, 5, 5.00000000000000000000e-01) (114, 5, 5.00000000000000000000e-01) (115, 5, 5.00000000000000000000e-01) (114, 5, 5.00000000000000000000e-01) (115, 5, 5.00000000000000000000e-01) (115, 5, 5.00000000000000000000e-01) (114, 5, 5.00000000000000000000e-01) (115, 5, 5.00000000000000000000e-01) (114, 5, 5.00000000000000000000e-01) (115, 5, 5.00000000000000000000e-01) (115, 5, 5.00000000000000000000e-01) (114, 5, 5.00000000000000000000e-01) (115, 5, 5.00000000000000000000e-01) (114, 5, 5.00000000000000000000e-01) (115, 5, 5.00000000000000000000e-01) (115, 5, 5.00000000000000000000e-01) (0, 5, 0.00000000000000000000e+00) (114, 5, 5.00000000000000000000e-01) (115, 5, 5.00000000000000000000e-01) (115, 5, 5.00000000000000000000e-01) (0, 5, 0.00000000000000000000e+00) 
connections (connected_to_neuron, weight)=(142, -1.34254986308358248426e-01) (106, 6.95401935161868323121e-01) (134, 3.17823086915425712107e-01) (71, 8.81106047950025450533e-01) (29, 2.32555094796597118523e-02) (133, 5.26423061801093439271e-01) (80, 1.73891008571567418084e-01) (68, 3.81458606809420341932e-01) (85, 2.18879422090019593039e-01) (136, 3.55241143855156871201e-01) (127, 3.64538590529641548521e-01) (115, -4.66610189701618729985e-02) (12, 2.56961384449024943244e-01) (100, 2.16995594901551569489e-01) (21, -1.67401202956765721153e-01) (49, 3.57400900070034888145e-01) (129, 2.86374587813444214657e-01) (93, -1.07303897391416477869e-01) (97, 3.08391664783798036265e-01) (40, -9.67247519858991655628e-02) (62, 4.29181660902969330795e-01) (57, 2.86157302645588362822e-01) (101, -7.09961440402572918629e-01) (81, 4.19182838045544958749e-01) (6, 1.54735553702209176728e-03) (86, 1.77144063889039860005e-01) (11, 4.78579715676045902573e-01) (52, 4.01800357781468220342e-01) (46, -5.85266353715799159119e-01) (47, 3.41082284130983126591e-01) (84, 1.15687548527314942870e-01) (124, 3.21849082673064668114e-01) (50, 3.52060587899938270962e-01) (53, 3.96656246589768057831e-01) (105, 4.69235060019212835147e-01) (74, 3.41466785231027913916e-01) (31, 4.12602714219647781491e-01) (39, -4.25638362841099016087e-01) (120, 3.57275328570390071636e-01) (92, -5.45727351169138152898e+00) (56, 2.99010440985146064286e-01) (109, -1.94556625827497137182e-01) (59, 3.75867892053625862747e-01) (23, 4.38522514418084929932e-01) (42, 6.92826530825434994121e-01) (99, 2.67175693257089598431e-02) (38, -5.98983042358557579710e-02) (2, 4.13584594876261701923e-01) (17, 1.50000000000000000000e+03) (110, 8.89423865252249035152e-01) (108, 2.27009372884623222832e-01) (69, 3.21526128248733500392e-01) (4, 4.53368125374832398045e-01) (64, 8.01831679292181187524e-02) (130, 2.49207364116854679370e-01) (35, -1.54722253030766343507e+00) (131, 3.14450865987528749290e-01) (32, 3.00790080305704699004e-01) (121, 4.32511263288925362769e-01) (139, 2.61311354030202225296e-01) (83, 2.66045507864216768112e-01) (102, 2.53681356218651010703e-01) (132, 4.35394790020498134719e-01) (60, 3.84344673042058659895e-01) (36, 1.83975109906338363253e-01) (25, 4.01070211749079974517e-01) (138, 3.64547761385957458380e-01) (75, 3.19785372475677176496e-01) (95, 3.98771611123127645016e-01) (58, 3.53993777024058264846e-01) (67, 3.73419326368676418593e-01) (94, 2.40448903118641643673e-01) (48, 4.45478732209274086440e-01) (76, 1.75064906826439603549e-01) (26, 2.90359879043098623175e-01) (10, 1.38092768216246775115e-01) (123, 2.41907064713832442582e-01) (96, 2.62292042435663230737e-01) (54, 3.70937328044127878623e-01) (55, 4.43032679100581361364e-01) (73, 3.99018802995845855985e-01) (27, -2.45377959261137368330e-01) (98, 1.56281177919952241062e+00) (82, 1.67702519688169654488e-01) (65, 3.28721818818337951917e-01) (14, -1.48805690612180754884e-02) (137, 3.93452203819072698909e-01) (13, 1.62634098773511148739e-01) (90, 1.50000000000000000000e+03) (3, 3.58270447875759900924e-01) (113, 1.27566497700388470360e-01) (140, 4.65290461747657202451e-01) (61, 3.98168953724944429950e-01) (34, 3.02804817412775428842e-01) (126, 3.03261101909630959028e-01) (20, 1.45609094374879843858e-01) (15, 2.08074174631187908124e-01) (28, 4.46710417705633222596e+00) (79, -2.34752278528634367172e-01) (24, 3.40779128773589456980e-01) (72, 4.01355262534347501102e-01) (135, 1.45150206465546727230e+00) (118, 3.07537452098632424491e-01) (1, 3.67716945555914165311e-01) (114, 4.15685000638702714659e-02) (107, -6.08347097501668945818e-02) (16, 4.28017141747249529882e-01) (33, 2.33921939681992513416e-01) (116, -8.68216317831318890041e-02) (18, 1.50000000000000000000e+03) (128, 3.85052128583745267854e-01) (117, 4.34242598621829151151e-02) (103, 3.25748615288412868285e-01) (88, 1.50000000000000000000e+03) (142, 3.92077321849625071160e-01) (20, -1.41589573861708561964e+00) (117, 2.38487647751552643560e-02) (101, -2.35336378829695469506e+00) (71, 3.24699776607096646242e-01) (139, -1.43341097969311298543e-01) (92, 3.19287551464551278002e+00) (78, -8.10749667550989983056e-01) (110, 1.00071597300129000452e+00) (127, -1.01538558069090789626e-01) (12, -7.38056102405229674801e-01) (108, -1.56386845210227187764e+00) (65, 9.16583867535743918031e-03) (45, 7.05788828996236738966e-01) (15, -3.27982704959090654029e-01) (74, -1.48171488959171565591e-01) (115, 4.47147036272088238551e-01) (100, -8.81009720600825080306e-02) (133, -9.53522037018607937497e-01) (134, -1.11078567833325791980e+00) (84, 2.06730034709496690581e-01) (69, -1.89707986340013429194e-01) (118, -2.57391475916648904132e-01) (41, -1.25531720288321180234e+00) (76, 1.06220706046121970978e+00) (66, -6.95543973505582502348e-01) (131, -5.00600074912835035779e-02) (31, -1.60260115804602909506e+00) (98, 1.16411458708031934073e+00) (35, -1.34046024580506600854e-01) (18, 1.50000000000000000000e+03) (122, -6.66814788281252651680e-02) (114, -6.52845537014448806801e-01) (77, 2.53745413796449492683e-01) (140, -2.38550898968551139401e-01) (113, -5.07070985542961705228e-01) (90, 1.50000000000000000000e+03) (48, -1.07234674944172728162e-01) (32, 3.41275595500112882696e-02) (87, -8.98890121233795191813e-01) (103, -2.89007831869177334028e-01) (50, -7.45788862111414346812e-02) (107, 3.53497752528944941819e-01) (89, 1.50000000000000000000e+03) (53, -2.53645746642601976895e-01) (130, -1.83713956182454923871e-01) (102, -1.67755541816117847986e-01) (29, 5.15948632162224529729e-01) (88, 1.50000000000000000000e+03) (62, -8.75490340899870711500e-02) (86, -2.85025060536866936545e+00) (70, -1.46514310264227676228e-01) (21, -2.10170395758782699303e-02) (47, -8.14776432578026565956e-02) (94, -1.70483462269238161824e-01) (99, 2.23156032524196179523e+00) (54, -1.17372060815049888971e-01) (23, -3.04415616285029611010e-01) (105, -2.90869675204913635813e-01) (6, -7.03112107225322829906e-02) (135, 1.08168930119596407025e+00) (129, -8.34333845307972249428e-02) (75, -6.60583544735376809731e-02) (4, -8.93432393986445944067e-02) (26, -1.98127381137330943472e-01) (68, -2.56974072400684261375e-01) (112, -1.78636298327586484636e-01) (126, -2.60710546720183011793e-01) (36, 2.78617113071751354436e-01) (61, -2.91628473270517440952e-01) (116, 8.60037809735348102169e-02) (60, -3.26980294731102183459e-01) (59, -8.82498502041928256645e-01) (57, -1.87107416202326709564e-01) (3, -1.08110938805831252596e-01) (28, -1.50180936656065489032e+00) (39, 4.94182880131546542479e-01) (97, -1.64999135872817864756e-01) (82, 2.82456595912720875852e-01) (16, 3.97686811493979108789e-01) (138, -1.64236334852164933551e-01) (43, -1.81918430845920381378e-01) (5, -1.18550883330631823265e-01) (81, 5.21974579643416314312e-01) (0, 7.24350744019032211085e-01) (10, -3.28029543762016095876e-01) (46, -7.85743396406948457766e-01) (55, -2.14919023921472412963e-01) (128, -2.59116271720575885862e-01) (125, -1.99315242340800613530e-01) (13, -3.36334436029568639714e-01) (109, 9.98484359716404257235e-01) (38, 9.25326054313565071752e-01) (34, 1.13490496534673607210e-01) (83, -1.73324414002546181579e-03) (95, -2.67671679878180523993e-01) (19, 1.50000000000000000000e+03) (9, -5.54272240593772502759e-02) (124, -9.33997460237628862600e-02) (91, 5.60012266778860845484e-01) (73, -1.06990834763851724865e-01) (51, -1.59260155490674529255e-02) (67, -1.61464378297979688215e-01) (42, 2.50859170279751242383e-01) (132, -1.27062821610391757376e-01) (137, -6.53695765205144829757e-01) (85, 1.32635819710731239773e-01) (136, -2.04458492070155317677e-01) (64, 3.28674279653776935106e-01) (111, -5.46271727773185777899e-01) (119, -3.13035319531228317658e-01) (63, -7.20731643961234014206e-01) (121, -1.29789558617923878048e-01) (93, 1.10195281599127392624e+00) (24, -1.17620595919355391823e-01) (142, 2.45829875643751472047e-01) (117, -2.80419763397292065576e+00) (127, -8.43516005523489570406e-02) (89, 1.50000000000000000000e+03) (126, 3.48019820746597388639e-02) (20, -4.45057681229758284047e+00) (83, 2.07920406172789462573e+00) (92, -2.20394328311448806090e+00) (110, -2.53364107162410770457e-02) (43, 7.54415506778995670345e+00) (70, 1.51634605831010821353e-01) (113, 3.70930077689963666465e-01) (69, 5.12275510739821637873e-02) (79, -4.86717135559449509685e-01) (136, -6.18203405699555078034e-02) (56, 9.71327378848051287141e-02) (141, -1.67716626746574226647e-01) (80, -2.58289737367287344227e+01) (2, 6.17813186895539101506e-01) (47, 6.93335215492031364803e-02) (105, 1.49487153055309041072e+00) (40, -5.45277453340771778301e+00) (93, -1.38169085366804345050e+00) (95, 2.64067672442762982343e-02) (35, -1.13698924394416045480e+00) (7, 5.37183390850919639803e+00) (104, -1.39193768165378595203e-01) (32, -4.33391555301193054373e-01) (74, -1.66320935996735197460e-01) (57, 3.39573245479187005302e-02) (134, 4.59655547444234480192e-01) (75, -2.13591184754755331054e-01) (111, 1.10944028559886623264e-01) (4, 1.21768036270524904197e-01) (5, -7.09303256882577448650e-02) (103, 2.35750834523915896168e-02) (30, -1.05502029090775023557e-01) (24, -4.10304661318580399243e-01) (87, 2.55318088135470001865e-02) (100, 6.64741379803316334574e+00) (63, -2.30712286447463643668e+00) (15, 3.34978563412401175725e-01) (135, -1.13166411909560471472e+00) (50, -3.23550676419722293975e-01) (25, 1.65303627048115464593e-01) (99, 2.03018010219004345629e+01) (51, -1.25592502683380902173e-01) (49, -7.50637608365238989672e-02) (21, -1.76518957293174771905e+00) (17, 1.50000000000000000000e+03) (123, 3.45071707601784932740e-02) (128, 7.12274915535988373261e-02) (3, 2.76174296582368750119e-01) (22, 1.63116511344811909723e+00) (112, -2.84882732614475076005e+00) (14, -9.45836407659721989383e-01) (41, 6.69375528102022498977e-02) (8, -4.74473165610769576084e-01) (85, 1.97912484149055956095e+00) (86, 5.46201975582086163286e-01) (62, -2.48461860939405615456e-01) (88, 1.50000000000000000000e+03) (131, 3.86106848103889427337e-02) (31, 3.98016903518327469502e-01) (102, -1.14639016703832496979e+00) (53, 8.06899008980387077994e-02) (9, 1.71396148870993592084e+00) (130, -1.05162087882726651422e+00) (52, -2.22076431284961489654e-01) (119, -5.69217563255400071931e-01) (36, 1.06417243142051809457e-01) (106, 5.94866894645139154818e+00) (45, -1.35382316397997221058e-01) (55, 9.92506929882429854428e-03) (72, -1.19364706212067983593e+00) (18, 1.50000000000000000000e+03) (26, -8.54272247210765417469e-02) (115, -2.41228398177893366139e+00) (33, -7.15413427859569073242e-01) (11, 4.33416999532076641088e+00) (90, 1.50000000000000000000e+03) (38, -3.72534978011137818399e+00) (73, -2.58725726972605596377e-01) (139, -6.13698351513122020151e-01) (78, 1.36025892669443604355e+00) (98, -4.85709901127886496397e+01) (121, -2.40011846352399249582e-01) (29, -6.04858388657784518117e-01) (114, -1.38743494471174400040e+00) (124, -8.95907846424244397321e-02) (1, 3.21618787074342105115e-01) (109, -1.76938824683053375075e+00) (140, -1.20499654358736718596e-01) (66, 7.84605654752767306404e-02) (67, 2.05495855895733409158e-01) (12, -1.47466891214829964873e+00) (101, 4.65827109030392971789e+00) (84, 5.21197164289890579880e+00) (46, -1.61756625497571859817e+00) (28, 3.87563519354069241363e-01) (58, 1.20173649883146146933e-01) (39, -1.02208511712336491684e+00) (10, -3.55364653936021923641e+00) (34, -2.03387774344709559848e-01) (94, -2.14450338961809955363e-01) (54, -8.76424095608721066830e-03) (81, 1.94290156706447381119e+00) (16, -1.19413431753057006079e-01) (65, 4.57245017633875414087e-02) (76, 1.67497719994371752072e+00) (108, 3.07240914476887061468e+00) (116, 9.35092685676292140196e-02) (96, -2.91077589400363490046e-01) (120, -2.36193347061421338173e-01) (142, -1.58698407815843267610e-01) (9, 3.08613366526181598370e-01) (82, -5.15377019979305003861e-02) (71, 9.26478465129203732076e-01) (126, 3.26832960798710436823e-01) (120, 4.54666355242447528529e-01) (113, 2.89894645918734816803e-01) (131, -1.67391250722148193786e-01) (35, 2.60362261446378928653e+00) (109, -1.05672306401064841630e+00) (77, -2.46744547895266425064e-01) (6, 2.47300564585587218103e-01) (62, 2.75199747768616609367e-02) (74, -9.07661196428877770082e-02) (112, 1.93281286115377991079e-03) (60, 6.37768549303749376911e-02) (72, -1.89404573111609048075e-01) (26, -1.38436604494179271718e-01) (36, 9.87267392171524149624e-01) (95, 3.87504597138320971972e-01) (122, 9.67763317548804291590e-01) (1, 3.26190217624366673999e-01) (21, -1.90746710218866397102e-02) (108, -1.27308835566898093106e-01) (55, 3.71488640294192040692e-01) (96, -5.35096694216987897597e-03) (136, 3.96886336068178746661e-01) (85, -2.49830746062102759808e-01) (83, -9.59329000332129755435e-01) (133, 8.97623308377595963137e-01) (65, 2.97775333609455905570e-01) (138, 3.93342951513820870968e-01) (7, 3.83234003912192755514e-01) (92, -9.03029710575041666409e-01) (2, 1.79374797411848652118e+00) (76, -1.23322078350165866695e-02) (38, -6.68607765650635066379e-01) (106, 6.11275216921258413016e-01) (13, 3.73770695146853015878e-01) (80, 1.95711482031434985673e-02) (12, 2.73252269654428503465e-01) (97, 2.96223151595235556499e+00) (115, 2.14032304358981156911e-01) (67, 2.56581437585082505759e-01) (34, -6.31479529504357789405e-02) (89, 1.50000000000000000000e+03) (40, -1.56759640318595259989e-02) (104, -1.36388572979270261687e-01) (127, 2.69999233544855943290e-01) (117, -2.73383744023566632730e-01) (129, 4.61319458743158883340e-01) (87, -1.95472443657068700729e-01) (125, 2.88298233411214799293e-01) (27, 1.13859944693304115937e+00) (135, 9.16262006064931466831e-01) (94, -1.50140561582217002545e-01) (15, -1.17219041004963275832e-01) (118, 1.12993136708941538382e-01) (17, 1.50000000000000000000e+03) (16, -1.84503293161563490521e-02) (51, 5.09527737206601050168e-01) (53, 6.78613094577352304881e-01) (107, 2.33003639644166954392e-01) (140, 5.26402631745699234322e-01) (5, 4.70670543726061652023e-01) (63, 8.82905425445350111602e-01) (124, 2.91099816600104199793e-01) (23, 3.50962346229973742862e-01) (32, 9.72014999558121206569e-02) (10, 3.00353516424960220732e-01) (3, 3.90194883315663321177e-01) (37, 1.48819343637721890339e+00) (54, 2.90165982309336600853e-01) (98, 4.86188647496453463237e-01) (64, 2.25732046403911312815e-01) (132, 3.02282831302377319460e-01) (48, -7.62934938592728095763e-02) (70, 4.11788222115895330422e-01) (93, 9.97887072102918715188e-01) (134, 7.20764391890824529519e-01) (14, 1.62015485814479165416e-01) (110, -7.14464095508406255020e-02) (119, 3.88279128321148747638e-01) (114, 3.31173758057588307757e-01) (43, 1.67585898210672129549e-01) (44, 1.18541226998165036277e-01) (111, -9.93307070201176811608e-01) (91, -2.31877714022474423761e-01) (128, 3.03730740725617287534e-01) (84, 7.06698299186590994658e-01) (130, -1.85817920788248457098e-02) (81, -2.58409572980252377761e+00) (101, 2.01686314940817412733e+00) (47, 3.39976835166353630324e-01) (100, -7.98989248357341641515e-01) (116, -4.76035235806485379495e-01) (28, -3.46892577533073287466e-01) (73, -3.11299552172998976463e-02) (121, 4.02098959191166560601e-01) (90, 1.50000000000000000000e+03) (39, 1.01765553320953688887e-02) (88, 1.50000000000000000000e+03) (24, -4.53046058409612220630e-02) (49, 3.12627530448344681524e-01) (79, -2.30612371843186170217e-01) (33, 1.02144593125702858316e+01) (99, 6.34050275441076727212e-01) (103, 7.64513433552950516514e+00) (58, 4.33492930023508915571e-01) (4, 1.07849018001290253288e+00) (68, 2.39689487487362989926e-01) (25, 1.68583908464517007175e+00) (46, 1.04141336236599671428e-01) (50, 7.75956013291498991613e-01) (19, 1.50000000000000000000e+03) (142, 4.05724685077455848869e-01) (129, -1.46893720911037806154e+00) (63, -7.64480235051995464346e+02) (95, -1.34716307486320407971e-01) (32, -1.23117088120462199186e+03) (9, -6.48258757043152797905e+01) (128, -4.02647383270875292016e-01) (121, -9.29078583653050941393e+02) (136, -1.90525056372743389899e-01) (94, -3.88413619508448937356e-01) (71, 1.79435361050626518420e+00) (134, -1.15294091502260401261e-01) (7, -1.17624639556543217345e-01) (57, -1.90640310648897165491e-01) (117, -2.29698680718267667089e+00) (18, 1.50000000000000000000e+03) (22, -1.02832878499365465430e+00) (46, 5.63272874072819618174e-02) (82, -3.55456884279267137927e-01) (90, 1.50000000000000000000e+03) (41, -1.50000000000000000000e+03) (8, 1.32091304267699868880e-02) (3, -4.01114910085621778624e-01) (40, 8.95428808396381420431e-02) (99, 3.00092908794121981941e+00) (70, -3.78149927638478267067e-01) (139, -9.50929647430692859267e-01) (13, -3.30945720171558050993e+01) (48, -1.50000000000000000000e+03) (24, -3.21248528504290642438e-01) (6, -6.01967241752918089115e-02) (126, -1.83094370094614905531e-01) (54, -3.14503580698077156441e-01) (76, 3.12600795951660029304e-02) (133, -7.56029978326108818010e+01) (16, 4.18539196375041389064e-01) (31, -2.58690195824204050012e-01) (111, -9.01255735905177712830e-01) (69, -1.26079684492809619201e+02) (88, 1.50000000000000000000e+03) (75, -3.85917146814302169933e-01) (65, -7.58698031083770047189e+02) (74, -5.18605673728661642485e+00) (60, -1.48615911880193038996e+03) (104, -3.19388467403536213673e-01) (135, -2.57790943131761041140e-01) (130, -2.62723787831195654263e-01) (140, -1.74507968037838234743e+00) (67, -3.55782541554660824978e-01) (50, -4.13674977583332719178e+01) (33, -2.44814369800578024439e-01) (28, -5.49580587901081107916e-01) (105, -1.17063473489245461678e+03) (39, 3.54502570018653762052e-01) (110, -1.81522966910738839386e-02) (17, 1.50000000000000000000e+03) (68, -1.84393280318263630413e-01) (59, -1.41124132578915691738e+03) (118, -6.60820712161628437409e-02) (73, -2.99591786238652457719e-01) (87, 6.96466465048253963177e-02) (120, -4.10774831331045919836e-01) (30, -1.73980688108931591529e+00) (14, -1.02627626857991427478e-01) (103, -1.49892680905530187374e+03) (72, -2.88145095153119612519e+00) (79, -4.02360310336122711794e-02) (62, -3.33804750706323090981e+02) (108, -5.96855572881099694094e-01) (97, -4.14956047349973322635e-01) (21, 1.31169935466893955445e-01) (43, -1.37257877138365074643e+03) (138, -1.90794502629296336416e+00) (38, 1.50000000000000000000e+03) (52, -1.57653656486287374605e+00) (5, -3.51529256783731725022e+01) (77, -1.68302411776535265631e-01) (11, -3.44798004985679940049e+00) (12, -3.43343651251654824463e+00) (92, -1.54486823085628777186e+00) (137, -5.52225834474574185151e+02) (112, 2.08446269117794902304e-01) (84, 6.84538769540135594305e-02) (27, 2.42688389241109241101e-03) (86, 2.52582405960425325497e-03) (37, -2.69711491587139050807e+02) (101, 1.19460106092592693861e-01) (107, 1.04129252947420458675e+00) (83, -2.08609775555369830746e-01) (20, -1.04187697129656545170e-01) (1, -2.18372509433702899351e-01) (49, -2.20158314778046565463e-02) (122, -1.72836027070951442353e-01) (102, -3.19023725919684308927e-01) (36, -1.17839870985176951024e+01) (53, -8.74680899275761869482e-01) (123, -1.64215979901898956328e-01) (89, 1.50000000000000000000e+03) (55, -1.65391820964068181343e-01) (42, 4.57216561697152856780e-01) (80, -1.05613200759712144716e+00) (19, 1.50000000000000000000e+03) (23, -1.36329414803624454633e-01) (4, -1.23858503272120287875e+03) (47, -1.92448515407679793254e-01) (56, -7.94714574386562855324e+00) (51, -4.05954150986734862983e+00) (66, -1.93042015600114635898e-01) (2, -4.44206581134023451796e+02) (78, 4.51484241404745689774e-02) (132, -3.91141253556903166100e+02) (58, -3.01759654616059136423e-01) (10, -3.55668565294499305907e-01) (34, -3.36350827066215773975e-01) (142, -1.97487415325917514686e-01) (3, 4.47660703071257992658e-01) (41, -8.23671134671719817888e-01) (74, 3.79669767775324129566e-01) (55, 5.02695693501354123889e-01) (103, 5.01418343062843163693e-01) (129, 4.51828834640404519707e-01) (91, 2.17807056123050617191e-02) (49, 4.59845047348020841138e-01) (30, 4.95667836889915114362e-01) (59, 1.98805299713829430885e-01) (105, 5.84264050433243031790e-01) (2, 4.85922674960094336249e-01) (54, 4.43432427740761636592e-01) (11, 8.92477029893397721949e-01) (15, 6.10907006971424304531e-01) (13, 6.17745812179894659977e-01) (69, 4.66189798389909815235e-01) (134, 7.55951559683749163554e-01) (132, 2.24307255015861128911e-01) (19, 1.50000000000000000000e+03) (114, -4.04405186947850392443e+00) (64, 5.76701915816992149999e-01) (51, 3.61731348458633028553e-01) (90, 1.50000000000000000000e+03) (111, -2.69280766702056528761e-01) (4, 3.10614642870659818374e-01) (0, -1.52489896119077872338e-01) (82, 1.44368988987708168903e-01) (53, 2.77866134620502858166e-01) (50, 2.87542843371057066371e-01) (29, -2.50641518364290982746e+00) (20, 9.63288098667702485933e-01) (130, 7.75147259840869073955e-01) (136, 4.38203899740092661652e-01) (127, 4.15804811293067733136e-01) (26, 3.92924037837404538376e-01) (5, 2.74964289015999896471e-01) (133, 6.16808556474549851689e-02) (1, 4.05522241190095555918e-01) (12, 7.20540619946028138010e-01) (79, 4.53495690969239695356e-01) (126, 4.98436581593110328292e-01) (93, 5.12285775716953928338e+00) (101, 1.85979671964820292285e-01) (56, 3.12831214056572826099e-01) (66, 5.33068529339548735635e-01) (86, 2.49673020971558656811e+00) (97, 4.26432010428107688416e-01) (124, 4.96644755920448155440e-01) (16, -6.04655682933871729823e-02) (28, -1.28226457049601583194e+00) (46, -4.86282124605960708319e-01) (80, 5.01216292971966015379e-02) (22, -1.23104720087183627797e+00) (78, 8.57896948668705139340e-01) (8, -5.50310088657742918494e-02) (137, 4.24155834067595605141e-01) (67, 5.70714242827043083395e-01) (40, -1.10752694638053439391e+00) (89, 1.50000000000000000000e+03) (94, 3.82389229219596782361e-01) (60, -6.01752040469803128886e-01) (106, -5.02696122358716968037e-01) (139, 5.31009559334589820168e-01) (14, -1.53535032425757944630e-01) (138, 5.78510084038925898042e-01) (37, -1.17552233338029041287e-01) (45, 5.16509362645082403809e-01) (70, 5.40693921338859406767e-01) (32, 3.81580529060183748502e-01) (109, 4.57087750877640197622e-01) (57, 4.41237311825399713960e-01) (83, 1.82107060752756177990e-01) (98, -5.57502922307862719409e-02) (63, 5.47326630254086676786e-01) (38, 3.18579754873317189112e-01) (35, 3.28996259033476179390e-01) (96, 2.96318425111596395194e-01) (141, 5.59747607557020687707e-01) (119, -7.49303811805467762097e-02) (71, -2.83364287498171496527e-01) (18, 1.50000000000000000000e+03) (6, -1.85114921099800683324e-01) (10, 5.16543524116568786297e-01) (31, 4.84657840845513110395e-01) (85, 3.24559986872026640103e-01) (118, 3.36936638772407981435e-01) (131, 4.18683299754962490180e-01) (72, 3.59534367585030822934e-01) (73, 2.72957438112898964633e-01) (88, 1.50000000000000000000e+03) (135, 7.51902883016391077042e-01) (99, 1.80882808133429784370e+00) (33, 2.38125455240632222242e-01) (75, 3.55818031986714466974e-01) (17, 1.50000000000000000000e+03) (121, 2.26499742601819098464e-01) (25, 4.05950221892140028501e-01) (65, 4.03612715817047273958e-01) (77, 4.41436442240112081326e-01) (52, 3.90172737838352767792e-01) (140, 5.42481775620634043555e-01) (100, -8.25599224261382991230e-01) (117, 2.76512392510096627340e-01) (62, 4.49404015039675974741e-01) (47, 3.37342258793011995355e-01) (39, 5.12695483790303052629e-02) (34, 4.49352958081164488569e-01) (36, 2.33686794414626985983e+00) (23, 4.65071683231313981466e-01) (128, 5.51112648555283524132e-01) (120, 3.41838548197207492407e-01) (115, 9.10226781468096879379e-01) (76, 6.56081462162134587679e-01) (142, -2.56938302890623304631e-01) (4, 2.98455514643530983587e-01) (43, 6.06403870450448967411e-01) (88, 1.50000000000000000000e+03) (27, 1.82277141591402269682e+00) (96, 2.85337112953971627771e-01) (131, 2.83159766518366717847e-01) (133, 1.38425132596235844762e-01) (120, 2.59733960688599996303e-01) (80, -7.93352604652655779560e-01) (60, 1.04256210817563088611e+00) (73, 2.58737521593711328194e-01) (90, 1.50000000000000000000e+03) (98, -1.43184776345084219251e+00) (86, -4.44566369197153588022e-01) (100, 3.28685576427135139888e-01) (81, 1.37737883053061033189e-01) (14, 3.42809059279865602221e-01) (47, 2.58678914741160670410e-01) (2, 3.69961491829448707591e-01) (77, 4.21693618932308944558e-01) (116, -3.07785459323477783578e-01) (51, 2.63117470017069421395e-01) (59, 5.13033963818506522081e-01) (104, 2.61874349855193977454e-01) (24, 1.65756237797749783613e-01) (91, 1.71355180091664560660e-01) (19, 1.50000000000000000000e+03) (127, 3.38502195810095440898e-01) (113, -5.00291742271021577793e-01) (44, -7.33164646238090411678e-01) (71, -1.23844354939189993381e+00) (101, 4.29831466693193331441e-01) (84, 4.61283803431424416219e-02) (102, 3.26033750469000127570e-01) (22, 2.08528605016451623611e-01) (67, 4.23422105705708096135e-01) (8, 3.80436140716729875866e-01) (103, 5.37352550090784641945e-01) (108, 1.44221179333315508569e-02) (124, 2.48275482951060305625e-01) (57, 3.27395025533318950739e-01) (20, -1.12957955882440522211e-01) (65, 1.61245109075325104842e-01) (25, 3.59933227174525416370e-01) (36, 7.86284169157360768310e-01) (34, 4.31533783461375719526e-01) (123, 3.53250919244436079047e-01) (58, 2.99611427242396533011e-01) (76, 1.61636103450004176008e-01) (99, 3.57451589278945558448e+00) (82, -7.36239426739142110989e-01) (125, 4.64731327961912632496e-01) (55, 4.50663229288027933350e-01) (49, 3.13923410224265453383e-01) (75, 3.32190784649350923097e-01) (17, 1.50000000000000000000e+03) (9, -1.87707318111921694914e+00) (114, -2.59915605197482646460e+00) (40, -7.85376508368979209251e-01) (117, 1.69581762517863054995e-01) (130, 3.06654770721004110712e-01) (33, -1.12507346087895712672e-01) (137, 4.07780538146702398183e-01) (83, 2.05578255257860192939e-01) (68, 4.16879410724030563529e-01) (139, 4.62747536632428901893e-01) (50, 3.09094443984684053017e-01) (115, -3.96558278391489604786e-01) (92, 1.19736406425752422988e-01) (85, 1.10162520712933947875e-01) (37, 1.05753535830636691273e+00) (106, 1.82316473695089742435e+00) (28, -2.65388952010285716909e+00) (32, 3.57978834162010040032e-01) (105, 3.80481478997239830342e-01) (79, 6.67447343772394480199e-02) (138, 3.94055474276673034506e-01) (38, -1.61074112279309233919e+00) (13, -5.34024108558153742798e-01) (78, -1.03371247027561663501e+00) (72, 3.03784257753654085565e-01) (129, 2.33846844735564746154e-01) (6, 1.02949997393127645751e+00) (3, 3.61624344071625525299e-01) (109, 4.42642996272846270256e-02) (46, -4.89488670108827073069e-01) (29, -7.38181918091535882454e-01) (35, 4.00703189834198253427e-02) (107, 4.75204402137399228856e-01) (122, 3.09300169002917346717e-01) (136, 3.11522476245556734220e-01) (119, 1.48921306319092394688e-01) (111, 4.84793687042130161391e-01) (110, 2.71127898454598059708e-01) (74, 2.31286551786955618670e-01) (12, 5.13028352771412565758e-01) (61, 4.28426213774843578364e-01) (128, 3.98766071740418226454e-01) (21, 1.34359115841310772232e+00) (64, 1.04621633168669925240e+00) (30, 3.94439336134464968442e-01) (53, 3.39392651033378567327e-01) (132, 4.27429120614196911276e-01) (42, 3.21257746612871653014e-01) (112, -1.12221695978420710205e+00) (11, -6.32306061413271724980e-01) (121, 1.89265390221223711587e-01) (140, 3.32232704502506470678e-01) (23, 3.72072317639830563163e-01) (118, 3.60601957518682403325e-01) (7, 1.68159446335239493031e-01) (26, 4.63458405152773478264e-01) (41, 6.95129101990321185411e-01) (52, 2.30174553202627085735e-01) (142, -1.75598472567734642524e-01) (31, 4.36736776813773375228e-01) (139, 4.02885931211177938938e-01) (39, -5.97525062436783049868e-01) (60, 6.27249522490387567686e-01) (86, 1.14834736607165388556e+00) (104, 5.21180677273135550820e-01) (5, 1.81614478520433414444e-01) (106, -1.15004076279118266912e-01) (61, 4.75836477488031261984e-01) (14, 8.19082433675448334798e-02) (92, 3.53380665600726251441e+00) (59, 4.79394679341022422747e-01) (114, 3.04252194897179029098e+00) (17, 1.50000000000000000000e+03) (88, 1.50000000000000000000e+03) (42, -1.74744200655627035523e+00) (136, 5.32220669174886973352e-01) (85, 9.95636467386528112300e-02) (78, 6.05989542930194177717e-02) (8, -4.68627156467973315923e-01) (41, -6.72296644669353349322e-01) (111, 9.87736871462701171431e-01) (33, 5.79809803889095976004e-01) (95, 3.35859609524552071846e-01) (12, -2.52012344089241357992e+00) (112, 4.24121779329855908003e+00) (81, -3.63827801931919436740e+00) (26, 4.86324735114828876625e-01) (97, 4.53544912098669761313e-01) (58, 3.07401182323878308100e-01) (7, -3.49227242854292230234e+00) (9, 4.90030013419491528026e+00) (6, -1.19768505115883772127e-01) (38, -4.48508706459676975697e+00) (52, 1.27314571188950131919e+00) (51, 4.48930971160953595778e-01) (30, 2.49467555457403955543e+00) (57, 5.19583548294613173368e-01) (11, 9.27282693896626764030e-01) (107, -8.99713105633339393918e-01) (98, 4.42914158273445490721e-01) (37, -1.45452869677030549589e+00) (84, 6.99589112308042104793e-01) (1, 3.06639166620866709945e-01) (18, 1.50000000000000000000e+03) (16, -3.91796004594787083963e-01) (70, 4.34842745381699924412e-01) (80, 9.47289252678348625558e-01) (77, 2.06550005307440803781e-01) (135, 3.94030846038914250862e-01) (50, 4.21503854327703930682e-01) (40, -2.30315428456305149041e-01) (94, 3.60848115553022763535e-01) (25, 3.94561337286857216622e-01) (10, -7.93991638780177311219e-01) (74, 4.39826110937057979111e-01) (3, 4.89314987941810664029e-01) (83, 9.56540760896723157858e-02) (73, 4.58019583425544773991e-01) (138, 1.60058399785710392393e+00) (69, 5.07878524615182347368e-01) (62, 5.20923210174653372739e-01) (64, 5.32208798521893511335e-01) (89, 1.50000000000000000000e+03) (91, 1.75271921921205192652e-01) (102, 3.95184912286990708274e-01) (55, 4.17909976611386291268e-01) (76, 2.01339758142020458509e-01) (63, 3.66115721260898574485e+00) (120, 3.50300328738537392059e-01) (71, -7.69205562306572687703e+00) (129, 4.61998922417193425005e-01) (53, 4.96081025915115825242e-01) (0, -1.91456412576354373378e+00) (79, 2.63215040982249792734e-02) (35, 2.12133664835120772096e+00) (43, 2.44579924473220033931e+00) (119, 3.37058939987469552424e-01) (105, 4.37722781189120224710e-01) (48, 4.57770967535412576233e-01) (87, 1.19009532020117589357e-01) (116, -2.56204280258010175242e-01) (117, 2.42555696049365820954e+00) (109, -1.80469519682193851873e-01) (131, 3.59219924601828999311e-01) (108, 1.29890486007789318634e+00) (123, 4.05402485651908284225e-01) (65, 1.47286224409324129070e+00) (140, 9.15954585067024318334e-01) (28, 3.38560080934067242353e+00) (22, 7.66305157355523958174e-01) (67, 4.62182586622561675238e-01) (128, 4.79875245228058466829e-01) (115, 1.75569088232458292431e+00) (133, 7.13232785930641544070e-01) (100, 2.72988411869522606956e-01) (34, 5.57561363759700112652e-01) (141, 8.34924091840667847997e-01) (23, 3.23465126305219508041e-01) (99, -2.26037792447105534421e+00) (56, 7.00486567984372365814e-01) (90, 1.50000000000000000000e+03) (72, 3.38984226497235141551e-01) (4, 3.65869173855370766191e-01) (93, 5.21788501235269031042e+00) (96, 4.31013037135046517268e-01) (46, -1.88791153466673344852e+00) (110, 1.60567220003885402502e-01) (82, 9.41735132461238522161e-01) (134, 6.88855050489041276229e-01) (113, 2.89342651472069334329e-01) (137, 5.17134220077407613658e-01) (24, 3.81134391505428715696e-01) (142, -2.69416858884462151469e-01) (106, -1.56491505284616438942e+00) (30, 5.76027765867917018738e+00) (34, 3.57321816261113811564e-01) (113, 4.15376476382326928483e-02) (48, 4.05814916127414382352e-01) (60, 4.46923823003390285891e-01) (52, 3.22699853181648554923e+00) (40, -1.55319565062147879608e+00) (129, 4.08251302963654916223e-01) (131, 1.10711719841595956915e+00) (54, 4.20635172188683681416e-01) (105, 4.28665049603163483827e-01) (28, 4.41004367095825688949e+00) (80, 5.33880563223021242791e-01) (17, 1.50000000000000000000e+03) (63, 3.73218746894028141625e+00) (96, 5.43069040863922158913e-01) (18, 1.50000000000000000000e+03) (115, -3.35495812964888118213e-01) (68, 3.18728985610568726905e-01) (43, -1.22027208118998697906e+00) (12, -5.43162797234187588735e-01) (100, 1.48781812190344120417e+00) (140, 6.21351650508253583460e-01) (135, 3.60213280587855066983e-01) (102, 2.51219696881326837179e-01) (74, 3.94876237996059809010e-01) (10, 9.74117807079711517382e-01) (75, 4.40415833968232750539e-01) (127, 4.34702401864881515792e-01) (53, 3.57441479729101174723e-01) (73, 3.81083303632416159346e-01) (1, 3.92007253145101985936e-01) (138, 4.63434948122786238844e-01) (81, 2.66662777908520387538e-01) (137, 4.96666924908909623859e-01) (9, 1.13502250482591257597e-01) (11, 8.77766984429067670392e-02) (78, 2.63418308399624601090e-01) (55, 3.77038215771840712343e-01) (59, 4.09026480077257448276e-01) (124, 4.49222257198999164185e-01) (103, 3.56615783063271019060e-01) (89, 1.50000000000000000000e+03) (82, 3.25986631712058272381e-01) (139, 3.44308090446009185115e-01) (120, 4.28194384913287984240e-01) (44, -6.39891047358330222750e+00) (97, 4.17694307930593700107e-01) (118, 2.96818411473667387313e-01) (38, -3.81054916064115789531e-01) (64, 2.63657574430787322584e+00) (39, 1.33451234306665966756e+00) (56, 3.44027859594937979182e-01) (107, -1.03406059775170727777e-01) (2, 3.15647625422085964519e-01) (91, 1.19740971069795043569e+00) (33, 3.85625348115738619814e-01) (88, 1.50000000000000000000e+03) (86, 1.02391658733316195939e-01) (27, 6.30811637372154176973e+00) (70, 3.53634133210015189075e-01) (76, 4.63435773028801414886e-02) (3, 4.34811061049166558412e-01) (41, 5.51865036304121847621e+00) (36, 4.79223064206259952158e+00) (20, 5.16009754131674269750e-01) (112, 2.17991615500237845282e+00) (93, 1.12509335943774591016e+00) (141, 5.02588285190916805867e-01) (26, 3.85211241947582327949e-01) (19, 1.50000000000000000000e+03) (95, 4.33438585084183480856e-01) (92, 8.03222265912293287293e-01) (111, 2.38629738507823185856e+00) (4, 3.35171785949435807606e-01) (35, 5.06299744468210799475e-01) (21, -1.65880459330208451796e-01) (133, 2.94369182134537554774e-01) (66, 3.29895703054134015186e-01) (24, 3.33153515209638428907e-01) (116, -4.77561522475786404129e+00) (136, 4.62828961584789144723e-01) (121, 1.31336666706133708971e+00) (114, 2.85048946141151282596e-01) (94, 3.07268601028565069289e-01) (22, 2.96265768044478416954e+00) (123, 3.59346882359367791882e-01) (7, -2.17395964487575477087e-01) (134, -7.28794741005281632162e-01) (32, 8.84089939191605189706e+00) (46, -1.21719410376828873765e+00) (71, -5.04266169766096616911e+00) (67, 3.30542957632991241113e-01) (49, 4.09351963517510797352e-01) (51, 3.95927416590378833394e-01) (132, 5.95685541301219867449e-01) (37, -2.01245219504716388315e+00) (110, -7.47853722244430293986e-03) (72, 3.21307639091646612961e-01) (29, 7.44516422377263897836e-01) (58, 3.38075194383383514918e-01) (125, 3.51232593343576815492e-01) (16, 3.07310452550734680699e+00) (69, 5.37045076440353597036e-01) (122, 3.85215173116551568011e-01) (65, 2.95813922323412248350e-01) (8, 2.69814451964893287084e-01) (47, 3.81792278464890222356e-01) (83, 5.05894354764236109379e-02) (77, 3.14919572682995196899e-01) (128, 4.42628539326927694653e-01) (108, -2.54212491525187600505e-01) (87, -4.26894620952465109198e-01) (142, -1.22977393744091487160e-01) (21, 3.76194934533734315352e+00) (118, 3.60503806747561661439e-01) (2, -2.28313602568899515211e-01) (110, -4.35929427656021495352e-01) (133, -1.20730989132346644421e-01) (58, 5.18269328761862047017e-01) (1, 2.36299944171764114698e-01) (46, -2.83206286742994972627e-01) (30, -8.40554622648429505816e-01) (19, 1.50000000000000000000e+03) (8, 8.43867237541290893255e-02) (48, -8.77965004297914020093e-01) (86, 2.87157373153005879285e-01) (99, 1.45814288674854034000e-02) (33, -2.73450131470318602567e-01) (130, 8.54373296317630509522e-02) (111, -1.59195269641595506249e-03) (14, -2.88424611763909377604e-01) (65, 3.84348138597654043203e-01) (114, 4.66574486782063813095e-01) (113, 2.24055955838699916161e-01) (28, -6.46808405783192874594e-01) (109, 1.71051430950294652833e-01) (31, -8.93775667869285694866e-02) (79, 3.78699102324777547857e-01) (108, 4.93808559625951382088e-01) (70, 3.81952195074681255527e-01) (135, 3.22523050591075888249e-01) (104, 9.93324278872597221657e-01) (116, 3.77126322229127286523e-01) (78, 4.63132457117615692344e-01) (55, 3.55596767093157073436e-01) (76, 2.09024167806202643138e-01) (77, -1.41757388733033717898e+00) (0, -7.48008837009036087196e-01) (41, -6.39282888147496231035e-01) (127, 4.10869699013088951478e-01) (103, 8.96326472475685032126e-03) (137, 4.19264735831554491430e-01) (4, 2.11721016345861684504e-01) (105, 9.28750149196514948081e-04) (119, 5.31214980104788736526e-01) (83, 2.02355325604687186214e+00) (25, -1.35433873930954518094e-01) (106, 3.23875542137118110908e-01) (134, 9.56724786680536731787e-01) (53, 3.04568194724847918220e-01) (18, 1.50000000000000000000e+03) (139, 4.83371058096055850051e-01) (101, -4.66581056192685417194e-01) (35, 3.66344835914414398981e-02) (39, -2.90834626453188471729e-01) (67, 2.93432735942300459975e-01) (5, -2.34162663809946686166e-01) (89, 1.50000000000000000000e+03) (22, -5.73044304197651066524e-01) (66, 3.24869333864449494342e-01) (15, -5.47234335437614793918e-01) (115, 2.30387439035090735295e-01) (7, -2.30021958366796674955e-01) (17, 1.50000000000000000000e+03) (95, 3.17641351297966612055e-01) (57, 3.97458919626137108239e-01) (124, 2.44760902123016294007e-01) (27, -7.89758727632108636918e-01) (50, 1.03634976701262915277e+00) (64, 1.17543370798160662360e+00) (72, 4.02556566426432949068e-01) (92, 1.17514600716514827639e+00) (23, 3.50846054319753242190e-01) (126, 4.14941342013924796550e-01) (80, 5.15826756806605724037e-01) (10, -3.44544518201848004590e-01) (120, 3.84258490717833967043e-01) (97, 4.52034360113388433700e-01) (75, 3.77722982362808101797e-01) (112, 2.53623977081439022641e-01) (29, 2.46956742336654516690e-01) (125, 4.78625469431551764377e-01) (88, 1.50000000000000000000e+03) (117, -1.09497024004977960843e-01) (82, 4.60566414518193634198e-01) (52, -9.22213984930455143996e-01) (44, -7.55828544904047355812e-02) (16, -9.81551813048093940717e-02) (61, 2.02280940627351935035e+00) (90, 1.50000000000000000000e+03) (3, 2.28158841540609585996e-01) (34, 5.18990301941665732599e-01) (6, -5.90635930214749443889e-02) (74, 3.75560973208183213057e-01) (40, -2.46083206618781830111e-01) (24, 3.74675015575384878774e-02) (59, -2.80222036825630745061e-02) (62, 4.62320489508861454109e-01) (42, -1.78147851222255249048e+00) (84, 2.77627832660316098412e-01) (121, 3.27930626099511901561e-01) (12, -1.13265024370154798738e+00) (56, 3.78585947148933898987e-01) (32, -1.41794911575829951644e+00) (68, 4.89820085390643200629e-01) (71, -2.44736548108889395703e-01) (43, 1.14946207987971305009e+00) (138, 4.89025912291535913567e-01) (93, -1.16125042029843722480e-01) (122, -4.46279648242547399839e-02) (128, 3.72755164273935235553e-01) (94, 7.59530893728198708281e-01) (98, 3.57995372517770471532e-01) (96, 3.86753255039856747022e-01) (107, 3.60733489078604628933e-03) (141, 2.91000380235943545415e-01) (142, -1.31933355742888086537e-01) (113, -6.21963020552547471431e-02) (15, 1.53053019089951436449e+00) (121, 2.53697422956121521054e-01) (98, -1.01043160086464434144e+00) (6, -1.36938028499095004742e-01) (9, 1.16568039205925666479e+00) (90, 1.50000000000000000000e+03) (91, -5.77786937155597035698e-01) (39, 8.74872851934677342456e-01) (117, -1.10205607158417562275e+00) (95, 3.98804434097062787679e-01) (54, 3.63591298326946588126e-01) (118, 2.33817270788016201566e-01) (42, -1.73820365368361406944e+00) (130, 3.27026017093151710746e-01) (139, 4.44580886320870116712e-01) (10, -8.89245892017384909067e-01) (59, 2.68867883176874544748e-01) (17, 1.50000000000000000000e+03) (101, 1.45644658242325553132e+00) (141, 4.58147545894650065623e-01) (20, -6.98949100430734326928e-01) (81, 3.12241650144403137812e-01) (100, -2.93884616279333954481e+00) (102, 3.13865862900678804781e-01) (26, 3.34081656301676632737e-01) (7, -1.31413261325313834860e+00) (19, 1.50000000000000000000e+03) (12, 1.60554029846805279558e-01) (114, 3.67156533472997481660e-01) (14, -1.54809478492764107660e-01) (23, 4.31614379600440856155e-01) (105, -7.59479772837023392462e-01) (67, 3.28784784978520427945e-01) (25, 2.15632718717757604354e-01) (125, 3.75989681625156280109e-01) (126, 3.86944811316485282049e-01) (27, 4.62168826862367154718e-01) (52, 2.99606054982405334286e-01) (122, 2.22579553274773078719e-01) (69, 2.52976740439403713356e-01) (138, 3.99116465414200372042e-01) (93, 3.03005674530380741949e-01) (75, 1.74069124323262297560e-01) (62, 3.04756691192537509938e-01) (73, 3.11054447752284857209e-01) (64, 6.34666049884098221190e-02) (127, 3.33226250370938115175e-01) (18, 1.50000000000000000000e+03) (123, 4.10590970043537561995e-01) (70, -1.46129240098300361428e-01) (45, 1.62616565486826736286e-01) (103, -1.98113517907186365008e+00) (88, 1.50000000000000000000e+03) (77, 2.40564609008740271090e-01) (29, -1.72213976293584647426e-01) (51, 3.40434466941789082295e-01) (57, 4.57670802238008211926e-01) (28, -1.14473690564729502217e-01) (94, 3.01018152267972849412e-01) (80, 1.61050507466269754442e-01) (86, 4.02626690469660777905e-02) (124, 3.63200686443391818070e-01) (50, 5.63608032461193286800e-01) (104, 3.33470168607957473395e-01) (56, 1.99480846399234496014e-01) (87, 2.60526155073722343047e-01) (111, 1.09851484451636231127e-03) (49, 5.20667903901057327332e-01) (3, 3.52062449222945106353e-01) (83, 2.58221740147319578362e-01) (134, 7.96105237866446963091e-02) (107, 3.76805466063002414412e-01) (68, 4.84511043226709459120e-01) (89, 1.50000000000000000000e+03) (53, 3.13633328279521617077e-01) (140, 3.65518448881786084392e-01) (48, 3.16110368150409659638e-01) (84, 3.36060338377955555855e-02) (110, 1.54876535049460389848e-01) (63, -2.75175967439640123402e-01) (0, -6.71249197586056922660e+00) (72, 2.64591971047574592291e-01) (137, 3.34161611245280931737e-01) (4, 3.12890514682794662615e-01) (44, 1.63574422433465344051e-01) (37, 2.53531902620189608655e+00) (112, -2.99062662290153413736e+00) (135, 8.55868628730421687756e-01) (96, 1.67230921364255352701e-01) (97, 2.99882951581290913001e-01) (13, -2.39145649630851364620e+00) (133, -1.00570818668370409732e+00) (21, 9.95086444494679644990e-01) (71, 1.59372280264606125399e+00) (34, 4.14357663131530440381e-01) (106, 5.13099064994564257880e-01) (136, 4.23590369676525690945e-01) (55, 4.03077662430262773086e-01) (79, -2.35464617713918196451e-02) (131, 4.08601963166702886188e-01) (76, -3.76930347423457077355e-03) (65, 2.98755846294910865080e-01) (33, 3.54871830146112288151e-01) (47, 3.24409321287192797811e-01) (46, -7.62292182403789486678e-01) (119, 1.62184384546502441404e-01) (61, 4.10211397272856159724e-01) (115, -3.75223042913323978631e-01) (30, -2.75463644096849202825e+00) (31, 3.43135981158521452539e-01) (108, 7.06504101082838092962e-02) (2, 3.65675793189159770158e-01) (129, 3.24151223893178686009e-01) (142, -3.54915456078005897567e-01) (36, 6.24541250953725413098e+00) (13, 5.98776209190996056009e-01) (133, 4.20004635660398584207e-01) (102, 5.21220806629039024038e-01) (126, 8.04041051304003051570e-01) (97, 5.94331004995798384272e-01) (56, 6.67682009378686380785e-01) (61, 6.67048494894531551758e-01) (28, 7.15335496284813654455e+00) (17, 1.50000000000000000000e+03) (63, 3.29298859550136935326e+00) (131, 5.10195392110305290245e-01) (11, 3.17275498437465108825e-02) (140, 7.57249273569354919289e+00) (138, 1.10821830667431364681e+00) (89, 1.50000000000000000000e+03) (4, 5.76107377246355856215e-01) (0, 4.50282938461221515780e+00) (85, 1.35387944746642646665e-01) (34, 5.26444779861542588861e-01) (95, 5.47299385652989966999e-01) (122, 3.74772929383943020909e-01) (59, 1.85065125490242410322e+00) (130, 2.69289307791157828120e+00) (1, 4.90493761868434186013e-01) (93, -1.86316696889820150318e+01) (20, -4.61936409419918803110e+00) (12, 9.69353799677136307444e-01) (52, 5.61496281464426427732e+00) (45, -3.80303545425886690978e+00) (29, 3.80051975409930591354e+01) (91, 6.48081932463632548469e-01) (51, 3.08091851522419490905e+00) (123, 4.13740329403455397994e-01) (77, 4.34851356930407023649e-02) (87, 2.59403860040823774913e-01) (65, 2.38442498016134774019e+00) (57, 5.98405993317193796166e-01) (58, 4.40116873800395769223e-01) (78, 5.93400454854998565812e-02) (54, 6.93537133141903905376e-01) (82, 1.20591222651693241730e+00) (43, 9.45597225952369946356e+00) (135, 4.62237094965787465028e-01) (83, 3.93481199931376757206e-01) (6, -2.33508044926815372389e-01) (81, 4.03408932245399753924e-01) (60, 5.12607586155559680208e+00) (66, 5.47363722218951131993e-01) (116, 1.50439729542848232846e-01) (120, 9.18499038908966558559e-01) (68, 5.45065649456834666609e-01) (98, 1.08056367165702593702e+00) (42, 5.16627506648679180046e-01) (14, -2.82454042406712520219e-02) (110, -2.63279048818753254324e-02) (76, -5.76460168361172975438e-01) (69, 2.31500721467670267373e+00) (136, 5.01073272291994942229e-01) (22, 4.56852863897271266325e+00) (103, 6.32671036165734057555e-01) (64, 8.31292522400362665635e-01) (109, -5.85396388903373754431e-01) (26, 4.81615826454704187842e-01) (79, 1.31585048302485380090e-01) (94, 7.76056162047120245973e-01) (67, 6.50028147152823976285e-01) (32, 5.45720574575007830731e+01) (107, -3.11141686669676620358e-01) (132, 2.00054218456678079008e+01) (23, 2.47461048590619403509e-01) (25, 1.65792413683741979291e-01) (15, -3.90882840259306840736e+00) (71, -2.50945519852042009390e+00) (121, 4.48661569404371718406e+00) (49, 3.85915045153735147831e-01) (115, 1.85460013730230155460e+00) (8, -5.30338190637123729765e-01) (41, -2.19632670472549413887e+01) (124, 4.37057296291095964680e-01) (19, 1.50000000000000000000e+03) (117, 4.21531546915110411078e+00) (137, 2.16666139701946605101e+01) (105, 6.61735835228788538132e-01) (125, 5.92976157050757124445e-01) (10, 3.49644308926664426629e-01) (31, 6.20770907900687007874e-01) (108, 2.91609987382886126639e+00) (84, -2.74203153267091392919e+00) (2, 5.54453113798642371890e-01) (113, 3.94631402301855738202e+00) (80, 1.33418057510994181314e+00) (104, 6.12724840828987593611e-01) (3, 5.22731485117640448657e-01) (35, 3.08033486619130236761e+01) (7, 3.77978143476351002850e-01) (38, 2.92327873918260983110e-01) (99, -1.26177554835898995123e+01) (127, 6.19441084659715923699e-01) (92, 8.51142788609952738454e+00) (47, 3.82701243689357373245e-01) (100, 1.58393674972437441539e+01) (119, 5.84091215910450656246e-01) (18, 1.50000000000000000000e+03) (44, -6.84093793928388720360e+01) (40, 2.66434547525693891934e-02) (50, 1.16278329955143755470e+00) (129, 9.33231044609046489491e-01) (53, 1.11592984936699401999e+00) (37, 7.85141939416285850051e-01) (27, -4.21835662370736719229e-01) (21, -8.92602722154499893248e-03) (141, 7.50489858283552813134e+00) (33, 8.29480045888142747401e+00) (142, 4.93917975919404783625e-01) (101, 9.53492867292227708198e-01) (67, -7.49107657091070633371e-01) (66, -2.59788305509600359056e-01) (22, -6.55750883124580075112e-02) (12, -1.53355623657578865604e+00) (33, -1.23641315188955180915e+00) (111, 2.19002618410659266601e-01) (19, 1.50000000000000000000e+03) (94, -1.77554160619795231568e-01) (61, -1.38163325306869699816e-01) (14, 4.18973915794555729075e-01) (4, -2.51186972728935531407e-01) (37, -1.19358363862406746669e+00) (121, -2.90723585974538900611e-01) (109, -1.27675011034970964374e+00) (52, -5.03309305324371236701e-01) (76, -5.43740934807454695532e-02) (122, -1.98030399568724341242e-01) (90, 1.50000000000000000000e+03) (119, -1.67995339139120958283e-01) (127, -2.08984487107138960926e-01) (39, -4.63839378519680267665e-01) (123, -1.56490035588490200569e-01) (128, -2.82655676473575423469e-01) (130, -1.70966147749406605083e-01) (134, -3.26311113502846250611e-02) (45, 3.72602800967404779175e-01) (81, 1.38770226378886807339e+00) (50, -1.27695268746312873276e-01) (35, -4.91041901996348506554e-01) (105, -8.53380923299582733188e-02) (141, -4.14106077839883512937e-01) (70, -2.25091810304718670244e-01) (41, 1.11621531000949647527e+00) (17, 1.50000000000000000000e+03) (56, -6.18500739252635933774e-01) (108, -4.87114114715942514433e-01) (18, 1.50000000000000000000e+03) (38, -4.09311140064317735554e-01) (43, -1.68636488788756633284e+00) (133, -5.78597717964368984944e-01) (73, -1.81189169288105994537e-01) (9, -1.78603183122139541616e+00) (87, 2.58908271751979168762e-01) (71, 3.84936584298262074455e+00) (49, 5.02910970952797492517e-02) (89, 1.50000000000000000000e+03) (83, -2.63469416698532798993e-01) (15, 5.96998978100478153164e-02) (5, -1.12913939319739073386e-01) (47, -1.42434869879109804458e-01) (84, 2.52885095903453760435e-01) (36, 1.75680971979491118429e-01) (34, -2.16012329768085292736e-01) (107, 2.42799573461623452442e-01) (77, 5.98535243699593669242e-02) (86, 7.63677289583823526442e-01) (135, -1.10197803341857455961e-01) (132, -1.00324180261136808312e+00) (28, -9.87467511237207884456e-01) (57, -2.80273233225590001627e-01) (72, -2.55179466684706701685e-01) (26, -1.72401960287521444082e-01) (62, -1.72338230255555557857e-01) (54, -2.74752200280600822335e-01) (21, 3.17890676292979901252e-01) (136, -2.12301100514955182197e-01) (102, -3.68783257128022845528e-01) (110, -3.26159844546135835319e-01) (40, 1.58244994311820885713e+00) (48, -3.67344137438121054462e-01) (91, -3.45817412419654746092e-01) (117, -1.46536663413314394155e-01) (106, 2.59557045526953023007e-01) (85, 1.46517780427216942618e-01) (42, 1.20624655828708848837e+00) (113, 3.71157956374742636907e-01) (126, -2.26764408046476156899e-01) (88, 1.50000000000000000000e+03) (129, -3.24341364528432707370e-01) (7, 1.96877892792074286887e-02) (74, -1.90634422516288482008e-01) (23, -2.59793227568658386707e-04) (140, -5.29299233753588449503e-01) (75, -2.74482163943192247757e-01) (65, -3.52352613851311835536e-01) (69, -1.33394535487387067008e+00) (8, 2.06685963064474481632e-01) (98, -6.32874196432066438156e-01) (137, -2.61731518042687072434e-01) (104, -1.59485385063428991570e-01) (10, -3.62784652165321652717e+00) (78, 4.70621700322304714614e-01) (24, -1.50656294086025432932e-01) (63, -3.08414799562196240146e+00) (60, -5.01035888279437680026e-01) (112, -4.01402447881889568038e+00) (125, -1.87775055879534330527e-01) (1, -2.73758064114934751565e-01) (25, -2.66134907469679715675e-01) (0, 1.01988149839485697790e+00) (118, -9.72098740742103617496e-02) (16, 7.41933556710133834677e-01) (55, -1.39426784057529118410e-01) (124, -1.99401219629043391368e-01) (59, -1.50976914362121100721e-01) (92, -2.14264146273923339336e+00) (99, -1.50970948969019413965e-01) (120, -3.17976917629656019582e-01) (68, -5.52570208299520970741e-01) (31, -1.19031770897933514286e-01) (44, 2.14763580846900586918e-01) (95, -2.23120942790610704565e-01) (142, -3.16462959893064110783e-01) (14, -2.74463099047157876864e-01) (1, 3.30423065478916255788e-01) (109, 8.88507166261207903535e-02) (19, 1.50000000000000000000e+03) (78, 2.85660476153377917985e-01) (15, 2.06678416776440654345e+00) (46, -2.80426959153622645804e-01) (134, 5.06284206339819853326e-01) (90, 1.50000000000000000000e+03) (103, 3.73823423019585321381e-01) (33, 1.00668063478274549816e+00) (50, 3.91740873662005939515e-01) (96, 2.18708120767632629988e-01) (5, 1.10249093552228938364e+00) (10, 3.48495039289683949946e-01) (131, 4.00997012912653327810e-01) (132, 2.35107497884197547133e-01) (71, -1.38300258186213231859e+00) (21, 1.45721397783589323716e+00) (58, 4.83345826227004615738e-01) (52, 2.45268458815655759908e-01) (45, -1.77089467580727494278e-01) (28, 3.45179288046501137055e-02) (101, -4.40558962445826041154e-01) (51, 4.79006361534748792419e-01) (6, -3.79959697281082656173e-02) (113, 2.46675288498792083525e-01) (80, -1.03296205290460996196e+00) (72, 3.05801014459049058658e-01) (86, 5.86339713620438351960e-01) (104, 4.45740811953887927643e-01) (135, 7.59151049066717487079e-01) (74, 2.98518912544998626935e-01) (66, 5.73175384597524817387e-01) (85, 4.43258189721780826442e-01) (136, 4.92720262970425815219e-01) (73, 2.21745317713075540400e-01) (89, 1.50000000000000000000e+03) (57, 4.73525889219502893468e-01) (7, 1.02987046636371260000e+00) (118, 5.13519754991610288819e-01) (125, 4.75770574267574408722e-01) (23, 3.96746636021792553617e-01) (124, 4.80211425213262210754e-01) (70, 5.20662722858341031618e-01) (91, -2.49418655499519942298e-02) (102, 3.71968298777775374653e-01) (123, 5.90779523085636082413e-01) (100, -8.29445057338876967634e-01) (54, 5.52685867085878079763e-01) (126, 5.59159857368844881442e-01) (44, 2.96966403493228581212e+00) (36, 3.94442871838548980712e-01) (59, 4.31494367983006277267e-01) (130, 4.37760251902015062875e-01) (68, 6.04043208462578640194e-01) (92, 3.56472281576376648360e+00) (97, 5.20006863536251584534e-01) (88, 1.50000000000000000000e+03) (82, 8.43505984902331029662e-02) (3, 3.47703945178298945429e-01) (2, 2.94796464667153368389e-01) (18, 1.50000000000000000000e+03) (43, -1.44346594626108770676e-01) (63, -2.19392896556116240303e-01) (83, 1.85294873888228239789e-01) (38, -6.70516098965675877430e-01) (27, -6.33586922452509387904e-02) (35, -4.08490794105434373851e-01) (32, 4.56474931118282190035e-01) (17, 1.50000000000000000000e+03) (141, 5.59620192092886825641e-01) (84, 5.81534225242045454962e-01) (25, 8.77403860051311879076e-01) (61, 4.65651155999680710362e-01) (75, 3.23074256102809986846e-01) (138, 5.06556416738741743799e-01) (140, 4.98681861655810187983e-01) (64, 2.46252576306306858456e+00) (93, 1.87299912017302760958e+00) (76, 5.04127498106511140463e-01) (65, 5.02088133728554097956e-01) (20, 1.79133003912094990184e+00) (117, -1.88965939978342434280e+00) (95, 5.70882556892913672897e-01) (24, 4.77205097846882975166e-01) (40, -2.56189150411785637740e-01) (29, -4.44898251489448059992e-01) (4, 3.79949679797098593959e-01) (13, 9.82657079165097369078e-01) (53, 3.40933266702265924675e-01) (30, 6.47092788202797142283e-02) (56, 2.66315231168799571027e-01) (41, -2.78109853211150248598e+00) (87, 8.75848023696350064249e-01) (111, -5.97985043149001804785e-01) (49, 2.77116401278725166257e-01) (121, 3.64973605535375389408e-01) (115, 4.03849371132931067585e-01) (42, 2.01374266584379880973e-02) (120, 4.39869306680296778822e-01) (67, 5.73878998146882035591e-01) (110, 7.57688353577677276007e-01) (62, 3.63224168983669881694e-01) (112, 3.49758927710086486851e-01) (116, 3.05738681635749154353e+00) (108, 1.31137014581343058772e+00) (107, -1.38403968291886680930e+00) (22, -1.43697761831348436168e+00) (137, 5.81464168664003300258e-01) (12, 7.66276636464480964683e-01) (133, 5.84924124466869255201e-01) (129, 3.74265674731106778861e-01) (48, -1.93494506651980924250e-01) (142, 3.77681379702559549827e-01) (58, -1.44654145600713268660e-01) (107, -6.47042974431477846409e-01) (59, -1.99926513832543090166e-01) (109, -1.97474554846047339884e-01) (99, 3.03536739724250681505e+00) (128, -1.55589917228912716363e-01) (52, -1.48299388666438936024e-01) (66, -2.72727897064746926947e-01) (21, -2.23724987784913814659e-01) (85, 9.84219884872557793098e-02) (23, 1.49083490431479476213e-01) (103, -4.53448719853989032358e-02) (68, -1.47122133073230659805e-01) (69, -1.69205255864047693359e-01) (126, -2.04108426005939980197e-01) (40, 1.03770555827193536325e-01) (53, -4.98443389080544529968e-01) (112, 9.47449638359645573971e-01) (26, -7.82942640722788102403e-02) (89, 1.50000000000000000000e+03) (43, 1.24282129695906662370e+00) (31, -1.59254426223524281347e+00) (117, 1.26872673372855637730e+00) (30, 3.52395596231888319494e-01) (36, -1.06599363607858532710e+00) (16, -2.83531255542774585088e-01) (19, 1.50000000000000000000e+03) (93, -3.10198516199191276499e+00) (139, -2.06162860307878004207e-01) (39, 3.80246731410928462402e-01) (29, -1.71724349914284668550e+00) (0, 2.92031353282317152065e+00) (13, 3.62067334286042930014e-01) (64, -1.13684494828664672816e+00) (91, 1.19710407312094346821e+00) (24, -1.13249356472297182941e-01) (75, -6.91734936310371556489e-02) (32, -3.79461853776042912223e-01) (60, -5.07192658206164992407e-01) (18, 1.50000000000000000000e+03) (37, -4.83218678611818719393e-01) (125, -3.20933679907752733573e-01) (96, -1.88135162514490056340e-01) (55, -2.62248256191479844901e-01) (130, -2.55081929134611362642e-01) (12, 1.97173884096689122636e+00) (80, -1.12646005654512482153e+00) (62, -2.67729366203387719736e-01) (122, -2.12679869819674578768e-02) (87, -1.09551370507221149109e-01) (2, 1.57802667885703212791e-01) (106, 1.82956859391466730713e+00) (1, -2.16775831301078830693e-02) (86, 5.87044895603051286592e-01) (141, -5.43074127615429058658e-01) (65, -1.20593674970441200323e+00) (77, 6.03382089614288297241e-02) (102, -3.63154240050082566249e-01) (48, -1.59975566130382912400e-01) (98, -3.79819719965464597244e-01) (140, -4.87948235283572451237e-01) (74, -2.60730714730494084197e-01) (20, -3.50681818917103838018e+00) (3, -1.95912585309060312266e-02) (129, -1.28982485715488159883e+00) (138, -5.62116473412303863100e-01) (131, -2.32699050250417871499e-01) (54, -9.75629153709401536476e-02) (17, 1.50000000000000000000e+03) (38, -6.48416265010017256465e-01) (25, 1.44629340356858225591e-02) (10, 1.47318862083947815789e-01) (120, -3.31766402131657478503e-01) (88, 1.50000000000000000000e+03) (82, -1.08372165842281464876e+00) (79, 9.36429787645979838651e-02) (45, 7.78109010276716417387e-01) (136, -1.59079042293778116779e-01) (42, -1.00230342557278229165e+00) (11, 3.30704465894041399476e-01) (9, 3.68593717170640877701e-01) (15, 7.49051005711286244093e-01) (114, -2.42702041510881698361e-02) (51, -1.96038183075311234216e-01) (118, -1.98770486236825638660e-01) (110, -1.88159211001974607802e-01) (97, -1.84360653486211945040e-01) (8, 3.87209218058537640861e-01) (119, -2.44640784830445018327e-01) (121, -2.55617897885715150696e-01) (5, -5.65331899988753661113e-01) (123, -1.53241214207821441207e-01) (6, 1.97998909571652947914e-01) (46, 7.38395317867197031880e-01) (134, -8.17796964336395815209e-02) (95, -2.01328453597166528999e-01) (113, 2.47379651836574954160e+00) (4, -5.35230723112446252210e-02) (111, 1.91849087603543977387e+00) (35, -1.31771075060191766859e+00) (73, -2.23952635544513306565e-01) (50, -2.64754711049630830910e-01) (104, -1.18240408967574414656e-01) (56, -4.36538078620592240320e-01) (22, 8.44243101363878145627e-01) (105, 2.09893910901140534619e+00) (49, -1.05621791112719978778e-01) (27, 2.01322135014752179316e+00) (71, 3.56063102536630271544e+00) (47, -1.32827466072416522369e-01) (135, 2.05809535311599595131e-01) (78, 4.00549995107924328153e-01) (127, -1.76930177405769495369e-01) (142, 3.18424168466571677616e-01) (41, -1.04143292313077218125e+00) (139, -2.69684705089453913285e-01) (39, 3.93549528264651116150e-01) (38, 1.53982481427502748694e+00) (44, -3.08572534513444463045e+00) (56, -1.92066518415830084221e-01) (89, 1.50000000000000000000e+03) (132, -5.24564739214576358783e-02) (72, -5.34808638390669166540e-02) (58, -1.32833277243526420852e-01) (7, -3.21924369049108149987e-01) (118, -2.61660866534716540777e-01) (76, -1.33249008456266948563e+00) (82, 1.46154060976311805931e+00) (62, -7.88961179224341724314e-02) (129, -2.25552686411990450932e-02) (81, -3.67948932552835383802e+00) (46, -8.03578836658604411802e-02) (137, -1.50427740303527013310e-01) (126, -2.66247328961560891791e-01) (74, -8.52017800523128532308e-02) (16, -3.82438033400381641180e-02) (61, -7.18692166344752775275e-02) (69, -8.09818190293643963562e-02) (47, -1.75699960804364896383e-01) (65, -1.75179901372371688018e-01) (12, -6.68659783786307526654e-01) (140, -4.06580884299140160598e-02) (95, -1.44692454236591799832e-01) (19, 1.50000000000000000000e+03) (8, -8.21376934244195111567e-02) (78, 3.43651416467888937145e-01) (87, 1.88855695960887803864e-01) (91, -1.99578452778272152912e+00) (11, -2.24854635280637005224e+00) (26, -2.45399633016947053832e-02) (49, -1.35105952235624354740e-01) (31, -4.52615640434052557417e-01) (88, 1.50000000000000000000e+03) (15, -1.24207030874605628412e+00) (119, -2.51687594162831373978e-01) (117, -4.74967417998475416319e-01) (125, -1.53896347443321923620e-01) (93, -1.75837161908636400998e-02) (99, -2.20059469450659195289e+00) (13, 1.03475780734144473527e+00) (23, -1.33150906005199270998e-01) (113, 2.53404610485018055854e-01) (21, -5.46757114262869436949e-01) (103, -2.90703430322052057411e-02) (97, -2.20348216626602755319e-01) (43, -1.86797296324400063927e-01) (55, -2.96494898117788986680e-02) (20, -1.85958271542940617449e-01) (35, 2.70316396954118132179e-01) (128, -2.34211290901739886683e-02) (84, 1.40933075490204812175e-01) (133, -5.64350432455465900183e-01) (102, 2.45807862284552147702e-01) (33, -2.22341083911370285264e+00) (57, 2.16096339977362821017e-02) (30, -9.02355333052841435126e-01) (36, 2.89252654851822832427e-01) (122, -1.61889151313986012770e-01) (32, 1.95849531092873209437e-02) (64, 2.35374969692961399925e-01) (123, -1.23592140836721958719e-01) (85, 2.10166018452460565125e-02) (28, 3.80829595825003286436e+00) (34, -1.36863035985843900511e-01) (110, -3.20203896062509263398e-01) (71, 1.05685413497118241288e+00) (138, -1.26075805021146986062e-01) (60, -2.44179845139355977679e-01) (80, -8.93939921090620481792e-01) (131, -2.17335326985591742455e-01) (100, 7.08574950657513413788e-01) (24, 1.23855628168561843899e-02) (124, -2.07809464358093193281e-01) (98, 4.92763697038855585930e+00) (92, 2.41625983140902861335e-01) (52, -1.41001401788825503347e-01) (108, 2.01131607757916358592e-01) (96, -8.81163573921059234406e-02) (111, -9.35726968775871664752e-02) (50, -7.90041968360139373884e-02) (83, 6.61653234128446676721e+00) (115, 3.01178676544937962145e-01) (3, -1.41321878406963280517e-01) (4, -2.36006906796076693089e-01) (73, -8.47635346976244735684e-02) (130, -9.34143459865365288763e-02) (77, -1.16501616073614991387e-01) (27, -1.53074403336245823404e+00) (101, 3.03589306129650016164e-01) (70, -1.11823170701275245720e-01) (75, -1.71313184321818384737e-01) (1, -1.54056817895179137823e-01) (5, 2.68069033524544697578e-01) (42, -1.41426419637829314802e+00) (68, -1.98488438723380233863e-01) (94, -8.16185330485249965760e-02) (106, -3.95841867723781659638e-01) (67, -2.00936752640464760811e-01) (17, 1.50000000000000000000e+03) (40, 6.39419151454169831794e-01) (51, -2.44089067592704378473e-01) (59, -1.99786635268079909578e-01) (112, 1.14067338578816546146e+00) (66, -4.69946918670661573092e-01) (37, 2.80793296202129394334e-01) (134, -2.53339745894451295882e-01) (53, -1.65693325427249543713e-01) (25, -1.25851816949018369129e-01) (142, -1.73520961552738467448e-01) (100, -2.31526865477041532415e+00) (64, 1.42044012316988710332e-01) (75, 3.15862666610088660413e-01) (139, 3.68506399951665064574e-01) (35, -9.47031809385871059526e-01) (102, 3.25833225163605577634e-01) (53, 4.31416517687697675942e-01) (72, 2.75704321737624824529e-01) (137, 1.14763542098819046333e-01) (93, -2.08262604214476676479e-01) (51, 3.88726702459267270395e-01) (96, 3.62414651187367709007e-01) (7, 2.01981125712113629422e-01) (68, 4.32875184398514467610e-01) (69, 4.29160321097824593028e-01) (124, 3.80198815288266434020e-01) (34, 4.85847612492590286148e-01) (113, 1.54184856278682280717e-01) (114, -1.64144098462449417042e+00) (61, 3.26305262911670501680e-01) (66, 6.82263113399662057823e-01) (36, -4.32413358697895322535e-01) (108, 6.75373519883119000085e-01) (135, 6.45940080916355352514e-01) (10, -9.67063523540673042334e-01) (42, 2.76736947795365506586e-01) (74, 2.17263322885718423993e-01) (112, -1.31937876258544450891e+00) (106, -1.09857450458077224309e-01) (28, -1.13520025718896272471e-01) (54, 4.31792746098266733146e-01) (111, -7.33877259752353405808e-01) (37, -2.85816691821509205607e-01) (3, 3.74879589815841629541e-01) (11, 2.70699358736003481418e-01) (50, 3.93564723590355103333e-01) (49, 3.59657163031411875043e-01) (30, 3.35586239204992364815e-01) (5, -8.07051071889858806507e-02) (21, 2.78863053607076105678e+00) (4, 3.37842437903057513093e-01) (85, 1.28065433358547309250e-01) (47, 4.47536464678652101679e-01) (127, 4.19183649998045249063e-01) (6, -1.69523692343184734233e-01) (130, 2.94330839613907546681e-01) (63, 1.51085623099256910473e-01) (91, -5.08735005806880580259e-01) (0, -7.80597675683712743933e+00) (78, 1.74158367520057671962e-01) (92, -1.40871825598066369167e+00) (8, -5.15052502287458136010e-01) (116, -6.35433554850669768399e-01) (67, 4.24188151874852592549e-01) (129, 5.32990349894570059064e-01) (62, 3.50857495014934683830e-01) (136, 3.81171724449647253419e-01) (125, 4.30645156472174106543e-01) (81, 3.44670076960849336434e-01) (119, 3.31790475693089559339e-01) (65, 4.17909370071699703963e-01) (20, 4.73478032434436646447e-01) (104, 3.64725530810585174546e-01) (84, 2.13807677955024560967e-01) (134, 4.33446782393713980763e-01) (122, 5.00530790514630674615e-01) (73, 2.14965475538610950590e-01) (88, 1.50000000000000000000e+03) (70, 4.00117855204558670046e-01) (107, 2.25521904298526337795e-01) (31, 9.37278520303409079517e-01) (59, 3.24668376045071982450e-01) (115, 1.27493152595348946399e+00) (141, 5.09703440605937529995e-01) (120, 5.52647739897086931471e-01) (52, 2.87417603915259500802e-01) (94, 1.94857295422675907970e-01) (76, 5.10838396751484347114e-01) (77, 1.79645672383733301380e-01) (13, -1.00623071295646826506e+00) (46, -5.13390441911683523268e-02) (1, 4.80836430223905209047e-01) (27, 1.25322287794850972809e+00) (41, 7.71762946380492809162e-01) (57, 5.11550988080114454881e-01) (87, -1.51899108777048685859e+00) (33, 7.61984805899972306165e-01) (90, 1.50000000000000000000e+03) (132, 3.23792008205323778025e-01) (80, 1.97909279343691596464e-01) (109, 4.91098520044590036715e-01) (126, 4.48863323940961733705e-01) (15, 1.97287531231023383071e-01) (103, 4.19841554886851708872e-01) (105, -3.57319215961504088597e+00) (133, -6.21975239241480237773e-01) (44, 1.19689004356820549724e+00) (138, 3.03375641788127203835e-01) (83, 3.24491215122769682822e-01) (48, 4.31093352273495433735e-01) (9, -3.64607746472138061211e-01) (131, 3.71340455399455648955e-01) (14, -3.53161151994952737798e-01) (123, 5.41444140495169867755e-01) (97, 4.03562860517012289563e-01) (38, -1.16507483693422364546e+00) (29, 1.59435374430144416458e+00) (60, 3.58759308852389657840e-02) (32, 2.64324181034207961183e-01) (56, 2.53503482765517040853e-01) (24, 4.46092189015954820874e-01) (2, 8.45301793220332053913e-01) (99, 7.88298454647677449003e+00) (58, 3.44719761382248413017e-01) (142, -1.48475601895312558920e-01) (59, 3.57768951580289984449e-01) (53, 5.35479276280212856953e-01) (109, 9.38400500991089736580e-01) (118, 4.31761145169131610455e-01) (9, -4.32205752531528653027e-01) (30, 3.13295401690750985324e+00) (107, -1.01975845629433226058e+00) (134, -3.06505995494162519766e-01) (3, 3.27355678270011940523e-01) (115, 1.01905237051261821080e+00) (129, 8.91319538167111402593e-01) (36, 2.95783563198136612016e+00) (52, 7.11803460115622566029e-01) (39, -3.82940831691611638377e-01) (31, 3.31915858850606870778e-01) (108, -1.45491135865760501389e+00) (92, -6.61794835316064866682e-01) (47, 3.15749352264010518798e-01) (55, 3.76379253923360856948e-01) (79, -1.49674087897659667881e-03) (40, -9.04842191160408981787e-01) (73, 5.28946727083237644429e-01) (72, 4.51644916230146298286e-01) (90, 1.50000000000000000000e+03) (5, 4.93194008325559152262e-01) (23, 3.23658093247459976993e-01) (113, 2.61896529629753382906e+00) (116, -3.37484379727266248228e-01) (2, 3.47851027003390100845e-01) (42, -1.01490525958807253915e+00) (68, 8.17582156123654590907e-01) (63, 1.69629822968245802528e+00) (111, 8.54593562373331283588e-01) (89, 1.50000000000000000000e+03) (21, -7.84067258996189564435e-01) (10, 2.88052724683827809926e-01) (100, 3.34873606220268127398e-01) (139, 4.13004630694612906439e-01) (24, 4.38147957341266935938e-01) (8, -7.38319442675283932331e-01) (37, 1.29742531025635265962e+00) (130, 4.02410985056827319450e-01) (67, 3.70598501054681894740e-01) (51, 5.30019744541039616870e-01) (119, 4.30236326240511501862e-01) (86, -1.96004471109135014473e+00) (50, 3.81917430230941157276e-01) (25, 4.47982496206354108281e-01) (58, 3.69533538108914094700e-01) (135, 2.30387102899885309881e+00) (49, 2.10774079296316030341e-01) (48, 1.02805393104771596313e+01) (35, 1.40498406253950734734e-02) (131, 3.85460613597849555134e-01) (78, -2.52940040087975603900e-01) (117, 1.98367633298368803429e-02) (57, 3.89848881476882735964e-01) (110, -1.61325754737221341295e-02) (85, -3.11094917629168403461e-02) (29, 8.05941078940044342005e+00) (102, 3.91661428714143555752e-01) (28, 9.59354342567773521466e+00) (83, -1.66858922583545649099e-01) (140, 5.89558778726383181379e-01) (123, 3.85727501848865395040e-01) (43, 9.73858445115575954709e-01) (12, -8.40826909135392264183e-01) (38, 6.46957569619364569746e-01) (101, 2.33562187285570432849e+00) (137, 5.42658664134123336353e-01) (81, -1.16408666749711797728e+00) (138, 6.02815253640313630790e-01) (69, 4.74612587990535905735e-01) (7, -2.82626595053620477405e-01) (26, 3.89535614523941087217e-01) (62, 4.26414686192219005711e-01) (74, 3.61103493565658406617e-01) (112, 3.97046644277466720396e-01) (93, 9.45172981107724630156e-01) (76, -5.55268701793250829546e-01) (80, 6.27720476115524728122e-01) (61, 4.78024159788661473502e-01) (97, 3.86442312930357079193e-01) (32, 4.93927373787462264954e-01) (66, 4.70423327433437565848e-01) (120, 2.43282115746412674895e-01) (13, 2.58443204826866335111e+00) (54, 4.24526281724790677252e-01) (125, 5.02258625807968095422e-01) (132, 8.81338256152815580080e-01) (104, 3.43032429133639960028e-01) (136, 3.70345139710308357550e-01) (103, 3.95134151985881976188e-01) (84, -5.90175753282065507221e-01) (6, -4.63028874074060681210e-01) (19, 1.50000000000000000000e+03) (0, -1.37411831460422506623e+00) (128, 3.95665438617552212008e-01) (91, 8.95925244897004535716e-01) (75, 4.87405448253098005917e-01) (95, 4.36110080376527597945e-01) (22, 2.86117893317147053978e+00) (41, -3.21121750022372376421e+00) (17, 1.50000000000000000000e+03) (65, 2.36236903217387483878e+00) (60, 4.60340452039422698416e-01) (46, -3.91441535783264749071e+00) (82, -1.62359091604823313482e-01) (127, 3.73954425355261244057e-01) (98, 6.53713894213332147309e-01) (11, -3.10661785419825120513e+00) (71, -3.48014761501047198422e+00) (20, -1.21522796562303647683e+00) (142, -2.52298640383545214050e-01) (29, 3.67310192340538943512e+00) (57, 6.14038098128864118230e-01) (73, 2.58285031131243403291e-01) (125, 3.74070050352081073797e-01) (8, 5.24023288758629801620e-01) (121, 4.09167773761527464593e-01) (23, 3.63767656207598100160e-01) (32, 2.85858034726379328649e-01) (81, 5.43174649275698362416e-01) (96, 3.78875170444741116160e-01) (129, 4.38438076584550362469e-01) (44, 2.51392590182616393335e+00) (41, 8.80250367318816451245e-01) (108, -3.53239173879211887375e-01) (131, 5.09961983467715262996e-01) (68, 4.76548351187858709732e-01) (94, 3.90665921898834089809e-01) (38, 4.92320810575429756994e-01) (13, 6.97631657411887928788e-01) (21, 2.41793285310423256007e+00) (18, 1.50000000000000000000e+03) (37, -6.19347703230818336095e-01) (9, 1.07136051489148664828e+00) (19, 1.50000000000000000000e+03) (1, 2.40008996301837251863e-01) (127, 5.32898299488843485427e-01) (47, 2.82226659560993020648e-01) (7, 4.92814701094850093899e-01) (111, 4.51522794333022392532e-01) (33, 2.78090762147431225237e-01) (93, 5.81475058920142617858e-01) (26, 4.27869912037105393221e-01) (53, 3.52941084067031285443e-01) (91, -1.47567343359253033697e-01) (27, -3.07745736979850992299e+00) (65, 4.24512563491120376025e-01) (62, 5.47541665462565108058e-01) (66, 6.60920167793253354738e-01) (69, 2.94396434390879313536e-01) (77, 5.94278128284048134944e-01) (50, 2.94839880967504630593e-01) (20, 5.36269147035848492422e-01) (51, 3.81190693098463595501e-01) (3, 3.68332588394669036003e-01) (103, 6.39550723258927145132e-01) (31, 4.60140093092551660803e-01) (6, 8.72992218856388640935e-02) (34, 6.00216471310881072299e-01) (98, -2.80264720410748635615e+00) (64, 7.70989022267231760566e-01) (124, 4.95994439198212511144e-01) (115, -2.49921479243157884653e+00) (79, 9.60601356517143623037e-01) (100, 2.24097387564852867925e-01) (52, 3.37994976339863029136e-01) (36, -1.08000778027026078654e+00) (30, 5.49328268137630360002e-01) (16, 1.42162138417376762017e-02) (134, 1.45795260262591042100e+00) (130, 3.67552731376417807230e-01) (132, 3.13197798751621958591e-01) (95, 4.81862952760460649948e-01) (133, 3.19822797586965024141e-01) (22, -1.89433074832426086298e-02) (137, 4.23951224188356234901e-01) (75, 2.26458193636681320848e-01) (88, 1.50000000000000000000e+03) (112, -1.86386894412749093419e+00) (40, -6.85998077562207098090e-02) (5, 6.34205399060411845191e-01) (74, 1.99032064465889751981e-01) (24, 4.74469556911564338542e-01) (122, 2.40421904640777561735e-01) (12, 9.89287628534994412099e-01) (61, 7.93365630903982155253e-01) (49, 3.84044131355272433392e-01) (120, 3.38602689604270645773e-01) (2, 3.38290345087222332765e-01) (25, 1.81194326753908008243e-01) (110, 8.44405110064713082529e-01) (15, 9.48706181773695811366e-01) (60, -9.68882239338604983603e-02) (4, 2.60088788371321932846e-01) (107, -5.96807551989302770279e-02) (76, 2.33378760955784109177e-01) (101, 2.29787759468567193144e-01) (67, 4.60551150061820291359e-01) (63, 3.62513292503804041012e-01) (54, 5.61399347645137214435e-01) (46, 7.26233230154624178482e-03) (92, -7.27433770485528707894e-01) (97, 3.92684110986079137895e-01) (43, -2.69001742137307164882e+00) (104, 4.84856761841319650053e-01) (109, -1.17512308421687894366e+00) (114, -1.71930187689928914985e+00) (126, 4.68530110057720439176e-01) (128, 4.55507004785742075637e-01) (28, 1.91616178895915340030e-01) (14, -1.24368680239892115402e-01) (106, -5.23912006969473154072e-01) (90, 1.50000000000000000000e+03) (17, 1.50000000000000000000e+03) (135, 6.08433714764171740264e-01) (11, 6.24153255868989842448e-01) (117, 6.42061806519644950875e-01) (138, 6.05392105394702451093e-01) (72, 3.39623649642852132313e-01) (99, 3.07097477486284287096e+00) (42, -9.21575470334101004566e-02) (86, 4.39311022568952547207e-02) (48, 3.59278763825445102142e-01) (82, 3.48162550922682001442e-01) (45, -1.39169100104346394817e-03) (142, -1.13574717870151498111e-01) (54, 4.08386912032543014650e-01) (101, 4.29991021087127556211e-01) (50, 2.80580924587342295240e-01) (85, -1.66707758785130832901e-01) (60, 2.74243903465266225528e-01) (73, 3.62049044256700425226e-01) (81, 2.00278351993390807406e-01) (99, 3.47415898446055193549e-01) (136, 3.96087540308519059362e-01) (63, -9.10349226638615172114e-01) (115, 1.74062103781567212302e+00) (106, 2.61318560524095577779e-01) (95, 4.62975759425499622246e-01) (108, 5.85792264858860822763e-01) (93, -1.50087197600046573509e-01) (22, 7.47413174162102067477e-01) (125, 4.48911721872664815081e-01) (34, 4.98409261393880254065e-01) (51, 4.52907537381334601712e-01) (52, 3.81147439706166157869e-01) (35, 8.36478209424446061959e-01) (43, -1.27167331935061511672e+00) (103, 2.45668555728813658989e-01) (6, 2.65371337216629865630e-01) (140, 2.80496992901312303115e-01) (114, 1.32575123982992315597e-01) (97, 3.90156841697257839030e-01) (9, 1.81592107356260412665e-01) (49, 3.23461452013749872769e-01) (74, 3.91011708342369868063e-01) (5, 2.55346052860745298396e-01) (39, -1.75331564889052049505e-01) (21, -8.12281994636653403852e-01) (26, 4.04270863199363394980e-01) (45, -3.18628438318971696219e-01) (41, 1.32107426070209060809e-01) (4, 1.18502016975021301493e-01) (112, 2.68706776601535723970e+00) (10, 9.02413853122478681890e-01) (12, 8.18025032976332111545e-01) (109, 7.43653047566285252401e-01) (20, 8.60063971941497751317e-01) (94, 2.94451085994352490527e-01) (48, 2.66826266233358921909e-01) (66, 4.44202854288588466769e-01) (59, 4.04803673700618760201e-01) (18, 1.50000000000000000000e+03) (42, 7.59792244427513474569e-01) (84, 3.15674865246049207723e-01) (88, 1.50000000000000000000e+03) (122, 3.77767978722340802555e-01) (111, 1.04938983497834215086e+00) (105, 3.18212745955064990611e-01) (19, 1.50000000000000000000e+03) (8, -2.86874843847915894646e-01) (53, 3.69683605252795088880e-01) (76, 3.68830756960266070710e-01) (118, 3.33931474402930528189e-01) (132, 5.02335092732761001599e-01) (138, 3.20372792097291747559e-01) (82, 7.20875795138097408277e-01) (29, 1.44951821822205034751e-01) (127, 3.11315329541546448322e-01) (92, 1.16135884446810755399e+00) (110, 4.99671947224254120457e-01) (135, 4.63193012745236110117e-01) (124, 3.63313415320676957876e-01) (91, -3.13448525356339180448e+00) (90, 1.50000000000000000000e+03) (79, 2.83008744315056681717e-01) (137, 5.12342482059066517408e-01) (3, 2.71540680571303316704e-01) (113, 1.67551482153211761528e+00) (70, 3.98247738618527191701e-01) (47, 3.44622750766550078882e-01) (75, 4.34637189671342460962e-01) (24, 3.88056697336622014038e-01) (123, 4.58675950388785558243e-01) (38, 4.70609599966791636305e-01) (126, 4.36128299475396719043e-01) (25, 2.74818149555629276382e-01) (67, 4.31292234607995372819e-01) (30, -1.22533999198556298182e+00) (131, 3.45240851291435502102e-01) (72, 3.06133914753579705614e-01) (107, 1.36253116671207291644e-01) (96, 3.81957022249816979809e-01) (129, 3.41276230646992695394e-01) (27, -4.18239603240712076726e-01) (133, 4.00106075054715293327e-01) (14, 1.07560037759080670550e-01) (58, 3.26433730556108914200e-01) (64, 1.66664387058004181963e-01) (87, 1.42862442507728643060e-01) (61, 5.52089233802685264152e-01) (134, 1.45238430344124980209e+00) (32, 7.42021231928052027449e-01) (33, 2.89858927235121965893e-01) (28, 1.99210955722912719246e+00) (13, -9.35412111040683669216e-01) (117, -3.23522208606795813601e-01) (71, -1.21996034634727834600e+01) (120, 4.32129155659729313754e-01) (23, 2.23796255783393044370e-01) (62, 3.73674158604732464806e-01) (17, 1.50000000000000000000e+03) (83, 1.02873168882194665485e+00) (55, 5.03102657022962973521e-01) (141, 3.05032780931277891501e-01) (78, 3.02578731550320834121e-01) (89, 1.50000000000000000000e+03) (68, 4.13849716998117012068e-01) (44, -4.58649400965511544470e-01) (142, -6.72769353046550333541e-02) (129, 4.02746886748379828713e-01) (91, 2.88423958965710214297e-01) (20, 2.07497516549998373137e-01) (93, 3.00059177496382112338e-01) (112, -1.61520079909811764551e-01) (70, 4.19971273531867417272e-01) (109, 5.98100918000083803250e-01) (29, 2.64676087472082488539e-01) (125, 3.01943463070689643857e-01) (63, 1.55726296255516327705e+00) (141, 4.70271561839413654305e-01) (118, 4.53206422849582513113e-01) (133, 3.17351166483983537780e-01) (66, 3.53343923625867417648e-01) (122, 2.62729933616940247720e-01) (104, 3.05022263004106131135e+00) (102, 3.71369599526697502512e+00) (65, 4.42889421196666022151e-01) (116, 2.13669548975683715186e-01) (46, -1.34164180224091644789e+00) (113, 4.44529318778631610254e-01) (47, 3.50903374340900131578e-01) (108, 1.67720318445988669787e-01) (21, 3.43332934395275879425e+00) (50, 5.18117943736496555651e-01) (10, 2.11088591548644788354e-01) (14, -8.45166160174290914675e-01) (101, 4.73364019401800950604e-01) (96, 2.92440714940143509093e-01) (77, -3.69215926602798005796e-01) (35, 1.89852252109438923711e+00) (100, -1.37255754102331095634e-01) (45, -8.88512920204979739225e-01) (60, 3.44738846460482362133e-01) (95, 4.56829814066711470399e-01) (140, 3.12131279012687945507e-01) (107, 4.72289622836338240930e-01) (73, 5.00194045514250174023e-01) (114, 4.11323788781745969256e-01) (30, 1.62752305370776029214e+00) (18, 1.50000000000000000000e+03) (123, 4.24209017838995450234e-01) (53, 3.57295276504159819986e-01) (40, -6.66913850337048419448e-01) (110, -7.80842602526036766442e-02) (2, 3.26333420220447312232e-01) (12, 3.02742621140914602851e-01) (41, -2.01986381296827277598e-03) (79, 4.79451636638514255839e-01) (33, 1.82274425222387348455e-01) (5, 2.92164334869491781888e-01) (138, 4.59932623778329940922e-01) (128, 4.39856149965465459406e-01) (84, 4.84997929279863071450e-01) (32, 5.50594851670189644466e+00) (97, 4.29232950089024178908e-01) (54, 4.52651222772415984252e-01) (28, 2.97406490212757246283e+00) (72, 9.69745766604773046238e-02) (38, 3.63409821534779187147e-01) (80, 4.26229461145734789262e-01) (22, 4.66527391579135031208e+00) (27, 7.53399205137733063431e-02) (19, 1.50000000000000000000e+03) (134, -1.80785263134567242282e+00) (7, 1.07743020976108789394e-02) (82, 6.13165278051961970540e-01) (34, 4.10482419569871748166e-01) (94, 5.19552648364920699464e+00) (39, -2.36253042280835490185e-01) (51, 2.57394432366118197653e-01) (1, 3.43416199464953608711e-01) (78, 4.83459425487026361878e-01) (59, 3.77128585861798870660e-01) (90, 1.50000000000000000000e+03) (115, 1.09763368690193141575e+00) (127, 4.52293943175132939771e-01) (132, 3.47591807390963347668e-01) (48, 6.86749128946136266904e-01) (139, 8.77430737302181240622e-01) (126, 3.11087938279755171767e-01) (44, 2.10815555314306846135e-01) (87, -1.09786639633701429974e-01) (8, -7.20403265781518920008e-01) (26, 4.43153458505565145398e-01) (124, 2.98586588907125083381e-01) (13, 3.12473844864365690732e-01) (64, 1.95948805191280328586e-01) (85, 1.45556060450367119596e-01) (61, 1.34686574887879939588e+00) (135, -3.54707309531568648620e-01) (36, -1.02731884186476984944e+00) (6, -3.68885524890252780583e-01) (67, 2.87915125536476523838e-01) (121, 4.27877157518764705824e-01) (106, 1.86696128422368101685e-01) (75, 2.37337643390460623083e-01) (136, 3.53693257212546907642e-01) (52, -1.30254703936052207425e+00) (37, 6.11581322698912854818e-01) (98, 4.62193331771222792881e-01) (137, 3.92232449508148006689e-01) (71, -6.69744486051563225892e-01) (74, 1.55043856406417573934e-01) (130, 5.84531417913725981350e-01) (24, 5.04424235584388869214e-01) (103, 3.98713244948270706391e-01) (92, -1.50756629501264838300e-01) (105, 4.31300471599320833782e-01) (56, 2.73108928427813812956e-01) (83, 7.29665846665850881259e-01) (117, -1.84849329678885496153e-02) (89, 1.50000000000000000000e+03) (86, 4.68039449225664039300e-01) (142, -2.88197950046162498783e-01) (13, 5.78352061858848798259e-01) (128, 5.86171421682090243443e-01) (121, 4.88779389478503911715e-01) (55, 4.00610222136038252039e-01) (43, 1.33487981663485655304e+01) (57, 6.04675289335898646925e-01) (99, -3.16712558650111208891e+00) (10, 3.72226823155987596170e-01) (8, -6.90206958367199363558e-01) (11, 7.06363152901739899114e-01) (38, -2.78458320586229746141e+00) (74, 6.10992857031854907923e-01) (107, -1.79093286219311781382e-01) (3, 4.12192002615068608939e-01) (42, -7.99418397363382160492e-01) (29, 4.94754143019633474410e+01) (101, 2.52184770845196126743e+00) (33, 4.03243783457332749531e-01) (95, 4.50855771059540499923e-01) (36, 4.84007386996149691072e+00) (14, 2.71130637655575990053e-01) (9, 3.40134381718603384659e-01) (58, 3.66817687868221720127e-01) (56, 7.43171607913070797480e-01) (64, 6.48108993678029321472e-01) (87, 4.11461551982815643136e-01) (96, 5.28666127236848470972e-01) (141, 7.66150951348139930275e-01) (4, 4.10825153665092146493e-01) (135, 1.11143847102001758209e+00) (86, 4.58579062172951745779e-01) (68, 4.17242829242863932926e-01) (106, -6.02734125447565194378e+00) (66, 5.31745955460332098141e-01) (28, 6.46737205666926495695e+00) (118, 5.40935969987470843812e-01) (133, 7.45962070501616780760e-01) (44, -4.65478897864808445206e+01) (50, 3.21909376180994521999e-01) (34, 5.39151940390719564000e-01) (137, 3.02863874114441351537e+01) (0, 2.20703955875511148577e+00) (122, 4.05446367180230637928e-01) (120, 5.16091194458064617123e-01) (136, 4.25695809312866269014e-01) (75, 5.25670177077558919976e-01) (123, 3.53902830710910387690e-01) (110, 8.28092691086960486224e-01) (89, 1.50000000000000000000e+03) (46, -4.39297101328360084516e-01) (139, 5.52320706295067020974e-01) (119, 4.77965368043808624954e-01) (27, -2.55755104903505081637e+00) (22, 1.47793143537279081379e+00) (132, 1.58155000976842652349e+00) (70, 4.55330851797320412810e-01) (114, 5.55902026716721930910e+00) (104, 4.78937264877456247980e-01) (25, 2.20014417228035719099e-01) (59, 1.12200068639790728753e+00) (69, 6.59851120058523421541e-01) (18, 1.50000000000000000000e+03) (130, 3.59552140328696812066e-01) (7, 2.97672523068183314532e-01) (60, 4.56107664796651874894e+01) (26, 4.30150430709070663582e-01) (100, 3.36342918226751166344e+01) (117, 1.65259673105911186752e+00) (47, 3.58798794025000367114e-01) (124, 4.83282957637357624137e-01) (31, 4.37622022423385159673e-01) (65, 2.02589325832801101512e+01) (138, 8.20744072571469085453e-01) (15, -1.41930451133155766108e+00) (108, -1.44358441112754282143e-01) (113, 8.80939920468183856883e+00) (49, 2.47597843070165496426e-01) (23, 2.72757014047048995664e-01) (109, 2.52153831496235580900e+00) (72, 5.19804294075340900250e-01) (53, 7.48803313495770561659e-01) (5, 1.01976873537940004866e+00) (20, -9.00965915428398389508e+00) (24, 4.37572159605796318083e-01) (140, 9.49607677194471366811e-01) (6, -4.48833248727811107148e-01) (92, 2.84236184119314172491e+00) (116, 4.79074204018447302733e-01) (40, 1.85638765665484505030e-02) (12, 3.88218653884343622984e-01) (76, 1.42595281883632518660e-01) (73, 4.56674816641834457887e-01) (78, -7.08355859827064060497e-01) (84, 1.15903389517650431961e-01) (32, 1.17210784327733847476e+02) (134, 5.81165331405516472074e+00) (1, 5.05662809114109879083e-01) (51, 3.29961521899007736991e+00) (35, 5.97392900890406721714e+01) (102, 4.56673172355469891848e-01) (131, 3.68505646930478103496e-01) (41, -2.90441420455737198125e+00) (54, 4.46085836650894684841e-01) (16, -1.68105005440674415418e+00) (90, 1.50000000000000000000e+03) (80, 8.18485501673101634168e-01) (82, 1.03656528465612307599e+00) (21, 1.56396132934171649964e-01) (105, 6.13725779120246617282e-01) (111, 7.04791828984676738123e-01) (115, 8.63840187005140647258e-01) (79, 4.30958978351281052355e-01) (71, -4.95858707080431404535e+00) (125, 6.23219911555110694934e-01) (142, -2.41516586304872965529e-01) (94, 3.89428768711939432556e-01) (20, -3.46602859145935526808e-01) (5, 1.79473069270763496696e+00) (6, -5.14350413935535155652e-01) (70, 4.71052158762981454387e-01) (34, 3.17834165493598774788e-01) (38, 1.92958119267744843128e+00) (99, 5.83996931314342937469e-01) (1, 3.95867594110169196409e-01) (13, 1.24841632349262288137e+00) (46, -1.36249831392807746466e-01) (123, 3.34892988100916944028e-01) (136, 3.98265296702057958189e-01) (113, 6.11830761560806735133e+00) (51, 3.73668395702966449345e-01) (65, 2.70924463696225403808e+00) (29, 1.47633873563132866913e+00) (88, 1.50000000000000000000e+03) (26, 4.02652723352344810159e-01) (18, 1.50000000000000000000e+03) (108, 2.89626018230110027218e+00) (2, 4.32557517526476642544e-01) (37, -2.22929140768711109288e+00) (115, -6.65566677941711426492e-01) (61, 4.48695804603178483028e-01) (111, 4.93080312249561725224e-01) (16, 1.11807858486425229505e-01) (124, 3.81708161981933857820e-01) (129, 3.70598935676530405470e-01) (74, 3.91785904361769132809e-01) (103, 3.69091560029899068418e-01) (63, 1.24439904574298587647e+00) (36, 1.92070727506809957319e+00) (105, 1.37335810001627822707e+00) (101, 1.32579978651543122226e+01) (82, 1.98717987010185781482e-01) (85, 2.71951058020887315170e-01) (69, 4.25685391598325690854e-01) (130, 3.33541975105690391423e-01) (21, 9.89785608924171111944e-01) (104, 3.24497689407430012221e-01) (80, 3.89889311358112056194e-01) (62, 3.52906834970957650199e-01) (4, 3.72919148556978274911e-01) (116, -4.15945123585255205345e-01) (92, 2.07598199176556885703e+00) (131, 3.67729535163726084512e-01) (8, -5.51524491473386890839e-01) (107, -2.34130254036228402370e+00) (15, -5.29910378385205049767e-01) (96, 4.10958896367327852772e-01) (117, 1.11992612085449125270e-01) (87, 2.96900643175871226109e-01) (132, 4.92951828374367684305e-01) (19, 1.50000000000000000000e+03) (52, 4.35297396347465559430e-01) (67, 4.12547082635762396574e-01) (118, 3.50803535474201400035e-01) (71, -5.01905434190235144598e+00) (121, 3.49004417139874067999e-01) (79, 3.23303189437590343669e-01) (42, 1.24684618772091068695e-01) (57, 4.72056063509552092938e-01) (122, 4.88544876602423683298e-01) (66, 4.94507037899638235423e-01) (84, 2.32146195540704392002e+00) (44, -1.57335373390643940006e+00) (97, 3.62484057469086684566e-01) (32, 4.05795620045084626248e-01) (135, 3.94010931518272267127e-01) (83, 3.74002276883688089537e-01) (39, -1.77958354002471685895e+00) (98, 1.38833611425200609268e+00) (33, 3.10185113663918710092e-01) (30, 2.95505813161435781922e+00) (56, 6.23876112387420800331e-01) (50, -7.60455985515817983050e-04) (137, 5.60991086308318398501e-01) (106, -1.67315869063116018367e+00) (102, 4.25651711918261121959e-01) (75, 4.45503397616819396543e-01) (31, 4.30326502543967870373e-01) (49, 2.76216019530493406275e-01) (95, 4.00883144006478786547e-01) (24, 4.99923012588277149160e-01) (17, 1.50000000000000000000e+03) (109, 1.49976031346987975779e-01) (3, 2.76731748140668698532e-01) (100, 1.55348796948392831041e+00) (90, 1.50000000000000000000e+03) (14, -4.43490877138165151550e-01) (64, 4.68834688460960491430e-01) (10, 4.35320983223730273437e+00) (59, 4.45000134613724784849e-01) (127, 4.94223059890133820105e-01) (112, 1.30367501149970510532e+00) (11, -2.12654772733062491508e-01) (7, -2.77022205146361596984e-02) (28, 8.70026897442885971401e-01) (12, 3.84070212052450954410e-01) (134, 4.03322716550877813368e-01) (45, -1.65517247318169258286e+00) (54, 3.19893323350554759088e-01) (22, 6.27807017579811610375e-01) (41, 1.31689769957835922654e+00) (120, 4.60272562545823771263e-01) (60, 5.53337988312566864124e-01) (128, 4.53220552206451299249e-01) (76, 2.68399152804895679836e-01) (23, 2.97053228343328146188e-01) (114, 2.37672310423204802277e+00) (126, 