FANN_FLO_2.1
num_layers=3
learning_rate=0.700000
connection_rate=0.600000
network_type=0
learning_momentum=0.000000
training_algorithm=2
train_error_function=1
train_stop_function=0
cascade_output_change_fraction=0.010000
quickprop_decay=-0.000100
quickprop_mu=1.750000
rprop_increase_factor=1.225000
rprop_decrease_factor=0.325000
rprop_delta_min=-10.000000
rprop_delta_max=10.000000
rprop_delta_zero=0.100000
cascade_output_stagnation_epochs=12
cascade_candidate_change_fraction=0.010000
cascade_candidate_stagnation_epochs=12
cascade_max_out_epochs=150
cascade_max_cand_epochs=150
cascade_num_candidate_groups=2
bit_fail_limit=1.00000000000000005551e-01
cascade_candidate_limit=1.00000000000000000000e+03
cascade_weight_multiplier=4.00000000000000022204e-01
cascade_activation_functions_count=10
cascade_activation_functions=3 5 7 8 10 11 14 15 16 17 
cascade_activation_steepnesses_count=4
cascade_activation_steepnesses=2.50000000000000000000e-01 5.00000000000000000000e-01 7.50000000000000000000e-01 1.00000000000000000000e+00 
layer_sizes=146 31 2 
scale_included=0
neurons (num_inputs, activation_function, activation_steepness)=(0, 0, 0.00000000000000000000e+00) (0, 0, 0.00000000000000000000e+00) (0, 0, 0.00000000000000000000e+00) (0, 0, 0.00000000000000000000e+00) (0, 0, 0.00000000000000000000e+00) (0, 0, 0.00000000000000000000e+00) (0, 0, 0.00000000000000000000e+00) (0, 0, 0.00000000000000000000e+00) (0, 0, 0.00000000000000000000e+00) (0, 0, 0.00000000000000000000e+00) (0, 0, 0.00000000000000000000e+00) (0, 0, 0.00000000000000000000e+00) (0, 0, 0.00000000000000000000e+00) (0, 0, 0.00000000000000000000e+00) (0, 0, 0.00000000000000000000e+00) (0, 0, 0.00000000000000000000e+00) (0, 0, 0.00000000000000000000e+00) (0, 0, 0.00000000000000000000e+00) (0, 0, 0.00000000000000000000e+00) (0, 0, 0.00000000000000000000e+00) (0, 0, 0.00000000000000000000e+00) (0, 0, 0.00000000000000000000e+00) (0, 0, 0.00000000000000000000e+00) (0, 0, 0.00000000000000000000e+00) (0, 0, 0.00000000000000000000e+00) (0, 0, 0.00000000000000000000e+00) (0, 0, 0.00000000000000000000e+00) (0, 0, 0.00000000000000000000e+00) (0, 0, 0.00000000000000000000e+00) (0, 0, 0.00000000000000000000e+00) (0, 0, 0.00000000000000000000e+00) (0, 0, 0.00000000000000000000e+00) (0, 0, 0.00000000000000000000e+00) (0, 0, 0.00000000000000000000e+00) (0, 0, 0.00000000000000000000e+00) (0, 0, 0.00000000000000000000e+00) (0, 0, 0.00000000000000000000e+00) (0, 0, 0.00000000000000000000e+00) (0, 0, 0.00000000000000000000e+00) (0, 0, 0.00000000000000000000e+00) (0, 0, 0.00000000000000000000e+00) (0, 0, 0.00000000000000000000e+00) (0, 0, 0.00000000000000000000e+00) (0, 0, 0.00000000000000000000e+00) (0, 0, 0.00000000000000000000e+00) (0, 0, 0.00000000000000000000e+00) (0, 0, 0.00000000000000000000e+00) (0, 0, 0.00000000000000000000e+00) (0, 0, 0.00000000000000000000e+00) (0, 0, 0.00000000000000000000e+00) (0, 0, 0.00000000000000000000e+00) (0, 0, 0.00000000000000000000e+00) (0, 0, 0.00000000000000000000e+00) (0, 0, 0.00000000000000000000e+00) (0, 0, 0.00000000000000000000e+00) (0, 0, 0.00000000000000000000e+00) (0, 0, 0.00000000000000000000e+00) (0, 0, 0.00000000000000000000e+00) (0, 0, 0.00000000000000000000e+00) (0, 0, 0.00000000000000000000e+00) (0, 0, 0.00000000000000000000e+00) (0, 0, 0.00000000000000000000e+00) (0, 0, 0.00000000000000000000e+00) (0, 0, 0.00000000000000000000e+00) (0, 0, 0.00000000000000000000e+00) (0, 0, 0.00000000000000000000e+00) (0, 0, 0.00000000000000000000e+00) (0, 0, 0.00000000000000000000e+00) (0, 0, 0.00000000000000000000e+00) (0, 0, 0.00000000000000000000e+00) (0, 0, 0.00000000000000000000e+00) (0, 0, 0.00000000000000000000e+00) (0, 0, 0.00000000000000000000e+00) (0, 0, 0.00000000000000000000e+00) (0, 0, 0.00000000000000000000e+00) (0, 0, 0.00000000000000000000e+00) (0, 0, 0.00000000000000000000e+00) (0, 0, 0.00000000000000000000e+00) (0, 0, 0.00000000000000000000e+00) (0, 0, 0.00000000000000000000e+00) (0, 0, 0.00000000000000000000e+00) (0, 0, 0.00000000000000000000e+00) (0, 0, 0.00000000000000000000e+00) (0, 0, 0.00000000000000000000e+00) (0, 0, 0.00000000000000000000e+00) (0, 0, 0.00000000000000000000e+00) (0, 0, 0.00000000000000000000e+00) (0, 0, 0.00000000000000000000e+00) (0, 0, 0.00000000000000000000e+00) (0, 0, 0.00000000000000000000e+00) (0, 0, 0.00000000000000000000e+00) (0, 0, 0.00000000000000000000e+00) (0, 0, 0.00000000000000000000e+00) (0, 0, 0.00000000000000000000e+00) (0, 0, 0.00000000000000000000e+00) (0, 0, 0.00000000000000000000e+00) (0, 0, 0.00000000000000000000e+00) (0, 0, 0.00000000000000000000e+00) (0, 0, 0.00000000000000000000e+00) (0, 0, 0.00000000000000000000e+00) (0, 0, 0.00000000000000000000e+00) (0, 0, 0.00000000000000000000e+00) (0, 0, 0.00000000000000000000e+00) (0, 0, 0.00000000000000000000e+00) (0, 0, 0.00000000000000000000e+00) (0, 0, 0.00000000000000000000e+00) (0, 0, 0.00000000000000000000e+00) (0, 0, 0.00000000000000000000e+00) (0, 0, 0.00000000000000000000e+00) (0, 0, 0.00000000000000000000e+00) (0, 0, 0.00000000000000000000e+00) (0, 0, 0.00000000000000000000e+00) (0, 0, 0.00000000000000000000e+00) (0, 0, 0.00000000000000000000e+00) (0, 0, 0.00000000000000000000e+00) (0, 0, 0.00000000000000000000e+00) (0, 0, 0.00000000000000000000e+00) (0, 0, 0.00000000000000000000e+00) (0, 0, 0.00000000000000000000e+00) (0, 0, 0.00000000000000000000e+00) (0, 0, 0.00000000000000000000e+00) (0, 0, 0.00000000000000000000e+00) (0, 0, 0.00000000000000000000e+00) (0, 0, 0.00000000000000000000e+00) (0, 0, 0.00000000000000000000e+00) (0, 0, 0.00000000000000000000e+00) (0, 0, 0.00000000000000000000e+00) (0, 0, 0.00000000000000000000e+00) (0, 0, 0.00000000000000000000e+00) (0, 0, 0.00000000000000000000e+00) (0, 0, 0.00000000000000000000e+00) (0, 0, 0.00000000000000000000e+00) (0, 0, 0.00000000000000000000e+00) (0, 0, 0.00000000000000000000e+00) (0, 0, 0.00000000000000000000e+00) (0, 0, 0.00000000000000000000e+00) (0, 0, 0.00000000000000000000e+00) (0, 0, 0.00000000000000000000e+00) (0, 0, 0.00000000000000000000e+00) (0, 0, 0.00000000000000000000e+00) (0, 0, 0.00000000000000000000e+00) (0, 0, 0.00000000000000000000e+00) (0, 0, 0.00000000000000000000e+00) (0, 0, 0.00000000000000000000e+00) (0, 0, 0.00000000000000000000e+00) (0, 0, 0.00000000000000000000e+00) (88, 5, 5.00000000000000000000e-01) (88, 5, 5.00000000000000000000e-01) (88, 5, 5.00000000000000000000e-01) (88, 5, 5.00000000000000000000e-01) (88, 5, 5.00000000000000000000e-01) (88, 5, 5.00000000000000000000e-01) (88, 5, 5.00000000000000000000e-01) (88, 5, 5.00000000000000000000e-01) (88, 5, 5.00000000000000000000e-01) (88, 5, 5.00000000000000000000e-01) (88, 5, 5.00000000000000000000e-01) (88, 5, 5.00000000000000000000e-01) (88, 5, 5.00000000000000000000e-01) (88, 5, 5.00000000000000000000e-01) (88, 5, 5.00000000000000000000e-01) (88, 5, 5.00000000000000000000e-01) (88, 5, 5.00000000000000000000e-01) (88, 5, 5.00000000000000000000e-01) (88, 5, 5.00000000000000000000e-01) (88, 5, 5.00000000000000000000e-01) (88, 5, 5.00000000000000000000e-01) (88, 5, 5.00000000000000000000e-01) (88, 5, 5.00000000000000000000e-01) (88, 5, 5.00000000000000000000e-01) (88, 5, 5.00000000000000000000e-01) (88, 5, 5.00000000000000000000e-01) (88, 5, 5.00000000000000000000e-01) (88, 5, 5.00000000000000000000e-01) (88, 5, 5.00000000000000000000e-01) (88, 5, 5.00000000000000000000e-01) (0, 5, 0.00000000000000000000e+00) (31, 5, 5.00000000000000000000e-01) (0, 5, 0.00000000000000000000e+00) 
connections (connected_to_neuron, weight)=(145, 1.92873280010495001813e-01) (2, -2.52702260309038029273e-01) (74, -2.27616221050101624757e-01) (58, -1.66508790786279836649e-01) (21, -1.01269911216701799517e-01) (7, 3.28290864464264642297e-01) (66, -2.83186183575355569786e-02) (127, -1.88119271507133541121e-02) (26, -2.75968585171947333734e-01) (30, -2.07770553890196829627e+00) (114, -3.34308636987838622701e-02) (113, 1.52357598491465884294e+00) (135, -4.75931463738914428685e-01) (34, -1.69307123157591971063e-01) (1, -1.37251619747096265112e-01) (63, 4.45738439127510988058e-01) (78, -2.78491588159590186535e-01) (3, -6.70363828268189798631e-02) (5, 2.97526187307409317739e-01) (15, 6.28836889141669574954e-01) (86, 8.54598053425867254518e-01) (85, 4.28796287529372266434e-01) (56, 3.76429707756540665731e-02) (95, -2.82516132341288583874e-01) (90, 1.50000000000000000000e+03) (117, -9.51853821675216593690e-01) (131, -4.68744205241117539718e-02) (116, 1.11255573315696221215e+00) (126, -8.90948137621037222766e-02) (102, -1.07548428684972649516e-01) (84, 4.53587934760453848071e+00) (39, 1.96880668789014723341e-01) (28, -2.81526784065435320414e+00) (111, -3.33926034558786222206e-01) (55, -1.85010985127109867099e-01) (125, -6.99979868318737902255e-02) (122, -2.21689105131677499649e-01) (141, -3.28146265499342781879e-01) (119, -4.06404501248021687854e-01) (19, 1.50000000000000000000e+03) (143, -9.10934231285670699407e-03) (49, -3.18869405655759663443e-01) (60, -2.14416556977826855412e-01) (41, 1.19904225344298320799e+00) (109, -3.43363930948203666116e-01) (79, -3.95923775508820796620e-01) (22, 7.30569467556053342427e-01) (24, -2.80747701542991723311e-01) (72, -1.74736609695615302540e-01) (42, 6.08853459889480475020e-01) (76, 5.91564763053953779348e-01) (73, -1.37089297458252601380e-01) (65, -3.73489012760114480471e-01) (92, 5.06204154977161291384e+00) (18, 1.50000000000000000000e+03) (13, 4.46424510409993535731e-01) (128, -4.56829169073488389197e-02) (88, 1.50000000000000000000e+03) (103, -2.11075400452872263823e-01) (69, -3.08869435558809690701e-01) (80, -4.08634023767260948223e-02) (29, 2.33026673676039930427e+00) (68, -1.11491415836076204759e-01) (44, -1.87142060157873324489e-01) (57, -1.63558737782970614605e-01) (53, -1.62915757199963734392e-01) (75, -2.55841343221181738432e-01) (91, -5.70330374608466028619e-01) (16, 1.93003210754421949957e-01) (31, -2.19110440806935702351e-01) (36, 7.85162299193493784522e-01) (140, -4.02008629066730460710e-01) (104, -4.34512266935904306608e-02) (123, -2.11566474491952372095e-01) (46, -1.03431819666320290452e+00) (64, -1.41161919157665766145e-01) (96, -1.90205546305142358943e-01) (38, 1.05881126141149461972e+00) (118, -2.93868838427517153900e-01) (77, 2.16169970432341401745e-01) (87, 4.68931949052436514158e-01) (124, -1.41210139594520556194e-01) (144, -3.38150610166093046338e-02) (136, -5.80980096153136463255e-02) (48, -8.16323323545370821419e-02) (120, -1.52909828898969868405e-01) (54, -2.25851921494114926681e-01) (101, 1.56251556384101553121e+00) (145, -4.55616320877400837741e-02) (1, 1.21653059629832208111e-01) (39, 5.69028707665525268489e-01) (61, 7.13348862404053041253e-01) (74, 2.57921125938550765966e-01) (26, 6.00867736029034094081e-01) (12, -3.32468963433091846404e-02) (9, -6.92453977465077863407e-02) (49, 3.01978445568219178163e-01) (13, -2.42740151139986176654e-01) (42, -6.82092004103528326553e-01) (28, 2.39835707765989702978e+00) (141, 3.96857729627625166469e-01) (100, 3.14418312468993654818e-01) (21, 1.65343880842400126063e+00) (114, -3.82428222807535023176e-01) (117, 1.56609556276502459582e+00) (69, 2.95575032476309340623e-01) (116, -7.35702911412475568653e+00) (94, 3.35339206801897327104e-01) (118, 2.72455197803630810860e-01) (80, 1.79602773001841409251e-01) (34, 1.59000565954421413384e-01) (129, 1.85783862703653046555e-01) (50, 1.54195928436844043041e+00) (93, -3.70047501242543805389e-02) (43, -1.71491813558328010103e+00) (113, 1.40696981556071620822e+00) (14, 8.27679652424160638979e-01) (36, -7.58102385163805014834e-01) (76, 2.16464740378358971862e-01) (72, 2.55909800666353659526e-01) (55, 4.36564175134078746865e-01) (142, 1.31658148753551917931e-01) (88, 1.50000000000000000000e+03) (95, 2.91706019400814919873e-01) (31, 3.63954095459340598584e-01) (7, -1.90680839932628659605e-01) (128, 1.83992731140520782152e-01) (119, 1.67321673233582446372e+00) (91, 6.76049432109381509548e-01) (64, 2.32651351835218817010e-01) (56, 2.31224603395483840895e-01) (23, 2.46120041846695669641e-01) (33, 3.71284817264255218028e-01) (85, 7.60700921426031850814e-02) (105, 5.17619240884151898818e-01) (101, 2.60511668578774668870e-01) (46, 3.83970420203427265093e+00) (108, -3.32353314273448219307e-01) (6, 1.29593907288465493011e+00) (32, 2.18537712042416953917e-01) (89, 1.50000000000000000000e+03) (87, -7.01154573285330540156e-02) (140, 4.12706531241951446454e-01) (18, 1.50000000000000000000e+03) (96, 2.92411872112291526538e-01) (131, 1.59882046589991055896e-01) (90, 1.50000000000000000000e+03) (68, 1.71519749619025801968e-01) (98, 5.93156234776051727309e-01) (5, -1.99477741279423304022e-01) (29, -1.63249026817941095269e-01) (2, 2.89916094848891303659e-01) (52, 1.50802521190140731422e-01) (104, 1.57803019714504666471e-01) (121, 1.02236132520866385143e+00) (73, 2.58296747593177666857e-01) (60, 3.39287283912383885731e-01) (132, 2.46128950065996165986e-01) (57, 1.46921782170573056447e-01) (4, 3.39606558092796273485e-01) (27, -2.35025978737241042493e-01) (37, -9.84566760771417248677e-01) (84, -1.59074341938358587711e+00) (122, 2.05204494028300710173e-01) (134, 5.08827604438176539503e-01) (112, 3.77269312332685791134e+00) (30, 5.63518029815237664337e+00) (99, 2.99346585037211565528e-01) (17, 1.50000000000000000000e+03) (10, -1.06443030793078374785e-01) (86, 1.20181566254806207472e-01) (120, 1.92371945660507720488e-01) (138, 1.55011738147617067485e-01) (41, 2.65457936044032727363e-01) (11, -7.04892453829369658447e-02) (111, 1.11006009966860696991e+00) (145, 3.53467780240063145225e-01) (4, -1.97258730680372668109e-01) (6, 4.66659469787451930411e-01) (43, -2.46505361019003943479e-01) (60, -5.88390028394041308957e-02) (67, 8.00235708143785418045e-01) (95, -2.62948813759172450588e-01) (103, -1.09061092288177230447e-01) (139, -4.45651274280636722214e-01) (52, -1.22810925971227280495e-01) (17, 1.50000000000000000000e+03) (96, -2.43873601170845166752e-01) (59, -1.82108152851155252749e-01) (47, -3.91968796432764554627e-01) (78, 1.43389593541928206388e-01) (24, -8.43008126681909636391e-02) (76, -5.74575663287887006270e-01) (29, 6.66614593815707534574e-01) (83, -2.01392288593081059123e-01) (13, 2.40281305974661962832e-01) (141, 8.02809976689198012689e-02) (12, 3.43364739351723624594e-01) (136, -3.07217289615656197199e-01) (86, -7.22171543963965739676e-02) (69, -1.75778597246218359906e-01) (28, -1.50159904729772319953e+00) (98, 2.40978729977427397202e+00) (109, -1.88192313837019487011e+00) (101, -8.57690596104652425158e-02) (135, -1.11872641080517129519e-01) (38, 4.67286978263954377866e-02) (88, 1.50000000000000000000e+03) (85, 3.89767761101621479369e-01) (111, -5.36742217646750674476e-02) (30, 6.85555647631134190689e-01) (61, -2.87981785143257607018e+00) (120, -2.36950179647386377502e-01) (65, 3.32502116938324820961e-01) (121, -1.23981380765129878263e-01) (62, -2.80346542525167441440e-01) (42, -2.10170653038414173563e-01) (140, -2.36900083664530157479e-02) (133, 6.25077303285881846762e-01) (114, 1.97181546814572983273e+00) (56, 6.82117392695256063995e-01) (64, 6.38591623493778184732e-04) (31, -1.19693836349981458378e-01) (115, -7.85753014236022839789e-01) (44, 4.96878377140193006056e-01) (82, -1.61335631773043552961e+00) (84, -1.82375662067283061951e-01) (117, -2.96216830295701449849e-01) (138, -1.79759782481844154756e-01) (106, 3.47839854992201658046e-01) (51, -2.28235738595554960018e-01) (22, 1.77403534422875019949e+00) (15, 2.92163704028494841669e-01) (3, -1.49770509184852629314e-01) (79, 5.07974135947573263161e-02) (123, -1.56618103931779578675e-01) (26, -1.74131071453518054826e-01) (80, -1.57661068666808246164e+00) (27, -4.65977246416695223274e+00) (81, -7.61989919904748180812e-01) (126, -1.73877304094981838256e-01) (99, 1.20646777116584935641e+00) (45, 2.48254713422156908509e-01) (68, 6.03244142784971626448e-02) (94, -2.50942041017182981832e-01) (110, 1.61922138561990031080e-01) (39, 4.15576331107382457297e-01) (34, 9.20090336021966714863e-02) (116, -4.42617541185017088212e-02) (132, -7.55744010307894120704e-02) (93, 1.45112039761452349396e+00) (5, 1.40184276159760090597e-01) (66, -2.02824324182643983550e-02) (1, -1.07905712131779199514e-01) (124, -1.49052739081477314542e-01) (119, -1.73657041645670112695e-01) (89, 1.50000000000000000000e+03) (11, 2.43334652246604554726e-01) (102, -1.55821350690251714255e-01) (40, 3.68689438392910862063e+00) (72, -2.29909705798368030338e-01) (71, 1.21674162645422567763e+00) (97, 1.14576934260957927214e-01) (46, 3.87061558119114801357e-01) (145, 4.98594138198472536239e-01) (10, -3.25942040271038962693e-03) (25, -1.17366468751530506065e-01) (44, -1.87924073304979710741e+00) (96, -1.99478334970925631764e-03) (14, 1.79412562996501157020e-01) (15, 2.28458132204327812875e-01) (143, -2.33273743436155978070e-01) (8, -9.86323451606395229518e-01) (106, 6.71784996181807536608e-01) (127, -1.67811683851728593586e-01) (28, -2.51447498922014123224e+00) (113, 1.22894957763649137483e+00) (53, -8.35304765833642937078e-02) (42, 3.35070128394797484006e+00) (116, 5.53374553388668102838e-02) (82, 2.54219038921665918540e-01) (117, -4.00114410115392704625e+00) (4, -1.87931431933827719494e-01) (74, -1.53146447426038084805e-01) (138, -5.20823961484246589215e-01) (37, 1.92424263600539080521e+00) (36, 5.15615938394035189241e-01) (2, -1.96834851203306848699e-01) (17, 1.50000000000000000000e+03) (5, 7.02625656862082670351e-01) (69, -3.10261426386025662705e-01) (49, -2.27044014507389924074e-01) (137, -9.81008710882548540244e-03) (131, -1.18936022360436849388e-01) (22, -5.25643105880655547857e-01) (21, 7.54488880503447423287e-01) (129, -2.43573051467057544173e-01) (40, -1.13417009094310028416e+00) (23, -2.57212585117031489190e-01) (58, -1.23925672830562327853e-01) (35, 3.54030247662513097850e+00) (136, -2.75035366534684411199e-01) (3, -9.74697626738901673482e-02) (98, 1.12639440892347786338e+00) (89, 1.50000000000000000000e+03) (11, 1.33001070258091075305e-01) (128, -7.62123464339125589184e-02) (125, -1.53137339485929557803e-01) (85, -1.78221363798555271218e-01) (139, -1.00276750034346301410e-01) (99, 2.34496319636254746399e+00) (121, -3.94806507093054606661e-02) (0, 3.73717839186885303349e+00) (60, -1.63551696538376034606e-01) (64, -6.40806209591006314952e-01) (90, 1.50000000000000000000e+03) (29, -3.18820041355696792706e+00) (70, -4.13216728305937419652e-01) (56, -2.82699966021820570106e-01) (47, -2.41258314766821441166e-01) (31, -1.57358747139840271512e-01) (112, 9.98957422539524797500e-01) (118, -1.15700703558820588990e-01) (87, -5.11134004950067333262e-01) (71, 3.86488466638338135084e+00) (57, -1.65088018619304666146e-01) (94, -2.89534734684629355139e-02) (102, 1.83710564600412573633e-01) (88, 1.50000000000000000000e+03) (81, 1.97024500626246712454e-01) (132, -8.67154043999429358092e-02) (126, -8.02769949848074065857e-02) (76, -7.06873599833829580064e-01) (133, 4.74293986085815078013e+00) (46, -2.78434547923663444635e+00) (45, 1.38392948913058533300e-01) (109, -3.86640321566824318733e-01) (95, -1.51815161353932692734e-01) (59, -2.69500892186733898015e-01) (39, -1.41145495639359054574e-02) (97, -7.09231136473854190116e-02) (18, 1.50000000000000000000e+03) (107, 4.65330990551819423384e-01) (103, -2.33893495215743318916e-01) (104, -6.38338239093633741383e-02) (24, -1.14190674853024448643e-01) (12, 2.48884127441573420325e-02) (120, 5.14693263375008425164e-02) (144, -2.04114316582378929610e+00) (63, -7.47481710065215354533e-01) (75, -6.34687732490531592022e-02) (78, 2.19667526743046487292e-01) (145, -5.92115583804396550249e-01) (9, -3.71504028150715259748e-01) (23, 6.52815548183971139373e-01) (29, -2.67820004937395133027e+01) (40, -7.56200303614951252484e+00) (99, 2.75243521354007736335e+00) (83, 1.68394998019281882939e+00) (2, 4.53827083781782825156e-01) (59, 3.77002104712699848132e-01) (6, -3.99489878491993077869e-01) (141, 2.98398456584183346951e-01) (28, 4.40451454387616365693e+01) (66, 3.66408463373462778279e-01) (103, 6.00315703004077216853e-01) (16, 5.70985858633592732736e-02) (113, 2.92622658527121304317e+00) (122, 6.56130188553349591452e-01) (47, 1.55757011933534030845e+01) (49, 1.70662631191842795175e+00) (111, -1.60825922598523296525e-01) (82, 3.59594815857041361085e+00) (130, 3.11199439215064765918e+00) (62, 1.35190792871750331550e+00) (120, 2.26983870335584470013e+01) (39, 2.56502189321598450533e+01) (96, 6.45428727142176361653e-01) (7, -2.09602812136958727152e+00) (3, 5.65108392004386561602e-01) (140, 3.63014005390307537002e-01) (19, 1.50000000000000000000e+03) (57, 6.20229316468873692614e-01) (95, 7.60076740771150727305e-01) (132, 4.79567181963463817773e-01) (53, 4.40976927895835035809e-01) (13, 1.33016672460911811182e-01) (15, 5.65033097325863709059e-01) (78, -1.03676841474035597024e+00) (33, 2.72834624998078589808e-01) (8, -3.69077582113533519959e+00) (75, 6.11039212537888842824e-01) (5, -7.47351345077749973367e-02) (50, 6.17635074439937370450e-01) (76, 9.85474698201068144421e-02) (74, 7.88415550260072484079e-01) (101, 7.23778752906592526273e+00) (104, 6.01574485843586082012e-01) (17, 1.50000000000000000000e+03) (32, 3.87038782755728050233e+00) (55, 5.12131844860082674487e-01) (142, 5.35992618162690948047e-01) (91, 4.36439215077765119144e-01) (105, 3.79817376354358360313e-01) (92, 1.24300946259235640667e+01) (41, -1.02121599640873501613e+01) (131, 5.91659574535796539685e-01) (125, 4.68106324811519980411e-01) (85, -1.85850136893291697504e+01) (112, -1.17691838708787273049e+01) (81, 1.64921338203092238128e-01) (106, -1.78392233302771741066e+00) (61, 5.16060106481815328294e-01) (14, -2.75981349892995098116e+00) (143, 7.24944878985664509230e-01) (60, 3.42840715962544340112e-01) (93, -1.98621197285742070449e+01) (73, 5.84467593101018922930e-01) (98, 2.76414826352194742398e+00) (37, 1.04865114655442370761e+00) (117, -2.11292530294296676541e-02) (79, -6.29327982902132987419e+00) (86, 1.84656763877121554707e+00) (1, 4.90581874680822482837e-01) (52, 1.04440468767985250587e+00) (114, 1.10610287488816769752e+01) (43, 3.94041545308667506831e+00) (35, -8.92342930167372760941e-01) (127, 6.89547238549049423817e-01) (97, 4.30101740993562964288e-01) (123, 6.72072741613077950795e-01) (84, 7.63268903637098627968e+00) (119, 1.12859469471685525122e+00) (144, 7.00897665359770050131e-01) (71, 1.94011228116476730499e+00) (100, 5.52576846803516374962e+01) (138, 1.97380437022417360993e+01) (4, 4.80700357286495572051e-01) (69, 3.49115227399379435269e+00) (90, 1.50000000000000000000e+03) (145, 3.75508881968226460035e-01) (77, 1.03732666587933092250e-01) (119, -2.81073512888709353685e-01) (53, 2.33260406008174367432e-02) (116, 3.66256876127266817189e-01) (95, -2.29420193939995686883e-01) (25, -1.86516874275549249251e-01) (106, -7.02469981155582234855e-01) (36, -6.01660337026706515395e-01) (51, -1.48452151158747519544e-01) (122, -2.30847627048816700368e-01) (74, -2.74549074824170957765e-01) (52, -4.14596547916565694170e-01) (21, -5.78683415613674423383e+00) (37, 5.64376677818772209960e-01) (47, -2.71064656738596920782e-01) (78, 3.15099947246304246118e-02) (109, 9.63741172226614151164e-01) (28, 5.35282370711036126210e-01) (35, -2.22429208545524337293e-01) (136, -2.82369928041833917476e-01) (73, -1.88626033760555339436e-01) (24, -3.18133113016989599320e-01) (132, -1.26251528131089307827e-01) (101, 7.50263375440516711024e+00) (120, -4.45411288478708145000e-01) (4, -2.61956484893701546657e-01) (85, 5.68170398792870789961e-01) (49, -2.00171360758963967630e-01) (126, -1.26429036067629591011e-01) (7, 1.86413289195462961167e-01) (143, -2.78311729137163399450e-01) (54, -4.48768833647280374066e-01) (14, 1.49798132175714870939e+00) (93, -3.52477826573545938160e+00) (1, -1.67046407102378086096e-01) (9, 1.92475505652024814207e-01) (39, 4.06082915132590149820e-01) (124, -4.12133034710808088263e-01) (102, -1.53812270068268558409e-01) (50, -2.05348390768465671741e-01) (40, 1.59456875709698175925e+00) (38, 1.47396240952069351726e-01) (11, 1.28612179061136255864e-01) (76, -5.83717113876763404184e-03) (64, -1.08121699643392604751e-01) (60, -4.75374172822285778750e-01) (59, -5.01264404298742416444e-01) (111, -1.38903732327003814895e+00) (55, -1.22277385404139377068e-01) (81, -3.99132972669845320635e-01) (107, -1.65851327569608242296e-01) (12, 2.77031915620576330017e-01) (83, -5.61017262742067646109e-01) (118, -1.15235017124289185197e-01) (5, 1.89787848174188256145e-01) (123, -4.26568615300457032458e-01) (114, -1.01335354728383708611e+00) (46, 7.82437647471129538168e-01) (96, -1.93394702756583852787e-01) (71, 4.14412407383871583821e-01) (104, -3.96975712599995145258e-01) (41, -2.09843015139986954765e+00) (32, -4.69805586387071830168e-02) (20, 3.95911406496535056565e-01) (140, -4.95887915906129891908e-02) (112, -4.20106327830650050359e-01) (6, 3.94378914875560759867e-01) (42, 4.87353277381614713448e-01) (22, -2.84201124130936788603e+00) (70, -3.13933907024949776510e-01) (105, 1.42854773015890934573e+00) (65, -1.67237578548713114457e-02) (110, 1.95538806917828322796e-01) (142, -1.86041257352224598254e-01) (129, -3.57130258716156556709e-01) (45, 1.01772514667762292717e+00) (16, 4.50088516432502194764e-01) (86, 9.69737347329350907188e-01) (19, 1.50000000000000000000e+03) (115, 9.90962886729806369246e-01) (121, -1.31455993033881807230e-01) (13, 3.16166019310701096323e-01) (69, -2.87652650310680935153e-01) (90, 1.50000000000000000000e+03) (26, -1.27537796144926163233e-01) (113, -4.87246855692167357699e-01) (30, 3.63620095178155144922e+00) (145, -1.23993423016765816347e-01) (65, 2.83370886392941112586e-01) (85, -1.12987262362185125752e+00) (92, 1.18144019410234801803e+00) (143, 2.90866945606862936646e-01) (15, -3.23761432054052677998e+00) (88, 1.50000000000000000000e+03) (91, 4.69451457684080752930e-01) (87, -9.97922687053478973951e-01) (21, 2.70766147676016766255e+00) (89, 1.50000000000000000000e+03) (80, -4.29712968469870226773e-01) (50, 1.96090312519456272389e-01) (16, 1.94857506534642954676e+00) (3, 3.00750627618090793369e-01) (136, 6.15773975773908688325e-01) (99, -1.70403978384602083906e+00) (142, 1.82959171181908269999e-01) (28, 2.72121546920177292961e+00) (33, 3.48138731190150985118e-01) (48, 3.06296365372538959004e-02) (86, -2.29584475706117796534e+00) (108, 5.34536948434787273499e-01) (73, 2.53601150587328905139e-01) (58, 1.43399345518806953237e-01) (110, -1.03005487910399606832e+00) (118, 1.39201100332989602393e-01) (51, 2.92934849536283570259e-01) (120, 1.51114970132545212156e-01) (111, 2.13501588823588911437e-01) (84, -2.47908779200803985887e+00) (112, 1.29120393266183985936e+00) (141, 2.77921731752133138738e-01) (25, 2.49321246521546829866e-01) (45, 2.39758860858766498225e+00) (59, 2.28786462967887960218e-01) (38, 3.31090909578059688911e+00) (74, 1.57169583553585234803e-01) (68, 7.85926218201781656703e-01) (126, 1.69682492024917391804e-01) (20, -8.93458610665225083647e-02) (29, 1.39212496406002528282e-01) (70, 2.28087332024147659837e-01) (54, 1.41035694958749707739e-01) (18, 1.50000000000000000000e+03) (14, 2.63939637256564196832e+00) (127, 2.04659250366864442494e-01) (9, -9.60133380016085502540e-02) (49, 2.92588948491785572070e-01) (12, 3.24743996854691796550e-01) (64, 2.30527227719806687700e-01) (132, 1.68180943657263615165e+00) (140, 2.73200267371936478256e-01) (97, 3.69377813884318173532e-01) (23, 2.47022053821680770413e-01) (17, 1.50000000000000000000e+03) (13, -4.57121552506228823187e-01) (96, 1.57274270985051450866e-01) (109, -9.38338507347261985281e-01) (47, 1.54468000395460519636e-01) (138, 2.57490040883662008042e-01) (6, -2.14967605216120904998e+00) (75, 9.26646516525819197163e-02) (30, -1.97837041477875708040e+00) (107, 4.13796453859525459329e-01) (114, 1.01073873676791592402e+00) (43, -3.94753242668657633452e-01) (56, 1.47487158917867344776e-01) (71, -1.49364043160585713288e-01) (100, -2.70132802539574212730e+00) (31, 3.35557842443742704308e-01) (119, 1.76482063798079930050e-01) (106, 5.95778865053113726447e-02) (123, 1.82582514159637609996e-01) (52, 2.57065392542232928896e-01) (8, -1.81425476105246019642e+00) (94, 1.77043748169587983332e-01) (129, 2.07660205058342484108e-01) (53, 2.14568411428088107185e-01) (41, -1.99746908446742188481e+00) (72, 2.26297763558774622794e-01) (34, 4.44821556149639474320e-01) (26, 1.49276460736604610346e-01) (24, 2.82517810642094358009e-01) (135, 2.45487909890137745439e-01) (7, -3.16202696668755800502e+00) (66, 1.54730384933333769970e-01) (67, 3.87362901936172565609e-01) (145, 4.75284253009583490535e-01) (30, -1.40637537415892466264e+00) (82, 8.34707892556115105265e-01) (83, 2.61145012631543493864e-01) (65, -2.12931921621242276066e-01) (78, 1.14190887817944952687e-01) (38, 1.12004212520301060785e+00) (27, -1.39818769399004816378e+00) (119, -2.20206914889478272412e-01) (26, -1.14330346395240270430e-01) (77, -1.04391839743136136121e-01) (34, 6.29729850659454942763e-02) (96, -2.03672189751680721148e-01) (14, -2.64972959530423546326e+00) (55, -6.00767937847358352021e-02) (21, -4.68278205381330181467e+00) (51, -1.26667431221472476244e-01) (35, 2.19960998884383185370e+00) (52, 8.74595275565290090902e-03) (75, -1.09552829637045628930e-01) (33, 1.23186870274941337455e-01) (110, -2.83726435400509860441e-02) (95, -1.03768835985874205430e-01) (42, -2.92326206608331462533e+00) (46, -3.01216190733257249690e+00) (48, -1.90495703119272802306e-01) (93, 5.57894158607176504638e-01) (47, -2.80588400120140968319e-01) (122, -7.87819169272733765830e-02) (45, 1.18471338407247572810e+00) (142, -1.94430431282808846571e-01) (54, -2.22959591931883360783e-01) (88, 1.50000000000000000000e+03) (3, -2.06095988815318015286e-01) (85, -2.13917206083090283286e+00) (80, 3.73058925033558530515e-01) (86, 5.07201665798629117154e-02) (49, -1.31877961877722937878e-01) (126, -1.14040679422617585725e-01) (19, 1.50000000000000000000e+03) (66, -7.98925051877365510755e-02) (9, -1.04571082717495977832e+00) (79, -2.27933957908357624766e-02) (12, -1.33509202291573303434e+00) (68, -1.46037215816856545680e-02) (22, 2.57692785829032455780e+00) (28, 1.15384417800224836625e+00) (127, -2.49136516907881105931e-01) (13, -6.09842688863556414702e-01) (7, 1.01147974889373815088e+00) (17, 1.50000000000000000000e+03) (100, -2.20092132871944956563e+00) (5, -8.78698753872395876829e-02) (53, -5.22930660044505224437e-02) (44, 5.19334796222798544818e-01) (89, 1.50000000000000000000e+03) (23, -1.87267575206998077020e-01) (101, -1.22520925106967326634e+00) (130, -1.09795456214635017700e-01) (59, -1.70449480613397819084e+00) (24, -2.63969611631738709789e-01) (118, -1.48261626192319917461e-01) (4, -1.20170648288390150005e-01) (113, 2.25056161100941132247e+00) (91, 1.28205307536928381218e+00) (133, 2.51258315584153502087e+00) (116, -8.11767873026688069338e-02) (121, -2.22443188402836666828e-01) (128, -3.33661515188025531442e-02) (97, -9.49963802577187127474e-02) (76, 4.53270006330348876333e-02) (11, -1.03525023427629236927e+00) (129, -1.15685093593261068001e-01) (108, 1.26665769014984408436e+00) (138, -2.52507309149217151756e+00) (8, -3.03146968519849846491e-01) (103, -2.43494511905980676181e-01) (135, -3.38436666909355210464e+00) (114, 6.81802477600162659677e-01) (70, 6.02487990548243521061e-02) (57, -2.24524316394033418565e-01) (71, 3.94147489125397187948e+00) (137, -5.89988316130753420730e-01) (18, 1.50000000000000000000e+03) (107, 2.20070005238331001252e+00) (67, 6.78547291103338778839e-01) (94, -2.65120785416538606860e-01) (72, -1.68859379338350407140e-01) (145, -1.04536244061925992499e-01) (52, 2.35353287824859647159e-01) (66, 2.79092475782707849508e-01) (107, -9.28991914986687872258e-01) (133, -1.07350481419499099722e+00) (67, -3.77466871426813410650e+00) (13, 1.56458522878374917120e-02) (137, 2.09626881978551393715e-01) (17, 1.50000000000000000000e+03) (131, 4.54716070611629052944e-01) (27, 5.64737710095738476568e-01) (12, -1.79480518685651901922e-01) (97, 2.29953538425715059423e-01) (117, 1.49264529547931079634e+00) (132, 3.05997823567060678318e-01) (124, 4.28797647950161342489e-01) (64, 1.21910674910059313447e+00) (9, -2.70786706462832482689e-01) (77, 6.53836138376177877785e-02) (23, 4.51104626974316247345e-01) (92, 7.60274877587059894068e+00) (85, 2.46285899324954538070e-01) (35, 6.41127869087176671670e-01) (38, 5.52882472827049298303e+00) (110, 9.92638628696974334442e-02) (71, 8.74365293785074015886e+00) (24, 4.27338987221896060564e-01) (106, -1.35116688741321100409e+00) (33, 2.01454598593946931917e-01) (118, 7.71556798167909230202e-01) (101, -6.93506578885282998215e-01) (3, 5.64989501584415410029e-01) (143, 3.34655283568267847283e-01) (90, 1.50000000000000000000e+03) (123, 1.75750201278037171404e-01) (6, -1.29464073901709864067e+00) (89, 1.50000000000000000000e+03) (115, -2.64459464674261779393e+00) (16, -2.03741118502858720163e+00) (93, -1.73071731028774489225e+00) (65, 2.14707406525839444855e-01) (60, 2.92649428214169726736e-01) (34, 2.85899276691557457930e-01) (116, -1.05959023674855945529e+00) (128, 4.55379466821302369972e-01) (127, 4.84999845780923977134e-01) (62, 1.63367108568838470539e+00) (114, -1.18328238159373144711e+00) (119, 6.73138407333585875314e-01) (70, 3.46746052857616449128e-01) (120, 7.18517768860220007454e-01) (135, 7.66371103704226896980e+00) (51, 5.24271944215057406069e-01) (45, 9.60059140151518053408e-01) (72, 3.91294335859052599957e-01) (96, 4.08483390176837102281e-01) (86, -2.89208949394368186603e+00) (58, 3.69471216452472217551e-01) (111, 4.68597526392478203050e-01) (59, 3.90324407636849224357e-01) (29, -5.83776026949674897715e-01) (95, 4.21769305642523573141e-01) (20, -2.15690665768506484312e-01) (144, 7.79224862435269671757e-01) (138, 5.26472161490580847776e-01) (142, 3.58087323729769257952e-01) (130, 2.03925045330248133624e-01) (18, 1.50000000000000000000e+03) (4, 5.53554325515347667164e-01) (48, 4.81213794836649721987e-01) (100, 4.71970454775693326610e+00) (8, -2.90427743085492950925e+00) (113, -1.52634475443326156352e+00) (50, 3.40044509665862471071e-01) (42, 5.85800129118857815236e-01) (87, -2.98745550312508705015e-02) (49, -1.29428301968792935916e+00) (37, 1.02511036180740755519e-02) (41, 2.12775548204567760413e-01) (105, 1.83243913819619158589e-01) (54, 4.08125899140267478504e-01) (91, 1.13362338359656589226e-01) (103, 2.89957410597127651641e-01) (30, -3.29606323197048833862e+00) (99, 4.04489440724673787741e+00) (140, 3.27886116968861274223e-01) (26, 5.17323632573657099520e-01) (2, 5.39136509196769697638e-01) (145, 3.82258913299919456108e-01) (16, 1.20928694756803484234e-02) (55, -2.72517333317902010759e-01) (136, -9.34959087050446363554e-02) (142, -2.77827095606528184923e-01) (143, -1.40462489553574987333e-01) (36, -1.27312944955961016014e+00) (78, -5.89535327681042442549e-01) (75, -1.22623349217808291778e-01) (38, 8.38131998723389420869e-02) (138, -4.80821109782139710642e-01) (60, -8.15855625046150501056e-01) (69, -1.51123096144940710639e-01) (106, 3.40332462299279558948e+00) (35, -4.88544968575389815246e-01) (72, -1.16366290636157276861e-01) (57, -1.70866648324435738138e-01) (80, -9.74978097238777685618e+00) (104, -1.73038844157938714874e-01) (91, -1.55336923904689316878e+00) (114, -7.64403840196882233826e-01) (115, -4.94624703307265545238e-01) (9, 2.38954835402149012857e-01) (84, -7.22543097958024849170e-01) (49, -1.63702580636473998821e-01) (14, -6.09354545600715802323e+00) (131, -2.03303475134008621028e-01) (76, -5.66594838000951006585e-01) (34, -1.27513674214313810218e-01) (50, -1.17568155532299697952e-01) (141, -1.43551678204105137571e-01) (8, -1.91487151978799263752e+00) (88, 1.50000000000000000000e+03) (28, -5.98964249583493146822e-01) (90, 1.50000000000000000000e+03) (24, -1.95370315187432919135e-01) (39, 2.24711588753307012212e+00) (92, -5.39214523643069987280e-01) (140, -2.73490894373653314897e-01) (2, -1.97031640797045215496e-01) (74, -1.78451366301712377460e-01) (43, -1.85381567079856424130e+00) (111, 1.20214570209976501225e-01) (59, 2.93317554923896883778e+00) (83, -1.09741456816251958806e+00) (17, 1.50000000000000000000e+03) (10, 8.72255356831098560555e-01) (33, -1.34428770023592147886e+00) (102, -1.47577683036068307842e+00) (128, -1.02751994471806856746e-01) (64, -1.08188638601261558070e-01) (86, -6.82509058950348412864e-01) (5, -6.02447560280413685341e-01) (85, 3.54204644068098539744e-01) (113, -3.48389716799823556670e+00) (12, -4.49686792008058333625e-01) (103, -1.94702314941460397080e-01) (44, 2.94262794503308888761e-01) (52, -2.05651573236668716582e-01) (54, -3.45683007516945917104e-02) (46, -3.66123660551327001489e-01) (41, -2.18056105792278326350e-01) (127, -1.78694199022481126082e-01) (21, 9.38314844786619972616e-01) (144, -1.08798082854150546250e-01) (108, -2.39157856135183966018e+00) (125, -2.62018264755265517518e-01) (120, -1.60715129790384048114e-01) (110, 6.39756544475482802348e-01) (129, -4.85814696216185573641e-02) (37, -6.80586358141212932615e-01) (27, 1.79068316577080355323e+00) (96, -1.06446097527326907772e-01) (67, -4.39966636131344479566e+00) (118, -1.21901984870535579075e-01) (87, 1.63131585820848656887e+00) (139, -2.21697723072823288382e-02) (105, -5.22466582870452986298e-02) (137, -1.95231341471399644227e-01) (13, -2.67045073516427189375e+00) (124, 8.60733870765216513288e-03) (122, -1.60419322893621096870e-01) (3, -2.39058124543515493343e-01) (126, 2.48506139376242704553e-02) (11, 2.52757397796765703735e-01) (7, 1.60825322494526412598e-01) (4, -9.43967439404096719802e-02) (23, -2.58925732176334029433e-02) (145, 4.87027051716159287142e-02) (11, 2.40409402733488229698e-02) (45, 2.35606617347378177740e+00) (51, 2.21881353932329133949e-01) (65, 3.52147119798105479038e-01) (27, -5.34881570689314078670e-01) (142, 1.94711724248385731340e-01) (121, 3.39694699315135961726e-01) (74, 2.74441527890882164264e-01) (91, 6.31628475955096191363e-01) (137, 5.57797620770253854694e-01) (44, 7.24003220017807147535e-01) (94, 1.74653548498656580046e-01) (134, -1.38879229439209626873e-02) (93, -3.33235364620004359537e+00) (129, 1.03144404677834158890e-01) (58, 3.18042458242359216136e-01) (62, -2.94468258433138796448e+00) (89, 1.50000000000000000000e+03) (25, 2.91060873018414156821e-01) (86, 4.77276069778607980876e-02) (124, 2.63397609523567777234e-01) (48, 2.09623604762406184898e-01) (52, 2.26653533096315723538e-01) (135, -8.01649102061265661501e-02) (139, 3.95016377848128819039e-01) (130, 4.32058685746448289944e-01) (35, -8.23061886182974822290e-01) (133, 3.91093698844519810365e+00) (104, 2.87736129491968251060e-01) (138, 3.40712337595355074793e-01) (109, -1.02129272083081024114e+00) (90, 1.50000000000000000000e+03) (115, -3.15901339703049766072e+00) (28, 8.06626018429264490806e+00) (6, 2.27827527581915073585e-01) (59, 3.46885271499608682788e-01) (1, 3.39233408410343661998e-01) (70, 3.04977567014860506678e-01) (87, -2.77746633973402545781e-01) (143, 2.49490013329551535426e-01) (114, 1.58728395313560838309e-02) (128, 3.17420737916602080375e-01) (81, 8.11033901784172561733e-01) (125, 3.13820243463191261846e-01) (40, 1.00576775167839982394e+00) (84, -8.17579989950738106330e-01) (33, 6.76958050034396130457e-01) (141, 1.49708566946686383314e-01) (88, 1.50000000000000000000e+03) (12, -4.64762534152380890617e-02) (83, 1.30597859908290675479e-01) (118, 2.49184718822037465369e-01) (50, 1.53917171756547621619e-01) (101, 1.63675108711421790630e+00) (123, -7.18993963122313284320e-02) (126, 2.38825291519532356688e-01) (19, 1.50000000000000000000e+03) (112, -4.25706502145855925079e+00) (20, -1.95083175183871290748e-02) (72, 2.88623135013317599906e-01) (31, 3.90893939647014132532e-01) (61, 1.30300863722049187210e-01) (132, 1.49438308102117489717e+00) (116, -3.47729497411205823454e+00) (3, 3.31026787713322334650e-01) (127, 2.39617523189570719166e-01) (37, -4.14287856169711199428e-01) (120, 2.48107986333545416091e-01) (43, -2.95011504158767326467e-02) (2, 2.62628088413102755982e-01) (82, 6.83331808714235933166e-01) (140, 1.26001846010287854583e-01) (131, 2.05206213662266045983e-01) (55, 3.38436462103214819042e-01) (105, 1.07328632197211026877e+00) (30, -2.91753575992723668264e+00) (7, -1.28306813786563278512e-01) (79, 1.61567851734281398013e-01) (95, 1.40818339069487596937e-01) (47, 3.56191550095482589722e-01) (67, 4.86299659459035138465e-01) (18, 1.50000000000000000000e+03) (5, -1.43723623809448614042e-01) (53, 1.39853993818085359235e-01) (21, -2.88870780621867861981e+00) (24, 2.82899152794054198345e-01) (77, 7.95590824028936105528e-02) (145, -4.43020198018346800239e-02) (17, 1.50000000000000000000e+03) (19, 1.50000000000000000000e+03) (31, 3.18097138183604466466e-01) (32, 3.46235182633256477480e-01) (41, -2.16895264780941093852e-01) (53, 3.41782469548535638992e-01) (63, 2.22132200974839655316e+00) (84, 3.18940123888552529152e-01) (124, 1.36916013148216442197e-01) (135, 2.53585788739695150440e+00) (50, 2.76817565948097032980e-01) (43, -1.83032347374169457321e-01) (128, 2.04682487773972049405e-01) (40, 1.48382149427473231107e+00) (120, 1.88003548264286168834e-01) (115, -5.17449351494475795477e-01) (61, 8.84082466753553397609e-01) (116, -5.23687318860826311884e-01) (3, 2.13192548193140735124e-01) (91, -1.73002080451792952798e-02) (4, 2.48945722335693175875e-01) (36, -8.53007838269998486247e-01) (62, 1.81490354204466325383e-01) (24, 3.45317840943014764399e-01) (55, 4.01896283284572330974e-01) (73, 2.41547231966813852333e-01) (118, 3.25182161528644542159e-01) (139, 2.19358211201838376736e-01) (107, 9.22582791210718733410e-01) (78, 1.76484310471404226561e-01) (18, 1.50000000000000000000e+03) (58, 1.90224691678621410373e-01) (108, 7.61779222135406802741e-02) (6, -2.51032672509811050077e+00) (9, -1.66007621741760119649e-01) (77, -1.10259848494468770674e+00) (102, 2.74537308591743911546e-01) (0, -3.84132290504020312838e+00) (7, -2.01742798874714190926e-01) (12, -1.52583325801026212058e-03) (20, 9.62919947196482217677e-02) (94, 2.76007156398669684094e-01) (86, 4.92466886883081156334e-01) (37, 3.79801607191553314280e-01) (13, -2.80891173061138699207e-01) (64, 3.62581790258176550612e-01) (21, 5.26009543481077868066e-01) (15, -1.64107431293369965264e-01) (82, 5.03303758123298861094e-01) (85, -2.55892989626578422346e-02) (97, 7.61517983831834444075e-01) (110, -2.56639247025118599765e+00) (93, 3.66110660453227709787e-01) (112, 9.31051792813180068009e-01) (65, 2.19949336813148710323e-01) (59, 2.32555328110854775403e-01) (72, 3.43425479956545876004e-01) (127, 3.24289048685794056848e-01) (106, -8.58912006080630313631e-02) (11, -1.10986290449222202437e-01) (75, 1.48492992212535424024e-01) (114, -8.84348532361020400749e-01) (100, 4.13415504685287982234e-01) (35, 6.27103510937491170907e-02) (60, 2.49293772468579533097e-01) (95, 2.60226474836631249676e-01) (130, 3.32906263476517694233e-01) (57, 1.77621462571003363440e-01) (2, 3.09574751501108635932e-01) (125, 2.61937227454483056999e-01) (42, -3.35039157924458885773e+00) (16, 1.51370167219906037737e+00) (81, 3.05016721208675678501e-01) (133, -3.46671973332869975959e-01) (90, 1.50000000000000000000e+03) (119, 9.36031101185171632295e-01) (126, 2.17158638751093535646e-01) (79, -1.03958997918136186733e+00) (143, 2.79290175344656887990e-01) (104, 3.69167909226258417199e-01) (45, -1.75721021353279327482e-01) (109, -4.75417054812055095425e-01) (99, 3.09431253725552801725e+00) (122, 4.31748893772029296301e-01) (69, 5.32942408428944247589e-01) (44, 1.63193662429641350720e+00) (26, 1.56726654583428132161e-01) (145, -1.31023764804277853546e-01) (14, 1.73580869592653685984e+00) (71, 2.35584835293388472621e+00) (80, 2.60198107667782674302e-01) (90, 1.50000000000000000000e+03) (116, -1.06950942838322404782e+00) (117, 4.17734153617777770329e-01) (104, 3.44087753887754976834e-01) (78, -2.45944177017608095470e-01) (25, 2.05943441542890098850e-01) (110, -1.04121199076997683619e+00) (12, -3.47505647773064973993e-01) (48, 1.88646918824850934326e-01) (13, -2.54788439455533866074e-01) (82, 5.51265857294457872761e-01) (24, 3.21114378710739334366e-01) (20, -9.53360195895889384055e-01) (53, 3.76912686954797349070e-01) (132, 3.84226748844806398342e-01) (133, 2.64916139787618742929e+00) (58, 2.45317864513107025681e-01) (77, -8.48679064456485665602e-01) (103, 2.50276427627217246119e-01) (99, -1.80204521821233654144e+00) (23, 2.13466502968124888229e-01) (35, 6.22995808497298764195e+00) (119, 3.34202631346856016137e-01) (83, -6.68866992633305040838e-02) (55, 2.25530197124094999861e-01) (40, 6.40460896816225755401e+00) (32, 2.05733211334400839521e-01) (34, 3.52485191076578996405e-01) (5, -1.34450256571915272019e+00) (102, 4.19394317257788418196e-01) (97, 3.00350379711592729848e-01) (10, -2.71470855080192141617e-01) (113, -5.78563026394242507777e-01) (134, 1.56657328900631082069e-01) (64, -2.88712638424315271024e-01) (143, 4.12380610168871286625e-01) (142, 2.77377018230965555201e-01) (126, 3.08440938138754505715e-01) (92, -3.81766516165481917255e+00) (8, 1.29538107288739312573e+00) (54, 2.36427638072169765682e-01) (28, 3.45964750841909751689e-02) (63, -9.11610150570184130103e-01) (95, 3.00833198954549407844e-01) (84, -2.96159623985057518514e-01) (107, -1.15411116270966784825e+00) (141, 1.98600039302529807195e+00) (109, -2.77433116306487814740e-01) (105, 1.95042864924998227139e+01) (96, 2.80899140343026931799e-01) (111, 1.94283022163151464223e-01) (15, -6.14362012119676670352e-01) (130, 3.60096945172515392475e-01) (75, 4.06250700189693447761e-01) (22, 4.29154299427122154498e+00) (115, -1.67857358197974586289e-02) (129, 3.37146670509761714474e-01) (46, 7.24090181903088581095e+00) (9, 4.34092192796749036521e-03) (114, -2.42764277431347741398e+00) (101, 5.34150995836962216856e+00) (68, -1.81026346383629417602e-02) (18, 1.50000000000000000000e+03) (135, 2.21065456691476258655e+00) (11, -1.48385072552794233802e-01) (139, 2.48908736957500070774e-01) (69, 3.49945174917231482947e-01) (106, 1.71140830230505902598e+00) (66, 2.35308094386440541657e-01) (3, 4.19962605437997738012e-01) (1, 3.04470265497152670076e-01) (127, 3.66238318981722210665e-01) (26, 1.97454318329121830677e-01) (88, 1.50000000000000000000e+03) (125, 3.84556139668682739341e-01) (136, 3.01374774469286843548e-01) (118, 3.46012134430392748197e-01) (85, -7.07346255912466914673e-01) (7, -4.78822219139939830868e-01) (100, -1.97793978676767678859e-01) (73, 2.91850538593449393421e-01) (60, 3.05297995118184672947e-01) (86, -2.37001492157626530988e-01) (51, 2.45407385845176184702e-01) (145, 2.97563367089660912868e-01) (36, 2.05691643200083706944e+00) (48, 1.71727519422083599321e-02) (69, -6.27932448121983205480e-02) (72, -1.20098395946935901368e-01) (86, 4.20937397104751909183e+00) (120, -1.06993068069286212385e-01) (134, -1.59060106654221239397e-01) (2, -4.53618896519861480865e-01) (106, 2.37507347274117641689e+00) (22, 1.30020731145834278486e+00) (137, -1.91983413657119822426e-01) (110, -3.86113213171127789280e-01) (132, -2.58709904944080548717e+00) (73, -7.30741563743495525785e-02) (59, -1.69581482748642431435e-01) (23, -2.65535155933241839854e-01) (124, -7.09250866545652232376e-03) (131, -8.47170116215062857234e-02) (143, -1.36645167213222340497e-01) (127, -6.24743401346706528354e-02) (24, -2.93480501489988776509e-01) (62, -6.79092302777923317869e-02) (75, -1.43901806761194489548e-01) (19, 1.50000000000000000000e+03) (63, -2.04313611877457473875e-01) (111, -2.35557885267976385713e-01) (15, 4.77995194882428919847e-01) (136, -4.62395798014246864338e-02) (28, -4.73321908005259128771e+00) (108, 1.08380355559504160112e+00) (51, -1.61600127148293748469e-01) (138, -7.20097521376743404664e-02) (102, 5.13784818278376145817e-02) (35, 3.10646628221534937264e-01) (53, -7.08455349972255815638e-02) (119, -7.83459361158424516525e-01) (50, -2.21008066929703123060e-01) (105, 1.19554833068883370473e+00) (57, 2.27065192976994229337e-03) (114, -1.42997061251018409145e-01) (68, -7.41166498656606748119e-02) (96, -1.68796469227860158890e-02) (144, -6.63432312158957343540e-02) (74, -9.28751797013626367860e-02) (45, 5.34039049311688218680e-01) (94, -1.36723027790162210415e-01) (10, -1.29884568875342409910e+00) (91, -3.70897038253984456802e-01) (12, -1.28577324691529848444e+00) (117, -1.19049516254011966687e+00) (115, 5.00903261368075103377e+00) (32, -1.28537876918689730754e-01) (77, -2.60873510197855318360e-01) (41, 2.39337350318479635813e-01) (112, 1.60348917095373932895e+00) (65, -2.13487177731868676966e-01) (39, 5.81691388873842529783e-01) (31, -1.93898680490925456876e-01) (34, 2.73446275803192612175e-02) (44, -5.88493029072872042562e-01) (130, 2.65344026529461818331e-02) (97, -3.89700752731893329539e+00) (49, -7.80557208724051987403e-01) (125, 3.94552234052390482510e-02) (98, 3.74449305456095782318e-01) (11, 1.62675177359917350062e-01) (95, -4.34630852117917854116e-01) (4, -3.21229202987777351375e-01) (40, 5.73627568139322474572e-01) (13, 2.34544443285149756262e-01) (54, -1.51344143433050581926e-01) (7, 5.26239173972058993378e-01) (9, 1.56331216305258757782e-01) (56, 4.75894478895928507711e-02) (38, -1.09895129939790586748e-01) (101, 3.17153834817550273062e-01) (80, 2.54326458002046063012e-01) (135, 1.05158940180779172241e-02) (83, -3.28178182567164175576e-02) (113, 1.12424129490243962515e+00) (1, -1.42221811095477896486e-02) (52, -1.23092420611078487425e-01) (128, -1.50845449740860976240e-01) (61, -5.30864300231330132895e-01) (90, 1.50000000000000000000e+03) (55, -1.82606495755473635656e-01) (46, 1.23455596807899126155e+00) (145, -2.73138967718695759024e-02) (20, 1.10300917804581621873e+00) (49, 1.80161578177407827317e-01) (59, 2.08905672254857954773e-01) (106, 5.00708307347404790733e-01) (109, -3.29630824822161194732e+00) (110, -1.63502741591641997942e+00) (114, 3.74617561334828819142e-01) (122, 1.49614350366527121272e-01) (127, 1.57087889219060222734e-01) (130, 1.92446950033071040309e+00) (140, 3.75666492502898130557e-01) (74, 2.39233161415500189539e-01) (86, 5.44150564076470555364e-01) (62, 1.85703394449575953651e-01) (116, -1.51540164321476633624e+00) (100, -2.49578466889011130192e+00) (128, 2.30352993336778416600e-01) (34, 3.13156250783284184624e-01) (29, -1.42587972656511907665e+00) (38, 7.53578337448977286783e-01) (23, 2.48765884947449278375e-01) (73, 1.96289343441695240955e-01) (16, -3.34288357558766402455e-01) (71, -4.02830033120373298683e-01) (65, 3.89039349279871771170e-01) (66, 2.75536444561976845424e-01) (70, 1.33446639102500735907e-01) (142, 3.21981767024429377244e-01) (80, 1.45147143089342911537e+00) (10, -1.22554333703570009217e-01) (138, 2.92586177104102840296e-01) (9, -6.29822997254012140189e-01) (39, 4.35909869060300625421e+00) (42, -7.31578265398219240723e-01) (21, -4.25827865409761863180e-01) (18, 1.50000000000000000000e+03) (135, 2.64748145666566125911e-01) (129, 2.34023064550885950830e-01) (105, 2.73003741159042856435e-01) (78, 4.29706515072383776754e-01) (125, 1.52096728572198469642e-01) (134, 2.94196570125108802785e-01) (136, 2.04990943493692373556e-01) (92, -9.55212250678475101318e-03) (81, 4.86699689441141947199e-01) (96, 2.06791911040702824920e-01) (26, 2.63263568811154036187e-01) (64, 2.47931461444075962319e-01) (46, 4.38820082694860516548e-02) (87, -8.35718275384514708293e-01) (36, -7.13639944937405901193e-01) (99, -1.35161934149500417846e+00) (143, 2.04708790938436691054e-01) (82, 9.12130185248245517471e-01) (55, 2.52242623984189728858e-01) (126, 1.68061986320801493022e-01) (63, 2.29672542032506615817e-01) (44, 8.25478015395626263384e-01) (24, 2.76806440256193830862e-01) (0, -2.48132280711277075635e-01) (68, 1.67109338353691544432e-01) (89, 1.50000000000000000000e+03) (53, 2.50876187889885027271e-01) (1, 1.45995437582926379516e-01) (57, 2.67584076144334437330e-01) (102, 3.18878496911718933848e-01) (95, 3.21602282700054808995e-01) (88, 1.50000000000000000000e+03) (133, 1.41568789114058213308e+00) (67, 3.10266840073906591257e-01) (124, 3.33906605048611748732e-01) (52, 2.11481652787873147803e-01) (50, 3.13257419448395857398e-01) (131, 1.44126555804037215225e-01) (132, 2.05991759206082092337e-01) (45, 9.43433073573414882063e-01) (83, 4.26542184493065079653e-01) (41, -3.67315513228381762545e+00) (8, 4.29769058551074251140e-02) (48, 2.06732227076618257922e-01) (117, 3.17126193858449784146e-02) (115, -3.12530831795913988103e+00) (141, 2.93686403859465261501e-01) (113, 2.90636485102145547543e+00) (112, 9.06986078547985630216e-01) (12, 1.22007172919876227812e-01) (19, 1.50000000000000000000e+03) (145, -2.17714169344858377020e-01) (22, 1.86475890255207410462e+00) (27, -5.27270160080757044341e+00) (79, -2.03245908635560190714e-01) (104, 3.73848746767785955480e-01) (28, -1.55011761560385985526e+00) (69, 3.26265787119470573874e-01) (35, -5.86065807373146618886e-01) (132, 4.33758873596100325010e-01) (111, 2.35644095128935970873e-01) (74, 3.46090114177708241261e-01) (135, 8.59551509502097133009e-01) (55, 2.23024767168026188946e-01) (113, -7.00454544361180819756e-01) (56, 3.20538846419513467900e-01) (25, 6.19396626032760910796e-01) (37, 4.33435200954746302493e-01) (124, 3.85594111759544555529e-01) (4, 2.53044412128801909923e-01) (80, 6.81049497279302556985e-02) (77, -1.84349454782233135308e-01) (67, 4.03897408366912236133e-01) (8, -8.35941101546875175998e-01) (106, -1.44653941181356815449e+00) (128, 3.68715738583293428654e-01) (23, 5.97985522543787340055e-01) (102, 1.07756328748921159644e-01) (95, 7.60153695799886786055e-01) (7, 1.79562022811602028938e+00) (32, 3.82038498210222343676e-01) (137, 2.15851951308805134477e-01) (142, 4.48668444774155961152e-01) (123, 3.76751091390063463926e-01) (125, 2.66849539044845540658e-01) (33, 2.51181471682766443987e-01) (99, 6.00073112999909241694e+00) (87, -1.46798852242109700850e-01) (15, 1.88533973906975638180e+00) (138, 4.09300966700486268390e-01) (119, 2.04672910043628197840e-01) (30, 3.07177708658129455799e+00) (31, 3.90919251391834698950e-01) (63, -3.59543666002143824656e-01) (109, 5.34568438013314495283e-02) (92, 4.86421521135174117489e-01) (65, 1.12755373156900678966e-01) (139, 1.96921446350646595080e-01) (72, 2.70831526381376641588e-01) (103, 2.07887239137966084446e-01) (12, 2.18303050656195568591e-01) (70, 4.31158637182707304980e-01) (89, 1.50000000000000000000e+03) (97, 2.46468375377102616453e-01) (140, 3.15810826400530098024e-01) (58, 3.42871657809079855017e-01) (54, 4.07984601426846948957e-01) (107, 5.56722555463036394841e-01) (62, 5.09626862815334757961e-01) (44, 2.49683840991014038835e-01) (48, 8.86783251034976349736e-01) (49, 7.01019759441211087747e-01) (36, 5.62217509122951875078e-01) (0, 4.39509116534445176683e+00) (17, 1.50000000000000000000e+03) (29, 3.86305005641622978274e+00) (71, 5.31942720475600072660e+00) (68, 4.59517542846133386636e-01) (94, 2.79603546829438498467e-01) (6, -1.54082413527965611522e+00) (1, 3.29897180568540726586e-01) (110, -9.42094865593709474005e-02) (121, 5.04253439104873857346e-01) (83, 8.81483605286359495068e-02) (141, 3.72082696369478937992e-01) (50, 5.02175211004182053820e-01) (3, 6.09996076348316540461e-01) (20, 7.54484260169374088001e-01) (18, 1.50000000000000000000e+03) (5, 1.10777433787130508147e-01) (117, 4.42733472977575759355e-01) (143, 4.56126859088309910550e-01) (105, 3.52075479541958336061e-01) (43, 2.02997851369601844951e+00) (73, 3.18427043085609096096e-01) (85, -8.61265545625866435486e-01) (129, 3.42544045055065637939e-01) (82, 1.53690829748855367631e-01) (144, 1.52045668269067646428e+00) (145, 3.73355264501060546412e-01) (58, -1.45319082000551658140e-01) (62, -4.60133731082617791763e-01) (68, -1.25624716899301824835e-01) (101, 2.35961965341009483055e+00) (112, 7.26043588401799611098e-01) (118, -2.13114971357546534314e-01) (131, -6.85312082795301868998e-02) (52, -1.76808585804657136809e-01) (70, -1.91692935785132079207e-01) (12, 9.72400169532952607376e-01) (123, -3.44701528182190797267e-01) (46, 6.73205144428224312031e-03) (126, -1.83633569498168669476e-01) (128, -2.97700534247669457155e-01) (0, -3.84242054703191815435e+00) (72, -1.92296854319843918413e-01) (1, -2.46688044816443408092e-01) (125, -4.53551746057358068365e-02) (51, -1.76369107343704478730e-01) (111, -2.47919139046129805015e-01) (78, 6.77999001000033518771e-01) (104, -2.25735663099862149394e-01) (37, -3.29710625256049855158e-02) (69, -1.05227337086221631179e-01) (77, 8.22539370845659645326e-02) (40, -5.10471423158075365833e-02) (137, -1.88855424514207920206e-01) (64, -1.16057715686448936765e+00) (21, -3.65767787705245561725e+00) (36, 1.13479058850127947911e-01) (136, -2.38799719935303023099e-01) (53, -2.18652180073939245153e-01) (85, -8.79504975425186297233e-02) (127, -1.12109435936387127897e-01) (66, -9.74133412854055191765e-02) (97, -9.39598124322328920321e-02) (48, -3.21412224419718062229e-01) (129, -1.73079068676011416095e-01) (22, -6.77351486472260244653e+00) (45, 8.80235443631363856376e-01) (4, -1.73642765536529714021e-01) (8, 2.47456243290376243227e-01) (100, -3.75887618873119000451e-01) (109, 3.42057960629300694677e+00) (47, -3.44725039441400982199e-01) (67, 3.40299187607877029471e-01) (84, 1.00727936847741034176e-01) (88, 1.50000000000000000000e+03) (10, 3.73086266111671616130e-01) (98, -1.01906788170865111876e-01) (5, 1.40416621912041905684e-01) (135, -1.16998186432517470301e-01) (9, 1.11356197487764707610e-01) (23, -1.95929115921041313575e-01) (31, -1.57717815371609393349e-01) (76, 6.40585487094708083688e-01) (80, 1.56672062696990160857e-01) (16, -1.31866582311710306419e-01) (79, 2.78034919754809040082e-01) (11, 1.74587210122416451596e-02) (24, -2.41553779298963572364e-01) (32, -1.71472741754921803592e-01) (110, -6.23026921778472783653e-02) (116, 1.62074518980255555256e+00) (34, -6.79477362710188131922e-02) (42, -8.22763299169137624078e-02) (144, -3.17176859349030115798e-01) (30, 2.97328732030654041552e+00) (119, -2.07501782412268021005e-01) (28, 3.60886103383489764695e+00) (7, 1.41269839232839894416e-01) (108, 8.59607838485647479665e-01) (122, -5.13744703451892437140e-02) (89, 1.50000000000000000000e+03) (61, -4.65756409684936423243e-01) (81, 2.00779614924526741970e-02) (124, -3.32893654562451457579e-01) (44, -4.36696432687419866525e-01) (38, -1.79782918078606379630e+00) (55, -2.84081195381669981970e-01) (138, -2.88414608839682173880e-01) (73, -1.36927979740819327770e-01) (140, -8.60150119676052066220e-02) (57, -2.92470791137242724922e-01) (139, -1.32541956872909899579e-01) (39, 9.58481441270764622509e-01) (94, -1.88380867312745919895e-01) (145, 3.29729619113189487134e-01) (3, -2.88029673826781573709e-01) (8, -5.60280849073051756548e-01) (15, -3.01479633105870947762e-01) (38, 7.41208132249799200864e-01) (56, -1.52769656667706171804e-01) (78, -4.49711746689523128584e-01) (123, -1.67479526380910376249e-01) (103, -2.42149329509576377584e-01) (131, -1.44508449432762947628e-01) (6, -8.53609621175303368013e-01) (84, -6.45466552910800905885e-01) (50, -2.01767581977236043489e-01) (33, -1.01564008897346000349e-01) (138, -1.28674822186333498442e-01) (1, -1.92893739759636334563e-01) (88, 1.50000000000000000000e+03) (137, -1.09582604943320741087e-01) (35, 5.35544347458637437498e-01) (58, -7.32115333561849934707e-02) (36, 6.67743092209706290419e-01) (134, -6.77462072536930554056e-02) (41, 5.51128788297816751829e-01) (14, 2.80901835971101541956e-02) (0, -4.05169571578579024163e+00) (18, 1.50000000000000000000e+03) (97, -1.08254825241150695603e-01) (52, 3.56706986288729765988e-01) (53, -2.61464346376423829865e-02) (42, 6.06139047139661713004e-01) (121, 1.05800342181773632255e+00) (49, -1.25310865335252874520e-01) (112, -5.47118381862133018601e-01) (101, 1.28542938139593765356e+00) (12, 1.90237933205657377966e-01) (72, -1.74299702418547225458e-01) (93, -2.96066122089608851908e+00) (85, -1.18954868240008129754e-01) (94, -3.09066242534982299484e-02) (144, -9.64539442049698880766e-01) (125, -9.57018854937107255054e-02) (60, -2.82293376340572409189e-02) (24, -1.40764411894014507265e-01) (70, -2.37586983186788114342e-01) (13, 2.85106689937078307262e-02) (73, -6.43989800292132374970e-02) (16, -7.27239678182011961560e-01) (117, 1.74107549592758675816e-01) (110, 1.30976963340042936584e-02) (59, -1.08121520376461888180e-01) (22, 1.20416740427389901136e+00) (51, 6.33239042001805391147e-02) (74, -1.41310352631732860651e-01) (46, -8.94500752610468574666e-01) (119, 4.37203185697371266016e-02) (139, -8.87527317166182244668e-02) (135, -9.03922623644740519389e-01) (32, -1.66676181101004627916e-01) (31, -1.62802558465767105433e-01) (66, -6.29268345881810464704e-01) (82, 3.26572578661179280246e-01) (57, -3.06184747936976142668e-01) (90, 1.50000000000000000000e+03) (61, 4.76098140803331404403e-01) (29, -3.82402424523304906856e+00) (34, -9.19277412420689832295e-02) (9, -2.34308520452233992604e-01) (28, -5.93605145739402750849e+00) (63, -8.57617149906273024129e-01) (128, -1.45237090523014332477e-02) (107, -2.68692377999445619619e-01) (111, 1.37703269403440964336e-01) (4, -2.11860184397215489671e-01) (96, -6.63386402557566701166e-02) (105, -1.17848545829520312545e+00) (95, -1.88730466613141273369e-01) (89, 1.50000000000000000000e+03) (99, -4.97637220238190014499e+00) (129, -2.03820853390058731591e-01) (20, 3.78122362618958721137e-02) (75, -8.81571658267806534948e-02) (37, 3.51245886986718616751e-02) (91, 1.70840988000138627179e+00) (68, -1.04095747507831723477e-01) (40, -1.00628296903511715854e+00) (48, -1.59053655289600720524e-01) (47, -2.44800465653125548515e-01) (77, 5.36374458479076804407e-02) (145, -1.60583113620031414648e-01) (26, 3.85086407189835278064e-01) (42, -8.97376981176517096728e-01) (73, 4.32250382403531696607e-01) (111, 1.93387552828060482746e+00) (138, 2.35859136460049634287e-01) (9, 5.79728390229322654292e-01) (91, -2.44961804385272763351e-01) (20, 7.19215751640030931391e-01) (43, -1.45571577214932035282e+00) (63, -1.29299550535154100794e-01) (115, 3.16716662627467504532e-01) (11, 4.48336594053771575474e-01) (51, 4.30942295669481001408e-01) (95, 4.58260844839739223122e-01) (88, 1.50000000000000000000e+03) (7, -3.10722295947556570450e-01) (50, 6.33126566470281981758e-01) (4, 4.59761148699915023208e-01) (45, -1.95898191335254789891e+00) (136, 2.03101940595690755309e-01) (28, 1.59837144222801402771e-01) (128, 3.59816143977334301773e-01) (46, 1.14916567650261355893e-01) (94, 4.15634994558878367865e-01) (21, 3.49363591247911697835e+00) (92, 2.79536862302957933579e+00) (79, -1.55990543179166163412e-01) (31, 1.40564568087658980922e+00) (70, 2.49027428242604070840e-01) (123, 6.59487710587206454882e-01) (32, 4.12224149460681699164e-01) (99, -4.40223005848605075663e-01) (103, 6.48027604622323782912e-01) (29, 3.21520301730676427709e+00) (132, 4.07364820759763435198e-01) (5, -4.44571582019887112658e-01) (57, 4.03814519066990562646e-01) (8, 5.48263444735316629597e-01) (37, -3.00447085066446184509e-01) (75, 4.15457603982380740959e-01) (10, 5.57993383100644835260e-01) (104, 3.20486494279848377342e-01) (30, 5.61946598599355340298e+00) (0, -4.61265627047787840631e-01) (102, 4.18223218592945922278e-01) (142, 2.88169470363340674002e-01) (114, -1.76667397232300515952e+00) (35, 2.04536772017430523718e+00) (23, 3.86137321876258265974e-01) (84, 3.11300002298755262853e-01) (141, 7.11867739070059735162e-01) (133, 6.37720970420522892397e-01) (78, 2.40281785017972415730e+00) (18, 1.50000000000000000000e+03) (59, 3.00065252226414391767e-01) (108, -1.73870910186850613499e+00) (109, -1.32067092303142147314e-01) (6, -6.01811534181528259846e-02) (65, 7.82575319022036364203e-01) (19, 1.50000000000000000000e+03) (126, 3.44067261347294928164e-01) (127, 2.05116692384453763731e-01) (87, -5.07427757346726848731e-01) (105, 4.48927407236624498310e-01) (72, 2.58139725797190633383e-01) (36, -1.38580858543348428569e+00) (44, 2.84329142767212106335e-01) (77, 3.91099145554950899939e-02) (13, -1.82697931720088801999e-01) (16, -3.40694562992821664560e-02) (38, 3.45662582152213571085e-01) (17, 1.50000000000000000000e+03) (34, 2.52890971657165397612e-01) (121, 1.83433137097580745145e-01) (117, 1.66813271400699636438e+00) (68, 3.52459351112028917985e-01) (81, -3.13851385467402821394e-01) (125, 4.09478483193367881476e-01) (135, 3.50104547804091614793e-01) (116, -2.95700474213762287690e+00) (80, -2.12220382620000896923e-01) (112, 4.24845767148487762910e+00) (12, 7.86973831654959932180e-01) (83, -5.95017105504750065670e-01) (22, 3.25952680682155060410e+00) (124, 2.21402763238821215230e-01) (89, 1.50000000000000000000e+03) (145, 2.86755473821938777768e-01) (28, -7.49770866685743109237e-01) (64, -8.58402801519624197857e-02) (75, -1.95178837874207838921e-01) (87, -1.93821708594762909250e+00) (105, 8.44849406243780853831e-02) (126, 6.59310659795211417844e-02) (129, 9.75510695059289695275e-02) (26, 1.37892267638959981069e-01) (14, -7.64652793494816629405e-01) (138, -5.82362571155398550671e-02) (102, -1.73819042148288416261e-01) (58, -1.86606424578951296533e-01) (59, 5.09257602077596085999e-02) (131, -7.24419187985424345433e-02) (93, -1.15239866565900594964e+00) (84, -2.48482243748151476748e-01) (5, 1.54609940284306662805e-01) (54, 2.12378584774170958704e-01) (112, -3.09449977315354063379e+00) (40, -1.26483137201223116985e-01) (123, 3.27259610285683052999e-02) (39, 7.56959346553392919965e-01) (97, 1.33274754607585949051e-01) (34, -3.76611713313111662327e-02) (57, 1.92991913491884686804e-01) (36, 5.32330135822703498505e-01) (101, 2.48621763725466271566e+00) (82, -2.38487013166116401663e+00) (116, 7.16257731554273847224e-03) (35, -4.56537169399777842393e-01) (18, 1.50000000000000000000e+03) (22, -1.64555596985415664157e+00) (92, 4.99656135911115573123e-01) (19, 1.50000000000000000000e+03) (53, -1.94465361148288745641e-01) (11, 3.38893152817101805940e-01) (66, 1.73451402036830315545e+00) (43, -4.71187684256990160780e-02) (79, -2.51895280570561208577e-01) (119, 1.75310438329370515964e-01) (136, -8.43790868262236926078e-01) (74, -1.25499564230192484082e-01) (104, -9.87959315379490443654e-01) (23, 3.39960614920814363504e-01) (135, 6.90756553501495895730e-02) (6, 3.66830466786141784485e-01) (108, 1.01376911304015870918e+00) (10, 3.97921651759248651281e-01) (63, -3.91458231616913676643e-01) (95, 2.51840670257476972882e-01) (29, 1.63219833103548261910e-01) (72, -1.50295164488142063419e-01) (7, 3.25651168347042163642e-01) (96, 7.21001234600274903963e-02) (38, -6.81650986884691389989e-01) (124, -1.18839906274751782450e-02) (107, -3.68833979605247275213e-01) (62, 3.11226229204604021295e-01) (132, -7.28824513456704736747e-01) (56, -1.39238255361269380739e-01) (27, 6.11850985202251562711e-01) (122, 4.86349107474766118031e-02) (139, 2.30804890668386802899e-01) (47, 2.95900241535305807972e-01) (100, -3.72627448942401295895e+00) (60, 6.47799336958053362245e-01) (109, -1.35389616905228793442e+00) (118, 1.13270964022383457959e-01) (111, -5.34818061438211422853e-01) (117, -2.27001060966756679216e-01) (4, 2.29952617500311859433e-02) (71, -5.25102707786042732785e-01) (42, 1.89215517361700968912e+00) (21, -9.83236214513418249616e-01) (134, 1.68831263314639801187e+00) (70, 1.08716684737667795835e-01) (80, -1.55560461790321769016e+00) (0, -6.37684843111677446270e-02) (24, 1.65973398857902521009e-01) (99, 6.53564933396349800887e-01) (3, 2.37718982631952263640e-01) (17, 1.50000000000000000000e+03) (16, 1.90695491596686556024e-01) (133, -5.76488429332841778585e-02) (83, -2.32898582715428981160e+00) (140, -1.55705896574775293217e+00) (98, -7.10681859687649897239e+00) (145, 2.28331190951890222740e-01) (12, 5.01007314813155302247e-01) (34, -1.53445114569783214176e-01) (37, 5.90483609263969033698e-01) (94, -1.59593649148512511937e-01) (113, -1.60034030293566420511e+00) (74, -1.74805176154027575031e-01) (6, 2.71764495967704666768e+00) (68, -8.21837180455736449058e-02) (40, 2.24263386505123119008e+00) (88, 1.50000000000000000000e+03) (112, -1.26738933403884801443e+00) (126, -8.15137282507032989720e-02) (44, -6.95358667706922339846e-01) (98, -1.81089525549475531818e+01) (60, 7.11515776553657830483e-01) (115, 2.56156418537777108568e+00) (39, 1.60902062512040644471e+00) (51, -1.09592199875505988405e-01) (27, 9.81509209392556924989e-01) (50, -3.78699569015679027295e-01) (30, 7.29995567164852410258e+00) (11, -1.35531910361957619315e+00) (7, 2.64411395064937715382e-01) (78, -3.82283848882395238533e+00) (22, -1.30523046477036142043e+00) (4, -1.13762660695414102863e-01) (132, -1.94067315024357200937e-01) (52, -1.56826864827487366671e-01) (66, -1.22414679296874856496e-01) (136, 1.47137752212883665681e-01) (48, -1.66146311880879610223e-01) (29, -4.31059935314587683308e+00) (93, 4.51608569395691716863e-01) (36, 1.25902952903795162243e+00) (15, -6.58703868230477995738e-01) (110, 3.73771429872205462885e-01) (82, -4.79883197853076481909e-01) (59, 1.19344346647589949484e+00) (79, -2.88606368199027807364e+00) (23, 3.53737169413707239207e-02) (91, -1.54239085467185721434e+00) (32, -1.73364628166050804836e-01) (43, 1.99284713995442869239e-01) (135, -3.57958636734096891097e-01) (89, 1.50000000000000000000e+03) (77, -6.42242597144349502969e-01) (5, 2.64329077420469404913e-01) (20, 5.80418602631821989313e-01) (102, -2.12999492496650066897e-01) (71, -1.47110746847681728156e+00) (130, 3.69105725194735223571e-01) (67, -2.01374089928518823500e-01) (9, -4.85307636001016506899e-01) (47, -1.92013635594362269687e-01) (100, -5.18969615946677720331e+00) (124, 2.32513764522816690494e-01) (104, -1.61403253817285208260e-01) (58, -3.51847970533173473595e-02) (118, -2.05052584881756483348e-01) (62, 9.31681509368246563163e-01) (26, -4.11965657914507288329e-02) (119, -2.10519665564984220785e-01) (64, -1.29672296388840396775e-01) (73, -1.35535133475144675685e-01) (53, -3.47623196454688365709e-01) (134, 9.18804448985553467999e-01) (120, -1.23832698853511488646e-01) (76, -3.60528533872889744849e-01) (96, -1.44398316832761830497e-01) (10, 8.16040349390001806817e-01) (18, 1.50000000000000000000e+03) (49, -1.75561854000919198571e-01) (69, 7.90704326688603797990e-02) (55, -1.68004822447395341101e-01) (86, -4.10171096673215540562e+00) (2, -4.16896306442686367943e-02) (95, -1.98419375142095760767e-01) (105, 2.19850592951194162561e-01) (121, -1.76140559362469029114e-01) (123, 7.90371407543744713964e-02) (19, 1.50000000000000000000e+03) (114, 3.97893957232633599386e-01) (144, 2.01701408915062635474e-01) (85, -2.72747538805204636780e-01) (83, -7.40942945784460738068e-01) (129, 9.35921976184569265333e-03) (65, -6.46085035655422523782e-01) (145, -2.78101864097364093187e-01) (55, 3.99855150740176856772e-01) (135, 8.71523838813366147349e+00) (52, 5.96994047110866898898e-01) (48, 8.01864971289885319905e-01) (27, -5.92528286656405889232e+00) (142, 5.06763570904014915008e-01) (93, -3.47930087863528036962e+00) (125, 3.68045241693556568485e-01) (79, 2.40377191335463979982e-01) (58, 5.37544704594658862007e-01) (2, 4.91617863964308787761e-01) (22, 4.53369418460035955576e+00) (97, 4.21381166171671983633e-01) (21, -4.17640885391049909714e+00) (78, -7.95471102754633285770e-01) (5, -7.43275342808971256625e-02) (25, 4.59076254181084608685e-01) (23, 4.55979344266817354647e-01) (81, 2.86161205697188003594e-01) (32, 6.42756641942161310865e-01) (18, 1.50000000000000000000e+03) (112, -8.60397417296900179906e+00) (6, -8.84329138355872235167e-01) (69, 4.37777683282228102790e-01) (42, 5.02964878585666319566e+00) (136, 4.56455867216409127973e-01) (107, 1.38163323246340064010e+00) (77, 4.76566129945663496947e-01) (39, 5.60057802399180726383e+00) (45, 1.90420435877858764684e+01) (4, 4.18617446262255388234e-01) (16, -7.05116287330071811468e-01) (130, 2.54591282537527296981e+00) (94, 5.23121334900385370759e-01) (100, 1.94733908934918495959e+01) (127, 3.83735136377290619869e-01) (12, -2.64575834351960503810e+00) (96, 3.55764445910199622602e-01) (88, 1.50000000000000000000e+03) (132, 3.52608262118537074681e-01) (60, 3.15532005553645578111e-01) (14, -1.25418543733446008481e+00) (111, 1.65198493133434243241e+00) (84, -5.85855074927044694455e-01) (116, 2.97796284628795204785e-01) (103, 3.98881304116281920624e-01) (109, 4.02666270524853264767e-01) (35, 4.11450424249290236389e+00) (80, 2.48341431687601366107e-01) (139, 5.50836212741671715776e+00) (99, 3.17847500157576368096e+00) (120, 1.18486063561549404000e+01) (8, -3.32452250478767641351e-01) (19, 1.50000000000000000000e+03) (0, 5.37728073391991845398e+00) (121, 6.07569780907470669007e+00) (13, -1.85959075897301595592e-01) (141, 4.33972486597980822154e-01) (104, 5.11921213080728243483e-01) (36, 3.43464068829274449257e+00) (65, 1.65159053934598204494e-01) (131, 5.27313115848660696194e-01) (68, 4.74606145219726438533e-01) (7, -7.57680990950346106017e-02) (115, -7.58640937777870782988e-02) (76, 2.34355795444619874335e-02) (49, 7.25812392273972872836e-01) (137, 3.90241415193042062715e-01) (9, -2.36741909899918945293e-01) (73, 4.32544086117208848030e-01) (124, 5.30004543582472509300e-01) (1, 5.96545882292777385203e-01) (37, -1.92432820964431572364e+00) (123, 7.06732904235722103614e-01) (143, 5.63321132965383775115e-01) (31, 3.14602108297597105047e-01) (90, 1.50000000000000000000e+03) (41, 8.54252667888166339338e-01) (75, 4.64899099682198890804e-01) (82, 1.85990061591101052407e+00) (46, -2.97299197965456851733e+00) (56, 7.78544132762467588904e-01) (138, 2.62011039940851198082e+00) (63, 2.93542184086131530130e-01) (95, 4.54962725372348664177e-01) (28, 4.92098214908908496157e-02) (43, -1.21859177941863605632e+00) (145, 3.09646780430853640897e-01) (13, 2.87378687342426442086e-01) (18, 1.50000000000000000000e+03) (100, 2.90779551920675782828e-01) (132, -4.48754991873477962483e-03) (144, -2.57846937336877302105e-01) (102, 2.54282524520507702270e-01) (81, 4.12987587187104210340e-01) (85, -2.73567016491310724402e-02) (119, -1.49091760120626803943e-01) (45, 1.16620324449444967563e+00) (3, -7.68608153924419668090e-02) (121, -1.78394969615445042610e-01) (95, -2.95445096120024973396e-02) (66, -1.93444688003016312949e-01) (137, -2.28401368807300830799e-01) (110, -1.43921816879659242305e-01) (52, -1.32450942376594910099e-01) (34, 5.69840662617823873193e-02) (108, 5.25554134947364692820e-01) (23, -3.13364500861168238099e-01) (125, -5.61857674170080922949e-02) (39, 5.63102667706463333452e-01) (48, -2.22527412915907218949e-01) (30, -5.69280442850928491971e-01) (114, 6.07526639952296276803e-01) (96, -1.05050652830988328068e-01) (84, -1.14265612299125712825e-01) (80, 3.88321260233008669349e-01) (70, -2.53200608147874428600e-01) (122, -6.58438215716380115250e-02) (118, -7.19310406821736803007e-02) (72, -1.75046919124498684406e-01) (141, 2.55251519371459331675e-02) (36, 1.79692462877062780757e-01) (41, 1.08640973458106615546e+00) (33, -5.81503692200336097518e-02) (42, -8.57884552262346722351e-01) (56, -2.35275951534384353270e-01) (131, -2.53439669027144376390e-01) (138, -2.20518338227766591553e-01) (90, 1.50000000000000000000e+03) (101, -3.05833824283803767941e+00) (12, -1.36397296372354842608e-01) (71, 7.01020744583952581941e-01) (4, -1.63637238470228874032e-01) (107, 1.88525251428446427582e+00) (120, -1.50918030651651241536e-01) (40, 2.52683936326394542604e+00) (83, 2.63286730848233896385e-01) (27, -1.67382208232535334425e+00) (49, -5.72308774433470529575e-02) (69, -8.95695155979339130425e-02) (94, -1.70109020363981733315e-01) (61, 4.24904959273537802256e-02) (16, 8.77228172811287287836e-01) (67, 1.54735330428996897822e-01) (123, -2.19538516934119964930e-01) (50, -2.01709429769606152227e-01) (54, -2.02165530376404029012e-01) (117, -7.78585793082919863650e-01) (87, 1.00035510692857543269e-01) (78, -1.27317972924839861726e+00) (135, -7.96977650660249725689e-01) (113, 2.15074294798181986366e+00) (19, 1.50000000000000000000e+03) (35, 3.97024866073995719162e+00) (60, -1.54619017377881501352e-01) (93, -1.38740428973689877701e+00) (142, -1.74660772050823226431e-01) (92, -1.26702285121212887553e+00) (76, -5.31409474169623696760e-01) (28, 4.43831571084913889536e+00) (129, -1.70397567864099791501e-01) (15, 7.41789806109693361513e-02) (64, -1.62828184040063800309e-01) (0, 3.21894487771439363755e-01) (74, -1.49296086019062301808e-01) (116, -1.16371247795776816547e-01) (10, -3.57953400331944726620e-01) (106, -3.88987093475441803037e+00) (25, -2.40006261542514476304e-01) (136, -2.27039383367335700914e-01) (75, -1.00076989736406690712e-01) (14, 5.00004455343224907260e-01) (98, 2.88714594091272147569e-01) (21, -6.05635281051720486545e-01) (62, -1.28417690043843513159e+00) (145, -8.10323927930483300930e-02) (57, 1.94667216665833864297e-01) (97, 3.44821677481674082610e-01) (108, -5.22139251185377850639e-01) (115, 8.14723384579247089654e-01) (125, 4.02402543039826365856e-01) (137, 2.95399626974220508302e-01) (26, 2.36975303206967163883e-01) (18, 1.50000000000000000000e+03) (112, 1.36745310926354401992e+00) (13, 1.02580922119323569852e+00) (121, 4.87075542434090180688e-01) (132, 1.40088947850360190372e-01) (81, -1.34916691223729001692e+00) (139, 1.25878688580226016924e+00) (73, 1.79389226933681089626e-01) (68, 3.80542642848074985640e-01) (84, 1.22915906174248124039e+00) (61, 2.07671222356876239434e-01) (63, -1.36414094213309788906e+00) (16, -3.88403989288254647416e-01) (79, 8.29199583360566316870e-01) (14, 6.08751462822480715609e-01) (20, -7.25172468893931915224e-02) (88, 1.50000000000000000000e+03) (126, 1.88099207301890281041e-01) (144, 1.06921984395425551106e+00) (28, -5.11446594178876434711e+00) (23, 2.49046644546172230017e-01) (8, -6.43436845189551132052e-01) (143, 3.13989963518463033321e-01) (32, 3.74656728234941394096e-01) (47, -1.00565308334129044354e+00) (92, 4.54409506733053858429e-01) (12, 9.47038333612436472597e-02) (49, 4.20981344661845391375e-01) (114, -9.80421570123278351971e-01) (75, 1.08922245865299457956e-01) (43, 1.22212949705550877333e+00) (71, -3.59648307697195557253e+00) (106, 1.57260257521553614701e+00) (99, -5.34290549909298362330e-01) (98, -6.25907925006072729524e-01) (116, -5.55344519776565892499e+00) (50, 1.92229900322121394218e-01) (69, 3.27319869336413993288e-01) (53, 4.41435488544567267155e-01) (91, -7.05025465195232015070e-02) (122, 2.83401645794023715474e-01) (83, -3.77366978016104237525e+00) (45, 8.85907734960135639923e-01) (30, -7.72587174297695078451e-01) (42, -9.85654221116017137394e-02) (117, 1.21343072807351815001e+00) (109, 1.33840777009189593194e+00) (89, 1.50000000000000000000e+03) (142, 3.20107030729412600500e-01) (22, 4.76989863601358354828e+00) (39, -1.14928849067603833234e+00) (120, 2.46664894417367913659e-01) (96, 3.24569925127222602690e-01) (134, 4.66881358615917951838e-01) (65, 1.63042395926445116139e+00) (95, 3.67395833287906370401e-01) (87, -8.04465214374505910300e-01) (67, 1.41515290027593748645e-01) (31, 5.64757855538093100911e-01) (21, 2.21112907711778633457e-01) (141, 4.64379290824409263205e-01) (93, -1.47886809351424567543e-02) (62, 2.68122286172346679933e-01) (72, 2.13480711459490712922e-01) (35, 1.64442272933871724838e+00) (130, 1.38697093563353357482e+00) (24, 1.92391779380119087861e-01) (2, 1.80420622209322784046e-01) (131, 1.54688760606091407768e-01) (102, 5.88934570313056293678e-01) (101, -2.05671110952839159003e-01) (66, 5.47549478752001994586e-01) (111, 3.67043407539284993746e+00) (105, 4.00795371220891094577e-01) (123, 1.47334270536139899654e-01) (3, 2.61939754403910540770e-01) (76, 7.93285658467737381239e-02) (48, 3.43859981094128075441e-01) (60, 3.35863404973379575669e-01) (17, 1.50000000000000000000e+03) (145, -1.72871703234306721420e-02) (7, -2.67845206474210684178e+00) (24, 1.25411110416281590396e+00) (88, 1.50000000000000000000e+03) (85, 8.22200817305140607694e-01) (130, -1.93894100991840845349e-01) (90, 1.50000000000000000000e+03) (129, 2.26857691837352354325e-01) (108, -6.01215796050128647998e-01) (65, 4.89223026198765620354e-01) (117, 1.66693367628730482188e+00) (31, 2.34345918376108852677e-01) (67, 8.19712220318175921463e-01) (80, -3.66461517032537209548e-01) (61, 7.51903679312902029075e-01) (101, 1.04296352775140557800e-01) (17, 1.50000000000000000000e+03) (4, 3.54108474637534031970e-01) (79, 4.70708235095459281982e-01) (142, 2.36626949044433737557e-01) (131, 2.93284611621433766171e-01) (115, 8.60696761202318305628e-01) (105, 3.85178258909080362127e-01) (47, 4.60525946128307106520e-01) (36, -3.28199248219241457303e-01) (94, 6.61145124244075677034e-01) (39, -1.04006586628369723790e+00) (28, 1.33504521960498223621e-01) (70, -1.36746342829444117450e-01) (55, 2.22416165569474466590e-01) (127, 1.06466097426256914305e-01) (45, -1.71210547440045907086e-01) (33, 5.22935904795056361039e-01) (77, 5.86913639879954596168e-01) (120, 6.77215109572050222297e-01) (114, -3.94314933779427667648e-01) (16, -4.99066900728284468247e-01) (26, 1.16980710335278481615e+00) (62, 2.25301862422361165450e-01) (51, 5.73627439336693356609e-01) (121, 5.94500145921525668946e-01) (12, -1.69694960135369776744e-02) (139, -3.87182610828089690536e-01) (8, -2.15070718538126648411e-01) (48, 3.89155871490855898021e-01) (40, 5.16647892329632707487e-01) (2, 1.15168669534409251476e+00) (83, -1.25537131484678510240e+00) (60, 4.74555245462045249827e-01) (141, 3.24817036312383400354e-01) (116, 5.10459867227810004664e+00) (35, -1.83442036970691413345e+00) (95, 5.37006687838911811461e-01) (92, -2.40632670490601746627e-01) (143, 2.16468802607944682537e-01) (54, 1.18188021279384533613e-01) (135, -1.99766644589536479515e+00) (52, 4.98721601688380367090e-01) (104, 3.00929516305965982781e-01) (25, 4.67134342258563761696e-01) (50, 1.39763834893698146722e+00) (57, 2.72264857915955837964e-01) (91, 1.06980430130677195422e+00) (42, 1.15106850935942126024e-01) (19, 1.50000000000000000000e+03) (23, 2.53032722805319132409e-01) (22, 1.29227087932210243926e-01) (11, -1.11569667442407677305e-01) (109, 4.41962988984432036954e-01) (132, 4.00354471744721995830e-01) (21, 1.41604330953154966544e+00) (100, -5.62207970602708675956e-02) (103, 3.13530712362029118090e-01) (84, -5.94546609406702009082e-01) (37, 2.18796996348473334060e-02) (66, 2.44738908639506591580e-01) (81, 1.31376009012740768700e-01) (10, -1.09136784072491166420e-01) (128, 1.90647345315965971446e-01) (93, -7.69084920628935152231e-03) (14, 1.97320735130278229752e-01) (46, -2.49274263285408403945e+00) (133, 2.89740837214918667275e-01) (136, -2.81414485809397041383e-01) (29, 1.45269531442116694997e+00) (113, 1.78999650160131351662e+00) (98, -5.35840955795842677212e-01) (76, -5.49834016483036869261e-01) (145, 4.20527624881569417337e-01) (0, 6.11723283969712205987e-01) (5, 1.32822852837839477935e+00) (33, 2.09414056756137645365e+00) (54, -1.29413886508521813745e-01) (70, -1.65274345269492500821e-01) (89, 1.50000000000000000000e+03) (93, 3.02911204827452262833e-01) (128, -2.87413768596947782896e-01) (141, -2.18642042116315715727e-01) (12, -5.25233572367982293194e-01) (4, -1.62030547865699897647e-01) (60, -4.71074871101290815201e-01) (51, -2.90146868985027561738e-01) (111, 1.23892062323485721564e-01) (67, 3.55637356529781345493e-01) (86, 9.96638367381019185665e-01) (10, -6.47838659784898518446e-01) (41, -8.11545960420063439145e-01) (36, -5.32809888332556158552e-01) (134, -2.28812827874257246341e-01) (132, -1.67801324975804827533e-01) (107, 1.25716632488622792607e+00) (21, 8.51491263776138374020e-01) (142, -1.42519338712651433276e-01) (3, -2.41502207818337255585e-01) (108, 1.06388731946013215257e+00) (16, 4.92325336647147449032e-01) (114, 1.04944397244395370983e+00) (6, 2.23646475770932412486e-01) (115, 4.18448248786266763233e+00) (56, -5.07371256099527712102e-01) (92, -6.29268834779326602380e-01) (82, -2.00723391513885685011e-01) (135, -4.30758523314767438617e-01) (74, -2.93779007040300299547e-01) (65, -1.06582895838450625314e-01) (127, -1.37654255507924289104e-01) (138, -1.11616878806627073395e-01) (32, -1.33751434991319528844e-01) (7, 3.79877454109938672566e-01) (45, -5.46937809491668147643e+00) (18, 1.50000000000000000000e+03) (1, -2.53137451076676733841e-01) (137, -3.26221541623663013887e-01) (129, -6.98420989123937463461e-01) (71, -9.42631168006846431595e-01) (29, -5.31722029192215206450e+00) (15, 3.96516519709150916384e-01) (122, -2.27979062854434588736e-01) (106, -8.92322682009762613298e-01) (34, -8.85218047279338615674e-02) (59, -6.11974318946355233528e-01) (75, -2.46681169913192194221e-01) (19, 1.50000000000000000000e+03) (139, -6.03629568701048557777e-01) (77, 9.68734820772213997553e-03) (85, 7.65203629608967039744e-02) (79, 1.08844236306469263620e-01) (20, -1.83342390519789222303e+00) (94, -3.22065364548544730283e-01) (14, 1.03017073739446840541e+00) (37, -2.47420501132723236193e-02) (103, -3.75717740293316060374e-01) (27, 2.67221168993386336971e-03) (88, 1.50000000000000000000e+03) (123, -3.15774892256420136594e-01) (61, -2.29978393013325094207e-01) (43, -2.42141965505045603235e-01) (13, 4.90906742369186410713e-01) (57, -1.69697562081471936546e-01) (68, -4.76175312057939836841e-02) (72, -1.77467776712369879055e-01) (101, 1.06891815939548928682e+00) (81, 1.15574589010851033755e-01) (80, -1.66539213963795812434e-01) (116, 3.62769398934167652815e-01) (140, -1.14288906413512608706e-01) (64, -1.61136209809877550825e+00) (49, -1.83401104980039281189e-01) (112, 4.03499903874077747723e-01) (97, -2.43316758655466508499e-01) (8, 7.05038781434966566053e-01) (126, -1.72611994080271113905e-01) (63, -2.64113484579977786382e+00) (17, 1.50000000000000000000e+03) (76, 9.59833821433406453316e-01) (110, -4.08490789652064811843e-02) (145, -2.59938676390962852825e-01) (21, 2.06311459988370993202e+00) (47, -5.87167846283043748379e-01) (81, 1.03142062654932684107e-01) (42, 3.27566134667539854419e+00) (28, -3.69860196770248261799e+00) (132, 4.47913558390040822399e-01) (58, 4.88417980482118319063e-01) (83, 9.05485450807113068095e-02) (75, 3.70163276265756846506e-01) (111, -7.67771995755478053880e-01) (140, 2.63788218293211140786e-01) (84, -1.27654988596399965317e+00) (65, 1.58023140011167045893e-01) (138, 3.95069641115959990785e-01) (89, 1.50000000000000000000e+03) (43, 4.61404696283413517932e+00) (100, 1.01092894889842466188e-01) (69, 3.78152193572312278480e-01) (50, 2.84772892569469204815e+00) (72, 3.57179860371327595470e-01) (143, 4.06315062366625734391e-01) (113, -1.27576431405829771037e+00) (142, 3.14668592503640542901e-01) (109, 1.51892864915507630474e-01) (78, -1.35070703220589516391e+00) (126, 4.17216855088682225805e-01) (71, 4.80698582582840039379e+00) (25, 3.96637206910472661647e-01) (131, 3.93151836652325836763e-01) (99, 2.54528605884539027571e+00) (38, -5.38093724894042058082e+00) (73, 4.70974958212855066009e-01) (90, 1.50000000000000000000e+03) (33, 1.88907848355579388588e-01) (107, -1.62482199739134663963e-01) (67, 3.24156451264398071110e-01) (141, 3.31181154435639946154e-01) (121, -1.44441518843382743498e+00) (66, 3.40272092132150982824e-01) (87, 1.04278846270566050158e-01) (119, -5.91397527669377920390e-01) (94, 3.21616038147567839811e-01) (12, -4.40815894680867170763e+00) (104, 3.10684533793648798294e-01) (80, 8.53700704105022217805e-02) (108, 2.80532627861466066221e+00) (105, 2.38643268351322213050e-01) (7, 2.26285012945247415717e-01) (103, 4.86213278888362077090e-01) (35, 1.16493444466983686603e+00) (122, 6.07760067290802119544e-01) (37, 3.87041479965516277417e+00) (63, 2.25431318396792601533e+00) (52, 3.70636693325865351767e-01) (6, 1.31874673213570470232e+00) (95, 4.69501254665022127455e-01) (10, -9.31155264592157916326e-01) (118, -1.05591604071060873871e+00) (70, 5.79373002487698185448e-01) (31, 1.93765312458611005386e-01) (4, 2.94325968587588859826e-01) (26, 5.28572935042197156186e-01) (17, 1.50000000000000000000e+03) (60, 2.63607756477434174158e-01) (61, 2.01082197628928038835e-01) (16, -5.71509752004145110682e-01) (91, 5.56136517565405941177e-02) (93, 4.07208698818306658040e+00) (130, 3.52754764507474061208e-01) (128, 4.61950052822900303351e-01) (13, 9.09553737941787010524e-02) (30, 8.70642118920982532870e-01) (144, 5.37839631305939147587e-01) (137, 3.41130013917247454369e-01) (9, -3.69588887273836930181e-01) (32, 3.20953326114756243292e-01) (54, 3.95987726725359256985e-01) (1, 4.30473584807982589950e-01) (135, 1.60523858708435729348e+00) (106, 1.14029769051135021485e+00) (11, -7.95181122576080617881e-02) (115, -3.17079706220459955901e+00) (64, 2.64360007355241721783e+00) (68, 4.86458808414515830876e-01) (15, 3.91346790852419190720e-01) (92, 3.92989414099780365319e+00) (18, 1.50000000000000000000e+03) (145, 3.59382833730033823816e-01) (76, 9.86169931395477372682e-01) (98, 1.33297161137988756652e-01) (113, -1.44974578788114955019e-01) (110, -5.25581866395112839996e-02) (131, -3.11495113281578750453e-01) (112, 7.40162819908353419862e-01) (115, 1.76892362800926572497e-01) (106, 6.13225663771432949467e-01) (73, -2.09754725036044975539e-01) (99, -2.23332921206459156238e+00) (103, -4.39961294351181253504e-01) (142, -1.55627738138111482158e-01) (117, 4.55728685845886105632e-01) (46, -5.15553642722680294241e+00) (68, -2.13777361412950450692e-01) (51, -2.74950670628434035159e-01) (133, 1.07376181008447635357e+00) (100, -3.28241695122998056178e-01) (54, -1.13841259770176519983e-01) (34, -8.03853745305957295697e-02) (108, -3.92562856070470533876e-01) (59, -8.96302694444145869879e-02) (22, 1.89851139852249661821e+00) (120, -1.45327995316352986954e-01) (86, 3.85424346804659700982e-01) (88, 1.50000000000000000000e+03) (101, -1.17074289323084457237e+00) (82, -3.23944406761660586014e-01) (69, -2.41109385692696964743e-01) (116, -4.49409011831166937956e-01) (91, -1.65133929407591056870e-01) (92, 2.60076602344433860381e+00) (52, -2.17277365353252732705e-01) (107, -5.76014161579984640404e-01) (5, 9.27755617172246083157e-01) (118, -2.18585835277645634811e-01) (105, -9.28201763547892855222e-01) (36, -1.12994491674596431174e+00) (2, -1.28187574760040973176e-01) (12, 6.29178880482575531019e-01) (3, -1.75317259072530151620e-01) (7, 1.12461259625488763092e+00) (123, -2.76641321813587803824e-01) (80, -2.97550852955460964910e-01) (96, -2.60069861745094776939e-01) (26, -2.82281060446302800582e-01) (67, 5.46505215802663701918e-02) (38, -2.76644891744299625813e-01) (35, 1.55246726695613790348e+00) (138, -4.08780255708808604176e-01) (37, 6.08777914155047977784e-02) (20, 5.36348288586629196040e-01) (102, -2.16513659812345604649e-01) (124, -4.04293943830202007206e-01) (32, -7.76808356850150066863e-02) (128, -2.07931595072187447304e-01) (50, -2.06784376333689234873e-01) (41, 1.41963985804374193123e+00) (109, 2.93677129881456167038e-01) (135, -7.12837891515767485551e-01) (126, -2.51275892893840946396e-01) (77, 6.58667175698388618343e-02) (57, -3.18806241607306861674e-01) (111, -1.16322473502631335007e-01) (130, -1.22903847370711173659e-02) (18, 1.50000000000000000000e+03) (61, -8.53632266900126307485e-02) (93, -6.30776308555883069573e-01) (119, -2.69201128657324650906e-01) (33, -2.70996311189860353275e-02) (56, -1.70223575053310482996e-01) (29, -2.72181957753795655819e+00) (97, -9.29563821830452496897e-02) (64, -7.11985062403239332696e-01) (49, -2.39542596388110984318e-01) (23, -3.15465654063211642377e-01) (9, -3.43919916432757349911e-02) (66, -6.07464271420308898897e-01) (14, -1.62685031180888817204e+00) (25, -4.27563291287999969192e-01) (42, 4.67931850739665353145e-02) (71, 3.44253303576581659584e+00) (53, -1.04910782742032707149e-01) (11, -6.46771397297570965756e-02) (28, -1.94686020910533286177e+00) (78, 7.28758079686384063756e-01) (136, -2.26590501219923440290e-01) (145, 3.62202084439978200248e-01) (35, -1.57139759605409246035e+00) (46, 4.43371652690819684217e-01) (50, -5.35275358321034233633e-01) (102, -2.60430653964813296763e-01) (57, -3.04925333899919492886e-01) (31, -6.59865639608224613388e-02) (10, -3.72067384589212027390e-02) (108, 2.17578333460116635223e+00) (4, -3.29656274766117363129e-01) (63, -4.57646514042330476713e-01) (37, -1.48333490118062161223e+00) (67, -1.55965924230027558339e-01) (111, 2.48154142564624358158e+00) (76, 5.66488549256618179051e-01) (59, -5.14051589040168233069e-01) (52, -2.88241548883018172678e-01) (6, 6.99618715622584597114e-01) (139, -1.23330549566765007574e-01) (115, 1.30905799101226960612e-01) (120, -2.59312495002666731914e-01) (22, 2.68865005208488261346e+00) (7, 3.15827452548713749625e-01) (81, -2.03820097324682336648e+00) (112, 2.50420102754990936411e-01) (131, -7.72977460500409052635e-01) (141, -2.80195229993026706516e-01) (64, -4.93213109032240526464e-01) (142, -1.76608231049773523047e-01) (42, 4.10243390088168735641e-01) (144, -3.74560325084460132850e-01) (3, -6.84195517364251992731e-01) (14, 8.88897074624163008316e-01) (69, -1.39579722021593383152e-01) (45, -7.79288048685179646213e-01) (85, 1.23498307005665802771e-01) (116, 6.11848553363985026010e-01) (84, 5.07530457666781287251e-01) (68, -1.34158731951590698417e-01) (72, -2.46902928725367343255e-01) (136, -3.05976984311599642385e-01) (1, -2.55777961006371845620e-01) (99, 7.29347251079084046843e-01) (98, 4.12918893024003530456e-01) (19, 1.50000000000000000000e+03) (105, -1.73289314608985500765e-01) (100, 3.48309693858268654143e-01) (17, 1.50000000000000000000e+03) (75, -2.05987665073218945144e-01) (104, -1.23424428686126574917e-01) (88, 1.50000000000000000000e+03) (117, 1.20263241033558454518e+00) (16, 4.07858547439122920419e-01) (93, 5.59633828372708741483e+00) (119, -2.36043177584294661120e-01) (134, 4.58428714362728695342e-01) (135, -5.62465022762108968202e-01) (54, -1.37248870873757727873e-01) (8, 6.63469341817473856615e-01) (110, 1.29333020566210410429e+00) (27, -4.57672522718354929383e-02) (143, -2.50094536241215747996e-01) (74, -3.40543064648621107704e-01) (44, 2.53119323931660789029e+00) (32, -5.09333668561024674459e-02) (79, 3.16897483135089474970e-01) (123, -1.19916342685122168099e+00) (126, -1.45845153310903780097e-01) (80, -1.53231424519148884400e+00) (51, -4.13958742063900486663e-01) (41, -2.10152959703647779222e+00) (78, 1.00127740607607249035e-01) (70, -2.82473868848671871845e-01) (66, -2.62593824017459009923e-01) (121, -3.56909653989283259801e-01) (18, 1.50000000000000000000e+03) (128, -1.42819993064370626135e-01) (118, -3.94650397846232958710e-01) (92, -1.68781991290680694062e-01) (95, -2.05062885533896149814e-01) (90, 1.50000000000000000000e+03) (132, -1.78820970941494239437e-01) (91, -1.80690492439497835120e-01) (106, 8.45104191790405634421e-01) (62, -1.68666911191101415168e-01) (73, -3.10736045847280095700e-01) (21, -1.40857730187814023104e+00) (20, 2.13304417433188731046e-01) (145, -7.64229381135584917573e-02) (91, 1.38540494718392537266e+00) (121, 3.76380509023593212703e-01) (9, 2.71954321285138266029e-02) (77, -3.68231762142218060907e-02) (125, 4.07978913709794610565e-01) (52, 2.20121471612395869233e-01) (73, 2.53330759492147394862e-01) (131, 3.34155749359306974977e-01) (137, 4.60775514308752742743e-01) (7, -5.71048504435686421488e+00) (33, 5.74903230163609668679e-01) (98, 2.17786928993604567140e+00) (36, -9.59779034623116977798e-01) (120, 2.84588870617117961626e-01) (63, 3.36898029620415595531e-01) (113, -1.50906732190001835470e-01) (99, 6.66439636408805480272e+00) (109, 4.74540420375789806506e-01) (66, 2.05465012296526139401e-01) (136, 3.74793035476486291468e-01) (133, 6.60795433497705642090e-01) (2, 4.01454427735137731048e-01) (39, 3.34344997108530328500e-01) (95, 3.02757422973516709952e-01) (79, 5.24104889000035715357e-03) (123, 2.71958041823507079560e-01) (49, 3.32039335533962420843e-01) (112, 1.00939757212486069804e+00) (51, 4.11206858313743151001e-01) (128, 3.60898066629631752988e-01) (40, -4.56410126233433244280e-01) (21, 5.29240133917150190612e-01) (129, 4.10930490156406647007e-01) (85, -3.69851248716277780648e-02) (142, 3.22278444942564412656e-01) (89, 1.50000000000000000000e+03) (12, 3.86851111604681122125e-02) (72, 4.23033996876118756347e-01) (141, 4.36489266017577481893e-01) (119, 2.43639860146833031607e-01) (11, 9.50612334448770052164e-03) (47, 2.65739871454530651729e-01) (23, 2.38271744894173770346e-01) (13, -1.04134840247844184802e+00) (29, -7.39965042375101272887e-02) (75, 3.78247477171245627403e-01) (135, -1.76380591096233851900e+00) (65, 9.41721590995932555934e-02) (69, 4.55764051172855122473e-01) (130, -1.68559529860621859498e+00) (138, 3.49125270420848510255e-01) (134, 5.03505112192860093678e-01) (118, 3.77503489841744532818e-01) (110, -2.65529322869329231782e-01) (107, -2.74088133207641804212e-01) (60, 3.61176894046450425169e-01) (5, -2.08138189016426389255e-01) (115, 5.76602042447522444846e-01) (14, 1.14485290506979725533e-01) (90, 1.50000000000000000000e+03) (126, 2.17361289780731659071e-01) (3, 2.45261775539131143820e-01) (86, 3.89645364576064523465e-01) (139, -1.06226935688028389926e+00) (103, 3.69000227390183899168e-01) (116, -2.65272069406812194270e-01) (32, 2.97389428071396899611e-01) (124, 3.00938521064175790176e-01) (84, 2.36597467198309346914e-01) (93, 1.64473105975847348759e-02) (0, 2.39061407723990454466e-01) (44, -2.80914861256656211985e-01) (61, 2.65713254395551601306e+00) (87, -3.30476400137707737592e-01) (70, 3.87781351195001788845e-01) (8, -1.82173516477052066520e+00) (81, 1.00567936083811759751e+00) (18, 1.50000000000000000000e+03) (94, 2.69494438143561276799e-01) (4, 3.32165742870706770518e-01) (43, -1.74865989902633933717e+00) (108, 2.71768372489886500531e+00) (57, 3.45311364261251863006e-01) (58, 3.93751779478734575957e-01) (80, 7.56146236322536191565e-01) (54, 1.99334396007640413107e-01) (100, 2.18374212248952348503e+00) (176, -9.25171523609490537021e-02) (146, -1.28165052676340485149e+00) (147, 7.16755892438456054805e-01) (148, 2.46159813812503669439e+00) (149, 1.72324249219809932931e+00) (150, -3.91475579582156951730e-01) (151, 1.44472801626964253430e+00) (152, 1.15407519898124832913e+00) (153, 1.27011015449460784588e+00) (154, -3.34544425342966356141e-01) (155, -1.13404410608598471555e+00) (156, 1.53137973879876199135e+00) (157, 4.42586240745079406711e-01) (158, 1.07258929032583116836e+00) (159, -8.27794566251993102490e-01) (160, 8.24619691528584275453e-01) (161, -2.05887616957734803647e-01) (162, 1.70489522395691261991e+00) (163, 1.52163875616788102363e+00) (164, 1.60053199654676991948e+00) (165, -2.16302904831620157466e+00) (166, -6.74774023824616375755e-01) (167, -1.34514648331308750429e+00) (168, 9.17708385547640892455e-01) (169, 1.69813303627140221863e+00) (170, 9.84179883932748245101e-01) (171, 3.68526695981347962583e-01) (172, -2.85370248859673769637e-01) (173, 1.38484449873129800146e+00) (174, 1.79425513203011277596e+00) (175, 7.64022944313141771921e-01) 
